svm_type c_svc
kernel_type rbf
gamma 0.0454545
nr_class 2
total_sv 194
rho 1.36772
label 1 0
probA -1.75755
probB 0.154277
nr_sv 91 103
SV
100 1:0.18488373 2:0 3:1 4:0 5:0 6:0 7:1 8:1 9:1 10:1 11:0 12:0 13:0 14:0 15:0 16:0 17:0 18:0 19:1 20:0 21:0 22:0 
100 1:0.12516694 2:0 3:1 4:0 5:0 6:0 7:1 8:1 9:1 10:1 11:0 12:0 13:0 14:0 15:0 16:0 17:0 18:0 19:1 20:0 21:0 22:0 
17.46035060681269 1:0.89262606 2:0 3:0 4:1 5:0 6:0 7:1 8:0 9:1 10:1 11:0 12:0 13:0 14:1 15:0 16:0 17:0 18:0 19:1 20:0 21:1 22:0 
8.330000812889294 1:0.84901574 2:0 3:1 4:0 5:0 6:0 7:1 8:1 9:1 10:1 11:0 12:0 13:0 14:0 15:0 16:0 17:0 18:0 19:1 20:0 21:1 22:0 
100 1:0.84895511 2:0 3:0 4:1 5:0 6:0 7:1 8:1 9:1 10:1 11:0 12:0 13:0 14:0 15:0 16:0 17:0 18:0 19:1 20:0 21:1 22:0 
68.30163091980417 1:0.81940995 2:0 3:0 4:1 5:1 6:0 7:1 8:0 9:1 10:1 11:0 12:0 13:0 14:0 15:0 16:0 17:0 18:0 19:1 20:0 21:0 22:0 
37.2531725669456 1:0.83156827 2:0 3:0 4:1 5:0 6:0 7:1 8:1 9:1 10:1 11:0 12:1 13:1 14:0 15:0 16:0 17:0 18:0 19:1 20:1 21:0 22:0 
29.84091717999193 1:0.9271843 2:0 3:0 4:1 5:1 6:0 7:1 8:1 9:1 10:1 11:0 12:0 13:0 14:1 15:0 16:0 17:0 18:0 19:1 20:0 21:0 22:0 
100 1:0.67625385 2:0 3:0 4:1 5:1 6:0 7:1 8:0 9:1 10:1 11:0 12:0 13:1 14:0 15:0 16:0 17:0 18:0 19:1 20:0 21:0 22:0 
95.31823795157322 1:0.79058736 2:0 3:0 4:1 5:1 6:0 7:1 8:1 9:1 10:1 11:0 12:0 13:0 14:0 15:0 16:0 17:0 18:0 19:1 20:0 21:0 22:0 
2.942240559432407 1:0.80772135 2:0 3:0 4:1 5:1 6:0 7:1 8:0 9:1 10:1 11:0 12:0 13:1 14:0 15:0 16:0 17:0 18:0 19:1 20:0 21:0 22:0 
100 1:0.79058736 2:0 3:0 4:1 5:1 6:0 7:1 8:1 9:1 10:1 11:0 12:0 13:0 14:0 15:0 16:0 17:0 18:0 19:1 20:0 21:0 22:0 
98.85341620403932 1:0.9271843 2:0 3:0 4:1 5:1 6:0 7:1 8:1 9:1 10:1 11:0 12:0 13:0 14:1 15:0 16:0 17:0 18:0 19:1 20:0 21:0 22:0 
100 1:0.18488373 2:0 3:1 4:0 5:0 6:0 7:1 8:1 9:1 10:1 11:0 12:0 13:0 14:0 15:0 16:0 17:0 18:0 19:1 20:0 21:0 22:0 
100 1:0.14289459 2:0 3:1 4:0 5:0 6:0 7:1 8:1 9:1 10:1 11:0 12:0 13:0 14:0 15:0 16:0 17:0 18:0 19:1 20:0 21:0 22:0 
15.04940738806138 1:0.9733707 2:0 3:0 4:1 5:0 6:0 7:1 8:0 9:1 10:1 11:0 12:0 13:1 14:0 15:0 16:0 17:1 18:0 19:1 20:0 21:0 22:0 
28.38521189171744 1:0.78426679 2:0 3:1 4:0 5:0 6:0 7:1 8:1 9:1 10:1 11:0 12:0 13:0 14:0 15:0 16:0 17:1 18:0 19:1 20:0 21:0 22:0 
65.68254239894426 1:0.32333691 2:0 3:0 4:1 5:1 6:0 7:1 8:1 9:1 10:1 11:0 12:0 13:0 14:0 15:0 16:0 17:1 18:0 19:0 20:1 21:0 22:0 
24.33274376801434 1:0.86685464 2:0 3:0 4:1 5:0 6:0 7:1 8:1 9:1 10:1 11:0 12:0 13:1 14:0 15:0 16:0 17:0 18:0 19:1 20:0 21:0 22:0 
100 1:0.7648141 2:0 3:1 4:0 5:0 6:0 7:1 8:1 9:1 10:0 11:0 12:0 13:1 14:0 15:0 16:0 17:0 18:0 19:0 20:1 21:0 22:0 
100 1:0.14967523 2:0 3:1 4:0 5:0 6:0 7:1 8:0 9:1 10:1 11:0 12:0 13:0 14:1 15:0 16:0 17:0 18:0 19:1 20:0 21:0 22:0 
100 1:0.79404687 2:0 3:1 4:0 5:0 6:0 7:1 8:0 9:1 10:1 11:0 12:0 13:0 14:0 15:0 16:0 17:0 18:0 19:1 20:0 21:0 22:0 
100 1:0.11329864 2:0 3:0 4:1 5:1 6:0 7:1 8:0 9:1 10:1 11:0 12:0 13:0 14:0 15:0 16:0 17:0 18:0 19:0 20:1 21:0 22:0 
100 1:0.0096960368 2:0 3:1 4:0 5:0 6:0 7:1 8:1 9:1 10:1 11:0 12:0 13:1 14:0 15:0 16:0 17:0 18:0 19:1 20:0 21:0 22:0 
51.03366369951787 1:0.93040563 2:0 3:0 4:1 5:1 6:0 7:1 8:0 9:1 10:1 11:0 12:0 13:1 14:1 15:0 16:0 17:0 18:0 19:1 20:0 21:0 22:0 
100 1:0.48624549 2:0 3:1 4:0 5:0 6:0 7:1 8:1 9:1 10:1 11:0 12:0 13:0 14:0 15:0 16:0 17:0 18:0 19:1 20:0 21:0 22:0 
100 1:0.28580285 2:0 3:1 4:0 5:0 6:0 7:1 8:1 9:1 10:1 11:0 12:0 13:1 14:0 15:0 16:0 17:0 18:0 19:1 20:0 21:0 22:0 
100 1:0.79058736 2:0 3:0 4:1 5:1 6:0 7:1 8:1 9:1 10:1 11:0 12:0 13:0 14:0 15:0 16:0 17:0 18:0 19:1 20:0 21:0 22:0 
100 1:0.79058736 2:0 3:0 4:1 5:1 6:0 7:1 8:1 9:1 10:1 11:0 12:0 13:0 14:0 15:0 16:0 17:0 18:0 19:1 20:0 21:0 22:0 
100 1:0.28580285 2:0 3:1 4:0 5:0 6:0 7:1 8:1 9:1 10:1 11:0 12:0 13:1 14:0 15:0 16:0 17:0 18:0 19:1 20:0 21:0 22:0 
100 1:0.48624549 2:0 3:1 4:0 5:0 6:0 7:1 8:1 9:1 10:1 11:0 12:0 13:0 14:0 15:0 16:0 17:0 18:0 19:1 20:0 21:0 22:0 
99.155569108786 1:0.79058736 2:0 3:0 4:1 5:1 6:0 7:1 8:1 9:1 10:1 11:0 12:0 13:0 14:0 15:0 16:0 17:0 18:0 19:1 20:0 21:0 22:0 
100 1:0.48624549 2:0 3:1 4:0 5:0 6:0 7:1 8:1 9:1 10:1 11:0 12:0 13:0 14:0 15:0 16:0 17:0 18:0 19:1 20:0 21:0 22:0 
100 1:0.8140301 2:0 3:0 4:1 5:1 6:0 7:1 8:0 9:1 10:1 11:0 12:0 13:0 14:0 15:0 16:0 17:0 18:0 19:1 20:0 21:0 22:0 
100 1:0.022100664 2:0 3:1 4:0 5:0 6:0 7:1 8:0 9:1 10:1 11:0 12:0 13:1 14:0 15:0 16:0 17:0 18:0 19:1 20:0 21:0 22:0 
100 1:0.59930001 2:0 3:1 4:0 5:0 6:0 7:1 8:1 9:1 10:1 11:0 12:0 13:0 14:0 15:0 16:0 17:0 18:0 19:0 20:0 21:1 22:0 
9.209164428277646 1:0.5713572 2:0 3:1 4:0 5:0 6:0 7:1 8:0 9:1 10:1 11:0 12:0 13:0 14:1 15:1 16:0 17:0 18:0 19:0 20:0 21:1 22:0 
100 1:0.73095009 2:0 3:1 4:0 5:0 6:0 7:1 8:0 9:1 10:1 11:0 12:0 13:0 14:0 15:0 16:0 17:0 18:0 19:0 20:0 21:1 22:0 
100 1:0.16081447 2:0 3:0 4:1 5:1 6:0 7:0 8:1 9:1 10:1 11:0 12:0 13:0 14:0 15:0 16:0 17:0 18:0 19:0 20:0 21:0 22:1 
0.3736146366510437 1:0 2:0 3:1 4:1 5:1 6:0 7:1 8:0 9:1 10:0 11:0 12:0 13:0 14:0 15:0 16:0 17:0 18:0 19:0 20:0 21:0 22:0 
0.1364005344598407 1:0.92215921 2:0 3:1 4:0 5:0 6:0 7:1 8:1 9:1 10:1 11:0 12:0 13:0 14:1 15:0 16:0 17:0 18:0 19:0 20:0 21:1 22:0 
100 1:0.77550043 2:0 3:0 4:1 5:0 6:0 7:0 8:1 9:1 10:0 11:0 12:0 13:0 14:0 15:0 16:0 17:0 18:0 19:0 20:0 21:1 22:1 
1.304380809917451 1:0.50064388 2:0 3:0 4:1 5:0 6:0 7:0 8:1 9:1 10:1 11:0 12:0 13:0 14:0 15:0 16:0 17:0 18:0 19:0 20:0 21:1 22:1 
19.0349891586048 1:0.81148154 2:0 3:1 4:0 5:0 6:1 7:1 8:0 9:1 10:0 11:0 12:0 13:0 14:0 15:0 16:0 17:0 18:0 19:0 20:0 21:1 22:0 
100 1:0.32579534 2:0 3:0 4:1 5:0 6:0 7:0 8:1 9:1 10:0 11:0 12:0 13:0 14:0 15:0 16:0 17:0 18:0 19:0 20:0 21:0 22:1 
48.87368274809478 1:0.16158978 2:0 3:1 4:0 5:0 6:0 7:1 8:0 9:1 10:1 11:0 12:1 13:1 14:0 15:0 16:0 17:0 18:0 19:1 20:0 21:0 22:0 
100 1:0.8140301 2:0 3:0 4:1 5:1 6:0 7:1 8:0 9:1 10:1 11:0 12:0 13:0 14:0 15:0 16:0 17:0 18:0 19:1 20:0 21:0 22:0 
100 1:0.70571063 2:0 3:0 4:1 5:1 6:0 7:1 8:1 9:1 10:1 11:0 12:0 13:0 14:0 15:0 16:0 17:0 18:0 19:0 20:0 21:1 22:0 
100 1:0 2:0 3:1 4:1 5:1 6:0 7:1 8:1 9:1 10:0 11:0 12:0 13:0 14:0 15:0 16:0 17:0 18:0 19:0 20:0 21:0 22:0 
100 1:0.28580285 2:0 3:1 4:0 5:0 6:0 7:1 8:1 9:1 10:1 11:0 12:0 13:1 14:0 15:0 16:0 17:0 18:0 19:1 20:0 21:0 22:0 
30.59111985322814 1:0 2:0 3:1 4:1 5:1 6:0 7:1 8:0 9:1 10:0 11:0 12:0 13:0 14:0 15:0 16:0 17:0 18:0 19:0 20:0 21:0 22:0 
97.93624782536652 1:0.92215921 2:0 3:1 4:0 5:0 6:0 7:1 8:1 9:1 10:1 11:0 12:0 13:0 14:1 15:0 16:0 17:0 18:0 19:0 20:0 21:1 22:0 
4.318614060950425 1:0.70088749 2:0 3:0 4:1 5:1 6:0 7:0 8:0 9:1 10:1 11:0 12:0 13:1 14:0 15:0 16:0 17:0 18:0 19:0 20:0 21:1 22:0 
100 1:0 2:0 3:1 4:1 5:1 6:0 7:1 8:1 9:1 10:0 11:0 12:0 13:0 14:0 15:0 16:0 17:0 18:0 19:0 20:0 21:0 22:0 
100 1:0.71052854 2:0 3:0 4:1 5:1 6:0 7:1 8:1 9:1 10:1 11:0 12:0 13:0 14:0 15:0 16:0 17:0 18:0 19:0 20:0 21:1 22:0 
100 1:0 2:0 3:1 4:1 5:1 6:0 7:1 8:1 9:1 10:0 11:0 12:0 13:0 14:0 15:0 16:0 17:0 18:0 19:0 20:0 21:0 22:0 
100 1:0.81583 2:0 3:0 4:1 5:1 6:0 7:0 8:1 9:1 10:1 11:0 12:0 13:0 14:0 15:0 16:0 17:0 18:0 19:0 20:0 21:1 22:0 
100 1:0.80191269 2:0 3:0 4:1 5:1 6:0 7:0 8:1 9:1 10:1 11:0 12:0 13:0 14:0 15:0 16:0 17:0 18:0 19:0 20:0 21:1 22:0 
100 1:0 2:0 3:1 4:1 5:1 6:0 7:1 8:1 9:1 10:1 11:0 12:0 13:0 14:0 15:0 16:0 17:0 18:0 19:0 20:0 21:0 22:0 
100 1:0.68402505 2:0 3:0 4:1 5:1 6:0 7:0 8:0 9:1 10:1 11:0 12:0 13:1 14:0 15:0 16:0 17:0 18:0 19:0 20:0 21:1 22:0 
100 1:0.14967523 2:0 3:1 4:0 5:0 6:0 7:1 8:0 9:1 10:1 11:0 12:0 13:0 14:1 15:0 16:0 17:0 18:0 19:1 20:0 21:0 22:0 
100 1:0.25155384 2:0 3:1 4:0 5:0 6:0 7:1 8:1 9:1 10:1 11:0 12:0 13:0 14:0 15:0 16:0 17:0 18:0 19:1 20:0 21:0 22:0 
100 1:0.1430386 2:0 3:0 4:1 5:1 6:0 7:1 8:1 9:1 10:1 11:0 12:0 13:0 14:0 15:0 16:0 17:0 18:0 19:0 20:1 21:0 22:0 
43.06116705973827 1:0.78664355 2:0 3:0 4:1 5:1 6:0 7:1 8:0 9:1 10:1 11:0 12:0 13:1 14:0 15:0 16:0 17:0 18:0 19:0 20:1 21:0 22:0 
100 1:0.0096960368 2:0 3:1 4:0 5:0 6:0 7:1 8:1 9:1 10:1 11:0 12:0 13:1 14:0 15:0 16:0 17:0 18:0 19:1 20:0 21:0 22:0 
100 1:0.15887356 2:0 3:1 4:0 5:0 6:0 7:1 8:1 9:1 10:1 11:0 12:0 13:0 14:0 15:0 16:0 17:0 18:0 19:1 20:0 21:0 22:0 
100 1:0.28580285 2:0 3:1 4:0 5:0 6:0 7:1 8:0 9:1 10:1 11:0 12:0 13:1 14:0 15:0 16:0 17:0 18:0 19:1 20:0 21:0 22:0 
100 1:0.78426679 2:0 3:1 4:0 5:0 6:0 7:1 8:1 9:1 10:1 11:0 12:0 13:0 14:0 15:0 16:0 17:0 18:0 19:1 20:0 21:0 22:0 
100 1:0.1430386 2:0 3:0 4:1 5:1 6:0 7:1 8:1 9:1 10:1 11:0 12:0 13:0 14:0 15:0 16:0 17:0 18:0 19:0 20:1 21:0 22:0 
89.63890419130404 1:0.81940995 2:0 3:0 4:1 5:1 6:0 7:1 8:1 9:0 10:0 11:0 12:0 13:0 14:0 15:0 16:0 17:0 18:0 19:1 20:0 21:0 22:0 
100 1:0.79901453 2:0 3:1 4:0 5:0 6:0 7:1 8:1 9:0 10:0 11:0 12:0 13:0 14:0 15:0 16:0 17:0 18:0 19:1 20:0 21:0 22:0 
80.60744688237889 1:0.78844357 2:0 3:0 4:1 5:0 6:0 7:1 8:0 9:0 10:0 11:0 12:0 13:0 14:0 15:0 16:0 17:0 18:0 19:0 20:1 21:0 22:0 
76.26903233845239 1:0.8890262 2:0 3:0 4:1 5:1 6:0 7:1 8:0 9:0 10:0 11:0 12:0 13:0 14:0 15:0 16:0 17:0 18:0 19:1 20:0 21:0 22:0 
100 1:0.7637066 2:0 3:0 4:1 5:1 6:0 7:1 8:0 9:0 10:0 11:0 12:0 13:0 14:0 15:0 16:0 17:0 18:0 19:1 20:0 21:1 22:0 
100 1:0.83070469 2:0 3:0 4:1 5:1 6:0 7:1 8:1 9:0 10:0 11:0 12:0 13:0 14:1 15:0 16:0 17:0 18:0 19:1 20:0 21:0 22:0 
100 1:0.81940995 2:0 3:0 4:1 5:1 6:0 7:1 8:1 9:0 10:0 11:0 12:0 13:0 14:0 15:0 16:0 17:0 18:0 19:1 20:0 21:0 22:0 
100 1:0.81940995 2:0 3:0 4:1 5:1 6:0 7:1 8:1 9:0 10:0 11:0 12:0 13:0 14:0 15:0 16:0 17:0 18:0 19:1 20:0 21:0 22:0 
100 1:0.79901453 2:0 3:0 4:1 5:1 6:0 7:1 8:1 9:0 10:0 11:0 12:0 13:0 14:0 15:0 16:0 17:0 18:0 19:1 20:0 21:0 22:0 
100 1:0.79901453 2:0 3:0 4:1 5:1 6:0 7:1 8:1 9:0 10:0 11:0 12:0 13:0 14:0 15:0 16:0 17:0 18:0 19:1 20:0 21:0 22:0 
100 1:0.81940995 2:0 3:0 4:1 5:1 6:0 7:1 8:1 9:0 10:0 11:0 12:0 13:0 14:0 15:0 16:0 17:0 18:0 19:1 20:0 21:0 22:0 
100 1:0.88751005 2:0 3:0 4:1 5:1 6:0 7:1 8:0 9:0 10:0 11:0 12:0 13:0 14:0 15:0 16:0 17:0 18:0 19:1 20:0 21:0 22:0 
100 1:0.85346 2:0 3:0 4:1 5:1 6:0 7:1 8:0 9:0 10:0 11:0 12:0 13:0 14:0 15:0 16:0 17:0 18:0 19:1 20:0 21:0 22:0 
29.41537289007032 1:0.82872004 2:0 3:1 4:0 5:0 6:0 7:1 8:0 9:1 10:1 11:0 12:0 13:0 14:0 15:0 16:0 17:0 18:0 19:1 20:0 21:0 22:0 
71.07983257763412 1:0.74748175 2:0 3:0 4:1 5:1 6:0 7:1 8:1 9:1 10:0 11:0 12:0 13:1 14:0 15:0 16:0 17:1 18:0 19:1 20:0 21:0 22:0 
100 1:0.83470239 2:0 3:1 4:0 5:0 6:0 7:1 8:1 9:1 10:1 11:0 12:0 13:0 14:0 15:0 16:0 17:0 18:0 19:1 20:0 21:0 22:0 
100 1:0.20727969 2:0 3:0 4:1 5:1 6:0 7:1 8:1 9:1 10:1 11:0 12:0 13:0 14:0 15:0 16:0 17:0 18:0 19:1 20:0 21:0 22:0 
46.71007981124806 1:0.77887856 2:0 3:0 4:1 5:0 6:0 7:1 8:0 9:1 10:1 11:0 12:0 13:0 14:0 15:0 16:0 17:0 18:0 19:0 20:1 21:0 22:0 
100 1:0.13741119 2:0 3:1 4:0 5:0 6:0 7:1 8:1 9:1 10:1 11:0 12:0 13:0 14:0 15:0 16:0 17:0 18:0 19:1 20:0 21:0 22:0 
100 1:0.74748175 2:0 3:1 4:0 5:0 6:0 7:1 8:0 9:1 10:1 11:0 12:0 13:0 14:0 15:0 16:0 17:0 18:0 19:1 20:0 21:0 22:0 
100 1:0.81484915 2:0 3:1 4:0 5:0 6:0 7:1 8:1 9:1 10:1 11:0 12:0 13:0 14:0 15:0 16:0 17:0 18:0 19:0 20:1 21:0 22:0 
100 1:0.15887356 2:0 3:1 4:0 5:0 6:0 7:1 8:0 9:1 10:1 11:0 12:0 13:0 14:1 15:0 16:0 17:0 18:0 19:1 20:0 21:0 22:0 
-3.980372081632307 1:0.83978356 2:0 3:1 4:0 5:0 6:0 7:1 8:1 9:1 10:1 11:0 12:0 13:1 14:0 15:0 16:0 17:0 18:0 19:0 20:1 21:0 22:0 
-100 1:0.86322252 2:0 3:1 4:0 5:0 6:0 7:1 8:1 9:1 10:1 11:0 12:0 13:0 14:0 15:0 16:0 17:0 18:0 19:0 20:1 21:0 22:0 
-21.65204262637792 1:0.72626579 2:1 3:1 4:0 5:0 6:0 7:1 8:1 9:1 10:1 11:0 12:0 13:1 14:0 15:0 16:0 17:1 18:0 19:1 20:0 21:0 22:0 
-6.703768835544159 1:0.037529789 2:0 3:1 4:0 5:0 6:0 7:1 8:1 9:1 10:1 11:0 12:0 13:1 14:0 15:0 16:0 17:1 18:0 19:0 20:0 21:0 22:1 
-1.633802139992249 1:0.070765692 2:0 3:0 4:1 5:0 6:0 7:1 8:1 9:1 10:0 11:0 12:0 13:1 14:0 15:0 16:0 17:0 18:0 19:0 20:0 21:0 22:1 
-48.98566567396712 1:0.83458355 2:0 3:1 4:0 5:0 6:0 7:1 8:1 9:1 10:1 11:0 12:0 13:0 14:0 15:0 16:0 17:0 18:0 19:0 20:1 21:0 22:0 
-40.58503081009761 1:0.68293615 2:0 3:0 4:1 5:0 6:0 7:1 8:1 9:1 10:0 11:0 12:0 13:0 14:0 15:0 16:0 17:0 18:0 19:0 20:0 21:1 22:1 
-100 1:0.86817777 2:0 3:0 4:1 5:1 6:0 7:1 8:1 9:1 10:1 11:0 12:0 13:0 14:0 15:0 16:0 17:0 18:0 19:1 20:0 21:1 22:0 
-100 1:0.97806319 2:0 3:0 4:1 5:0 6:0 7:1 8:0 9:1 10:1 11:0 12:0 13:1 14:0 15:0 16:0 17:0 18:0 19:1 20:0 21:0 22:0 
-100 1:0.822695 2:0 3:1 4:0 5:0 6:0 7:1 8:0 9:1 10:1 11:0 12:0 13:1 14:0 15:0 16:0 17:0 18:0 19:1 20:0 21:0 22:0 
-100 1:0.79404687 2:0 3:1 4:0 5:0 6:0 7:1 8:1 9:1 10:1 11:0 12:0 13:0 14:0 15:0 16:0 17:0 18:0 19:1 20:0 21:0 22:0 
-100 1:0.12182425 2:0 3:0 4:1 5:1 6:0 7:1 8:0 9:1 10:1 11:0 12:0 13:0 14:0 15:0 16:0 17:0 18:0 19:0 20:1 21:0 22:0 
-100 1:0.72193433 2:0 3:1 4:0 5:0 6:0 7:1 8:1 9:1 10:1 11:0 12:0 13:0 14:1 15:0 16:0 17:0 18:0 19:1 20:0 21:0 22:0 
-23.43585907612058 1:0.89584714 2:0 3:1 4:0 5:0 6:0 7:1 8:1 9:1 10:1 11:0 12:0 13:1 14:0 15:0 16:0 17:0 18:0 19:1 20:1 21:0 22:0 
-100 1:0.80549982 2:0 3:0 4:1 5:1 6:0 7:1 8:0 9:1 10:1 11:0 12:0 13:1 14:0 15:0 16:0 17:0 18:0 19:1 20:1 21:0 22:0 
-24.20800811458261 1:0.49127353 2:0 3:1 4:0 5:0 6:0 7:1 8:1 9:1 10:1 11:0 12:0 13:0 14:1 15:0 16:0 17:0 18:0 19:1 20:0 21:0 22:0 
-6.98794738048464 1:0.038482229 2:0 3:1 4:0 5:0 6:0 7:1 8:1 9:1 10:1 11:0 12:0 13:1 14:1 15:0 16:0 17:0 18:0 19:1 20:0 21:0 22:0 
-100 1:0.60447724 2:0 3:0 4:1 5:1 6:0 7:1 8:1 9:1 10:1 11:0 12:0 13:0 14:0 15:0 16:0 17:1 18:0 19:1 20:0 21:0 22:0 
-27.70916558061813 1:0.070765692 2:0 3:0 4:1 5:0 6:0 7:1 8:1 9:1 10:0 11:0 12:0 13:1 14:0 15:0 16:0 17:0 18:0 19:0 20:0 21:0 22:1 
-100 1:0.73723077 2:0 3:0 4:1 5:1 6:0 7:1 8:1 9:1 10:0 11:0 12:0 13:1 14:0 15:0 16:0 17:0 18:0 19:1 20:0 21:0 22:0 
-68.49824015788757 1:0.83978356 2:0 3:1 4:0 5:0 6:0 7:1 8:1 9:1 10:1 11:0 12:0 13:1 14:0 15:0 16:0 17:0 18:0 19:0 20:1 21:0 22:0 
-93.60517920178491 1:0.038482229 2:0 3:1 4:0 5:0 6:0 7:1 8:1 9:1 10:1 11:0 12:0 13:1 14:1 15:0 16:0 17:0 18:0 19:1 20:0 21:0 22:0 
-100 1:0.24177257 2:0 3:1 4:0 5:0 6:0 7:1 8:1 9:1 10:1 11:0 12:0 13:0 14:0 15:0 16:0 17:0 18:0 19:1 20:0 21:0 22:0 
-100 1:0.83470239 2:0 3:0 4:1 5:1 6:0 7:1 8:0 9:1 10:1 11:0 12:0 13:0 14:0 15:0 16:0 17:0 18:0 19:1 20:0 21:0 22:0 
-35.51810666720261 1:0.051591244 2:0 3:0 4:1 5:1 6:0 7:1 8:0 9:1 10:1 11:0 12:0 13:0 14:1 15:0 16:0 17:0 18:0 19:0 20:0 21:1 22:0 
-100 1:0.3021116 2:0 3:1 4:0 5:0 6:0 7:1 8:1 9:1 10:1 11:0 12:0 13:0 14:0 15:0 16:0 17:0 18:0 19:1 20:0 21:0 22:0 
-55.85981125603207 1:0.12183092 2:0 3:0 4:1 5:1 6:0 7:1 8:1 9:1 10:1 11:0 12:0 13:0 14:0 15:0 16:0 17:0 18:0 19:0 20:1 21:0 22:0 
-100 1:0.3021116 2:0 3:1 4:0 5:0 6:0 7:1 8:1 9:1 10:1 11:0 12:0 13:0 14:0 15:0 16:0 17:0 18:0 19:1 20:0 21:0 22:0 
-100 1:0.49127353 2:0 3:1 4:0 5:0 6:0 7:1 8:0 9:1 10:1 11:0 12:0 13:0 14:1 15:0 16:0 17:0 18:0 19:1 20:0 21:0 22:0 
-100 1:0.16586177 2:0 3:1 4:0 5:0 6:0 7:1 8:1 9:1 10:1 11:0 12:0 13:0 14:0 15:0 16:0 17:0 18:0 19:1 20:0 21:0 22:0 
-100 1:0.70270523 2:0 3:0 4:1 5:1 6:0 7:0 8:1 9:1 10:1 11:0 12:0 13:0 14:0 15:0 16:0 17:0 18:0 19:0 20:0 21:1 22:0 
-10.03663541456356 1:0 2:0 3:1 4:1 5:1 6:0 7:1 8:1 9:1 10:1 11:0 12:0 13:0 14:0 15:0 16:0 17:0 18:0 19:0 20:0 21:0 22:0 
-100 1:0.76781831 2:0 3:0 4:1 5:1 6:0 7:0 8:1 9:1 10:1 11:0 12:0 13:0 14:0 15:0 16:0 17:0 18:0 19:0 20:0 21:1 22:0 
-100 1:0.15887356 2:0 3:1 4:0 5:0 6:0 7:1 8:1 9:1 10:1 11:0 12:0 13:0 14:0 15:0 16:0 17:0 18:0 19:1 20:0 21:0 22:0 
-0.4514550232642022 1:0 2:0 3:1 4:1 5:1 6:0 7:1 8:1 9:1 10:1 11:0 12:0 13:0 14:0 15:0 16:0 17:0 18:0 19:0 20:0 21:0 22:0 
-100 1:0.81940995 2:0 3:0 4:1 5:1 6:0 7:1 8:1 9:1 10:1 11:0 12:0 13:0 14:0 15:0 16:0 17:0 18:0 19:1 20:0 21:0 22:0 
-100 1:0.18024559 2:0 3:1 4:0 5:0 6:0 7:1 8:1 9:1 10:1 11:0 12:0 13:0 14:0 15:0 16:0 17:0 18:0 19:1 20:0 21:0 22:0 
-100 1:0.78426679 2:0 3:0 4:1 5:0 6:0 7:1 8:1 9:1 10:1 11:0 12:0 13:0 14:0 15:0 16:0 17:0 18:0 19:1 20:0 21:0 22:0 
-100 1:0.68954811 2:0 3:0 4:1 5:1 6:0 7:0 8:1 9:1 10:1 11:0 12:0 13:0 14:0 15:0 16:0 17:0 18:0 19:0 20:0 21:1 22:0 
-100 1:0.10999232 2:0 3:0 4:1 5:1 6:0 7:0 8:1 9:1 10:0 11:0 12:0 13:0 14:0 15:0 16:0 17:0 18:0 19:0 20:0 21:0 22:1 
-100 1:0.78187405 2:0 3:1 4:0 5:0 6:0 7:1 8:1 9:1 10:0 11:0 12:0 13:0 14:0 15:0 16:0 17:0 18:0 19:0 20:0 21:1 22:0 
-4.9456013171487 1:0.77828872 2:0 3:1 4:0 5:0 6:0 7:1 8:1 9:1 10:0 11:0 12:0 13:0 14:0 15:0 16:0 17:0 18:0 19:0 20:0 21:1 22:0 
-41.81101814500649 1:0.1468845 2:0 3:0 4:1 5:0 6:0 7:1 8:1 9:1 10:1 11:0 12:0 13:0 14:0 15:0 16:0 17:0 18:0 19:0 20:1 21:0 22:0 
-5.090296662705369 1:0.77828872 2:0 3:1 4:0 5:0 6:0 7:1 8:1 9:1 10:0 11:0 12:0 13:0 14:0 15:0 16:0 17:0 18:0 19:0 20:0 21:1 22:0 
-87.89024480756186 1:0.7237538 2:0 3:0 4:1 5:0 6:0 7:0 8:1 9:1 10:0 11:0 12:0 13:0 14:0 15:0 16:0 17:0 18:0 19:0 20:0 21:1 22:0 
-100 1:0.78426679 2:0 3:0 4:1 5:0 6:0 7:1 8:0 9:1 10:1 11:0 12:0 13:0 14:0 15:0 16:0 17:0 18:0 19:1 20:0 21:0 22:0 
-100 1:0.49127353 2:0 3:1 4:0 5:0 6:0 7:1 8:0 9:1 10:1 11:0 12:0 13:0 14:1 15:0 16:0 17:0 18:0 19:1 20:0 21:0 22:0 
-77.77926463833775 1:0.61832252 2:0 3:1 4:0 5:0 6:0 7:1 8:0 9:1 10:1 11:0 12:1 13:1 14:0 15:0 16:0 17:0 18:0 19:0 20:0 21:1 22:0 
-100 1:0.23636735 2:0 3:1 4:0 5:0 6:0 7:1 8:1 9:1 10:1 11:0 12:0 13:1 14:0 15:0 16:0 17:0 18:0 19:1 20:0 21:0 22:0 
-25.57380558524197 1:0.12939963 2:0 3:0 4:1 5:1 6:0 7:1 8:1 9:1 10:1 11:0 12:0 13:0 14:0 15:0 16:0 17:0 18:0 19:0 20:0 21:0 22:1 
-100 1:0.3277651 2:0 3:1 4:0 5:0 6:0 7:1 8:1 9:1 10:1 11:0 12:0 13:0 14:0 15:0 16:0 17:0 18:0 19:1 20:0 21:0 22:0 
-48.97463028996259 1:0.15887356 2:0 3:1 4:0 5:0 6:0 7:1 8:1 9:1 10:1 11:0 12:0 13:0 14:0 15:0 16:0 17:0 18:0 19:1 20:0 21:0 22:0 
-100 1:0.15887356 2:0 3:1 4:0 5:0 6:0 7:1 8:1 9:1 10:1 11:0 12:0 13:0 14:0 15:0 16:0 17:0 18:0 19:1 20:0 21:0 22:0 
-100 1:0.1831282 2:0 3:1 4:0 5:0 6:0 7:1 8:0 9:1 10:1 11:0 12:0 13:0 14:0 15:0 16:0 17:0 18:0 19:1 20:0 21:0 22:0 
-94.29634668309409 1:0 2:0 3:1 4:1 5:1 6:0 7:1 8:1 9:1 10:1 11:0 12:0 13:0 14:0 15:0 16:0 17:0 18:0 19:0 20:0 21:0 22:0 
-100 1:0.81940995 2:0 3:0 4:1 5:1 6:0 7:1 8:0 9:1 10:1 11:0 12:0 13:0 14:0 15:0 16:0 17:0 18:0 19:1 20:0 21:0 22:0 
-100 1:0.16901261 2:0 3:1 4:0 5:0 6:0 7:1 8:1 9:1 10:1 11:0 12:0 13:0 14:0 15:0 16:0 17:0 18:0 19:1 20:0 21:0 22:0 
-56.59122409684375 1:0.12182425 2:0 3:0 4:1 5:1 6:0 7:1 8:0 9:1 10:1 11:0 12:0 13:0 14:0 15:0 16:0 17:0 18:0 19:0 20:1 21:0 22:0 
-19.6820305901166 1:0.93851719 2:0 3:0 4:1 5:1 6:0 7:1 8:1 9:1 10:0 11:0 12:0 13:0 14:1 15:0 16:0 17:0 18:0 19:1 20:0 21:0 22:0 
-100 1:0 2:0 3:1 4:1 5:1 6:0 7:1 8:1 9:1 10:1 11:0 12:0 13:0 14:0 15:0 16:0 17:0 18:0 19:0 20:0 21:0 22:0 
-100 1:0.83470239 2:0 3:0 4:1 5:1 6:0 7:1 8:1 9:1 10:0 11:0 12:0 13:0 14:0 15:0 16:0 17:0 18:0 19:1 20:0 21:0 22:0 
-100 1:0.10982521 2:0 3:1 4:0 5:0 6:0 7:1 8:1 9:1 10:1 11:0 12:0 13:1 14:0 15:0 16:0 17:0 18:0 19:1 20:0 21:0 22:0 
-100 1:0 2:0 3:1 4:1 5:1 6:0 7:1 8:1 9:1 10:1 11:0 12:0 13:0 14:0 15:0 16:0 17:0 18:0 19:0 20:0 21:0 22:0 
-0.651962390706107 1:0.097082285 2:0 3:0 4:1 5:1 6:0 7:0 8:1 9:1 10:0 11:0 12:0 13:0 14:0 15:0 16:0 17:0 18:0 19:0 20:0 21:0 22:1 
-20.3759864919659 1:0.097082285 2:0 3:0 4:1 5:1 6:0 7:0 8:1 9:1 10:0 11:0 12:0 13:0 14:0 15:0 16:0 17:0 18:0 19:0 20:0 21:0 22:1 
-60.78902021686106 1:0.62140653 2:0 3:1 4:0 5:0 6:0 7:0 8:0 9:1 10:1 11:0 12:0 13:0 14:0 15:0 16:0 17:0 18:0 19:0 20:0 21:1 22:1 
-100 1:0.66797519 2:0 3:0 4:1 5:1 6:0 7:1 8:1 9:1 10:1 11:0 12:0 13:0 14:0 15:0 16:0 17:0 18:0 19:0 20:0 21:1 22:0 
-7.043958726820208 1:0 2:0 3:1 4:1 5:1 6:0 7:1 8:1 9:1 10:1 11:0 12:0 13:0 14:0 15:1 16:0 17:0 18:0 19:0 20:0 21:0 22:0 
-100 1:0 2:0 3:1 4:1 5:1 6:0 7:1 8:1 9:1 10:1 11:0 12:0 13:0 14:0 15:0 16:0 17:0 18:0 19:0 20:0 21:0 22:0 
-100 1:0.78830868 2:0 3:1 4:0 5:0 6:0 7:1 8:0 9:1 10:1 11:0 12:0 13:1 14:0 15:0 16:0 17:0 18:0 19:0 20:0 21:1 22:0 
-35.01173547347932 1:0.12259865 2:0 3:0 4:1 5:1 6:0 7:0 8:0 9:1 10:1 11:0 12:0 13:1 14:0 15:0 16:0 17:0 18:0 19:1 20:0 21:0 22:0 
-100 1:0.10982521 2:0 3:1 4:0 5:0 6:0 7:1 8:0 9:1 10:1 11:0 12:0 13:1 14:0 15:0 16:0 17:0 18:0 19:1 20:0 21:0 22:0 
-98.27991162719604 1:0.70800324 2:0 3:0 4:1 5:1 6:0 7:1 8:1 9:0 10:0 11:0 12:0 13:0 14:0 15:0 16:0 17:0 18:0 19:0 20:0 21:1 22:0 
-100 1:0.7710128 2:0 3:0 4:1 5:1 6:0 7:1 8:1 9:1 10:1 11:0 12:0 13:0 14:0 15:0 16:0 17:0 18:0 19:1 20:0 21:0 22:0 
-11.70143922980276 1:0.044356731 2:0 3:0 4:1 5:1 6:0 7:1 8:0 9:1 10:1 11:0 12:0 13:0 14:0 15:0 16:0 17:1 18:0 19:0 20:0 21:1 22:0 
-100 1:0.15179807 2:0 3:0 4:1 5:1 6:0 7:1 8:1 9:1 10:1 11:0 12:0 13:1 14:0 15:0 16:0 17:0 18:0 19:1 20:0 21:0 22:0 
-100 1:0.7710128 2:0 3:0 4:1 5:1 6:0 7:1 8:1 9:1 10:1 11:0 12:0 13:0 14:0 15:0 16:0 17:0 18:0 19:1 20:0 21:0 22:0 
-70.9949127018609 1:0.91938635 2:0 3:0 4:1 5:1 6:0 7:1 8:0 9:1 10:0 11:0 12:0 13:0 14:1 15:0 16:0 17:0 18:0 19:1 20:0 21:0 22:0 
-100 1:0.95137363 2:0 3:0 4:1 5:1 6:0 7:1 8:1 9:1 10:1 11:0 12:0 13:0 14:1 15:0 16:0 17:0 18:0 19:1 20:0 21:0 22:0 
-6.75386686654158 1:0.12182425 2:0 3:0 4:1 5:1 6:0 7:1 8:1 9:0 10:0 11:0 12:0 13:0 14:0 15:0 16:0 17:0 18:0 19:0 20:1 21:0 22:0 
-81.49254325169738 1:0.12182425 2:0 3:0 4:1 5:1 6:0 7:1 8:1 9:0 10:0 11:0 12:0 13:0 14:0 15:0 16:0 17:0 18:0 19:0 20:1 21:0 22:0 
-100 1:0.80183837 2:0 3:1 4:0 5:0 6:0 7:1 8:1 9:0 10:0 11:0 12:0 13:0 14:0 15:0 16:0 17:0 18:0 19:1 20:0 21:0 22:0 
-100 1:0.80183837 2:0 3:1 4:0 5:0 6:0 7:1 8:1 9:0 10:0 11:0 12:0 13:0 14:0 15:0 16:0 17:0 18:0 19:1 20:0 21:0 22:0 
-1.774046528295964 1:0.84133998 2:0 3:0 4:1 5:1 6:0 7:1 8:1 9:0 10:0 11:0 12:0 13:0 14:1 15:0 16:0 17:0 18:0 19:1 20:0 21:1 22:0 
-26.24182924680838 1:0.84133998 2:0 3:0 4:1 5:1 6:0 7:1 8:1 9:0 10:0 11:0 12:0 13:0 14:1 15:0 16:0 17:0 18:0 19:1 20:0 21:1 22:0 
-100 1:0.82705617 2:0 3:0 4:1 5:1 6:0 7:1 8:0 9:0 10:0 11:0 12:0 13:0 14:0 15:0 16:0 17:0 18:0 19:1 20:0 21:0 22:0 
-100 1:0.81940995 2:0 3:0 4:1 5:1 6:0 7:1 8:0 9:0 10:0 11:0 12:0 13:0 14:0 15:0 16:0 17:0 18:0 19:1 20:0 21:0 22:0 
-100 1:0.82705617 2:0 3:0 4:1 5:1 6:0 7:1 8:1 9:0 10:0 11:0 12:0 13:0 14:0 15:0 16:0 17:0 18:0 19:1 20:0 21:0 22:0 
-100 1:0.81940995 2:0 3:0 4:1 5:1 6:0 7:1 8:1 9:0 10:0 11:0 12:0 13:0 14:0 15:0 16:0 17:0 18:0 19:1 20:0 21:0 22:0 
-100 1:0.81940995 2:0 3:0 4:1 5:1 6:0 7:1 8:0 9:0 10:0 11:0 12:0 13:0 14:0 15:0 16:0 17:0 18:0 19:1 20:0 21:0 22:0 
-100 1:0.66592786 2:0 3:0 4:1 5:1 6:0 7:1 8:0 9:0 10:0 11:0 12:0 13:0 14:0 15:0 16:0 17:0 18:0 19:1 20:0 21:0 22:0 
-27.9319552363262 1:0.79306879 2:0 3:0 4:1 5:1 6:0 7:1 8:0 9:0 10:0 11:0 12:0 13:0 14:0 15:0 16:0 17:0 18:0 19:1 20:0 21:1 22:0 
-100 1:0.82705617 2:0 3:0 4:1 5:1 6:0 7:1 8:1 9:0 10:0 11:0 12:0 13:0 14:0 15:0 16:0 17:0 18:0 19:1 20:0 21:0 22:0 
-100 1:0.81391295 2:0 3:0 4:1 5:1 6:0 7:1 8:1 9:0 10:0 11:0 12:0 13:0 14:0 15:0 16:0 17:0 18:0 19:1 20:0 21:0 22:0 
-36.65430236414472 1:0.87968078 2:0 3:1 4:0 5:0 6:0 7:1 8:0 9:1 10:1 11:0 12:0 13:0 14:0 15:0 16:0 17:0 18:0 19:0 20:1 21:0 22:0 
-100 1:0.20878087 2:0 3:1 4:0 5:0 6:0 7:1 8:1 9:1 10:1 11:0 12:0 13:0 14:0 15:0 16:0 17:0 18:0 19:1 20:0 21:0 22:0 
-30.57519672153981 1:0.78316133 2:0 3:1 4:0 5:0 6:0 7:1 8:0 9:1 10:0 11:0 12:0 13:1 14:0 15:0 16:0 17:1 18:0 19:0 20:1 21:0 22:0 
-100 1:0.19158495 2:0 3:1 4:0 5:0 6:0 7:1 8:0 9:1 10:1 11:0 12:0 13:0 14:0 15:0 16:0 17:0 18:0 19:1 20:0 21:0 22:0 
-100 1:0.15887356 2:0 3:1 4:0 5:0 6:0 7:1 8:1 9:1 10:1 11:0 12:0 13:0 14:0 15:0 16:0 17:0 18:0 19:1 20:0 21:0 22:0 
-13.85101317523634 1:0.75443092 2:1 3:0 4:1 5:1 6:0 7:1 8:1 9:1 10:1 11:0 12:0 13:0 14:0 15:0 16:0 17:0 18:0 19:0 20:1 21:0 22:0 
-0.2325309022800384 1:0.32112083 2:0 3:1 4:0 5:0 6:0 7:1 8:1 9:1 10:1 11:0 12:0 13:0 14:0 15:0 16:0 17:0 18:0 19:0 20:0 21:1 22:0 
-100 1:0.79901453 2:0 3:0 4:1 5:1 6:0 7:1 8:1 9:1 10:1 11:0 12:0 13:0 14:0 15:0 16:0 17:0 18:0 19:1 20:0 21:0 22:0 
-27.65739085517234 1:0.69558838 2:0 3:0 4:1 5:1 6:0 7:1 8:1 9:1 10:0 11:0 12:0 13:0 14:1 15:0 16:0 17:0 18:0 19:0 20:1 21:0 22:1 
