svm_type c_svc
kernel_type rbf
gamma 0.0108696
nr_class 2
total_sv 245
rho 1.39346
label 1 -1
probA -1.61688
probB 0.0783745
nr_sv 121 124
SV
5.618754877016518 1:1 2:0.11822016 3:0.33333333 4:1 5:0 6:0 7:0 8:1 9:0 10:0 11:0 12:1 13:0 14:0 15:1 16:-1 17:-1 18:-1 19:-1 20:-1 21:1 22:-1 23:-1 24:0.00011112346 25:0 26:1 27:0 28:0 29:0 30:0 31:0 32:0 33:0 34:0 35:0 36:0 37:0 38:1 39:0 40:0 41:0 42:0 43:0 44:0 45:0 46:0 47:0 48:0 49:0 50:0 51:0 52:0 53:0 54:0 55:0 56:0 57:0 58:0 59:0 60:0 61:0 62:0 63:0 64:0 65:0 66:0 67:0 68:1 69:1 70:1 71:1 72:1 73:1 74:1 75:1 76:1 77:1 78:1 79:1 80:1 81:1 82:1 83:1 84:1 85:1 86:1 87:1 88:1 89:1 90:1 91:1 92:1 
43.02026577245827 1:1 2:0.6971269 3:0.33333333 4:0 5:0 6:1 7:0 8:1 9:0 10:0 11:0 12:1 13:0 14:0 15:1 16:-1 17:-1 18:-1 19:-1 20:0 21:-1 22:0 23:0 24:0.00011108643 25:0 26:1 27:0 28:0 29:0 30:0 31:0 32:0 33:0 34:0 35:0 36:0 37:0 38:0 39:0 40:0 41:0 42:0 43:0 44:0 45:0 46:0 47:0 48:0 49:0 50:0 51:0 52:0 53:0 54:0 55:0 56:0 57:0 58:0 59:0 60:0 61:0 62:0 63:0 64:0 65:0 66:0 67:1 68:1 69:0.51038642 70:0.66039891 71:0.50807294 72:0.55777347 73:0 74:0.6063333 75:0.52967212 76:0.56784907 77:0.5050425 78:0.64460208 79:0.50420289 80:0.65203413 81:0.5 82:0.5463616 83:0.60128764 84:0.67628317 85:0.68863457 86:0.61360789 87:0.60762919 88:1 89:1 90:0.64220114 91:0.73261993 92:0.60882724 
15.24211096327444 1:1 2:0.38255708 3:0.33333333 4:0 5:1 6:0 7:0 8:0 9:1 10:0 11:0 12:1 13:0 14:0 15:1 16:-1 17:-1 18:-1 19:-1 20:0 21:1 22:-1 23:0 24:0.00010005003 25:0 26:1 27:0 28:0 29:0 30:0 31:0 32:0 33:0 34:0 35:0 36:0 37:0 38:0 39:0 40:0 41:0 42:0 43:0 44:0 45:0 46:0 47:0 48:0 49:0 50:0 51:0 52:0 53:0 54:0 55:0 56:0 57:0 58:0 59:0 60:0 61:0 62:0 63:0 64:0 65:0 66:0 67:0 68:0 69:0.67347757 70:0.5259198 71:0.51886702 72:0.64261872 73:0.69519314 74:0.76347643 75:0.63646934 76:0.63646934 77:1 78:0.75830763 79:1 80:0.58453144 81:1 82:1 83:0.74651946 84:0.77502644 85:0.71035352 86:0.70622564 87:0.65884354 88:1 89:0.74865722 90:0.55963713 91:1 92:1 
87.1388575075861 1:1 2:0.81986666 3:0.33333333 4:0 5:0 6:1 7:1 8:0 9:0 10:0 11:0 12:1 13:0 14:0 15:1 16:-1 17:-1 18:-1 19:-1 20:-1 21:1 22:0 23:0 24:0.00011103709 25:0 26:1 27:0 28:0 29:0 30:0 31:0 32:0 33:0 34:0 35:0 36:0 37:0 38:0 39:0 40:0 41:0 42:0 43:0 44:0 45:0 46:0 47:0 48:0 49:0 50:0 51:0 52:0 53:0 54:0 55:0 56:0 57:0 58:0 59:0 60:0 61:0 62:0 63:0 64:0 65:0 66:0 67:0 68:1 69:0.6553489 70:0.56162125 71:0.73135765 72:0.62703866 73:0.62053339 74:0.63932779 75:0.60354408 76:0.52626943 77:0.64559897 78:0.52926603 79:1 80:0.62704767 81:0.5 82:0.60240261 83:0.62703866 84:0.56825792 85:0.63083031 86:0.52926603 87:0.64072011 88:0.72081384 89:0.75973967 90:0.68568323 91:0.71197769 92:1 
22.54665150078335 1:1 2:0.86581324 3:1 4:0 5:0 6:1 7:0 8:0 9:1 10:0 11:0 12:1 13:0 14:0 15:1 16:-1 17:-1 18:-1 19:-1 20:0 21:1 22:0 23:0 24:0.00011103709 25:1 26:0 27:0 28:0 29:0 30:0 31:0 32:0 33:0 34:0 35:0 36:0 37:0 38:0 39:0 40:0 41:0 42:0 43:0 44:0 45:0 46:0 47:0 48:0 49:0 50:0 51:0 52:0 53:0 54:0 55:0 56:0 57:0 58:0 59:0 60:0 61:0 62:0 63:0 64:0 65:0 66:0 67:0 68:0 69:0.56605013 70:0.5 71:0.53574303 72:0.56543439 73:0.65733875 74:0.6727381 75:0.52346654 76:0.5777905 77:0.69132379 78:0.65479569 79:0.73367711 80:0.66471719 81:0.57572185 82:0.64493125 83:0.55667697 84:0.6847621 85:1 86:0.65479569 87:0.64788284 88:1 89:0.72376327 90:0.71440915 91:0.69406067 92:0.75282115 
41.309122158595 1:1 2:0.38385402 3:0.33333333 4:0 5:0 6:1 7:1 8:0 9:0 10:0 11:0 12:1 13:0 14:0 15:1 16:-1 17:-1 18:-1 19:-1 20:-1 21:1 22:-1 23:0 24:0.00012504689 25:0 26:1 27:0 28:0 29:0 30:1 31:0 32:0 33:0 34:0 35:0 36:0 37:0 38:0 39:0 40:0 41:0 42:0 43:0 44:0 45:0 46:0 47:0 48:0 49:0 50:0 51:0 52:0 53:0 54:0 55:0 56:0 57:0 58:0 59:0 60:0 61:0 62:0 63:0 64:0 65:0 66:0 67:1 68:0.25412349 69:0.60704383 70:0.62672172 71:0.65637742 72:0.5 73:0.55777347 74:0.52334564 75:0.5 76:0.5 77:0.61724539 78:0.68764651 79:0.70838597 80:0.56925174 81:0.5 82:1 83:0.5 84:0.59736886 85:0.5 86:0.58115262 87:0.61113797 88:1 89:0.71105503 90:0.69599497 91:0.68468357 92:0.70858486 
3.055380954066676 1:1 2:0.74404557 3:1 4:1 5:0 6:0 7:0 8:0 9:1 10:0 11:0 12:1 13:0 14:0 15:1 16:-1 17:-1 18:-1 19:-1 20:0 21:1 22:-1 23:0 24:0.00011097547 25:1 26:0 27:0 28:0 29:0 30:0 31:0 32:0 33:0 34:0 35:0 36:0 37:0 38:0 39:0 40:0 41:0 42:0 43:0 44:0 45:0 46:0 47:0 48:0 49:0 50:0 51:0 52:1 53:0 54:0 55:0 56:0 57:0 58:0 59:0 60:0 61:0 62:0 63:0 64:0 65:0 66:0 67:0 68:0.10014167 69:1 70:0.71751428 71:0.68243421 72:0.65300276 73:0.71018227 74:0.51923787 75:0.5 76:0.50461094 77:1 78:1 79:0.72736996 80:0.6094247 81:0.53696239 82:1 83:0.69771711 84:1 85:0.65300276 86:0.74612297 87:0.71149531 88:1 89:1 90:0.73958815 91:0.7067622 92:0.72754381 
100 1:1 2:0.42579142 3:1 4:0 5:0 6:1 7:0 8:0 9:1 10:0 11:0 12:1 13:0 14:0 15:1 16:-1 17:-1 18:-1 19:-1 20:0 21:1 22:-1 23:0 24:0.00010002 25:1 26:0 27:0 28:0 29:0 30:0 31:0 32:0 33:0 34:0 35:0 36:0 37:0 38:1 39:1 40:0 41:0 42:0 43:0 44:0 45:0 46:0 47:0 48:0 49:0 50:0 51:0 52:0 53:0 54:0 55:0 56:0 57:0 58:0 59:0 60:0 61:0 62:0 63:0 64:0 65:1 66:0 67:0 68:0.16318861 69:0.56605013 70:0 71:0.50612291 72:0 73:0.55777347 74:0.52334564 75:0.5 76:0.5 77:0.61724539 78:0.6777376 79:0.70838597 80:0.56925174 81:0.5 82:1 83:0.5 84:0.59736886 85:0.5 86:0.58115262 87:0.5 88:1 89:0.71105503 90:0.57986763 91:0.68468357 92:0.70858486 
15.04649339214571 1:1 2:0.78474354 3:1 4:1 5:0 6:0 7:1 8:0 9:0 10:0 11:0 12:1 13:0 14:0 15:1 16:-1 17:-1 18:-1 19:-1 20:-1 21:1 22:-1 23:0 24:0.00011097547 25:1 26:0 27:0 28:0 29:0 30:0 31:0 32:0 33:0 34:0 35:0 36:0 37:1 38:0 39:0 40:0 41:0 42:0 43:0 44:0 45:0 46:0 47:0 48:0 49:0 50:0 51:0 52:0 53:0 54:0 55:0 56:1 57:0 58:0 59:0 60:0 61:0 62:0 63:0 64:0 65:0 66:0 67:0 68:0.15779967 69:0.60704383 70:0.62672172 71:0.65637742 72:0 73:0.55777347 74:0.52334564 75:0.5 76:0.5 77:0.61724539 78:0.68764651 79:0.70838597 80:0.56925174 81:0.5 82:1 83:0.5 84:0.59736886 85:0.5 86:0.58115262 87:0.61113797 88:1 89:0.71105503 90:0.69599497 91:0.68468357 92:0.70858486 
100 1:1 2:0.23997703 3:1 4:1 5:0 6:0 7:0 8:0 9:1 10:0 11:0 12:1 13:0 14:0 15:1 16:-1 17:-1 18:-1 19:-1 20:0 21:1 22:-1 23:0 24:0.00011100011 25:1 26:0 27:0 28:0 29:0 30:0 31:0 32:0 33:0 34:0 35:0 36:0 37:0 38:0 39:0 40:0 41:0 42:0 43:0 44:0 45:0 46:0 47:0 48:0 49:0 50:0 51:0 52:0 53:0 54:0 55:0 56:0 57:0 58:0 59:0 60:0 61:0 62:0 63:0 64:0 65:1 66:0 67:0 68:0.16318861 69:0.56605013 70:0 71:0.50612291 72:0 73:0.55777347 74:0.52334564 75:0.5 76:0.5 77:0.61724539 78:0.6777376 79:0.70838597 80:0.56925174 81:0.5 82:1 83:0.5 84:0.59736886 85:0.5 86:0.58115262 87:0.5 88:1 89:0.71105503 90:0.57986763 91:0.68468357 92:0.70858486 
58.14767872724193 1:1 2:0.40301989 3:1 4:1 5:0 6:0 7:0 8:0 9:1 10:0 11:0 12:1 13:0 14:0 15:1 16:-1 17:-1 18:-1 19:-1 20:0 21:1 22:-1 23:0 24:0.00011111111 25:1 26:0 27:0 28:0 29:0 30:0 31:0 32:0 33:0 34:0 35:0 36:0 37:0 38:0 39:0 40:0 41:0 42:0 43:0 44:0 45:0 46:0 47:0 48:0 49:0 50:0 51:0 52:0 53:0 54:0 55:0 56:0 57:0 58:0 59:0 60:0 61:0 62:0 63:0 64:0 65:1 66:0 67:0 68:0.20634081 69:0.56605013 70:0 71:0.50612291 72:0 73:0.55777347 74:0.52334564 75:0.5 76:0.5 77:0.61724539 78:0.6777376 79:0.70838597 80:0.56925174 81:0.5 82:1 83:0.5 84:0.59736886 85:0.5 86:0.58115262 87:0.5 88:1 89:0.71105503 90:0.57986763 91:0.68468357 92:0.70858486 
100 1:1 2:0.17146233 3:0.33333333 4:1 5:0 6:0 7:1 8:0 9:0 10:0 11:0 12:0 13:1 14:1 15:0 16:-1 17:-1 18:-1 19:-1 20:-1 21:1 22:0 23:0 24:0.00011111111 25:0 26:1 27:0 28:0 29:1 30:0 31:0 32:0 33:0 34:0 35:0 36:0 37:0 38:0 39:0 40:0 41:0 42:0 43:0 44:0 45:0 46:0 47:0 48:0 49:0 50:0 51:0 52:0 53:0 54:0 55:0 56:0 57:0 58:0 59:0 60:0 61:0 62:0 63:0 64:0 65:0 66:0 67:0 68:0.19575647 69:0.60704383 70:0.62672172 71:0.65637742 72:0.5 73:0.55777347 74:0.52334564 75:0.5 76:0.5 77:0.61724539 78:0.68764651 79:0.70838597 80:0.56925174 81:0.5 82:1 83:0.5 84:0.59736886 85:0.5 86:0.58115262 87:0.61113797 88:1 89:0.71105503 90:0.69599497 91:0.68468357 92:0.70858486 
100 1:1 2:0.11822016 3:0.33333333 4:1 5:0 6:0 7:0 8:1 9:0 10:0 11:0 12:1 13:0 14:0 15:1 16:-1 17:-1 18:-1 19:-1 20:-1 21:1 22:-1 23:-1 24:0.00011112346 25:0 26:1 27:0 28:0 29:0 30:0 31:0 32:0 33:0 34:0 35:0 36:0 37:0 38:1 39:0 40:0 41:0 42:0 43:0 44:0 45:0 46:0 47:0 48:0 49:0 50:0 51:0 52:0 53:0 54:0 55:0 56:0 57:0 58:0 59:0 60:0 61:0 62:0 63:0 64:0 65:0 66:0 67:0 68:1 69:1 70:1 71:1 72:1 73:1 74:1 75:1 76:1 77:1 78:1 79:1 80:1 81:1 82:1 83:1 84:1 85:1 86:1 87:1 88:1 89:1 90:1 91:1 92:1 
9.148334668741411 1:1 2:0.84942225 3:1 4:1 5:0 6:0 7:1 8:0 9:0 10:0 11:0 12:1 13:0 14:0 15:1 16:-1 17:-1 18:-1 19:-1 20:-1 21:1 22:-1 23:0 24:0.00011111111 25:1 26:0 27:0 28:0 29:0 30:0 31:0 32:0 33:0 34:0 35:1 36:0 37:0 38:0 39:0 40:0 41:0 42:0 43:0 44:0 45:0 46:0 47:0 48:0 49:0 50:0 51:0 52:0 53:0 54:0 55:1 56:0 57:0 58:0 59:0 60:0 61:0 62:0 63:0 64:0 65:0 66:0 67:0 68:0.10014167 69:1 70:0.71751428 71:0.68243421 72:0.65300276 73:0.71018227 74:0.51923787 75:0.5 76:0.50461094 77:1 78:1 79:0.72736996 80:0.6094247 81:0.53696239 82:1 83:0.69771711 84:1 85:0.65300276 86:0.74612297 87:0.71149531 88:1 89:1 90:0.73958815 91:0.7067622 92:0.72754381 
0.5451960760853295 1:1 2:0.48148697 3:1 4:0 5:0 6:1 7:0 8:0 9:1 10:0 11:0 12:1 13:0 14:0 15:1 16:-1 17:-1 18:-1 19:-1 20:0 21:1 22:0 23:0 24:0.00011112346 25:1 26:0 27:0 28:0 29:0 30:0 31:1 32:0 33:0 34:0 35:0 36:0 37:0 38:0 39:0 40:0 41:0 42:0 43:0 44:0 45:0 46:0 47:0 48:0 49:0 50:0 51:0 52:0 53:0 54:0 55:0 56:0 57:0 58:0 59:0 60:0 61:0 62:0 63:0 64:0 65:0 66:0 67:0 68:0 69:1 70:0.67741851 71:0.69398685 72:0.57829527 73:0.71132442 74:0.71262429 75:0.5 76:0.53789987 77:1 78:0.53044878 79:0.73592856 80:0.626755 81:0.57218486 82:1 83:0.52006124 84:0.6341558 85:0.5 86:0.68259465 87:0.68259465 88:0.68640776 89:1 90:0.55196788 91:0.71051732 92:0.73609167 
100 1:1 2:0.86581324 3:1 4:0 5:0 6:1 7:0 8:0 9:1 10:0 11:0 12:1 13:0 14:0 15:1 16:-1 17:-1 18:-1 19:-1 20:0 21:1 22:0 23:0 24:0.00011103709 25:1 26:0 27:0 28:0 29:0 30:0 31:0 32:0 33:0 34:0 35:0 36:0 37:0 38:0 39:0 40:0 41:0 42:0 43:0 44:0 45:0 46:0 47:0 48:0 49:0 50:0 51:0 52:0 53:0 54:0 55:0 56:0 57:0 58:0 59:0 60:0 61:0 62:0 63:0 64:0 65:0 66:0 67:0 68:0 69:0.56605013 70:0.5 71:0.53574303 72:0.56543439 73:0.65733875 74:0.6727381 75:0.52346654 76:0.5777905 77:0.69132379 78:0.65479569 79:0.73367711 80:0.66471719 81:0.57572185 82:0.64493125 83:0.55667697 84:0.6847621 85:1 86:0.65479569 87:0.64788284 88:1 89:0.72376327 90:0.71440915 91:0.69406067 92:0.75282115 
53.44809847899087 1:1 2:0.43185994 3:1 4:1 5:0 6:0 7:0 8:0 9:1 10:0 11:0 12:1 13:0 14:0 15:1 16:-1 17:-1 18:-1 19:-1 20:0 21:1 22:-1 23:-1 24:0.000125 25:1 26:0 27:0 28:0 29:0 30:0 31:0 32:0 33:0 34:0 35:0 36:0 37:0 38:0 39:0 40:0 41:0 42:0 43:0 44:0 45:0 46:0 47:0 48:0 49:0 50:0 51:0 52:0 53:0 54:0 55:0 56:0 57:0 58:0 59:0 60:0 61:0 62:0 63:0 64:0 65:1 66:0 67:0 68:0.15779967 69:0.56605013 70:0 71:0.50612291 72:0 73:0.55777347 74:0.52334564 75:0.5 76:0.5 77:0.61724539 78:0.6777376 79:0.70838597 80:0.56925174 81:0.5 82:1 83:0.5 84:0.59736886 85:0.5 86:0.58115262 87:0.5 88:1 89:0.71105503 90:0.57986763 91:0.68468357 92:0.70858486 
87.09619200797469 1:1 2:0.37461378 3:1 4:1 5:0 6:0 7:1 8:0 9:0 10:0 11:0 12:1 13:0 14:0 15:1 16:-1 17:-1 18:-1 19:-1 20:-1 21:1 22:-1 23:0 24:0.00012496876 25:1 26:0 27:0 28:0 29:0 30:0 31:0 32:0 33:0 34:0 35:0 36:0 37:0 38:0 39:0 40:0 41:0 42:0 43:0 44:0 45:0 46:0 47:0 48:0 49:0 50:0 51:0 52:0 53:0 54:0 55:0 56:0 57:0 58:0 59:0 60:0 61:0 62:0 63:0 64:0 65:0 66:0 67:0 68:1 69:1 70:1 71:1 72:1 73:1 74:1 75:1 76:1 77:1 78:1 79:0.5 80:1 81:1 82:1 83:1 84:1 85:1 86:1 87:1 88:0.57706466 89:0.50957114 90:1 91:1 92:1 
55.89041619449142 1:1 2:0.85261022 3:0.33333333 4:1 5:0 6:0 7:0 8:0 9:1 10:0 11:0 12:0 13:1 14:1 15:0 16:-1 17:-1 18:-1 19:-1 20:-1 21:1 22:0 23:0 24:0.00010009008 25:0 26:1 27:0 28:0 29:1 30:0 31:0 32:0 33:0 34:0 35:0 36:0 37:0 38:0 39:0 40:0 41:0 42:0 43:0 44:0 45:0 46:0 47:0 48:0 49:0 50:0 51:0 52:0 53:0 54:0 55:0 56:0 57:0 58:0 59:0 60:0 61:0 62:0 63:0 64:0 65:1 66:0 67:0 68:1 69:1 70:1 71:1 72:1 73:1 74:1 75:1 76:1 77:1 78:1 79:1 80:1 81:1 82:1 83:1 84:1 85:1 86:1 87:1 88:1 89:1 90:1 91:1 92:1 
100 1:1 2:0.18864681 3:1 4:1 5:0 6:0 7:0 8:0 9:1 10:0 11:0 12:1 13:0 14:0 15:1 16:-1 17:-1 18:-1 19:-1 20:0 21:1 22:0 23:0 24:0.00010011012 25:1 26:0 27:0 28:0 29:1 30:0 31:0 32:0 33:0 34:0 35:0 36:0 37:0 38:0 39:0 40:0 41:0 42:0 43:0 44:0 45:0 46:0 47:0 48:0 49:0 50:0 51:0 52:0 53:0 54:0 55:0 56:0 57:0 58:0 59:0 60:0 61:0 62:0 63:0 64:0 65:1 66:0 67:0 68:0.17733653 69:0.56605013 70:0 71:0.50612291 72:0 73:0.55777347 74:0.52334564 75:0.5 76:0.5 77:0.61724539 78:0.6777376 79:0.70838597 80:0.56925174 81:0.5 82:1 83:0.5 84:0.59736886 85:0.5 86:0.58115262 87:0.5 88:1 89:0.71105503 90:0.57986763 91:0.68468357 92:0.70858486 
100 1:1 2:0.38963678 3:1 4:1 5:0 6:0 7:0 8:0 9:1 10:0 11:0 12:1 13:0 14:0 15:1 16:-1 17:-1 18:-1 19:-1 20:0 21:1 22:-1 23:0 24:0.00012501563 25:1 26:0 27:0 28:0 29:0 30:0 31:0 32:0 33:0 34:0 35:0 36:0 37:0 38:0 39:0 40:0 41:0 42:0 43:0 44:0 45:0 46:0 47:0 48:0 49:0 50:0 51:0 52:0 53:0 54:0 55:0 56:0 57:0 58:0 59:0 60:0 61:0 62:0 63:0 64:0 65:1 66:0 67:0 68:0.15779967 69:0.56605013 70:0 71:0.50612291 72:0 73:0.55777347 74:0.52334564 75:0.5 76:0.5 77:0.61724539 78:0.6777376 79:0.70838597 80:0.56925174 81:0.5 82:1 83:0.5 84:0.59736886 85:0.5 86:0.58115262 87:0.5 88:1 89:0.71105503 90:0.57986763 91:0.68468357 92:0.70858486 
47.05333401509066 1:1 2:0.83433826 3:0.33333333 4:1 5:0 6:0 7:0 8:0 9:1 10:0 11:0 12:0 13:1 14:1 15:0 16:-1 17:-1 18:-1 19:-1 20:-1 21:1 22:-1 23:-1 24:0.000125 25:0 26:1 27:0 28:0 29:0 30:0 31:0 32:0 33:0 34:0 35:0 36:0 37:0 38:0 39:0 40:0 41:0 42:0 43:0 44:0 45:0 46:0 47:0 48:0 49:0 50:0 51:0 52:0 53:0 54:0 55:0 56:0 57:0 58:0 59:0 60:0 61:0 62:0 63:0 64:0 65:1 66:0 67:0 68:0.15779967 69:0.56605013 70:0 71:0.50612291 72:0 73:0.55777347 74:0.52334564 75:0.5 76:0.5 77:0.61724539 78:0.6777376 79:0.70838597 80:0.56925174 81:0.5 82:1 83:0.5 84:0.59736886 85:0.5 86:0.58115262 87:0.5 88:1 89:0.71105503 90:0.57986763 91:0.68468357 92:0.70858486 
100 1:1 2:0.83433826 3:0.33333333 4:1 5:0 6:0 7:0 8:0 9:1 10:0 11:0 12:0 13:1 14:1 15:0 16:-1 17:-1 18:-1 19:-1 20:-1 21:1 22:-1 23:-1 24:0.000125 25:0 26:1 27:0 28:0 29:0 30:0 31:0 32:0 33:0 34:0 35:0 36:0 37:0 38:0 39:0 40:0 41:0 42:0 43:0 44:0 45:0 46:0 47:0 48:0 49:0 50:0 51:0 52:0 53:0 54:0 55:0 56:0 57:0 58:0 59:0 60:0 61:0 62:0 63:0 64:0 65:1 66:0 67:0 68:0.15779967 69:0.56605013 70:0 71:0.50612291 72:0 73:0.55777347 74:0.52334564 75:0.5 76:0.5 77:0.61724539 78:0.6777376 79:0.70838597 80:0.56925174 81:0.5 82:1 83:0.5 84:0.59736886 85:0.5 86:0.58115262 87:0.5 88:1 89:0.71105503 90:0.57986763 91:0.68468357 92:0.70858486 
97.05694100665001 1:1 2:0.37461378 3:1 4:1 5:0 6:0 7:1 8:0 9:0 10:0 11:0 12:1 13:0 14:0 15:1 16:-1 17:-1 18:-1 19:-1 20:-1 21:1 22:-1 23:0 24:0.00012496876 25:1 26:0 27:0 28:0 29:0 30:0 31:0 32:0 33:0 34:0 35:0 36:0 37:0 38:0 39:0 40:0 41:0 42:0 43:0 44:0 45:0 46:0 47:0 48:0 49:0 50:0 51:0 52:0 53:0 54:0 55:0 56:0 57:0 58:0 59:0 60:0 61:0 62:0 63:0 64:0 65:0 66:0 67:0 68:1 69:1 70:1 71:1 72:1 73:1 74:1 75:1 76:1 77:1 78:1 79:0.5 80:1 81:1 82:1 83:1 84:1 85:1 86:1 87:1 88:0.57706466 89:0.50957114 90:1 91:1 92:1 
45.39650109784449 1:1 2:0.36044913 3:0.33333333 4:1 5:0 6:0 7:1 8:0 9:0 10:0 11:0 12:0 13:1 14:1 15:0 16:-1 17:-1 18:-1 19:-1 20:-1 21:1 22:-1 23:0 24:0.00012496876 25:0 26:1 27:0 28:0 29:0 30:0 31:0 32:0 33:0 34:0 35:0 36:0 37:0 38:0 39:0 40:0 41:0 42:0 43:0 44:0 45:0 46:0 47:0 48:0 49:0 50:0 51:0 52:0 53:0 54:0 55:0 56:0 57:0 58:0 59:0 60:0 61:0 62:0 63:0 64:0 65:0 66:0 67:0 68:1 69:1 70:1 71:1 72:1 73:1 74:1 75:1 76:1 77:1 78:1 79:0.5 80:1 81:1 82:1 83:1 84:1 85:1 86:1 87:1 88:0.57706466 89:0.50957114 90:1 91:1 92:1 
100 1:1 2:0.38963678 3:1 4:1 5:0 6:0 7:0 8:0 9:1 10:0 11:0 12:1 13:0 14:0 15:1 16:-1 17:-1 18:-1 19:-1 20:0 21:1 22:-1 23:0 24:0.000125 25:1 26:0 27:0 28:0 29:0 30:0 31:0 32:0 33:0 34:0 35:0 36:0 37:0 38:0 39:0 40:0 41:0 42:0 43:0 44:0 45:0 46:0 47:0 48:0 49:0 50:0 51:0 52:0 53:0 54:0 55:0 56:0 57:0 58:0 59:0 60:0 61:0 62:0 63:0 64:0 65:1 66:0 67:0 68:0.15779967 69:0.56605013 70:0 71:0.50612291 72:0 73:0.55777347 74:0.52334564 75:0.5 76:0.5 77:0.61724539 78:0.6777376 79:0.70838597 80:0.56925174 81:0.5 82:1 83:0.5 84:0.59736886 85:0.5 86:0.58115262 87:0.5 88:1 89:0.71105503 90:0.57986763 91:0.68468357 92:0.70858486 
10.13842480810866 1:1 2:0.18196214 3:0.33333333 4:0 5:0 6:1 7:0 8:0 9:1 10:0 11:0 12:0 13:1 14:1 15:0 16:-1 17:-1 18:-1 19:-1 20:0 21:1 22:-1 23:0 24:0.00011106175 25:0 26:1 27:0 28:0 29:0 30:0 31:0 32:0 33:0 34:1 35:0 36:0 37:0 38:0 39:0 40:0 41:0 42:0 43:0 44:0 45:0 46:0 47:0 48:0 49:0 50:0 51:1 52:0 53:0 54:0 55:0 56:0 57:0 58:0 59:0 60:0 61:0 62:0 63:0 64:0 65:0 66:0 67:0 68:1 69:1 70:1 71:1 72:1 73:1 74:1 75:1 76:1 77:1 78:1 79:1 80:1 81:1 82:1 83:1 84:1 85:1 86:1 87:1 88:1 89:1 90:1 91:1 92:1 
0.7324861496549796 1:1 2:0.90716254 3:0.33333333 4:0 5:1 6:0 7:1 8:0 9:0 10:0 11:0 12:0 13:1 14:1 15:0 16:-1 17:-1 18:-1 19:-1 20:-1 21:1 22:0 23:-1 24:0.00011113581 25:0 26:1 27:0 28:0 29:0 30:0 31:0 32:0 33:0 34:0 35:0 36:0 37:0 38:0 39:0 40:0 41:0 42:0 43:0 44:0 45:0 46:0 47:0 48:0 49:0 50:0 51:0 52:0 53:0 54:0 55:0 56:0 57:0 58:0 59:0 60:0 61:0 62:0 63:0 64:0 65:0 66:0 67:0 68:1 69:0.59855954 70:0.70715603 71:0.73573809 72:0.5 73:0.68123134 74:0.5 75:0.68359708 76:0.5 77:0.55364789 78:0.56843779 79:0.56771539 80:0.64496813 81:0.5 82:1 83:0.5 84:0.6628079 85:0.61706911 86:0.58115262 87:0.58884689 88:0.63254138 89:0.62662697 90:0.52905059 91:0.68333657 92:0.74586772 
2.185812881468962 1:1 2:1 3:1 4:0 5:0 6:1 7:0 8:0 9:1 10:0 11:0 12:0 13:0 14:0 15:0 16:-1 17:-1 18:-1 19:-1 20:0 21:1 22:-1 23:0 24:0.00011109877 25:1 26:0 27:0 28:0 29:0 30:0 31:0 32:0 33:0 34:0 35:0 36:0 37:0 38:0 39:0 40:0 41:0 42:0 43:0 44:0 45:0 46:0 47:0 48:0 49:0 50:0 51:0 52:0 53:0 54:0 55:0 56:0 57:0 58:0 59:0 60:0 61:0 62:0 63:0 64:0 65:0 66:0 67:0 68:0.18041117 69:0.56605013 70:0 71:0.50612291 72:0 73:0.55777347 74:0.52334564 75:0.5 76:0.5 77:0.61724539 78:0.6777376 79:0.70838597 80:0.56925174 81:0.5 82:1 83:0.5 84:0.59736886 85:0.5 86:0.58115262 87:0.5 88:1 89:0.71105503 90:0.57986763 91:0.68468357 92:0.70858486 
13.88500127301758 1:1 2:0.64414567 3:1 4:0 5:1 6:0 7:1 8:0 9:0 10:0 11:0 12:1 13:0 14:0 15:1 16:-1 17:-1 18:-1 19:1 20:-1 21:-1 22:-1 23:0 24:0.00010001 25:1 26:0 27:0 28:0 29:0 30:0 31:0 32:0 33:0 34:0 35:0 36:0 37:0 38:0 39:0 40:0 41:0 42:0 43:0 44:0 45:0 46:0 47:0 48:0 49:0 50:0 51:0 52:0 53:0 54:0 55:0 56:0 57:0 58:0 59:0 60:0 61:0 62:0 63:0 64:0 65:0 66:0 67:0 68:0 69:0.58451828 70:0.54778244 71:0.5 72:0.5 73:0.52967212 74:0.70602165 75:0 76:0.5 77:0.59129813 78:0.64465256 79:0.55143031 80:0.56925174 81:0.57297177 82:1 83:0.5 84:0.52404624 85:0.5 86:0.64465256 87:0.64465256 88:1 89:0.70639955 90:0.69155669 91:0.67261717 92:0.70858486 
100 1:1 2:0.38963678 3:1 4:1 5:0 6:0 7:0 8:0 9:1 10:0 11:0 12:1 13:0 14:0 15:1 16:-1 17:-1 18:-1 19:-1 20:0 21:1 22:-1 23:0 24:0.000125 25:1 26:0 27:0 28:0 29:0 30:0 31:0 32:0 33:0 34:0 35:0 36:0 37:0 38:0 39:0 40:0 41:0 42:0 43:0 44:0 45:0 46:0 47:0 48:0 49:0 50:0 51:0 52:0 53:0 54:0 55:0 56:0 57:0 58:0 59:0 60:0 61:0 62:0 63:0 64:0 65:1 66:0 67:0 68:0.15779967 69:0.56605013 70:0 71:0.50612291 72:0 73:0.55777347 74:0.52334564 75:0.5 76:0.5 77:0.61724539 78:0.6777376 79:0.70838597 80:0.56925174 81:0.5 82:1 83:0.5 84:0.59736886 85:0.5 86:0.58115262 87:0.5 88:1 89:0.71105503 90:0.57986763 91:0.68468357 92:0.70858486 
100 1:1 2:0.83433826 3:0.33333333 4:1 5:0 6:0 7:0 8:0 9:1 10:0 11:0 12:0 13:1 14:1 15:0 16:-1 17:-1 18:-1 19:-1 20:-1 21:1 22:-1 23:-1 24:0.000125 25:0 26:1 27:0 28:0 29:0 30:0 31:0 32:0 33:0 34:0 35:0 36:0 37:0 38:0 39:0 40:0 41:0 42:0 43:0 44:0 45:0 46:0 47:0 48:0 49:0 50:0 51:0 52:0 53:0 54:0 55:0 56:0 57:0 58:0 59:0 60:0 61:0 62:0 63:0 64:0 65:1 66:0 67:0 68:0.15779967 69:0.56605013 70:0 71:0.50612291 72:0 73:0.55777347 74:0.52334564 75:0.5 76:0.5 77:0.61724539 78:0.6777376 79:0.70838597 80:0.56925174 81:0.5 82:1 83:0.5 84:0.59736886 85:0.5 86:0.58115262 87:0.5 88:1 89:0.71105503 90:0.57986763 91:0.68468357 92:0.70858486 
65.02853562439789 1:1 2:0.11853306 3:0.33333333 4:1 5:0 6:0 7:0 8:0 9:1 10:0 11:0 12:0 13:1 14:1 15:0 16:-1 17:-1 18:-1 19:-1 20:-1 21:1 22:-1 23:0 24:0.00011111111 25:0 26:1 27:0 28:0 29:1 30:0 31:1 32:0 33:0 34:0 35:0 36:0 37:0 38:0 39:0 40:0 41:0 42:0 43:0 44:0 45:0 46:0 47:0 48:0 49:0 50:0 51:0 52:0 53:0 54:0 55:0 56:0 57:0 58:0 59:0 60:0 61:0 62:1 63:0 64:0 65:0 66:1 67:0 68:0.25503523 69:0.51038642 70:0.66039891 71:0.50807294 72:0.55777347 73:0 74:0.6063333 75:0.52967212 76:0.56784907 77:0.5050425 78:0.64460208 79:0.50420289 80:0.65203413 81:0.5 82:0.5463616 83:0.60128764 84:0.67628317 85:0.68863457 86:0.61360789 87:0.60762919 88:1 89:1 90:0.64220114 91:0.73261993 92:0.60882724 
90.7101015996432 1:1 2:0.15626028 3:0.090909091 4:0 5:0 6:1 7:1 8:0 9:0 10:0 11:0 12:0 13:1 14:1 15:0 16:-1 17:-1 18:-1 19:-1 20:0 21:1 22:-1 23:0 24:0.00012504689 25:1 26:0 27:0 28:0 29:0 30:0 31:0 32:0 33:0 34:0 35:0 36:0 37:0 38:0 39:0 40:0 41:0 42:0 43:0 44:0 45:0 46:0 47:0 48:0 49:0 50:0 51:0 52:0 53:0 54:0 55:0 56:0 57:0 58:0 59:0 60:0 61:0 62:0 63:0 64:0 65:0 66:0 67:1 68:0.25412349 69:0.60704383 70:0.62672172 71:0.65637742 72:0.5 73:0.55777347 74:0.52334564 75:0.5 76:0.5 77:0.61724539 78:0.68764651 79:0.70838597 80:0.56925174 81:0.5 82:1 83:0.5 84:0.59736886 85:0.5 86:0.58115262 87:0.61113797 88:1 89:0.71105503 90:0.69599497 91:0.68468357 92:0.70858486 
11.50963138576419 1:1 2:0.90716254 3:0.33333333 4:0 5:1 6:0 7:1 8:0 9:0 10:0 11:0 12:0 13:1 14:1 15:0 16:-1 17:-1 18:-1 19:-1 20:-1 21:1 22:0 23:-1 24:0.00011113581 25:0 26:1 27:0 28:0 29:0 30:0 31:0 32:0 33:0 34:0 35:0 36:0 37:0 38:0 39:0 40:0 41:0 42:0 43:0 44:0 45:0 46:0 47:0 48:0 49:0 50:0 51:0 52:0 53:0 54:0 55:0 56:0 57:0 58:0 59:0 60:0 61:0 62:0 63:0 64:0 65:0 66:0 67:0 68:1 69:0.59855954 70:0.70715603 71:0.73573809 72:0.5 73:0.68123134 74:0.5 75:0.68359708 76:0.5 77:0.55364789 78:0.56843779 79:0.56771539 80:0.64496813 81:0.5 82:1 83:0.5 84:0.6628079 85:0.61706911 86:0.58115262 87:0.58884689 88:0.63254138 89:0.62662697 90:0.52905059 91:0.68333657 92:0.74586772 
94.79407854523957 1:1 2:0.33083752 3:1 4:1 5:0 6:0 7:0 8:0 9:1 10:0 11:0 12:1 13:0 14:0 15:1 16:-1 17:-1 18:-1 19:-1 20:0 21:1 22:0 23:0 24:0.00011114816 25:1 26:0 27:0 28:0 29:0 30:0 31:0 32:0 33:0 34:0 35:0 36:0 37:0 38:0 39:0 40:0 41:0 42:0 43:0 44:0 45:0 46:0 47:0 48:0 49:0 50:0 51:0 52:0 53:0 54:0 55:0 56:0 57:0 58:0 59:0 60:0 61:0 62:0 63:0 64:0 65:1 66:0 67:0 68:0.17733653 69:0.56605013 70:0 71:0.50612291 72:0 73:0.55777347 74:0.52334564 75:0.5 76:0.5 77:0.61724539 78:0.6777376 79:0.70838597 80:0.56925174 81:0.5 82:1 83:0.5 84:0.59736886 85:0.5 86:0.58115262 87:0.5 88:1 89:0.71105503 90:0.57986763 91:0.68468357 92:0.70858486 
100 1:1 2:0.38963678 3:1 4:1 5:0 6:0 7:0 8:0 9:1 10:0 11:0 12:1 13:0 14:0 15:1 16:-1 17:-1 18:-1 19:-1 20:0 21:1 22:-1 23:0 24:0.00012501563 25:1 26:0 27:0 28:0 29:0 30:0 31:0 32:0 33:0 34:0 35:0 36:0 37:0 38:0 39:0 40:0 41:0 42:0 43:0 44:0 45:0 46:0 47:0 48:0 49:0 50:0 51:0 52:0 53:0 54:0 55:0 56:0 57:0 58:0 59:0 60:0 61:0 62:0 63:0 64:0 65:1 66:0 67:0 68:0.15779967 69:0.56605013 70:0 71:0.50612291 72:0 73:0.55777347 74:0.52334564 75:0.5 76:0.5 77:0.61724539 78:0.6777376 79:0.70838597 80:0.56925174 81:0.5 82:1 83:0.5 84:0.59736886 85:0.5 86:0.58115262 87:0.5 88:1 89:0.71105503 90:0.57986763 91:0.68468357 92:0.70858486 
100 1:1 2:0.20879364 3:0.076923077 4:0 5:0 6:1 7:1 8:0 9:0 10:0 11:0 12:0 13:1 14:0 15:0 16:-1 17:-1 18:-1 19:-1 20:0 21:-1 22:-1 23:0 24:0.00011109877 25:0 26:1 27:0 28:0 29:0 30:0 31:0 32:0 33:0 34:0 35:0 36:0 37:0 38:0 39:0 40:0 41:0 42:0 43:0 44:0 45:0 46:0 47:0 48:0 49:0 50:0 51:0 52:0 53:0 54:0 55:0 56:0 57:0 58:0 59:0 60:0 61:0 62:0 63:0 64:0 65:0 66:0 67:0 68:0.1837735 69:0.60704383 70:0.62672172 71:0.65637742 72:0 73:0.55777347 74:0.52334564 75:0.5 76:0.5 77:0.61724539 78:0.68764651 79:0.70838597 80:0.56925174 81:0.5 82:1 83:0.5 84:0.59736886 85:0.5 86:0.58115262 87:0.61113797 88:1 89:0.71105503 90:0.69599497 91:0.68468357 92:0.70858486 
27.23548190855072 1:1 2:0.49432078 3:1 4:0 5:0 6:1 7:0 8:1 9:0 10:0 11:0 12:1 13:0 14:0 15:1 16:-1 17:-1 18:-1 19:-1 20:0 21:-1 22:-1 23:0 24:0.00011106175 25:1 26:0 27:0 28:0 29:0 30:0 31:0 32:0 33:0 34:0 35:0 36:0 37:0 38:0 39:0 40:0 41:0 42:0 43:0 44:0 45:0 46:0 47:0 48:0 49:0 50:0 51:0 52:0 53:0 54:0 55:0 56:0 57:0 58:0 59:0 60:0 61:0 62:0 63:0 64:0 65:0 66:0 67:0 68:0 69:0 70:0.56605013 71:0.5762336 72:0.60704383 73:0.51038642 74:0.60524874 75:0.58451828 76:0.57027391 77:0.51562859 78:0.67314117 79:1 80:1 81:0.51038642 82:1 83:0.50115272 84:0.70435108 85:1 86:0.61748695 87:1 88:1 89:0.65707077 90:0.64833298 91:1 92:1 
100 1:1 2:0.46660865 3:0.076923077 4:0 5:0 6:1 7:1 8:0 9:0 10:0 11:0 12:0 13:1 14:0 15:0 16:1 17:-1 18:-1 19:-1 20:0 21:-1 22:-1 23:0 24:0.00011111111 25:0 26:1 27:0 28:0 29:0 30:0 31:0 32:0 33:0 34:0 35:0 36:0 37:0 38:0 39:0 40:0 41:0 42:0 43:0 44:0 45:0 46:0 47:0 48:0 49:0 50:0 51:0 52:0 53:0 54:0 55:0 56:0 57:0 58:0 59:0 60:0 61:0 62:0 63:0 64:0 65:0 66:0 67:0 68:0 69:0.65931965 70:0.65433076 71:0.52599195 72:0.54776834 73:0.65286019 74:0.70116082 75:0.54776834 76:0.53404102 77:0.5727929 78:0.5841163 79:0.72370492 80:0.60185856 81:0.54664642 82:1 83:0.51650566 84:0.64839608 85:0.5060321 86:0.65329365 87:0.65329365 88:0.5907004 89:1 90:0.51792894 91:0.68634121 92:0.72388347 
100 1:1 2:0.47977053 3:1 4:1 5:0 6:0 7:1 8:0 9:0 10:0 11:0 12:1 13:0 14:0 15:1 16:-1 17:-1 18:-1 19:-1 20:-1 21:1 22:-1 23:-1 24:0.00011114816 25:1 26:0 27:0 28:0 29:0 30:0 31:0 32:0 33:0 34:0 35:0 36:0 37:0 38:0 39:0 40:0 41:0 42:0 43:0 44:0 45:0 46:0 47:0 48:0 49:0 50:0 51:0 52:0 53:0 54:0 55:0 56:0 57:0 58:0 59:0 60:0 61:0 62:0 63:0 64:0 65:1 66:0 67:0 68:0.15779967 69:0.60704383 70:0.62672172 71:0.65637742 72:0 73:0.55777347 74:0.52334564 75:0.5 76:0.5 77:0.61724539 78:0.68764651 79:0.70838597 80:0.56925174 81:0.5 82:1 83:0.5 84:0.59736886 85:0.5 86:0.58115262 87:0.61113797 88:1 89:0.71105503 90:0.69599497 91:0.68468357 92:0.70858486 
100 1:1 2:0.5181722 3:1 4:1 5:0 6:0 7:0 8:0 9:1 10:0 11:0 12:1 13:0 14:0 15:1 16:-1 17:-1 18:-1 19:-1 20:0 21:1 22:-1 23:0 24:0.00012498438 25:1 26:0 27:0 28:0 29:0 30:0 31:0 32:0 33:0 34:0 35:0 36:0 37:0 38:0 39:0 40:0 41:0 42:0 43:0 44:0 45:0 46:0 47:0 48:0 49:0 50:0 51:0 52:0 53:0 54:0 55:0 56:0 57:0 58:0 59:0 60:0 61:0 62:1 63:0 64:0 65:0 66:1 67:0 68:0.16863452 69:0.51038642 70:0.66039891 71:0.50807294 72:0.55777347 73:0 74:0.6063333 75:0.52967212 76:0.56784907 77:0.5050425 78:0.64460208 79:0.50420289 80:0.65203413 81:0.5 82:0.5463616 83:0.60128764 84:0.67628317 85:0.68863457 86:0.61360789 87:0.60762919 88:1 89:1 90:0.64220114 91:0.73261993 92:0.60882724 
100 1:1 2:0.64686553 3:0.33333333 4:0 5:1 6:0 7:0 8:0 9:1 10:0 11:0 12:0 13:1 14:1 15:0 16:-1 17:-1 18:-1 19:-1 20:0 21:1 22:0 23:-1 24:0.000125 25:0 26:1 27:0 28:0 29:0 30:0 31:0 32:0 33:0 34:0 35:0 36:0 37:0 38:0 39:0 40:0 41:0 42:0 43:0 44:0 45:0 46:0 47:0 48:0 49:0 50:0 51:0 52:0 53:0 54:0 55:0 56:0 57:0 58:0 59:0 60:0 61:0 62:0 63:0 64:0 65:1 66:0 67:0 68:0 69:0 70:0.56605013 71:0.5762336 72:0.60704383 73:0.51038642 74:0.60524874 75:0.58451828 76:0.57027391 77:0.51562859 78:0.67314117 79:1 80:1 81:0.51038642 82:1 83:0.50115272 84:0.70435108 85:1 86:0.61748695 87:1 88:1 89:0.65707077 90:0.64833298 91:1 92:1 
43.8698941303378 1:1 2:0.48148697 3:1 4:0 5:0 6:1 7:0 8:0 9:1 10:0 11:0 12:1 13:0 14:0 15:1 16:-1 17:-1 18:-1 19:-1 20:0 21:1 22:0 23:0 24:0.00011112346 25:1 26:0 27:0 28:0 29:0 30:0 31:1 32:0 33:0 34:0 35:0 36:0 37:0 38:0 39:0 40:0 41:0 42:0 43:0 44:0 45:0 46:0 47:0 48:0 49:0 50:0 51:0 52:0 53:0 54:0 55:0 56:0 57:0 58:0 59:0 60:0 61:0 62:0 63:0 64:0 65:0 66:0 67:0 68:0 69:1 70:0.67741851 71:0.69398685 72:0.57829527 73:0.71132442 74:0.71262429 75:0.5 76:0.53789987 77:1 78:0.53044878 79:0.73592856 80:0.626755 81:0.57218486 82:1 83:0.52006124 84:0.6341558 85:0.5 86:0.68259465 87:0.68259465 88:0.68640776 89:1 90:0.55196788 91:0.71051732 92:0.73609167 
100 1:1 2:0.36044913 3:0.33333333 4:1 5:0 6:0 7:1 8:0 9:0 10:0 11:0 12:0 13:1 14:1 15:0 16:-1 17:-1 18:-1 19:-1 20:-1 21:1 22:-1 23:0 24:0.00012496876 25:0 26:1 27:0 28:0 29:0 30:0 31:0 32:0 33:0 34:0 35:0 36:0 37:0 38:0 39:0 40:0 41:0 42:0 43:0 44:0 45:0 46:0 47:0 48:0 49:0 50:0 51:0 52:0 53:0 54:0 55:0 56:0 57:0 58:0 59:0 60:0 61:0 62:0 63:0 64:0 65:0 66:0 67:0 68:1 69:1 70:1 71:1 72:1 73:1 74:1 75:1 76:1 77:1 78:1 79:0.5 80:1 81:1 82:1 83:1 84:1 85:1 86:1 87:1 88:0.57706466 89:0.50957114 90:1 91:1 92:1 
40.84068028530236 1:1 2:0.37461378 3:1 4:1 5:0 6:0 7:1 8:0 9:0 10:0 11:0 12:1 13:0 14:0 15:1 16:-1 17:-1 18:-1 19:-1 20:-1 21:1 22:-1 23:0 24:0.00012496876 25:1 26:0 27:0 28:0 29:0 30:0 31:0 32:0 33:0 34:0 35:0 36:0 37:0 38:0 39:0 40:0 41:0 42:0 43:0 44:0 45:0 46:0 47:0 48:0 49:0 50:0 51:0 52:0 53:0 54:0 55:0 56:0 57:0 58:0 59:0 60:0 61:0 62:0 63:0 64:0 65:0 66:0 67:0 68:1 69:1 70:1 71:1 72:1 73:1 74:1 75:1 76:1 77:1 78:1 79:0.5 80:1 81:1 82:1 83:1 84:1 85:1 86:1 87:1 88:0.57706466 89:0.50957114 90:1 91:1 92:1 
100 1:1 2:0.38963678 3:1 4:1 5:0 6:0 7:0 8:0 9:1 10:0 11:0 12:1 13:0 14:0 15:1 16:-1 17:-1 18:-1 19:-1 20:0 21:1 22:-1 23:0 24:0.00012501563 25:1 26:0 27:0 28:0 29:0 30:0 31:0 32:0 33:0 34:0 35:0 36:0 37:0 38:0 39:0 40:0 41:0 42:0 43:0 44:0 45:0 46:0 47:0 48:0 49:0 50:0 51:0 52:0 53:0 54:0 55:0 56:0 57:0 58:0 59:0 60:0 61:0 62:0 63:0 64:0 65:1 66:0 67:0 68:0.15779967 69:0.56605013 70:0 71:0.50612291 72:0 73:0.55777347 74:0.52334564 75:0.5 76:0.5 77:0.61724539 78:0.6777376 79:0.70838597 80:0.56925174 81:0.5 82:1 83:0.5 84:0.59736886 85:0.5 86:0.58115262 87:0.5 88:1 89:0.71105503 90:0.57986763 91:0.68468357 92:0.70858486 
100 1:1 2:0.85261022 3:0.33333333 4:1 5:0 6:0 7:0 8:0 9:1 10:0 11:0 12:0 13:1 14:1 15:0 16:-1 17:-1 18:-1 19:-1 20:-1 21:1 22:0 23:0 24:0.00010009008 25:0 26:1 27:0 28:0 29:1 30:0 31:0 32:0 33:0 34:0 35:0 36:0 37:0 38:0 39:0 40:0 41:0 42:0 43:0 44:0 45:0 46:0 47:0 48:0 49:0 50:0 51:0 52:0 53:0 54:0 55:0 56:0 57:0 58:0 59:0 60:0 61:0 62:0 63:0 64:0 65:1 66:0 67:0 68:1 69:1 70:1 71:1 72:1 73:1 74:1 75:1 76:1 77:1 78:1 79:1 80:1 81:1 82:1 83:1 84:1 85:1 86:1 87:1 88:1 89:1 90:1 91:1 92:1 
100 1:1 2:0.18864681 3:1 4:1 5:0 6:0 7:0 8:0 9:1 10:0 11:0 12:1 13:0 14:0 15:1 16:-1 17:-1 18:-1 19:-1 20:0 21:1 22:0 23:0 24:0.00010011012 25:1 26:0 27:0 28:0 29:1 30:0 31:0 32:0 33:0 34:0 35:0 36:0 37:0 38:0 39:0 40:0 41:0 42:0 43:0 44:0 45:0 46:0 47:0 48:0 49:0 50:0 51:0 52:0 53:0 54:0 55:0 56:0 57:0 58:0 59:0 60:0 61:0 62:0 63:0 64:0 65:1 66:0 67:0 68:0.17733653 69:0.56605013 70:0 71:0.50612291 72:0 73:0.55777347 74:0.52334564 75:0.5 76:0.5 77:0.61724539 78:0.6777376 79:0.70838597 80:0.56925174 81:0.5 82:1 83:0.5 84:0.59736886 85:0.5 86:0.58115262 87:0.5 88:1 89:0.71105503 90:0.57986763 91:0.68468357 92:0.70858486 
100 1:1 2:0.17088601 3:1 4:1 5:0 6:0 7:1 8:0 9:0 10:0 11:0 12:0 13:1 14:1 15:0 16:-1 17:-1 18:-1 19:-1 20:-1 21:1 22:-1 23:0 24:0.00011104942 25:1 26:0 27:0 28:0 29:0 30:0 31:0 32:0 33:0 34:0 35:0 36:0 37:0 38:0 39:0 40:0 41:0 42:0 43:0 44:0 45:0 46:0 47:0 48:0 49:0 50:0 51:0 52:0 53:0 54:0 55:0 56:0 57:0 58:0 59:0 60:0 61:0 62:0 63:0 64:0 65:1 66:0 67:0 68:0.183294 69:0.65799256 70:1 71:0.72288004 72:0.63348079 73:0.6510415 74:0.731929 75:0.71389304 76:0.50098115 77:0.64773781 78:0.71948447 79:0.76862013 80:0.68888528 81:0.61455812 82:1 83:0.63348079 84:0.74558164 85:0.71717778 86:0.72265931 87:0.61799443 88:0.75120988 89:0.56728116 90:0.72109867 91:0.74421714 92:0.76874536 
72.65833968491287 1:1 2:0.45215549 3:1 4:0 5:1 6:0 7:0 8:1 9:0 10:0 11:0 12:1 13:0 14:0 15:1 16:-1 17:-1 18:-1 19:-1 20:-1 21:1 22:-1 23:-1 24:0.000125 25:1 26:0 27:0 28:0 29:0 30:0 31:0 32:0 33:0 34:0 35:0 36:0 37:0 38:0 39:0 40:0 41:0 42:0 43:0 44:0 45:0 46:0 47:0 48:0 49:0 50:0 51:0 52:0 53:0 54:0 55:0 56:0 57:0 58:0 59:0 60:0 61:0 62:0 63:0 64:0 65:1 66:0 67:0 68:1 69:1 70:1 71:1 72:1 73:1 74:1 75:1 76:1 77:1 78:1 79:1 80:1 81:1 82:1 83:1 84:1 85:1 86:1 87:1 88:1 89:1 90:1 91:1 92:1 
75.62070063831483 1:1 2:0.53391833 3:0.33333333 4:0 5:1 6:0 7:0 8:1 9:0 10:0 11:0 12:0 13:1 14:1 15:0 16:-1 17:-1 18:-1 19:-1 20:0 21:1 22:-1 23:-1 24:0.000125 25:0 26:1 27:0 28:0 29:0 30:0 31:0 32:0 33:0 34:0 35:0 36:0 37:0 38:0 39:0 40:0 41:0 42:0 43:0 44:0 45:0 46:0 47:0 48:0 49:0 50:0 51:0 52:0 53:0 54:0 55:0 56:0 57:0 58:0 59:0 60:0 61:0 62:0 63:0 64:0 65:1 66:0 67:0 68:1 69:1 70:1 71:1 72:1 73:1 74:1 75:1 76:1 77:1 78:1 79:1 80:1 81:1 82:1 83:1 84:1 85:1 86:1 87:1 88:1 89:1 90:1 91:1 92:1 
100 1:1 2:0.28870097 3:1 4:0 5:1 6:0 7:0 8:0 9:1 10:0 11:0 12:1 13:0 14:0 15:1 16:-1 17:-1 18:-1 19:-1 20:-1 21:1 22:0 23:0 24:0.00012504689 25:1 26:0 27:0 28:0 29:0 30:0 31:0 32:0 33:0 34:0 35:0 36:0 37:0 38:0 39:0 40:0 41:0 42:0 43:0 44:0 45:0 46:0 47:0 48:0 49:0 50:0 51:0 52:0 53:0 54:0 55:0 56:0 57:0 58:0 59:0 60:0 61:0 62:0 63:0 64:0 65:0 66:0 67:0 68:1 69:1 70:1 71:1 72:1 73:1 74:1 75:1 76:1 77:1 78:1 79:1 80:1 81:1 82:1 83:1 84:1 85:1 86:1 87:1 88:1 89:1 90:1 91:1 92:1 
100 1:1 2:0.21542477 3:0.33333333 4:0 5:1 6:0 7:0 8:0 9:1 10:0 11:0 12:0 13:1 14:1 15:0 16:-1 17:-1 18:-1 19:-1 20:-1 21:1 22:0 23:0 24:0.00012504689 25:0 26:1 27:0 28:0 29:0 30:0 31:0 32:0 33:0 34:0 35:0 36:0 37:0 38:0 39:0 40:0 41:0 42:0 43:0 44:0 45:0 46:0 47:0 48:0 49:0 50:0 51:0 52:0 53:0 54:0 55:0 56:0 57:0 58:0 59:0 60:0 61:0 62:0 63:0 64:0 65:0 66:0 67:0 68:1 69:1 70:1 71:1 72:1 73:1 74:1 75:1 76:1 77:1 78:1 79:1 80:1 81:1 82:1 83:1 84:1 85:1 86:1 87:1 88:1 89:1 90:1 91:1 92:1 
52.81628239254994 1:1 2:0.69714078 3:1 4:0 5:0 6:1 7:1 8:0 9:0 10:0 11:0 12:1 13:0 14:0 15:1 16:-1 17:-1 18:-1 19:-1 20:-1 21:1 22:-1 23:0 24:0.00011088933 25:1 26:0 27:0 28:0 29:0 30:0 31:0 32:0 33:0 34:0 35:0 36:0 37:0 38:0 39:0 40:0 41:0 42:0 43:0 44:0 45:0 46:0 47:0 48:0 49:0 50:0 51:0 52:0 53:0 54:0 55:0 56:0 57:0 58:0 59:0 60:0 61:0 62:0 63:0 64:0 65:0 66:0 67:0 68:0 69:0.58451828 70:0.54778244 71:0.5 72:0.5 73:0.52967212 74:0.70602165 75:0 76:0.5 77:0.59129813 78:0.64465256 79:0.55143031 80:0.56925174 81:0.57297177 82:1 83:0.5 84:0.52404624 85:0.5 86:0.64465256 87:0.64465256 88:1 89:0.70639955 90:0.69155669 91:0.67261717 92:0.70858486 
24.65990242070645 1:1 2:0.8498551 3:1 4:1 5:0 6:0 7:0 8:0 9:1 10:0 11:0 12:0 13:1 14:1 15:0 16:-1 17:-1 18:-1 19:-1 20:-1 21:1 22:-1 23:-1 24:0.00010011012 25:1 26:0 27:0 28:0 29:1 30:1 31:0 32:0 33:0 34:0 35:0 36:0 37:0 38:0 39:0 40:0 41:0 42:0 43:0 44:0 45:0 46:0 47:0 48:0 49:0 50:0 51:0 52:0 53:0 54:0 55:0 56:0 57:0 58:0 59:0 60:0 61:0 62:0 63:0 64:0 65:0 66:0 67:0 68:0 69:1 70:0.67741851 71:0.69398685 72:0.57829527 73:0.71132442 74:0.71262429 75:0.5 76:0.53789987 77:1 78:0.53044878 79:0.73592856 80:0.626755 81:0.57218486 82:1 83:0.52006124 84:0.6341558 85:0.5 86:0.68259465 87:0.68259465 88:0.68640776 89:1 90:0.55196788 91:0.71051732 92:0.73609167 
52.62732489108022 1:1 2:0.65883185 3:0.33333333 4:1 5:0 6:0 7:0 8:0 9:1 10:0 11:0 12:1 13:0 14:0 15:1 16:-1 17:-1 18:-1 19:-1 20:0 21:1 22:-1 23:-1 24:0.00010011012 25:0 26:1 27:0 28:0 29:1 30:1 31:0 32:0 33:0 34:0 35:0 36:0 37:0 38:0 39:0 40:0 41:0 42:0 43:0 44:0 45:0 46:0 47:0 48:0 49:0 50:0 51:0 52:0 53:0 54:0 55:0 56:0 57:0 58:0 59:0 60:0 61:0 62:0 63:0 64:0 65:0 66:0 67:0 68:0 69:1 70:0.67741851 71:0.69398685 72:0.57829527 73:0.71132442 74:0.71262429 75:0.5 76:0.53789987 77:1 78:0.53044878 79:0.73592856 80:0.626755 81:0.57218486 82:1 83:0.52006124 84:0.6341558 85:0.5 86:0.68259465 87:0.68259465 88:0.68640776 89:1 90:0.55196788 91:0.71051732 92:0.73609167 
100 1:1 2:0.70974167 3:1 4:0 5:0 6:1 7:0 8:0 9:1 10:0 11:0 12:1 13:0 14:0 15:1 16:-1 17:-1 18:-1 19:-1 20:0 21:1 22:0 23:0 24:0.00011114816 25:1 26:0 27:0 28:0 29:1 30:0 31:0 32:0 33:0 34:0 35:1 36:0 37:0 38:0 39:0 40:0 41:0 42:0 43:0 44:0 45:0 46:0 47:0 48:0 49:0 50:0 51:0 52:0 53:0 54:0 55:0 56:0 57:0 58:0 59:0 60:0 61:0 62:0 63:0 64:0 65:0 66:0 67:0 68:1 69:1 70:0.50491058 71:1 72:1 73:0.63388244 74:0.65140831 75:1 76:1 77:1 78:0.5123428 79:1 80:0.64074893 81:0.55111436 82:0.61793677 83:1 84:0.58038581 85:1 86:0.5123428 87:0.65270909 88:1 89:1 90:1 91:1 92:1 
3.081946549794266 1:1 2:0.54239695 3:1 4:0 5:0 6:1 7:0 8:0 9:1 10:0 11:0 12:1 13:0 14:0 15:1 16:-1 17:-1 18:-1 19:-1 20:0 21:1 22:0 23:0 24:0.00011104942 25:1 26:0 27:0 28:0 29:0 30:0 31:0 32:0 33:0 34:0 35:1 36:0 37:0 38:0 39:0 40:0 41:0 42:0 43:0 44:0 45:0 46:0 47:0 48:0 49:0 50:0 51:0 52:0 53:0 54:0 55:1 56:0 57:0 58:0 59:0 60:0 61:0 62:0 63:0 64:0 65:0 66:0 67:0 68:0.1473395 69:1 70:0.50491058 71:1 72:1 73:0.63388244 74:0.65140831 75:1 76:1 77:1 78:0.5123428 79:1 80:0.64074893 81:0.55111436 82:0.61793677 83:1 84:0.58038581 85:1 86:0.5123428 87:0.65270909 88:1 89:1 90:1 91:1 92:1 
69.24811941531908 1:1 2:0.83128742 3:0.33333333 4:0 5:0 6:1 7:0 8:0 9:1 10:0 11:0 12:1 13:0 14:0 15:1 16:-1 17:-1 18:-1 19:-1 20:0 21:1 22:-1 23:0 24:0.00010009008 25:0 26:1 27:0 28:0 29:0 30:1 31:0 32:0 33:0 34:0 35:0 36:0 37:0 38:0 39:0 40:0 41:0 42:0 43:0 44:0 45:0 46:0 47:0 48:0 49:0 50:0 51:0 52:1 53:0 54:0 55:0 56:0 57:0 58:0 59:0 60:0 61:0 62:0 63:0 64:0 65:0 66:0 67:0 68:0.23058977 69:1 70:0.62621104 71:0.70065228 72:0.5005164 73:0.50173507 74:0.51923787 75:0.5 76:0.5 77:1 78:0.687289 79:0.74090695 80:0.63662376 81:0.52888705 82:1 83:0.71426958 84:1 85:0.67463911 86:0.70369665 87:0.687289 88:1 89:1 90:1 91:0.72236446 92:0.74106397 
100 1:1 2:0.79072442 3:1 4:0 5:0 6:1 7:0 8:0 9:1 10:0 11:0 12:0 13:1 14:1 15:0 16:-1 17:-1 18:-1 19:-1 20:0 21:1 22:-1 23:0 24:0.00010009008 25:1 26:0 27:0 28:0 29:0 30:1 31:0 32:0 33:0 34:0 35:0 36:0 37:0 38:0 39:0 40:0 41:0 42:0 43:0 44:0 45:0 46:0 47:0 48:0 49:0 50:0 51:0 52:1 53:0 54:0 55:0 56:0 57:0 58:0 59:0 60:0 61:0 62:0 63:0 64:0 65:0 66:0 67:0 68:0.23058977 69:1 70:0.62621104 71:0.70065228 72:0.5005164 73:0.50173507 74:0.51923787 75:0.5 76:0.5 77:1 78:0.687289 79:0.74090695 80:0.63662376 81:0.52888705 82:1 83:0.71426958 84:1 85:0.67463911 86:0.70369665 87:0.687289 88:1 89:1 90:1 91:0.72236446 92:0.74106397 
100 1:1 2:0.64811794 3:0.33333333 4:0 5:0 6:1 7:1 8:0 9:0 10:0 11:0 12:1 13:0 14:0 15:1 16:-1 17:-1 18:-1 19:-1 20:-1 21:1 22:-1 23:0 24:0.00011104942 25:0 26:1 27:0 28:0 29:0 30:1 31:0 32:0 33:0 34:0 35:0 36:0 37:0 38:0 39:0 40:0 41:0 42:0 43:0 44:0 45:0 46:0 47:0 48:0 49:0 50:0 51:0 52:0 53:0 54:0 55:0 56:0 57:0 58:0 59:0 60:0 61:0 62:0 63:0 64:0 65:0 66:0 67:0 68:0.15779967 69:0.60704383 70:0.62672172 71:0.65637742 72:0.5 73:0.55777347 74:0.52334564 75:0.5 76:0.5 77:0.61724539 78:0.68764651 79:0.70838597 80:0.56925174 81:0.5 82:1 83:0.5 84:0.59736886 85:0.5 86:0.58115262 87:0.61113797 88:1 89:0.71105503 90:0.69599497 91:0.68468357 92:0.70858486 
100 1:1 2:0.32101201 3:1 4:0 5:0 6:1 7:0 8:1 9:0 10:0 11:0 12:1 13:0 14:0 15:1 16:-1 17:-1 18:-1 19:-1 20:-1 21:1 22:-1 23:0 24:0.00011098779 25:1 26:0 27:0 28:0 29:0 30:0 31:0 32:0 33:0 34:0 35:0 36:0 37:0 38:0 39:0 40:0 41:0 42:0 43:0 44:0 45:0 46:0 47:0 48:0 49:0 50:0 51:0 52:0 53:0 54:0 55:0 56:0 57:0 58:0 59:0 60:0 61:0 62:0 63:0 64:0 65:0 66:0 67:0 68:1 69:1 70:1 71:1 72:1 73:1 74:1 75:1 76:1 77:1 78:1 79:1 80:1 81:1 82:1 83:1 84:1 85:1 86:1 87:1 88:1 89:1 90:1 91:1 92:1 
88.73926438032778 1:1 2:0.91948495 3:1 4:0 5:1 6:0 7:0 8:1 9:0 10:0 11:0 12:0 13:1 14:1 15:0 16:-1 17:-1 18:-1 19:-1 20:-1 21:1 22:-1 23:0 24:0.00010012014 25:1 26:0 27:0 28:0 29:1 30:1 31:0 32:0 33:0 34:0 35:0 36:0 37:0 38:0 39:0 40:0 41:0 42:0 43:0 44:0 45:0 46:0 47:0 48:0 49:0 50:0 51:0 52:0 53:0 54:0 55:0 56:0 57:0 58:0 59:0 60:0 61:0 62:0 63:0 64:0 65:0 66:0 67:0 68:1 69:0.69024261 70:0.62672172 71:0.73151874 72:0.5 73:0.67138459 74:0.60125509 75:0.60354408 76:0.52626943 77:0.68100886 78:0.68763627 79:0.74541722 80:0.6907487 81:0.56677953 82:1 83:0.52843144 84:0.64876748 85:0.63083031 86:0.68763627 87:0.68763627 88:1 89:0.73637301 90:0.72786654 91:0.7094524 92:0.76296625 
59.72565346584794 1:1 2:0.88012589 3:0.090909091 4:1 5:0 6:0 7:0 8:0 9:1 10:0 11:0 12:1 13:0 14:0 15:0 16:-1 17:-1 18:-1 19:-1 20:0 21:-1 22:-1 23:0 24:0.00011107409 25:1 26:0 27:0 28:0 29:0 30:0 31:0 32:0 33:0 34:0 35:0 36:0 37:0 38:0 39:0 40:0 41:0 42:0 43:0 44:0 45:0 46:0 47:0 48:0 49:0 50:0 51:0 52:0 53:0 54:0 55:0 56:0 57:0 58:0 59:0 60:0 61:0 62:0 63:0 64:0 65:0 66:0 67:0 68:0.26317136 69:0 70:0.56605013 71:0.5762336 72:0.60704383 73:0.51038642 74:0.60524874 75:0.58451828 76:0.57027391 77:0.51562859 78:0.67314117 79:1 80:1 81:0.51038642 82:1 83:0.50115272 84:0.70435108 85:1 86:0.61748695 87:1 88:1 89:0.65707077 90:0.64833298 91:1 92:1 
100 1:1 2:0.74118953 3:0.33333333 4:0 5:1 6:0 7:0 8:1 9:0 10:0 11:0 12:0 13:1 14:1 15:0 16:-1 17:-1 18:-1 19:-1 20:-1 21:1 22:0 23:-1 24:0.00011106175 25:0 26:1 27:0 28:0 29:1 30:0 31:0 32:0 33:0 34:0 35:0 36:0 37:0 38:0 39:0 40:0 41:0 42:0 43:0 44:0 45:0 46:0 47:0 48:0 49:0 50:0 51:0 52:0 53:0 54:0 55:0 56:0 57:0 58:0 59:0 60:0 61:0 62:0 63:0 64:0 65:0 66:0 67:0 68:1 69:0 70:0.56605013 71:0.5762336 72:0.60704383 73:0.51038642 74:0.60524874 75:0.58451828 76:0.57027391 77:0.51562859 78:0.67314117 79:1 80:1 81:0.51038642 82:1 83:0.50115272 84:0.70435108 85:1 86:0.61748695 87:1 88:1 89:0.65707077 90:0.64833298 91:1 92:1 
42.62661831895854 1:1 2:0.36475506 3:0.33333333 4:0 5:0 6:1 7:0 8:1 9:0 10:0 11:0 12:0 13:1 14:1 15:0 16:-1 17:-1 18:-1 19:-1 20:0 21:1 22:-1 23:0 24:0.00012495314 25:0 26:1 27:0 28:0 29:0 30:0 31:0 32:0 33:0 34:1 35:0 36:0 37:0 38:0 39:0 40:0 41:0 42:0 43:0 44:0 45:0 46:0 47:0 48:0 49:0 50:0 51:0 52:0 53:0 54:0 55:0 56:0 57:0 58:0 59:0 60:0 61:0 62:0 63:0 64:0 65:0 66:0 67:0 68:1 69:1 70:1 71:1 72:1 73:1 74:1 75:1 76:1 77:1 78:1 79:1 80:1 81:1 82:1 83:1 84:1 85:1 86:1 87:1 88:1 89:1 90:1 91:1 92:1 
1.757452014973919 1:1 2:0.41658522 3:1 4:0 5:0 6:1 7:0 8:1 9:0 10:0 11:0 12:1 13:0 14:0 15:1 16:-1 17:-1 18:-1 19:-1 20:-1 21:1 22:-1 23:0 24:0.00012495314 25:1 26:0 27:0 28:0 29:0 30:0 31:0 32:0 33:0 34:1 35:0 36:0 37:0 38:0 39:0 40:0 41:0 42:0 43:0 44:0 45:0 46:0 47:0 48:0 49:0 50:0 51:0 52:0 53:0 54:0 55:0 56:0 57:0 58:0 59:0 60:0 61:0 62:0 63:0 64:0 65:0 66:0 67:0 68:1 69:1 70:1 71:1 72:1 73:1 74:1 75:1 76:1 77:1 78:1 79:1 80:1 81:1 82:1 83:1 84:1 85:1 86:1 87:1 88:1 89:1 90:1 91:1 92:1 
21.59888181944468 1:1 2:0.76773622 3:1 4:0 5:0 6:1 7:0 8:0 9:1 10:0 11:0 12:1 13:0 14:0 15:1 16:-1 17:-1 18:-1 19:-1 20:0 21:1 22:-1 23:0 24:0.00011112346 25:1 26:0 27:0 28:0 29:1 30:1 31:0 32:0 33:0 34:1 35:0 36:0 37:0 38:0 39:0 40:0 41:0 42:0 43:0 44:0 45:0 46:0 47:0 48:0 49:0 50:0 51:0 52:0 53:0 54:0 55:0 56:0 57:0 58:0 59:0 60:0 61:0 62:0 63:0 64:0 65:0 66:0 67:0 68:0 69:0.67993465 70:1 71:0.74004515 72:0.61250952 73:0.57977731 74:0.68069645 75:0.61250952 76:0.55690008 77:0.67275644 78:0.66247993 79:1 80:0.51216738 81:0.57012377 82:0.63773265 83:0.74987787 84:0.69286129 85:1 86:0.66247993 87:0.68185809 88:1 89:0.75250071 90:0.73701725 91:1 92:1 
100 1:1 2:0.34902821 3:0.33333333 4:0 5:0 6:1 7:0 8:0 9:1 10:0 11:0 12:0 13:1 14:1 15:0 16:-1 17:-1 18:-1 19:-1 20:0 21:1 22:-1 23:0 24:0.00011112346 25:0 26:1 27:0 28:0 29:1 30:1 31:0 32:0 33:0 34:1 35:0 36:0 37:0 38:0 39:0 40:0 41:0 42:0 43:0 44:0 45:0 46:0 47:0 48:0 49:0 50:0 51:0 52:0 53:0 54:0 55:0 56:0 57:0 58:0 59:0 60:0 61:0 62:0 63:0 64:0 65:0 66:0 67:0 68:0 69:0.67993465 70:1 71:0.74004515 72:0.61250952 73:0.57977731 74:0.68069645 75:0.61250952 76:0.55690008 77:0.67275644 78:0.66247993 79:1 80:0.51216738 81:0.57012377 82:0.63773265 83:0.74987787 84:0.69286129 85:1 86:0.66247993 87:0.68185809 88:1 89:0.75250071 90:0.73701725 91:1 92:1 
100 1:1 2:0.54239695 3:1 4:0 5:0 6:1 7:0 8:0 9:1 10:0 11:0 12:1 13:0 14:0 15:1 16:-1 17:-1 18:-1 19:-1 20:0 21:1 22:0 23:0 24:0.00011104942 25:1 26:0 27:0 28:0 29:0 30:0 31:0 32:0 33:0 34:0 35:1 36:0 37:0 38:0 39:0 40:0 41:0 42:0 43:0 44:0 45:0 46:0 47:0 48:0 49:0 50:0 51:0 52:0 53:0 54:0 55:1 56:0 57:0 58:0 59:0 60:0 61:0 62:0 63:0 64:0 65:0 66:0 67:0 68:0.1473395 69:1 70:0.50491058 71:1 72:1 73:0.63388244 74:0.65140831 75:1 76:1 77:1 78:0.5123428 79:1 80:0.64074893 81:0.55111436 82:0.61793677 83:1 84:0.58038581 85:1 86:0.5123428 87:0.65270909 88:1 89:1 90:1 91:1 92:1 
100 1:1 2:0.42686231 3:1 4:0 5:0 6:1 7:0 8:0 9:1 10:0 11:0 12:1 13:0 14:0 15:1 16:-1 17:-1 18:-1 19:-1 20:0 21:1 22:-1 23:0 24:0.00012462612 25:1 26:0 27:0 28:0 29:0 30:0 31:0 32:0 33:0 34:0 35:0 36:0 37:0 38:0 39:1 40:0 41:0 42:0 43:0 44:0 45:0 46:0 47:0 48:0 49:0 50:0 51:0 52:0 53:0 54:0 55:0 56:0 57:1 58:0 59:0 60:0 61:0 62:0 63:0 64:0 65:0 66:0 67:0 68:0 69:0.70435108 70:1 71:0.76657414 72:0.59736886 73:0.67628317 74:0.69006109 75:0.52404624 76:0.62427459 77:1 78:0.59025458 79:1 80:0.68397625 81:0.59628465 82:0.66645747 83:0.52118108 84:0 85:0.60178421 86:0.59025458 87:0.69108982 88:0.70872819 89:0.76735766 90:0.68567938 91:0.73718668 92:1 
100 1:1 2:0.34252898 3:1 4:0 5:0 6:1 7:0 8:0 9:1 10:0 11:0 12:1 13:0 14:0 15:1 16:-1 17:-1 18:-1 19:-1 20:0 21:1 22:-1 23:0 24:0.00012462612 25:1 26:0 27:0 28:0 29:0 30:0 31:0 32:0 33:0 34:0 35:0 36:0 37:0 38:0 39:1 40:0 41:0 42:0 43:0 44:0 45:0 46:0 47:0 48:0 49:0 50:0 51:0 52:0 53:0 54:0 55:0 56:0 57:1 58:0 59:0 60:0 61:0 62:0 63:0 64:0 65:0 66:0 67:0 68:0 69:0.70435108 70:1 71:0.76657414 72:0.59736886 73:0.67628317 74:0.69006109 75:0.52404624 76:0.62427459 77:1 78:0.59025458 79:1 80:0.68397625 81:0.59628465 82:0.66645747 83:0.52118108 84:0 85:0.60178421 86:0.59025458 87:0.69108982 88:0.70872819 89:0.76735766 90:0.68567938 91:0.73718668 92:1 
100 1:1 2:0.29555062 3:1 4:0 5:0 6:1 7:0 8:0 9:1 10:0 11:0 12:1 13:0 14:0 15:1 16:-1 17:-1 18:-1 19:-1 20:0 21:1 22:-1 23:0 24:0.00012462612 25:1 26:0 27:0 28:0 29:0 30:0 31:0 32:0 33:0 34:0 35:0 36:0 37:0 38:0 39:1 40:0 41:0 42:0 43:0 44:0 45:0 46:0 47:0 48:0 49:0 50:0 51:0 52:0 53:0 54:0 55:0 56:0 57:1 58:0 59:0 60:0 61:0 62:0 63:0 64:0 65:0 66:0 67:0 68:0 69:0.70435108 70:1 71:0.76657414 72:0.59736886 73:0.67628317 74:0.69006109 75:0.52404624 76:0.62427459 77:1 78:0.59025458 79:1 80:0.68397625 81:0.59628465 82:0.66645747 83:0.52118108 84:0 85:0.60178421 86:0.59025458 87:0.69108982 88:0.70872819 89:0.76735766 90:0.68567938 91:0.73718668 92:1 
9.654065025884725 1:1 2:0.52419187 3:1 4:0 5:0 6:1 7:1 8:0 9:0 10:0 11:0 12:1 13:0 14:0 15:1 16:-1 17:-1 18:-1 19:-1 20:-1 21:-1 22:-1 23:-1 24:0.00011097547 25:1 26:0 27:0 28:0 29:0 30:0 31:0 32:0 33:0 34:0 35:0 36:0 37:0 38:0 39:0 40:0 41:0 42:0 43:0 44:0 45:0 46:0 47:0 48:0 49:0 50:0 51:0 52:1 53:0 54:0 55:0 56:0 57:0 58:0 59:0 60:0 61:0 62:0 63:0 64:0 65:0 66:0 67:0 68:1 69:1 70:1 71:1 72:0.59930189 73:1 74:1 75:0.57205517 76:0.5 77:1 78:1 79:1 80:1 81:1 82:1 83:0.59930189 84:0.62427459 85:0.60367517 86:1 87:1 88:1 89:1 90:1 91:1 92:1 
100 1:1 2:0.5497327 3:1 4:0 5:0 6:1 7:1 8:0 9:0 10:0 11:0 12:1 13:0 14:0 15:1 16:-1 17:-1 18:-1 19:-1 20:-1 21:1 22:-1 23:0 24:0.00012490632 25:1 26:0 27:0 28:0 29:0 30:0 31:0 32:0 33:0 34:0 35:0 36:0 37:0 38:0 39:0 40:0 41:0 42:0 43:0 44:0 45:0 46:0 47:0 48:0 49:0 50:0 51:0 52:0 53:0 54:0 55:0 56:0 57:0 58:0 59:0 60:0 61:0 62:1 63:0 64:0 65:0 66:1 67:0 68:0.12298168 69:0.51038642 70:0.66039891 71:0.50807294 72:0.55777347 73:0.5 74:0.6063333 75:0.52967212 76:0.56784907 77:0.5050425 78:0.64460208 79:0.50420289 80:0.65203413 81:0.5 82:0.5463616 83:0.60128764 84:0.67628317 85:0.68863457 86:0.61360789 87:0.60762919 88:1 89:1 90:0.64220114 91:0.73261993 92:0.60882724 
31.92774420174305 1:1 2:0.55203988 3:1 4:0 5:0 6:1 7:1 8:0 9:0 10:0 11:0 12:1 13:0 14:0 15:1 16:-1 17:-1 18:-1 19:-1 20:-1 21:1 22:-1 23:0 24:0.00012490632 25:1 26:0 27:0 28:0 29:0 30:0 31:0 32:0 33:0 34:0 35:0 36:0 37:0 38:0 39:0 40:0 41:0 42:0 43:0 44:0 45:0 46:0 47:0 48:0 49:0 50:0 51:0 52:0 53:0 54:0 55:0 56:0 57:0 58:0 59:0 60:0 61:0 62:1 63:0 64:0 65:0 66:1 67:0 68:0.12298168 69:0.51038642 70:0.66039891 71:0.50807294 72:0.55777347 73:0.5 74:0.6063333 75:0.52967212 76:0.56784907 77:0.5050425 78:0.64460208 79:0.50420289 80:0.65203413 81:0.5 82:0.5463616 83:0.60128764 84:0.67628317 85:0.68863457 86:0.61360789 87:0.60762919 88:1 89:1 90:0.64220114 91:0.73261993 92:0.60882724 
100 1:1 2:0.020394082 3:1 4:0 5:0 6:1 7:0 8:1 9:0 10:0 11:0 12:1 13:0 14:0 15:1 16:-1 17:-1 18:-1 19:-1 20:-1 21:1 22:-1 23:-1 24:0.00011107409 25:1 26:0 27:0 28:0 29:0 30:0 31:0 32:0 33:0 34:0 35:0 36:0 37:0 38:0 39:0 40:0 41:0 42:0 43:0 44:0 45:0 46:0 47:0 48:0 49:0 50:0 51:0 52:0 53:0 54:0 55:0 56:0 57:0 58:0 59:0 60:0 61:0 62:0 63:0 64:0 65:0 66:0 67:0 68:1 69:1 70:1 71:1 72:1 73:1 74:1 75:1 76:1 77:1 78:1 79:1 80:1 81:1 82:1 83:1 84:1 85:1 86:1 87:1 88:1 89:1 90:1 91:1 92:1 
100 1:1 2:0.083658915 3:1 4:0 5:0 6:1 7:0 8:1 9:0 10:0 11:0 12:1 13:0 14:0 15:1 16:-1 17:-1 18:-1 19:-1 20:-1 21:-1 22:-1 23:0 24:0.00011108643 25:1 26:0 27:0 28:0 29:0 30:0 31:0 32:0 33:0 34:0 35:0 36:0 37:0 38:0 39:0 40:0 41:0 42:0 43:0 44:0 45:0 46:0 47:0 48:0 49:0 50:0 51:0 52:0 53:0 54:0 55:0 56:0 57:0 58:0 59:0 60:0 61:0 62:0 63:0 64:0 65:0 66:0 67:0 68:1 69:1 70:1 71:1 72:1 73:1 74:1 75:1 76:1 77:1 78:1 79:1 80:1 81:1 82:1 83:1 84:1 85:1 86:1 87:1 88:1 89:1 90:1 91:1 92:1 
100 1:1 2:0.21005722 3:1 4:1 5:0 6:0 7:1 8:0 9:0 10:0 11:0 12:1 13:0 14:0 15:1 16:-1 17:-1 18:-1 19:-1 20:-1 21:1 22:-1 23:0 24:0.00012493753 25:1 26:0 27:0 28:0 29:1 30:1 31:0 32:0 33:0 34:0 35:0 36:0 37:0 38:0 39:0 40:0 41:0 42:0 43:0 44:0 45:0 46:0 47:0 48:0 49:0 50:0 51:0 52:0 53:0 54:0 55:0 56:0 57:0 58:0 59:0 60:0 61:0 62:1 63:0 64:0 65:0 66:1 67:0 68:0.13158567 69:0.51038642 70:0.66039891 71:0.50807294 72:0.55777347 73:0.5 74:0.6063333 75:0.52967212 76:0.56784907 77:0.5050425 78:0.64460208 79:0.50420289 80:0.65203413 81:0.5 82:0.5463616 83:0.60128764 84:0.67628317 85:0.68863457 86:0.61360789 87:0.60762919 88:1 89:1 90:0.64220114 91:0.73261993 92:0.60882724 
100 1:1 2:0.12929958 3:1 4:1 5:0 6:0 7:1 8:0 9:0 10:0 11:0 12:1 13:0 14:0 15:1 16:-1 17:-1 18:-1 19:-1 20:-1 21:1 22:-1 23:0 24:0.00012493753 25:1 26:0 27:0 28:0 29:1 30:1 31:0 32:0 33:0 34:0 35:0 36:0 37:0 38:0 39:0 40:0 41:0 42:0 43:0 44:0 45:0 46:0 47:0 48:0 49:0 50:0 51:0 52:0 53:0 54:0 55:0 56:0 57:0 58:0 59:0 60:0 61:0 62:1 63:0 64:0 65:0 66:1 67:0 68:0.13158567 69:0.51038642 70:0.66039891 71:0.50807294 72:0.55777347 73:0.5 74:0.6063333 75:0.52967212 76:0.56784907 77:0.5050425 78:0.64460208 79:0.50420289 80:0.65203413 81:0.5 82:0.5463616 83:0.60128764 84:0.67628317 85:0.68863457 86:0.61360789 87:0.60762919 88:1 89:1 90:0.64220114 91:0.73261993 92:0.60882724 
100 1:1 2:0.13258541 3:1 4:1 5:0 6:0 7:1 8:0 9:0 10:0 11:0 12:1 13:0 14:0 15:1 16:-1 17:-1 18:-1 19:-1 20:-1 21:1 22:-1 23:0 24:0.00012493753 25:1 26:0 27:0 28:0 29:1 30:1 31:0 32:0 33:0 34:0 35:0 36:0 37:0 38:0 39:0 40:0 41:0 42:0 43:0 44:0 45:0 46:0 47:0 48:0 49:0 50:0 51:0 52:0 53:0 54:0 55:0 56:0 57:0 58:0 59:0 60:0 61:0 62:1 63:0 64:0 65:0 66:1 67:0 68:0.13158567 69:0.51038642 70:0.66039891 71:0.50807294 72:0.55777347 73:0.5 74:0.6063333 75:0.52967212 76:0.56784907 77:0.5050425 78:0.64460208 79:0.50420289 80:0.65203413 81:0.5 82:0.5463616 83:0.60128764 84:0.67628317 85:0.68863457 86:0.61360789 87:0.60762919 88:1 89:1 90:0.64220114 91:0.73261993 92:0.60882724 
100 1:1 2:0.24618706 3:1 4:1 5:0 6:0 7:1 8:0 9:0 10:0 11:0 12:1 13:0 14:0 15:1 16:-1 17:-1 18:-1 19:-1 20:-1 21:1 22:-1 23:0 24:0.00012493753 25:1 26:0 27:0 28:0 29:1 30:1 31:0 32:0 33:0 34:0 35:0 36:0 37:0 38:0 39:0 40:0 41:0 42:0 43:0 44:0 45:0 46:0 47:0 48:0 49:0 50:0 51:0 52:0 53:0 54:0 55:0 56:0 57:0 58:0 59:0 60:0 61:0 62:1 63:0 64:0 65:0 66:1 67:0 68:0.13158567 69:0.51038642 70:0.66039891 71:0.50807294 72:0.55777347 73:0.5 74:0.6063333 75:0.52967212 76:0.56784907 77:0.5050425 78:0.64460208 79:0.50420289 80:0.65203413 81:0.5 82:0.5463616 83:0.60128764 84:0.67628317 85:0.68863457 86:0.61360789 87:0.60762919 88:1 89:1 90:0.64220114 91:0.73261993 92:0.60882724 
60.67123702411682 1:1 2:0.26501637 3:1 4:1 5:0 6:0 7:1 8:0 9:0 10:0 11:0 12:1 13:0 14:0 15:1 16:-1 17:-1 18:-1 19:-1 20:-1 21:1 22:-1 23:0 24:0.00012493753 25:1 26:0 27:0 28:0 29:1 30:1 31:0 32:0 33:0 34:0 35:0 36:0 37:0 38:0 39:0 40:0 41:0 42:0 43:0 44:0 45:0 46:0 47:0 48:0 49:0 50:0 51:0 52:0 53:0 54:0 55:0 56:0 57:0 58:0 59:0 60:0 61:0 62:1 63:0 64:0 65:0 66:1 67:0 68:0.13158567 69:0.51038642 70:0.66039891 71:0.50807294 72:0.55777347 73:0.5 74:0.6063333 75:0.52967212 76:0.56784907 77:0.5050425 78:0.64460208 79:0.50420289 80:0.65203413 81:0.5 82:0.5463616 83:0.60128764 84:0.67628317 85:0.68863457 86:0.61360789 87:0.60762919 88:1 89:1 90:0.64220114 91:0.73261993 92:0.60882724 
100 1:1 2:0.019213275 3:1 4:0 5:0 6:1 7:1 8:0 9:0 10:0 11:0 12:1 13:0 14:0 15:1 16:-1 17:-1 18:-1 19:-1 20:-1 21:1 22:-1 23:0 24:0.00011111111 25:1 26:0 27:0 28:0 29:0 30:0 31:0 32:0 33:0 34:0 35:0 36:0 37:0 38:0 39:0 40:0 41:0 42:0 43:0 44:0 45:0 46:0 47:0 48:0 49:0 50:0 51:0 52:0 53:0 54:0 55:0 56:0 57:0 58:0 59:0 60:0 61:0 62:1 63:0 64:0 65:0 66:1 67:0 68:1 69:0.51038642 70:0.66039891 71:0.50807294 72:0.55777347 73:0.5 74:0.6063333 75:0.52967212 76:0.56784907 77:0.5050425 78:0.64460208 79:0.50420289 80:0.65203413 81:0.5 82:0.5463616 83:0.60128764 84:0.67628317 85:0.68863457 86:0.61360789 87:0.60762919 88:1 89:1 90:0.64220114 91:0.73261993 92:0.60882724 
100 1:1 2:0.038382777 3:1 4:1 5:0 6:0 7:1 8:0 9:0 10:0 11:0 12:1 13:0 14:0 15:1 16:-1 17:-1 18:-1 19:-1 20:-1 21:1 22:-1 23:0 24:0.00014285714 25:1 26:0 27:0 28:0 29:0 30:1 31:0 32:0 33:0 34:0 35:0 36:0 37:0 38:0 39:0 40:0 41:0 42:0 43:0 44:0 45:0 46:0 47:0 48:0 49:0 50:0 51:0 52:0 53:0 54:0 55:0 56:0 57:0 58:0 59:0 60:0 61:0 62:1 63:0 64:0 65:0 66:1 67:0 68:0.14104275 69:0.51038642 70:0.66039891 71:0.50807294 72:0.55777347 73:0.5 74:0.6063333 75:0.52967212 76:0.56784907 77:0.5050425 78:0.64460208 79:0.50420289 80:0.65203413 81:0.5 82:0.5463616 83:0.60128764 84:0.67628317 85:0.68863457 86:0.61360789 87:0.60762919 88:1 89:1 90:0.64220114 91:0.73261993 92:0.60882724 
100 1:1 2:0.4680885 3:1 4:1 5:0 6:0 7:1 8:0 9:0 10:0 11:0 12:1 13:0 14:0 15:1 16:-1 17:-1 18:-1 19:-1 20:-1 21:1 22:-1 23:0 24:0.00012496876 25:1 26:0 27:0 28:0 29:0 30:0 31:0 32:0 33:0 34:0 35:0 36:0 37:0 38:0 39:0 40:0 41:0 42:0 43:0 44:0 45:0 46:0 47:0 48:0 49:0 50:0 51:0 52:0 53:0 54:0 55:0 56:0 57:0 58:0 59:0 60:0 61:0 62:1 63:0 64:0 65:0 66:1 67:0 68:0.13158567 69:0.51038642 70:0.66039891 71:0.50807294 72:0.55777347 73:0.5 74:0.6063333 75:0.52967212 76:0.56784907 77:0.5050425 78:0.64460208 79:0.50420289 80:0.65203413 81:0.5 82:0.5463616 83:0.60128764 84:0.67628317 85:0.68863457 86:0.61360789 87:0.60762919 88:1 89:1 90:0.64220114 91:0.73261993 92:0.60882724 
100 1:1 2:0.10139749 3:1 4:1 5:0 6:0 7:1 8:0 9:0 10:0 11:0 12:1 13:0 14:0 15:1 16:-1 17:-1 18:-1 19:-1 20:-1 21:1 22:-1 23:0 24:0.00014285714 25:1 26:0 27:0 28:0 29:0 30:1 31:0 32:0 33:0 34:0 35:0 36:0 37:0 38:0 39:0 40:0 41:0 42:0 43:0 44:0 45:0 46:0 47:0 48:0 49:0 50:0 51:0 52:0 53:0 54:0 55:0 56:0 57:0 58:0 59:0 60:0 61:0 62:1 63:0 64:0 65:0 66:1 67:0 68:0.14104275 69:0.51038642 70:0.66039891 71:0.50807294 72:0.55777347 73:0.5 74:0.6063333 75:0.52967212 76:0.56784907 77:0.5050425 78:0.64460208 79:0.50420289 80:0.65203413 81:0.5 82:0.5463616 83:0.60128764 84:0.67628317 85:0.68863457 86:0.61360789 87:0.60762919 88:1 89:1 90:0.64220114 91:0.73261993 92:0.60882724 
100 1:1 2:0.10342247 3:1 4:1 5:0 6:0 7:1 8:0 9:0 10:0 11:0 12:1 13:0 14:0 15:1 16:-1 17:-1 18:-1 19:-1 20:-1 21:1 22:-1 23:0 24:0.00014285714 25:1 26:0 27:0 28:0 29:0 30:1 31:0 32:0 33:0 34:0 35:0 36:0 37:0 38:0 39:0 40:0 41:0 42:0 43:0 44:0 45:0 46:0 47:0 48:0 49:0 50:0 51:0 52:0 53:0 54:0 55:0 56:0 57:0 58:0 59:0 60:0 61:0 62:1 63:0 64:0 65:0 66:1 67:0 68:0.14104275 69:0.51038642 70:0.66039891 71:0.50807294 72:0.55777347 73:0.5 74:0.6063333 75:0.52967212 76:0.56784907 77:0.5050425 78:0.64460208 79:0.50420289 80:0.65203413 81:0.5 82:0.5463616 83:0.60128764 84:0.67628317 85:0.68863457 86:0.61360789 87:0.60762919 88:1 89:1 90:0.64220114 91:0.73261993 92:0.60882724 
100 1:1 2:0.039394554 3:1 4:0 5:0 6:1 7:1 8:0 9:0 10:0 11:0 12:1 13:0 14:0 15:1 16:-1 17:-1 18:-1 19:-1 20:-1 21:1 22:-1 23:0 24:0.00011111111 25:1 26:0 27:0 28:0 29:0 30:0 31:0 32:0 33:0 34:0 35:0 36:0 37:0 38:0 39:0 40:0 41:0 42:0 43:0 44:0 45:0 46:0 47:0 48:0 49:0 50:0 51:0 52:0 53:0 54:0 55:0 56:0 57:0 58:0 59:0 60:0 61:0 62:1 63:0 64:0 65:0 66:1 67:0 68:1 69:0.51038642 70:0.66039891 71:0.50807294 72:0.55777347 73:0.5 74:0.6063333 75:0.52967212 76:0.56784907 77:0.5050425 78:0.64460208 79:0.50420289 80:0.65203413 81:0.5 82:0.5463616 83:0.60128764 84:0.67628317 85:0.68863457 86:0.61360789 87:0.60762919 88:1 89:1 90:0.64220114 91:0.73261993 92:0.60882724 
100 1:1 2:0.14596479 3:0.33333333 4:1 5:0 6:0 7:0 8:0 9:1 10:0 11:0 12:0 13:1 14:1 15:0 16:-1 17:-1 18:-1 19:-1 20:-1 21:1 22:0 23:0 24:0.00012501563 25:0 26:1 27:0 28:0 29:0 30:1 31:0 32:0 33:0 34:0 35:0 36:0 37:0 38:0 39:1 40:0 41:0 42:0 43:0 44:0 45:0 46:0 47:0 48:0 49:0 50:0 51:0 52:0 53:0 54:0 55:0 56:0 57:1 58:0 59:0 60:0 61:0 62:0 63:0 64:0 65:0 66:0 67:0 68:0.28136387 69:0.70435108 70:1 71:0.76657414 72:0.59736886 73:0.67628317 74:0.69006109 75:0.52404624 76:0.62427459 77:1 78:0.59025458 79:1 80:0.68397625 81:0.59628465 82:0.66645747 83:0.52118108 84:0 85:0.60178421 86:0.59025458 87:0.69108982 88:0.70872819 89:0.76735766 90:0.68567938 91:0.73718668 92:1 
100 1:1 2:0.3205963 3:0.33333333 4:1 5:0 6:0 7:0 8:0 9:1 10:0 11:0 12:0 13:1 14:1 15:0 16:-1 17:-1 18:-1 19:-1 20:-1 21:1 22:0 23:0 24:0.00012501563 25:0 26:1 27:0 28:0 29:0 30:1 31:0 32:0 33:0 34:0 35:0 36:0 37:0 38:0 39:1 40:0 41:0 42:0 43:0 44:0 45:0 46:0 47:0 48:0 49:0 50:0 51:0 52:0 53:0 54:0 55:0 56:0 57:1 58:0 59:0 60:0 61:0 62:0 63:0 64:0 65:0 66:0 67:0 68:0.28136387 69:0.70435108 70:1 71:0.76657414 72:0.59736886 73:0.67628317 74:0.69006109 75:0.52404624 76:0.62427459 77:1 78:0.59025458 79:1 80:0.68397625 81:0.59628465 82:0.66645747 83:0.52118108 84:0 85:0.60178421 86:0.59025458 87:0.69108982 88:0.70872819 89:0.76735766 90:0.68567938 91:0.73718668 92:1 
100 1:1 2:0.26533798 3:1 4:1 5:0 6:0 7:0 8:0 9:1 10:0 11:0 12:1 13:0 14:0 15:1 16:-1 17:-1 18:-1 19:-1 20:0 21:1 22:0 23:0 24:0.00012501563 25:1 26:0 27:0 28:0 29:0 30:1 31:0 32:0 33:0 34:0 35:0 36:0 37:0 38:0 39:1 40:0 41:0 42:0 43:0 44:0 45:0 46:0 47:0 48:0 49:0 50:0 51:0 52:0 53:0 54:0 55:0 56:0 57:1 58:0 59:0 60:0 61:0 62:0 63:0 64:0 65:0 66:0 67:0 68:0.28136387 69:0.70435108 70:1 71:0.76657414 72:0.59736886 73:0.67628317 74:0.69006109 75:0.52404624 76:0.62427459 77:1 78:0.59025458 79:1 80:0.68397625 81:0.59628465 82:0.66645747 83:0.52118108 84:0 85:0.60178421 86:0.59025458 87:0.69108982 88:0.70872819 89:0.76735766 90:0.68567938 91:0.73718668 92:1 
100 1:1 2:0.086769978 3:0.33333333 4:1 5:0 6:0 7:1 8:0 9:0 10:0 11:0 12:0 13:1 14:1 15:0 16:-1 17:-1 18:-1 19:-1 20:-1 21:1 22:-1 23:0 24:0.00012493753 25:0 26:1 27:0 28:0 29:1 30:0 31:0 32:0 33:0 34:0 35:0 36:0 37:0 38:0 39:0 40:0 41:0 42:0 43:0 44:0 45:0 46:0 47:0 48:0 49:0 50:0 51:0 52:0 53:0 54:0 55:0 56:0 57:0 58:0 59:0 60:0 61:0 62:1 63:0 64:0 65:0 66:1 67:0 68:0.13158567 69:0.51038642 70:0.66039891 71:0.50807294 72:0.55777347 73:0.5 74:0.6063333 75:0.52967212 76:0.56784907 77:0.5050425 78:0.64460208 79:0.50420289 80:0.65203413 81:0.5 82:0.5463616 83:0.60128764 84:0.67628317 85:0.68863457 86:0.61360789 87:0.60762919 88:1 89:1 90:0.64220114 91:0.73261993 92:0.60882724 
100 1:1 2:0.10070067 3:1 4:1 5:0 6:0 7:1 8:0 9:0 10:0 11:0 12:1 13:0 14:0 15:1 16:-1 17:-1 18:-1 19:-1 20:-1 21:1 22:-1 23:0 24:0.00011108643 25:1 26:0 27:0 28:0 29:0 30:1 31:0 32:0 33:0 34:0 35:0 36:0 37:0 38:0 39:0 40:0 41:0 42:0 43:0 44:0 45:0 46:0 47:0 48:0 49:0 50:0 51:0 52:0 53:0 54:0 55:0 56:0 57:0 58:0 59:0 60:0 61:0 62:1 63:0 64:0 65:0 66:1 67:0 68:0.12298168 69:0.51038642 70:0.66039891 71:0.50807294 72:0.55777347 73:0.5 74:0.6063333 75:0.52967212 76:0.56784907 77:0.5050425 78:0.64460208 79:0.50420289 80:0.65203413 81:0.5 82:0.5463616 83:0.60128764 84:0.67628317 85:0.68863457 86:0.61360789 87:0.60762919 88:1 89:1 90:0.64220114 91:0.73261993 92:0.60882724 
100 1:1 2:0.1101766 3:1 4:1 5:0 6:0 7:1 8:0 9:0 10:0 11:0 12:1 13:0 14:0 15:1 16:-1 17:-1 18:-1 19:-1 20:-1 21:1 22:-1 23:0 24:0.00011108643 25:1 26:0 27:0 28:0 29:0 30:1 31:0 32:0 33:0 34:0 35:0 36:0 37:0 38:0 39:0 40:0 41:0 42:0 43:0 44:0 45:0 46:0 47:0 48:0 49:0 50:0 51:0 52:0 53:0 54:0 55:0 56:0 57:0 58:0 59:0 60:0 61:0 62:1 63:0 64:0 65:0 66:1 67:0 68:0.12298168 69:0.51038642 70:0.66039891 71:0.50807294 72:0.55777347 73:0.5 74:0.6063333 75:0.52967212 76:0.56784907 77:0.5050425 78:0.64460208 79:0.50420289 80:0.65203413 81:0.5 82:0.5463616 83:0.60128764 84:0.67628317 85:0.68863457 86:0.61360789 87:0.60762919 88:1 89:1 90:0.64220114 91:0.73261993 92:0.60882724 
100 1:1 2:0.5497327 3:1 4:0 5:0 6:1 7:1 8:0 9:0 10:0 11:0 12:1 13:0 14:0 15:1 16:-1 17:-1 18:-1 19:-1 20:-1 21:1 22:-1 23:0 24:0.00012490632 25:1 26:0 27:0 28:0 29:0 30:0 31:0 32:0 33:0 34:0 35:0 36:0 37:0 38:0 39:0 40:0 41:0 42:0 43:0 44:0 45:0 46:0 47:0 48:0 49:0 50:0 51:0 52:0 53:0 54:0 55:0 56:0 57:0 58:0 59:0 60:0 61:0 62:1 63:0 64:0 65:0 66:1 67:0 68:0.12298168 69:0.51038642 70:0.66039891 71:0.50807294 72:0.55777347 73:0.5 74:0.6063333 75:0.52967212 76:0.56784907 77:0.5050425 78:0.64460208 79:0.50420289 80:0.65203413 81:0.5 82:0.5463616 83:0.60128764 84:0.67628317 85:0.68863457 86:0.61360789 87:0.60762919 88:1 89:1 90:0.64220114 91:0.73261993 92:0.60882724 
98.13019508660339 1:1 2:0.55203988 3:1 4:0 5:0 6:1 7:1 8:0 9:0 10:0 11:0 12:1 13:0 14:0 15:1 16:-1 17:-1 18:-1 19:-1 20:-1 21:1 22:-1 23:0 24:0.00012490632 25:1 26:0 27:0 28:0 29:0 30:0 31:0 32:0 33:0 34:0 35:0 36:0 37:0 38:0 39:0 40:0 41:0 42:0 43:0 44:0 45:0 46:0 47:0 48:0 49:0 50:0 51:0 52:0 53:0 54:0 55:0 56:0 57:0 58:0 59:0 60:0 61:0 62:1 63:0 64:0 65:0 66:1 67:0 68:0.12298168 69:0.51038642 70:0.66039891 71:0.50807294 72:0.55777347 73:0.5 74:0.6063333 75:0.52967212 76:0.56784907 77:0.5050425 78:0.64460208 79:0.50420289 80:0.65203413 81:0.5 82:0.5463616 83:0.60128764 84:0.67628317 85:0.68863457 86:0.61360789 87:0.60762919 88:1 89:1 90:0.64220114 91:0.73261993 92:0.60882724 
100 1:1 2:0.57328334 3:1 4:0 5:0 6:1 7:0 8:0 9:1 10:0 11:0 12:1 13:0 14:0 15:1 16:-1 17:-1 18:-1 19:-1 20:-1 21:1 22:0 23:0 24:0.00011116052 25:1 26:0 27:0 28:0 29:0 30:0 31:0 32:0 33:0 34:0 35:0 36:0 37:0 38:0 39:0 40:0 41:0 42:0 43:0 44:0 45:0 46:0 47:0 48:0 49:0 50:0 51:0 52:0 53:0 54:0 55:0 56:0 57:0 58:0 59:0 60:0 61:0 62:0 63:0 64:0 65:0 66:0 67:0 68:1 69:1 70:1 71:1 72:1 73:1 74:1 75:1 76:1 77:1 78:1 79:1 80:1 81:1 82:1 83:1 84:1 85:1 86:1 87:1 88:1 89:1 90:1 91:1 92:1 
21.92312060342025 1:1 2:0.58081656 3:1 4:0 5:0 6:1 7:0 8:0 9:1 10:0 11:0 12:1 13:0 14:0 15:1 16:-1 17:-1 18:-1 19:-1 20:-1 21:1 22:0 23:0 24:0.00011116052 25:1 26:0 27:0 28:0 29:0 30:0 31:0 32:0 33:0 34:0 35:0 36:0 37:0 38:0 39:0 40:0 41:0 42:0 43:0 44:0 45:0 46:0 47:0 48:0 49:0 50:0 51:0 52:0 53:0 54:0 55:0 56:0 57:0 58:0 59:0 60:0 61:0 62:0 63:0 64:0 65:0 66:0 67:0 68:1 69:1 70:1 71:1 72:1 73:1 74:1 75:1 76:1 77:1 78:1 79:1 80:1 81:1 82:1 83:1 84:1 85:1 86:1 87:1 88:1 89:1 90:1 91:1 92:1 
71.86823232665026 1:1 2:0.22023743 3:0.090909091 4:1 5:0 6:0 7:0 8:0 9:1 10:0 11:0 12:1 13:0 14:0 15:1 16:-1 17:-1 18:-1 19:-1 20:0 21:1 22:0 23:0 24:0.0001111976 25:1 26:0 27:0 28:0 29:0 30:1 31:0 32:0 33:0 34:0 35:0 36:0 37:0 38:0 39:0 40:0 41:0 42:0 43:0 44:0 45:0 46:0 47:0 48:0 49:0 50:0 51:0 52:0 53:0 54:0 55:0 56:0 57:1 58:0 59:0 60:0 61:0 62:0 63:0 64:0 65:0 66:0 67:0 68:0.28136387 69:0.70435108 70:1 71:0.76657414 72:0.59736886 73:0.67628317 74:0.69006109 75:0.52404624 76:0.62427459 77:1 78:0.59025458 79:1 80:0.68397625 81:0.59628465 82:0.66645747 83:0.52118108 84:0 85:0.60178421 86:0.59025458 87:0.69108982 88:0.70872819 89:0.76735766 90:0.68567938 91:0.73718668 92:1 
100 1:1 2:0.043075375 3:0.076923077 4:1 5:0 6:0 7:0 8:0 9:1 10:0 11:0 12:0 13:1 14:1 15:0 16:-1 17:-1 18:-1 19:-1 20:-1 21:1 22:0 23:0 24:0.0001111976 25:0 26:1 27:0 28:0 29:0 30:1 31:0 32:0 33:0 34:0 35:0 36:0 37:0 38:0 39:0 40:0 41:0 42:0 43:0 44:0 45:0 46:0 47:0 48:0 49:0 50:0 51:0 52:0 53:0 54:0 55:0 56:0 57:1 58:0 59:0 60:0 61:0 62:0 63:0 64:0 65:0 66:0 67:0 68:0.28136387 69:0.70435108 70:1 71:0.76657414 72:0.59736886 73:0.67628317 74:0.69006109 75:0.52404624 76:0.62427459 77:1 78:0.59025458 79:1 80:0.68397625 81:0.59628465 82:0.66645747 83:0.52118108 84:0 85:0.60178421 86:0.59025458 87:0.69108982 88:0.70872819 89:0.76735766 90:0.68567938 91:0.73718668 92:1 
78.09081755224626 1:1 2:0.10067485 3:0.33333333 4:0 5:1 6:0 7:1 8:0 9:0 10:0 11:0 12:0 13:1 14:1 15:0 16:-1 17:-1 18:-1 19:-1 20:0 21:1 22:-1 23:0 24:0.00012501563 25:0 26:1 27:0 28:0 29:0 30:1 31:0 32:0 33:0 34:0 35:0 36:0 37:0 38:0 39:1 40:0 41:0 42:0 43:0 44:0 45:0 46:0 47:0 48:0 49:0 50:0 51:0 52:0 53:0 54:0 55:0 56:0 57:1 58:0 59:0 60:0 61:0 62:0 63:0 64:0 65:0 66:0 67:0 68:0.19699845 69:0.70435108 70:1 71:0.76657414 72:0.59736886 73:0.67628317 74:0.69006109 75:0.52404624 76:0.62427459 77:1 78:0.59025458 79:1 80:0.68397625 81:0.59628465 82:0.66645747 83:0.52118108 84:0 85:0.60178421 86:0.59025458 87:0.69108982 88:0.70872819 89:0.76735766 90:0.68567938 91:0.73718668 92:1 
100 1:1 2:0.036376989 3:0.33333333 4:0 5:1 6:0 7:1 8:0 9:0 10:0 11:0 12:0 13:1 14:1 15:0 16:-1 17:-1 18:-1 19:-1 20:0 21:1 22:-1 23:0 24:0.00012501563 25:0 26:1 27:0 28:0 29:0 30:1 31:0 32:0 33:0 34:0 35:0 36:0 37:0 38:0 39:1 40:0 41:0 42:0 43:0 44:0 45:0 46:0 47:0 48:0 49:0 50:0 51:0 52:0 53:0 54:0 55:0 56:0 57:1 58:0 59:0 60:0 61:0 62:0 63:0 64:0 65:0 66:0 67:0 68:0.19699845 69:0.70435108 70:1 71:0.76657414 72:0.59736886 73:0.67628317 74:0.69006109 75:0.52404624 76:0.62427459 77:1 78:0.59025458 79:1 80:0.68397625 81:0.59628465 82:0.66645747 83:0.52118108 84:0 85:0.60178421 86:0.59025458 87:0.69108982 88:0.70872819 89:0.76735766 90:0.68567938 91:0.73718668 92:1 
100 1:1 2:0.23590343 3:1 4:1 5:0 6:0 7:1 8:0 9:0 10:0 11:0 12:1 13:0 14:0 15:1 16:-1 17:-1 18:-1 19:-1 20:-1 21:1 22:-1 23:0 24:0.00012493753 25:1 26:0 27:0 28:0 29:0 30:1 31:0 32:0 33:0 34:0 35:0 36:0 37:0 38:0 39:1 40:0 41:0 42:0 43:0 44:0 45:0 46:0 47:0 48:0 49:0 50:0 51:0 52:0 53:0 54:0 55:0 56:0 57:1 58:0 59:0 60:0 61:0 62:1 63:0 64:0 65:0 66:1 67:0 68:0.13158567 69:0.51038642 70:0.66039891 71:0.50807294 72:0.55777347 73:0.5 74:0.6063333 75:0.52967212 76:0.56784907 77:0.5050425 78:0.64460208 79:0.50420289 80:0.65203413 81:0.5 82:0.5463616 83:0.60128764 84:0.67628317 85:0.68863457 86:0.61360789 87:0.60762919 88:1 89:1 90:0.64220114 91:0.73261993 92:0.60882724 
100 1:1 2:0.15626028 3:0.090909091 4:0 5:0 6:1 7:1 8:0 9:0 10:0 11:0 12:0 13:1 14:1 15:0 16:-1 17:-1 18:-1 19:-1 20:0 21:1 22:-1 23:0 24:0.00012504689 25:1 26:0 27:0 28:0 29:0 30:0 31:0 32:0 33:0 34:0 35:0 36:0 37:0 38:0 39:0 40:0 41:0 42:0 43:0 44:0 45:0 46:0 47:0 48:0 49:0 50:0 51:0 52:0 53:0 54:0 55:0 56:0 57:0 58:0 59:0 60:0 61:0 62:0 63:0 64:0 65:0 66:0 67:1 68:0.25412349 69:0.60704383 70:0.62672172 71:0.65637742 72:0.5 73:0.55777347 74:0.52334564 75:0.5 76:0.5 77:0.61724539 78:0.68764651 79:0.70838597 80:0.56925174 81:0.5 82:1 83:0.5 84:0.59736886 85:0.5 86:0.58115262 87:0.61113797 88:1 89:0.71105503 90:0.69599497 91:0.68468357 92:0.70858486 
100 1:1 2:0.15932018 3:1 4:0 5:0 6:1 7:1 8:0 9:0 10:0 11:0 12:1 13:0 14:0 15:1 16:-1 17:-1 18:-1 19:-1 20:-1 21:1 22:-1 23:0 24:0.0001247505 25:1 26:0 27:0 28:0 29:0 30:0 31:0 32:0 33:0 34:0 35:0 36:0 37:0 38:0 39:1 40:0 41:0 42:0 43:0 44:0 45:0 46:0 47:0 48:0 49:0 50:0 51:0 52:0 53:0 54:0 55:0 56:0 57:1 58:0 59:0 60:0 61:0 62:0 63:0 64:0 65:0 66:0 67:0 68:1 69:0.70435108 70:1 71:0.76657414 72:0.59736886 73:0.67628317 74:0.69006109 75:0.52404624 76:0.62427459 77:1 78:0.59025458 79:1 80:0.68397625 81:0.59628465 82:0.66645747 83:0.52118108 84:0 85:0.60178421 86:0.59025458 87:0.69108982 88:0.70872819 89:0.76735766 90:0.68567938 91:0.73718668 92:1 
100 1:1 2:0.21901001 3:1 4:0 5:0 6:1 7:1 8:0 9:0 10:0 11:0 12:1 13:0 14:0 15:1 16:-1 17:-1 18:-1 19:-1 20:-1 21:1 22:-1 23:0 24:0.00012498438 25:1 26:0 27:0 28:0 29:1 30:1 31:0 32:0 33:0 34:0 35:0 36:0 37:0 38:0 39:1 40:0 41:0 42:0 43:0 44:0 45:0 46:0 47:0 48:0 49:0 50:0 51:0 52:0 53:0 54:0 55:0 56:0 57:1 58:0 59:0 60:0 61:0 62:0 63:0 64:0 65:0 66:0 67:0 68:1 69:0.70435108 70:1 71:0.76657414 72:0.59736886 73:0.67628317 74:0.69006109 75:0.52404624 76:0.62427459 77:1 78:0.59025458 79:1 80:0.68397625 81:0.59628465 82:0.66645747 83:0.52118108 84:0 85:0.60178421 86:0.59025458 87:0.69108982 88:0.70872819 89:0.76735766 90:0.68567938 91:0.73718668 92:1 
95.45977433722909 1:1 2:0.2659734 3:1 4:0 5:0 6:1 7:1 8:0 9:0 10:0 11:0 12:1 13:0 14:0 15:1 16:-1 17:-1 18:-1 19:-1 20:-1 21:1 22:-1 23:0 24:0.0001247505 25:1 26:0 27:0 28:0 29:0 30:0 31:0 32:0 33:0 34:0 35:0 36:0 37:0 38:0 39:1 40:0 41:0 42:0 43:0 44:0 45:0 46:0 47:0 48:0 49:0 50:0 51:0 52:0 53:0 54:0 55:0 56:0 57:1 58:0 59:0 60:0 61:0 62:0 63:0 64:0 65:0 66:0 67:0 68:1 69:0.70435108 70:1 71:0.76657414 72:0.59736886 73:0.67628317 74:0.69006109 75:0.52404624 76:0.62427459 77:1 78:0.59025458 79:1 80:0.68397625 81:0.59628465 82:0.66645747 83:0.52118108 84:0 85:0.60178421 86:0.59025458 87:0.69108982 88:0.70872819 89:0.76735766 90:0.68567938 91:0.73718668 92:1 
100 1:1 2:0.2659734 3:1 4:0 5:0 6:1 7:1 8:0 9:0 10:0 11:0 12:1 13:0 14:0 15:1 16:-1 17:-1 18:-1 19:-1 20:-1 21:1 22:-1 23:0 24:0.0001247505 25:1 26:0 27:0 28:0 29:0 30:0 31:0 32:0 33:0 34:0 35:0 36:0 37:0 38:0 39:1 40:0 41:0 42:0 43:0 44:0 45:0 46:0 47:0 48:0 49:0 50:0 51:0 52:0 53:0 54:0 55:0 56:0 57:1 58:0 59:0 60:0 61:0 62:0 63:0 64:0 65:0 66:0 67:0 68:1 69:0.70435108 70:1 71:0.76657414 72:0.59736886 73:0.67628317 74:0.69006109 75:0.52404624 76:0.62427459 77:1 78:0.59025458 79:1 80:0.68397625 81:0.59628465 82:0.66645747 83:0.52118108 84:0 85:0.60178421 86:0.59025458 87:0.69108982 88:0.70872819 89:0.76735766 90:0.68567938 91:0.73718668 92:1 
100 1:1 2:0.099887295 3:1 4:0 5:0 6:1 7:1 8:0 9:0 10:0 11:0 12:1 13:0 14:0 15:1 16:-1 17:-1 18:-1 19:-1 20:-1 21:1 22:-1 23:0 24:0.0001247505 25:1 26:0 27:0 28:0 29:0 30:0 31:0 32:0 33:0 34:0 35:0 36:0 37:0 38:0 39:1 40:0 41:0 42:0 43:0 44:0 45:0 46:0 47:0 48:0 49:0 50:0 51:0 52:0 53:0 54:0 55:0 56:0 57:1 58:0 59:0 60:0 61:0 62:0 63:0 64:0 65:0 66:0 67:0 68:1 69:0.70435108 70:1 71:0.76657414 72:0.59736886 73:0.67628317 74:0.69006109 75:0.52404624 76:0.62427459 77:1 78:0.59025458 79:1 80:0.68397625 81:0.59628465 82:0.66645747 83:0.52118108 84:0 85:0.60178421 86:0.59025458 87:0.69108982 88:0.70872819 89:0.76735766 90:0.68567938 91:0.73718668 92:1 
100 1:1 2:0.049279861 3:1 4:1 5:0 6:0 7:1 8:0 9:0 10:0 11:0 12:1 13:0 14:0 15:1 16:-1 17:-1 18:-1 19:-1 20:-1 21:1 22:-1 23:0 24:0.00011112346 25:1 26:0 27:0 28:0 29:0 30:0 31:0 32:0 33:0 34:0 35:0 36:0 37:0 38:0 39:1 40:0 41:0 42:0 43:0 44:0 45:0 46:0 47:0 48:0 49:0 50:0 51:0 52:0 53:0 54:0 55:0 56:0 57:1 58:0 59:0 60:0 61:0 62:0 63:0 64:0 65:0 66:0 67:0 68:0.20634081 69:0.70435108 70:1 71:0.76657414 72:0.59736886 73:0.67628317 74:0.69006109 75:0.52404624 76:0.62427459 77:1 78:0.59025458 79:1 80:0.68397625 81:0.59628465 82:0.66645747 83:0.52118108 84:0 85:0.60178421 86:0.59025458 87:0.69108982 88:0.70872819 89:0.76735766 90:0.68567938 91:0.73718668 92:1 
100 1:1 2:0.11120972 3:1 4:1 5:0 6:0 7:1 8:0 9:0 10:0 11:0 12:1 13:0 14:0 15:1 16:-1 17:-1 18:-1 19:-1 20:-1 21:1 22:-1 23:0 24:0.00011112346 25:1 26:0 27:0 28:0 29:0 30:0 31:0 32:0 33:0 34:0 35:0 36:0 37:0 38:0 39:1 40:0 41:0 42:0 43:0 44:0 45:0 46:0 47:0 48:0 49:0 50:0 51:0 52:0 53:0 54:0 55:0 56:0 57:1 58:0 59:0 60:0 61:0 62:0 63:0 64:0 65:0 66:0 67:0 68:0.20634081 69:0.70435108 70:1 71:0.76657414 72:0.59736886 73:0.67628317 74:0.69006109 75:0.52404624 76:0.62427459 77:1 78:0.59025458 79:1 80:0.68397625 81:0.59628465 82:0.66645747 83:0.52118108 84:0 85:0.60178421 86:0.59025458 87:0.69108982 88:0.70872819 89:0.76735766 90:0.68567938 91:0.73718668 92:1 
100 1:1 2:0.17356395 3:1 4:0 5:0 6:1 7:1 8:0 9:0 10:0 11:0 12:1 13:0 14:0 15:1 16:-1 17:-1 18:-1 19:-1 20:-1 21:1 22:-1 23:0 24:0.0001247505 25:1 26:0 27:0 28:0 29:0 30:0 31:0 32:0 33:0 34:0 35:0 36:0 37:0 38:0 39:1 40:0 41:0 42:0 43:0 44:0 45:0 46:0 47:0 48:0 49:0 50:0 51:0 52:0 53:0 54:0 55:0 56:0 57:1 58:0 59:0 60:0 61:0 62:0 63:0 64:0 65:0 66:0 67:0 68:1 69:0.70435108 70:1 71:0.76657414 72:0.59736886 73:0.67628317 74:0.69006109 75:0.52404624 76:0.62427459 77:1 78:0.59025458 79:1 80:0.68397625 81:0.59628465 82:0.66645747 83:0.52118108 84:0 85:0.60178421 86:0.59025458 87:0.69108982 88:0.70872819 89:0.76735766 90:0.68567938 91:0.73718668 92:1 
100 1:1 2:0.020469318 3:0.33333333 4:0 5:0 6:1 7:1 8:0 9:0 10:0 11:0 12:0 13:1 14:1 15:0 16:-1 17:-1 18:-1 19:-1 20:0 21:1 22:-1 23:0 24:0.00012498438 25:0 26:1 27:0 28:0 29:1 30:1 31:0 32:0 33:0 34:0 35:0 36:0 37:0 38:0 39:1 40:0 41:0 42:0 43:0 44:0 45:0 46:0 47:0 48:0 49:0 50:0 51:0 52:0 53:0 54:0 55:0 56:0 57:1 58:0 59:0 60:0 61:0 62:0 63:0 64:0 65:0 66:0 67:0 68:1 69:0.70435108 70:1 71:0.76657414 72:0.59736886 73:0.67628317 74:0.69006109 75:0.52404624 76:0.62427459 77:1 78:0.59025458 79:1 80:0.68397625 81:0.59628465 82:0.66645747 83:0.52118108 84:0 85:0.60178421 86:0.59025458 87:0.69108982 88:0.70872819 89:0.76735766 90:0.68567938 91:0.73718668 92:1 
100 1:1 2:0.090650004 3:1 4:0 5:0 6:1 7:1 8:0 9:0 10:0 11:0 12:1 13:0 14:0 15:1 16:-1 17:-1 18:-1 19:-1 20:-1 21:1 22:-1 23:0 24:0.0001247505 25:1 26:0 27:0 28:0 29:0 30:0 31:0 32:0 33:0 34:0 35:0 36:0 37:0 38:0 39:1 40:0 41:0 42:0 43:0 44:0 45:0 46:0 47:0 48:0 49:0 50:0 51:0 52:0 53:0 54:0 55:0 56:0 57:1 58:0 59:0 60:0 61:0 62:0 63:0 64:0 65:0 66:0 67:0 68:1 69:0.70435108 70:1 71:0.76657414 72:0.59736886 73:0.67628317 74:0.69006109 75:0.52404624 76:0.62427459 77:1 78:0.59025458 79:1 80:0.68397625 81:0.59628465 82:0.66645747 83:0.52118108 84:0 85:0.60178421 86:0.59025458 87:0.69108982 88:0.70872819 89:0.76735766 90:0.68567938 91:0.73718668 92:1 
100 1:1 2:0.16012118 3:1 4:0 5:0 6:1 7:1 8:0 9:0 10:0 11:0 12:1 13:0 14:0 15:1 16:-1 17:-1 18:-1 19:-1 20:-1 21:1 22:-1 23:0 24:0.00012498438 25:1 26:0 27:0 28:0 29:1 30:1 31:0 32:0 33:0 34:0 35:0 36:0 37:0 38:0 39:1 40:0 41:0 42:0 43:0 44:0 45:0 46:0 47:0 48:0 49:0 50:0 51:0 52:0 53:0 54:0 55:0 56:0 57:1 58:0 59:0 60:0 61:0 62:0 63:0 64:0 65:0 66:0 67:0 68:1 69:0.70435108 70:1 71:0.76657414 72:0.59736886 73:0.67628317 74:0.69006109 75:0.52404624 76:0.62427459 77:1 78:0.59025458 79:1 80:0.68397625 81:0.59628465 82:0.66645747 83:0.52118108 84:0 85:0.60178421 86:0.59025458 87:0.69108982 88:0.70872819 89:0.76735766 90:0.68567938 91:0.73718668 92:1 
100 1:1 2:0.85507684 3:0.33333333 4:1 5:0 6:0 7:0 8:0 9:1 10:0 11:0 12:0 13:1 14:1 15:0 16:-1 17:-1 18:-1 19:-1 20:-1 21:-1 22:-1 23:0 24:0.00011116052 25:0 26:1 27:0 28:0 29:0 30:0 31:0 32:0 33:0 34:0 35:0 36:0 37:0 38:0 39:0 40:0 41:0 42:0 43:0 44:0 45:0 46:0 47:0 48:0 49:0 50:0 51:0 52:0 53:0 54:0 55:0 56:0 57:0 58:0 59:0 60:0 61:0 62:0 63:0 64:0 65:0 66:0 67:0 68:0.11505658 69:0.58451828 70:0.5971645 71:0.59786104 72:0.60050896 73:0.59326104 74:0.68605468 75:0.5 76:0.53740033 77:0.59962242 78:0.66957951 79:0.73375618 80:0.67867258 81:0.57197089 82:0.6615101 83:0.5 84:0.66773236 85:0.65172408 86:0.66956482 87:0.66989687 88:1 89:0.72384833 90:0.69894034 91:0.69416501 92:0.75288926 
100 1:1 2:0.9804981 3:0.33333333 4:0 5:1 6:0 7:1 8:0 9:0 10:0 11:0 12:0 13:1 14:1 15:0 16:-1 17:-1 18:-1 19:-1 20:-1 21:1 22:0 23:-1 24:0.00011113581 25:0 26:1 27:0 28:0 29:0 30:0 31:0 32:0 33:0 34:0 35:0 36:0 37:0 38:0 39:0 40:0 41:0 42:0 43:0 44:0 45:0 46:0 47:0 48:0 49:0 50:0 51:0 52:1 53:0 54:0 55:0 56:0 57:0 58:0 59:0 60:0 61:0 62:0 63:0 64:0 65:0 66:0 67:0 68:1 69:0.62951993 70:0.66541999 71:0.61439937 72:0.71173392 73:0.69604418 74:0.73178687 75:0.71173392 76:0.63291721 77:0.6935407 78:0.59268089 79:0.66154824 80:0.68228507 81:0.57658458 82:1 83:0.58275886 84:1 85:0.69574357 86:0.59268089 87:0.59268089 88:1 89:0.73033102 90:0.72142359 91:0.70209622 92:0.75809301 
100 1:1 2:0.14432008 3:0.090909091 4:1 5:0 6:0 7:1 8:0 9:0 10:0 11:0 12:1 13:0 14:0 15:0 16:-1 17:-1 18:-1 19:1 20:-1 21:-1 22:-1 23:-1 24:0.00010003001 25:1 26:0 27:0 28:0 29:0 30:0 31:0 32:0 33:0 34:0 35:0 36:0 37:0 38:0 39:0 40:0 41:0 42:0 43:0 44:0 45:0 46:0 47:0 48:0 49:0 50:0 51:0 52:1 53:0 54:0 55:0 56:0 57:0 58:0 59:0 60:0 61:0 62:0 63:0 64:0 65:0 66:0 67:0 68:1 69:0.65707077 70:1 71:0.73806073 72:0.71105503 73:1 74:0.75498515 75:0.73929065 76:0.73591638 77:1 78:0.74943421 79:1 80:1 81:1 82:1 83:0.5 84:0.76735766 85:1 86:1 87:1 88:1 89:0.5 90:1 91:1 92:1 
100 1:1 2:0.71243305 3:0.33333333 4:1 5:0 6:0 7:1 8:0 9:0 10:0 11:0 12:0 13:1 14:1 15:0 16:-1 17:-1 18:-1 19:-1 20:-1 21:1 22:0 23:0 24:0.00011113581 25:0 26:1 27:0 28:0 29:0 30:0 31:0 32:0 33:0 34:0 35:0 36:0 37:0 38:0 39:0 40:0 41:0 42:0 43:0 44:0 45:0 46:0 47:0 48:0 49:0 50:0 51:0 52:0 53:0 54:0 55:0 56:0 57:0 58:0 59:0 60:0 61:0 62:0 63:0 64:0 65:0 66:0 67:0 68:0.16552921 69:0.59855954 70:0.70715603 71:0.73573809 72:0.5 73:0.68123134 74:0.5 75:0.68359708 76:0.5 77:0.55364789 78:0.56843779 79:0.56771539 80:0.64496813 81:0.5 82:1 83:0.5 84:0.6628079 85:0.61706911 86:0.58115262 87:0.58884689 88:0.63254138 89:0.62662697 90:0.52905059 91:0.68333657 92:0.74586772 
-8.980041607941418 1:1 2:0.040381217 3:0.33333333 4:0 5:1 6:0 7:1 8:0 9:0 10:0 11:0 12:0 13:1 14:1 15:0 16:-1 17:-1 18:-1 19:-1 20:-1 21:1 22:-1 23:0 24:0.00011112346 25:0 26:1 27:0 28:0 29:0 30:0 31:0 32:0 33:0 34:0 35:0 36:0 37:0 38:0 39:1 40:0 41:0 42:0 43:0 44:0 45:0 46:0 47:0 48:0 49:0 50:0 51:0 52:0 53:0 54:0 55:0 56:0 57:0 58:0 59:0 60:0 61:0 62:0 63:0 64:0 65:0 66:0 67:0 68:1 69:1 70:1 71:1 72:0.58029681 73:1 74:0.50713584 75:1 76:1 77:1 78:1 79:1 80:1 81:1 82:1 83:0.58719245 84:1 85:1 86:1 87:1 88:1 89:1 90:1 91:1 92:1 
-23.51711447794187 1:1 2:0.14143632 3:0.33333333 4:0 5:1 6:0 7:0 8:1 9:0 10:0 11:0 12:0 13:1 14:1 15:0 16:-1 17:-1 18:-1 19:-1 20:-1 21:1 22:0 23:0 24:0.00011116052 25:0 26:1 27:0 28:0 29:0 30:0 31:0 32:0 33:0 34:0 35:0 36:0 37:0 38:0 39:1 40:0 41:0 42:0 43:0 44:0 45:0 46:0 47:0 48:0 49:0 50:0 51:0 52:0 53:0 54:0 55:0 56:0 57:0 58:0 59:0 60:0 61:0 62:0 63:0 64:0 65:0 66:0 67:0 68:1 69:1 70:1 71:1 72:1 73:1 74:1 75:1 76:1 77:1 78:1 79:1 80:1 81:1 82:1 83:1 84:1 85:1 86:1 87:1 88:1 89:1 90:1 91:1 92:1 
-100 1:1 2:0.79200645 3:1 4:0 5:0 6:1 7:0 8:0 9:1 10:0 11:0 12:0 13:1 14:1 15:0 16:-1 17:-1 18:-1 19:-1 20:0 21:-1 22:-1 23:0 24:0.00010002 25:1 26:0 27:0 28:0 29:0 30:0 31:0 32:0 33:0 34:0 35:0 36:0 37:0 38:1 39:1 40:0 41:0 42:0 43:0 44:0 45:0 46:0 47:0 48:0 49:0 50:0 51:0 52:0 53:0 54:0 55:0 56:0 57:0 58:0 59:0 60:0 61:0 62:0 63:0 64:0 65:0 66:0 67:0 68:1 69:1 70:1 71:1 72:1 73:1 74:1 75:1 76:1 77:1 78:1 79:1 80:1 81:1 82:1 83:1 84:1 85:1 86:1 87:1 88:1 89:1 90:1 91:1 92:1 
-60.66389111407562 1:1 2:0.14189836 3:1 4:0 5:0 6:1 7:0 8:0 9:1 10:0 11:0 12:0 13:1 14:1 15:0 16:-1 17:-1 18:-1 19:-1 20:0 21:1 22:-1 23:0 24:0.00011113581 25:1 26:0 27:0 28:0 29:0 30:0 31:0 32:0 33:0 34:0 35:0 36:0 37:0 38:0 39:0 40:0 41:0 42:0 43:0 44:0 45:0 46:0 47:0 48:0 49:0 50:0 51:0 52:0 53:0 54:0 55:0 56:0 57:0 58:0 59:0 60:0 61:0 62:0 63:0 64:0 65:0 66:0 67:1 68:0.17566185 69:0.51038642 70:0.57637855 71:0.57110031 72:0.5 73:0.5 74:0.59395173 75:0.57297177 76:0.5 77:0.5050425 78:0.55158194 79:0.72809075 80:0.59178069 81:0 82:0.5 83:0.58760282 84:0.59628465 85:0.60614792 86:0.55158194 87:0.55158194 88:0.62249648 89:0.71774857 90:0.5726707 91:0.59804257 92:0.61966649 
-100 1:1 2:0.6842886 3:0.33333333 4:1 5:0 6:0 7:0 8:0 9:1 10:0 11:0 12:0 13:1 14:1 15:0 16:-1 17:-1 18:-1 19:-1 20:-1 21:1 22:0 23:0 24:0.00011109877 25:0 26:1 27:0 28:0 29:0 30:1 31:0 32:0 33:0 34:0 35:0 36:0 37:0 38:0 39:0 40:0 41:0 42:0 43:0 44:0 45:0 46:0 47:0 48:0 49:0 50:0 51:0 52:0 53:0 54:0 55:0 56:0 57:0 58:0 59:0 60:0 61:0 62:0 63:0 64:0 65:0 66:0 67:0 68:0.10004297 69:0.56605013 70:0.5 71:0.53574303 72:0.56543439 73:0.65733875 74:0.6727381 75:0.52346654 76:0.5777905 77:0.69132379 78:0.65479569 79:0.73367711 80:0.66471719 81:0.57572185 82:0.64493125 83:0.55667697 84:0.6847621 85:1 86:0.65479569 87:0.64788284 88:1 89:0.72376327 90:0.71440915 91:0.69406067 92:0.75282115 
-100 1:1 2:0.20644113 3:1 4:1 5:0 6:0 7:0 8:0 9:1 10:0 11:0 12:1 13:0 14:0 15:1 16:-1 17:-1 18:-1 19:-1 20:0 21:1 22:-1 23:-1 24:0.000125 25:1 26:0 27:0 28:0 29:0 30:0 31:0 32:0 33:0 34:0 35:0 36:0 37:0 38:0 39:0 40:0 41:0 42:0 43:0 44:0 45:0 46:0 47:0 48:0 49:0 50:0 51:0 52:0 53:0 54:0 55:0 56:0 57:0 58:0 59:0 60:0 61:0 62:0 63:0 64:0 65:1 66:0 67:0 68:0.15779967 69:0.56605013 70:0 71:0.50612291 72:0 73:0.55777347 74:0.52334564 75:0.5 76:0.5 77:0.61724539 78:0.6777376 79:0.70838597 80:0.56925174 81:0.5 82:1 83:0.5 84:0.59736886 85:0.5 86:0.58115262 87:0.5 88:1 89:0.71105503 90:0.57986763 91:0.68468357 92:0.70858486 
-100 1:1 2:0.88785052 3:0.33333333 4:1 5:0 6:0 7:0 8:0 9:1 10:0 11:0 12:0 13:1 14:1 15:0 16:-1 17:-1 18:-1 19:-1 20:-1 21:1 22:-1 23:-1 24:0.000125 25:0 26:1 27:0 28:0 29:0 30:0 31:0 32:0 33:0 34:0 35:0 36:0 37:0 38:0 39:0 40:0 41:0 42:0 43:0 44:0 45:0 46:0 47:0 48:0 49:0 50:0 51:0 52:0 53:0 54:0 55:0 56:0 57:0 58:0 59:0 60:0 61:0 62:0 63:0 64:0 65:1 66:0 67:0 68:0.15779967 69:0.56605013 70:0 71:0.50612291 72:0 73:0.55777347 74:0.52334564 75:0.5 76:0.5 77:0.61724539 78:0.6777376 79:0.70838597 80:0.56925174 81:0.5 82:1 83:0.5 84:0.59736886 85:0.5 86:0.58115262 87:0.5 88:1 89:0.71105503 90:0.57986763 91:0.68468357 92:0.70858486 
-53.12970728279885 1:1 2:0.93670469 3:0.33333333 4:0 5:1 6:0 7:0 8:1 9:0 10:0 11:0 12:0 13:1 14:1 15:0 16:-1 17:-1 18:-1 19:-1 20:-1 21:1 22:-1 23:-1 24:0.000125 25:0 26:1 27:0 28:0 29:0 30:0 31:0 32:0 33:0 34:0 35:1 36:0 37:0 38:0 39:0 40:0 41:0 42:0 43:0 44:0 45:0 46:0 47:0 48:0 49:0 50:0 51:0 52:0 53:0 54:0 55:1 56:0 57:0 58:0 59:0 60:0 61:0 62:0 63:0 64:0 65:1 66:0 67:0 68:1 69:0 70:0.56605013 71:0.5762336 72:0.60704383 73:0.51038642 74:0.60524874 75:0.58451828 76:0.57027391 77:0.51562859 78:0.67314117 79:1 80:1 81:0.51038642 82:1 83:0.50115272 84:0.70435108 85:1 86:0.61748695 87:1 88:1 89:0.65707077 90:0.64833298 91:1 92:1 
-3.311242321989035 1:1 2:0.65251832 3:0.33333333 4:1 5:0 6:0 7:1 8:0 9:0 10:0 11:0 12:0 13:1 14:1 15:0 16:-1 17:-1 18:-1 19:-1 20:-1 21:1 22:1 23:0 24:0.00010005003 25:0 26:1 27:0 28:0 29:0 30:0 31:0 32:0 33:0 34:0 35:0 36:0 37:0 38:0 39:0 40:0 41:0 42:0 43:0 44:0 45:0 46:0 47:0 48:0 49:0 50:0 51:0 52:0 53:0 54:0 55:1 56:0 57:0 58:0 59:0 60:0 61:0 62:0 63:0 64:0 65:0 66:0 67:0 68:0 69:0.60704383 70:0.62672172 71:0.65637742 72:0.5 73:0.55777347 74:0.52334564 75:0.5 76:0.5 77:0.61724539 78:0.68764651 79:0.70838597 80:0.56925174 81:0.5 82:1 83:0.5 84:0.59736886 85:0.5 86:0.58115262 87:0.61113797 88:1 89:0.71105503 90:0.69599497 91:0.68468357 92:0.70858486 
-78.66181930914765 1:1 2:0.79801754 3:0.33333333 4:0 5:1 6:0 7:1 8:0 9:0 10:0 11:0 12:0 13:1 14:1 15:0 16:-1 17:-1 18:-1 19:-1 20:0 21:1 22:0 23:0 24:0.00010005003 25:0 26:1 27:0 28:0 29:0 30:1 31:0 32:0 33:0 34:0 35:0 36:0 37:0 38:0 39:0 40:0 41:0 42:0 43:0 44:0 45:0 46:0 47:0 48:0 49:0 50:0 51:0 52:0 53:0 54:0 55:0 56:1 57:0 58:0 59:0 60:0 61:0 62:0 63:0 64:0 65:0 66:0 67:0 68:0.1135888 69:1 70:0.56027865 71:0.69398685 72:0.57829527 73:0.70396338 74:0.70533023 75:0.5 76:0.53789987 77:1 78:0.53044878 79:0.73592856 80:0.626755 81:0.57218486 82:1 83:0.52006124 84:0.6341558 85:0.5 86:0.68259465 87:0.68259465 88:0.68640776 89:1 90:0.55196788 91:0.71051732 92:0.73609167 
-77.7770544686398 1:1 2:0.70539169 3:0.33333333 4:1 5:0 6:0 7:1 8:0 9:0 10:0 11:0 12:0 13:1 14:1 15:0 16:-1 17:-1 18:-1 19:-1 20:-1 21:1 22:0 23:-1 24:0.00011122233 25:0 26:1 27:0 28:0 29:0 30:1 31:0 32:0 33:0 34:0 35:0 36:0 37:0 38:0 39:0 40:0 41:0 42:0 43:0 44:0 45:0 46:0 47:0 48:0 49:0 50:0 51:0 52:0 53:0 54:0 55:0 56:0 57:0 58:0 59:0 60:0 61:0 62:0 63:0 64:0 65:1 66:0 67:0 68:0.16552921 69:0.51038642 70:0.57637855 71:0.57110031 72:0.5 73:0.5 74:0.59395173 75:0.57297177 76:0.5 77:0.5050425 78:0.55158194 79:0.72809075 80:0.59178069 81:0.5 82:0.5 83:0.58760282 84:0.59628465 85:0.60614792 86:0.55158194 87:0.55158194 88:0.62249648 89:0.71774857 90:0.5726707 91:0.59804257 92:0.61966649 
-100 1:1 2:0.059880063 3:1 4:1 5:0 6:0 7:0 8:0 9:1 10:0 11:0 12:1 13:0 14:0 15:1 16:-1 17:-1 18:-1 19:-1 20:0 21:1 22:-1 23:0 24:0.00014285714 25:1 26:0 27:0 28:0 29:0 30:0 31:0 32:0 33:0 34:0 35:0 36:0 37:0 38:0 39:0 40:0 41:0 42:0 43:0 44:0 45:0 46:0 47:0 48:0 49:0 50:0 51:0 52:0 53:0 54:0 55:0 56:0 57:0 58:0 59:0 60:0 61:0 62:0 63:0 64:0 65:1 66:0 67:0 68:0.15779967 69:0.56605013 70:0 71:0.50612291 72:0 73:0.55777347 74:0.52334564 75:0.5 76:0.5 77:0.61724539 78:0.6777376 79:0.70838597 80:0.56925174 81:0.5 82:1 83:0.5 84:0.59736886 85:0.5 86:0.58115262 87:0.5 88:1 89:0.71105503 90:0.57986763 91:0.68468357 92:0.70858486 
-90.65329345113696 1:1 2:0.64952488 3:0.33333333 4:1 5:0 6:0 7:0 8:0 9:1 10:0 11:0 12:0 13:1 14:1 15:0 16:-1 17:-1 18:-1 19:-1 20:-1 21:1 22:-1 23:0 24:0.00010012014 25:0 26:1 27:0 28:0 29:1 30:0 31:0 32:0 33:0 34:0 35:0 36:0 37:0 38:0 39:0 40:0 41:0 42:0 43:0 44:0 45:0 46:0 47:0 48:0 49:0 50:0 51:0 52:0 53:0 54:0 55:0 56:0 57:0 58:0 59:0 60:0 61:0 62:0 63:0 64:0 65:0 66:0 67:0 68:0.14800401 69:0.51038642 70:0.57637855 71:0.57110031 72:0.5 73:0.5 74:0.59395173 75:0.57297177 76:0.5 77:0.5050425 78:0.55158194 79:0.72809075 80:0.59178069 81:0 82:0.5 83:0.58760282 84:0.59628465 85:0.60614792 86:0.55158194 87:0.55158194 88:0.62249648 89:0.71774857 90:0.5726707 91:0.59804257 92:0.61966649 
-29.97251946091334 1:1 2:0.040381217 3:0.33333333 4:0 5:1 6:0 7:1 8:0 9:0 10:0 11:0 12:0 13:1 14:1 15:0 16:-1 17:-1 18:-1 19:-1 20:-1 21:1 22:-1 23:0 24:0.00011112346 25:0 26:1 27:0 28:0 29:0 30:0 31:0 32:0 33:0 34:0 35:0 36:0 37:0 38:0 39:1 40:0 41:0 42:0 43:0 44:0 45:0 46:0 47:0 48:0 49:0 50:0 51:0 52:0 53:0 54:0 55:0 56:0 57:0 58:0 59:0 60:0 61:0 62:0 63:0 64:0 65:0 66:0 67:0 68:1 69:1 70:1 71:1 72:0.58029681 73:1 74:0.50713584 75:1 76:1 77:1 78:1 79:1 80:1 81:1 82:1 83:0.58719245 84:1 85:1 86:1 87:1 88:1 89:1 90:1 91:1 92:1 
-100 1:1 2:0.49672845 3:1 4:0 5:0 6:1 7:0 8:0 9:1 10:0 11:0 12:1 13:0 14:0 15:1 16:-1 17:-1 18:-1 19:-1 20:0 21:1 22:0 23:0 24:0.00011108643 25:1 26:0 27:0 28:0 29:0 30:0 31:0 32:0 33:0 34:0 35:0 36:0 37:0 38:0 39:0 40:0 41:0 42:0 43:0 44:0 45:0 46:0 47:0 48:0 49:0 50:0 51:0 52:0 53:0 54:0 55:0 56:0 57:0 58:0 59:0 60:0 61:0 62:0 63:0 64:0 65:0 66:0 67:0 68:0 69:1 70:0.67741851 71:0.69398685 72:0.57829527 73:0.71132442 74:0.71262429 75:0.5 76:0.53789987 77:1 78:0.53044878 79:0.73592856 80:0.626755 81:0.57218486 82:1 83:0.52006124 84:0.6341558 85:0.5 86:0.68259465 87:0.68259465 88:0.68640776 89:1 90:0.55196788 91:0.71051732 92:0.73609167 
-34.17345716109195 1:1 2:0.0061923066 3:0.090909091 4:1 5:0 6:0 7:1 8:0 9:0 10:0 11:0 12:1 13:0 14:0 15:0 16:-1 17:-1 18:-1 19:-1 20:-1 21:-1 22:-1 23:0 24:0.00011108643 25:1 26:0 27:0 28:0 29:0 30:0 31:0 32:0 33:0 34:0 35:0 36:0 37:0 38:1 39:0 40:0 41:0 42:0 43:0 44:0 45:0 46:0 47:0 48:0 49:0 50:0 51:0 52:0 53:0 54:0 55:0 56:0 57:0 58:0 59:0 60:0 61:0 62:0 63:0 64:0 65:0 66:0 67:0 68:0.183294 69:0.60704383 70:0.62672172 71:0.65637742 72:0 73:0.55777347 74:0.52334564 75:0.5 76:0.5 77:0.61724539 78:0.68764651 79:0.70838597 80:0.56925174 81:0.5 82:1 83:0.5 84:0.59736886 85:0.5 86:0.58115262 87:0.61113797 88:1 89:0.71105503 90:0.69599497 91:0.68468357 92:0.70858486 
-100 1:1 2:0.60287957 3:1 4:1 5:0 6:0 7:1 8:0 9:0 10:0 11:0 12:1 13:0 14:0 15:1 16:-1 17:-1 18:-1 19:-1 20:-1 21:1 22:-1 23:0 24:0.00011112346 25:1 26:0 27:0 28:0 29:0 30:0 31:0 32:0 33:0 34:0 35:0 36:0 37:0 38:0 39:0 40:0 41:0 42:0 43:0 44:0 45:0 46:0 47:0 48:0 49:0 50:0 51:0 52:0 53:0 54:0 55:0 56:0 57:0 58:0 59:0 60:0 61:0 62:0 63:0 64:0 65:0 66:0 67:0 68:1 69:1 70:1 71:1 72:1 73:1 74:1 75:1 76:1 77:1 78:1 79:0.5 80:1 81:1 82:1 83:1 84:1 85:1 86:1 87:1 88:0.57706466 89:0.50957114 90:1 91:1 92:1 
-100 1:1 2:0.80013079 3:1 4:0 5:0 6:1 7:0 8:0 9:1 10:0 11:0 12:1 13:0 14:0 15:1 16:-1 17:-1 18:-1 19:-1 20:0 21:1 22:0 23:0 24:0.00010002 25:1 26:0 27:0 28:0 29:0 30:0 31:0 32:0 33:0 34:0 35:0 36:0 37:0 38:0 39:0 40:0 41:0 42:0 43:0 44:0 45:0 46:0 47:0 48:0 49:0 50:0 51:0 52:0 53:0 54:0 55:0 56:0 57:0 58:0 59:0 60:0 61:0 62:0 63:0 64:0 65:1 66:0 67:0 68:1 69:0.56605013 70:0 71:0.50612291 72:0 73:0.55777347 74:0.52334564 75:0.5 76:0.5 77:0.61724539 78:0.6777376 79:0.70838597 80:0.56925174 81:0.5 82:1 83:0.5 84:0.59736886 85:0.5 86:0.58115262 87:0.5 88:1 89:0.71105503 90:0.57986763 91:0.68468357 92:0.70858486 
-100 1:1 2:0.59614656 3:1 4:0 5:0 6:1 7:0 8:0 9:1 10:0 11:0 12:1 13:0 14:0 15:1 16:-1 17:-1 18:-1 19:-1 20:0 21:1 22:-1 23:0 24:0.00011112346 25:1 26:0 27:0 28:0 29:0 30:0 31:0 32:0 33:0 34:0 35:0 36:0 37:0 38:0 39:0 40:0 41:0 42:0 43:0 44:0 45:0 46:0 47:0 48:0 49:0 50:0 51:0 52:0 53:0 54:0 55:0 56:0 57:0 58:0 59:0 60:0 61:0 62:0 63:0 64:0 65:1 66:0 67:0 68:0.20634081 69:0.56605013 70:0 71:0.50612291 72:0 73:0.55777347 74:0.52334564 75:0.5 76:0.5 77:0.61724539 78:0.6777376 79:0.70838597 80:0.56925174 81:0.5 82:1 83:0.5 84:0.59736886 85:0.5 86:0.58115262 87:0.5 88:1 89:0.71105503 90:0.57986763 91:0.68468357 92:0.70858486 
-100 1:1 2:0.93382506 3:0.33333333 4:0 5:1 6:0 7:0 8:0 9:1 10:0 11:0 12:0 13:1 14:1 15:0 16:-1 17:-1 18:-1 19:-1 20:-1 21:1 22:0 23:-1 24:0.000125 25:0 26:1 27:0 28:0 29:0 30:0 31:0 32:0 33:0 34:0 35:0 36:0 37:0 38:0 39:0 40:0 41:0 42:0 43:0 44:0 45:0 46:0 47:0 48:0 49:0 50:0 51:0 52:1 53:0 54:0 55:0 56:0 57:0 58:0 59:0 60:0 61:0 62:0 63:0 64:0 65:1 66:0 67:0 68:1 69:0 70:0.56605013 71:0.5762336 72:0.60704383 73:0.51038642 74:0.60524874 75:0.58451828 76:0.57027391 77:0.51562859 78:0.67314117 79:1 80:1 81:0.51038642 82:1 83:0.50115272 84:0.70435108 85:1 86:0.61748695 87:1 88:1 89:0.65707077 90:0.64833298 91:1 92:1 
-37.80236389323688 1:1 2:0.21199002 3:1 4:0 5:1 6:0 7:0 8:0 9:1 10:0 11:0 12:1 13:0 14:0 15:1 16:-1 17:-1 18:-1 19:-1 20:0 21:1 22:-1 23:0 24:0.00010009008 25:1 26:0 27:0 28:0 29:0 30:1 31:0 32:0 33:0 34:0 35:0 36:0 37:0 38:0 39:0 40:0 41:0 42:0 43:0 44:0 45:0 46:0 47:0 48:0 49:0 50:0 51:0 52:1 53:0 54:0 55:0 56:0 57:0 58:0 59:0 60:0 61:0 62:0 63:0 64:0 65:0 66:0 67:0 68:0 69:1 70:0.61040152 71:0.59872941 72:0.59018662 73:0.67381687 74:0.68780098 75:0.57507191 76:0.61040152 77:0.605865 78:0.58750411 79:0.7516334 80:0.68147396 81:0.5936148 82:0.66366884 83:0.55505374 84:0.61775485 85:0.65473623 86:0.58750411 87:0.59681676 88:1 89:0.74303292 90:0.73495741 91:0.71752112 92:0.76836406 
-21.81322800287011 1:1 2:0.1870335 3:0.33333333 4:0 5:1 6:0 7:0 8:0 9:1 10:0 11:0 12:0 13:1 14:1 15:0 16:-1 17:-1 18:-1 19:-1 20:0 21:1 22:-1 23:0 24:0.00010009008 25:0 26:1 27:0 28:0 29:0 30:1 31:0 32:0 33:0 34:0 35:0 36:0 37:0 38:0 39:0 40:0 41:0 42:0 43:0 44:0 45:0 46:0 47:0 48:0 49:0 50:0 51:0 52:0 53:0 54:0 55:1 56:0 57:0 58:0 59:0 60:0 61:0 62:0 63:0 64:0 65:0 66:0 67:0 68:0 69:1 70:0.61040152 71:0.59872941 72:0.59018662 73:0.67381687 74:0.68780098 75:0.57507191 76:0.61040152 77:0.605865 78:0.58750411 79:0.7516334 80:0.68147396 81:0.5936148 82:0.66366884 83:0.55505374 84:0.61775485 85:0.65473623 86:0.58750411 87:0.59681676 88:1 89:0.74303292 90:0.73495741 91:0.71752112 92:0.76836406 
-100 1:1 2:0.60287957 3:1 4:1 5:0 6:0 7:1 8:0 9:0 10:0 11:0 12:1 13:0 14:0 15:1 16:-1 17:-1 18:-1 19:-1 20:-1 21:1 22:-1 23:0 24:0.00011112346 25:1 26:0 27:0 28:0 29:0 30:0 31:0 32:0 33:0 34:0 35:0 36:0 37:0 38:0 39:0 40:0 41:0 42:0 43:0 44:0 45:0 46:0 47:0 48:0 49:0 50:0 51:0 52:0 53:0 54:0 55:0 56:0 57:0 58:0 59:0 60:0 61:0 62:0 63:0 64:0 65:0 66:0 67:0 68:1 69:1 70:1 71:1 72:1 73:1 74:1 75:1 76:1 77:1 78:1 79:0.5 80:1 81:1 82:1 83:1 84:1 85:1 86:1 87:1 88:0.57706466 89:0.50957114 90:1 91:1 92:1 
-100 1:1 2:0.59614656 3:1 4:0 5:0 6:1 7:0 8:0 9:1 10:0 11:0 12:1 13:0 14:0 15:1 16:-1 17:-1 18:-1 19:-1 20:0 21:1 22:-1 23:0 24:0.00011111111 25:1 26:0 27:0 28:0 29:0 30:0 31:0 32:0 33:0 34:0 35:0 36:0 37:0 38:0 39:0 40:0 41:0 42:0 43:0 44:0 45:0 46:0 47:0 48:0 49:0 50:0 51:0 52:0 53:0 54:0 55:0 56:0 57:0 58:0 59:0 60:0 61:0 62:0 63:0 64:0 65:1 66:0 67:0 68:0.20634081 69:0.56605013 70:0 71:0.50612291 72:0 73:0.55777347 74:0.52334564 75:0.5 76:0.5 77:0.61724539 78:0.6777376 79:0.70838597 80:0.56925174 81:0.5 82:1 83:0.5 84:0.59736886 85:0.5 86:0.58115262 87:0.5 88:1 89:0.71105503 90:0.57986763 91:0.68468357 92:0.70858486 
-65.69096575782721 1:1 2:0.91827042 3:0.33333333 4:0 5:1 6:0 7:0 8:1 9:0 10:0 11:0 12:0 13:1 14:1 15:0 16:-1 17:-1 18:-1 19:-1 20:-1 21:1 22:-1 23:-1 24:0.000125 25:0 26:1 27:0 28:0 29:0 30:0 31:0 32:0 33:0 34:0 35:0 36:0 37:0 38:0 39:0 40:0 41:0 42:0 43:0 44:0 45:0 46:0 47:0 48:0 49:0 50:0 51:0 52:1 53:0 54:0 55:0 56:0 57:0 58:0 59:0 60:0 61:0 62:0 63:0 64:0 65:1 66:0 67:0 68:1 69:0 70:0.56605013 71:0.5762336 72:0.60704383 73:0.51038642 74:0.60524874 75:0.58451828 76:0.57027391 77:0.51562859 78:0.67314117 79:1 80:1 81:0.51038642 82:1 83:0.50115272 84:0.70435108 85:1 86:0.61748695 87:1 88:1 89:0.65707077 90:0.64833298 91:1 92:1 
-100 1:1 2:0.78070175 3:0.076923077 4:1 5:0 6:0 7:1 8:0 9:0 10:0 11:0 12:0 13:1 14:1 15:0 16:-1 17:-1 18:-1 19:-1 20:-1 21:1 22:0 23:0 24:0.0001111976 25:0 26:1 27:0 28:0 29:1 30:0 31:0 32:0 33:0 34:0 35:0 36:0 37:0 38:0 39:0 40:0 41:0 42:0 43:0 44:0 45:0 46:0 47:0 48:0 49:0 50:0 51:0 52:0 53:0 54:0 55:0 56:0 57:0 58:0 59:0 60:0 61:0 62:0 63:0 64:0 65:0 66:0 67:0 68:0.13446522 69:0.57027391 70:0.5 71:0.58006539 72:0.5 73:0.56784907 74:0.51520394 75:0.5 76:0.5 77:0.67291492 78:0.54069923 79:0.63881403 80:0.57335674 81:0.5 82:1 83:0.5 84:0.62427459 85:0.59666883 86:0.54069923 87:0.52888605 88:0.61379668 89:0.70911216 90:0.58331776 91:0.58875385 92:0.74115537 
-46.48458003807902 1:1 2:0.023305424 3:0.076923077 4:1 5:0 6:0 7:0 8:0 9:1 10:0 11:0 12:0 13:1 14:1 15:0 16:-1 17:-1 18:-1 19:-1 20:-1 21:1 22:0 23:0 24:0.00011112346 25:0 26:1 27:0 28:0 29:0 30:0 31:0 32:0 33:0 34:0 35:0 36:0 37:0 38:0 39:0 40:0 41:0 42:0 43:0 44:0 45:0 46:0 47:0 48:0 49:0 50:0 51:0 52:0 53:0 54:0 55:0 56:0 57:0 58:0 59:0 60:0 61:0 62:0 63:0 64:0 65:0 66:0 67:0 68:1 69:1 70:1 71:1 72:1 73:1 74:1 75:1 76:1 77:1 78:1 79:1 80:1 81:1 82:1 83:1 84:1 85:1 86:1 87:1 88:1 89:1 90:1 91:1 92:1 
-42.67063594579225 1:1 2:0.0062548152 3:0.076923077 4:1 5:0 6:0 7:0 8:0 9:1 10:0 11:0 12:1 13:0 14:0 15:1 16:-1 17:-1 18:-1 19:-1 20:-1 21:1 22:0 23:0 24:0.00011112346 25:0 26:1 27:0 28:0 29:0 30:0 31:0 32:0 33:0 34:0 35:0 36:0 37:0 38:0 39:0 40:0 41:0 42:0 43:0 44:0 45:0 46:0 47:0 48:0 49:0 50:0 51:0 52:0 53:0 54:0 55:0 56:0 57:0 58:0 59:0 60:0 61:0 62:0 63:0 64:0 65:0 66:0 67:0 68:1 69:1 70:1 71:1 72:1 73:1 74:1 75:1 76:1 77:1 78:1 79:1 80:1 81:1 82:1 83:1 84:1 85:1 86:1 87:1 88:1 89:1 90:1 91:1 92:1 
-100 1:1 2:0.59614656 3:1 4:0 5:0 6:1 7:0 8:0 9:1 10:0 11:0 12:1 13:0 14:0 15:1 16:-1 17:-1 18:-1 19:-1 20:0 21:1 22:-1 23:0 24:0.00011111111 25:1 26:0 27:0 28:0 29:0 30:0 31:0 32:0 33:0 34:0 35:0 36:0 37:0 38:0 39:0 40:0 41:0 42:0 43:0 44:0 45:0 46:0 47:0 48:0 49:0 50:0 51:0 52:0 53:0 54:0 55:0 56:0 57:0 58:0 59:0 60:0 61:0 62:0 63:0 64:0 65:1 66:0 67:0 68:0.20634081 69:0.56605013 70:0 71:0.50612291 72:0 73:0.55777347 74:0.52334564 75:0.5 76:0.5 77:0.61724539 78:0.6777376 79:0.70838597 80:0.56925174 81:0.5 82:1 83:0.5 84:0.59736886 85:0.5 86:0.58115262 87:0.5 88:1 89:0.71105503 90:0.57986763 91:0.68468357 92:0.70858486 
-100 1:1 2:0.13949248 3:1 4:1 5:0 6:0 7:0 8:0 9:1 10:0 11:0 12:1 13:0 14:0 15:1 16:-1 17:-1 18:-1 19:-1 20:0 21:1 22:-1 23:0 24:0.00011102476 25:1 26:0 27:0 28:0 29:0 30:0 31:0 32:0 33:0 34:0 35:0 36:0 37:0 38:0 39:0 40:0 41:0 42:0 43:0 44:0 45:0 46:0 47:0 48:0 49:0 50:0 51:0 52:0 53:0 54:0 55:0 56:0 57:0 58:0 59:0 60:0 61:0 62:1 63:0 64:0 65:0 66:1 67:0 68:0.19873151 69:0.51038642 70:0.66039891 71:0.50807294 72:0.55777347 73:0 74:0.6063333 75:0.52967212 76:0.56784907 77:0.5050425 78:0.64460208 79:0.50420289 80:0.65203413 81:0.5 82:0.5463616 83:0.60128764 84:0.67628317 85:0.68863457 86:0.61360789 87:0.60762919 88:1 89:1 90:0.64220114 91:0.73261993 92:0.60882724 
-55.58308950341842 1:1 2:0.18820972 3:0.33333333 4:0 5:0 6:1 7:1 8:0 9:0 10:0 11:0 12:1 13:0 14:0 15:1 16:-1 17:-1 18:-1 19:-1 20:-1 21:-1 22:0 23:0 24:0.00011112346 25:0 26:1 27:0 28:0 29:0 30:0 31:0 32:0 33:0 34:0 35:0 36:0 37:0 38:0 39:0 40:0 41:0 42:0 43:0 44:0 45:0 46:0 47:0 48:0 49:0 50:0 51:0 52:0 53:0 54:0 55:0 56:0 57:0 58:0 59:0 60:0 61:0 62:0 63:0 64:0 65:0 66:0 67:1 68:0.16552921 69:0.60704383 70:0.62672172 71:0.65637742 72:0.5 73:0.55777347 74:0.52334564 75:0.5 76:0.5 77:0.61724539 78:0.68764651 79:0.70838597 80:0.56925174 81:0.5 82:1 83:0.5 84:0.59736886 85:0.5 86:0.58115262 87:0.61113797 88:1 89:0.71105503 90:0.69599497 91:0.68468357 92:0.70858486 
-100 1:1 2:0.14991678 3:1 4:1 5:0 6:0 7:0 8:0 9:1 10:0 11:0 12:1 13:0 14:0 15:1 16:-1 17:-1 18:-1 19:-1 20:0 21:1 22:-1 23:-1 24:0.000125 25:1 26:0 27:0 28:0 29:0 30:0 31:0 32:0 33:0 34:0 35:0 36:0 37:0 38:0 39:0 40:0 41:0 42:0 43:0 44:0 45:0 46:0 47:0 48:0 49:0 50:0 51:0 52:0 53:0 54:0 55:0 56:0 57:0 58:0 59:0 60:0 61:0 62:0 63:0 64:0 65:1 66:0 67:0 68:0.15779967 69:0.56605013 70:0 71:0.50612291 72:0 73:0.55777347 74:0.52334564 75:0.5 76:0.5 77:0.61724539 78:0.6777376 79:0.70838597 80:0.56925174 81:0.5 82:1 83:0.5 84:0.59736886 85:0.5 86:0.58115262 87:0.5 88:1 89:0.71105503 90:0.57986763 91:0.68468357 92:0.70858486 
-100 1:1 2:0.88785052 3:0.33333333 4:1 5:0 6:0 7:0 8:0 9:1 10:0 11:0 12:0 13:1 14:1 15:0 16:-1 17:-1 18:-1 19:-1 20:-1 21:1 22:-1 23:-1 24:0.000125 25:0 26:1 27:0 28:0 29:0 30:0 31:0 32:0 33:0 34:0 35:0 36:0 37:0 38:0 39:0 40:0 41:0 42:0 43:0 44:0 45:0 46:0 47:0 48:0 49:0 50:0 51:0 52:0 53:0 54:0 55:0 56:0 57:0 58:0 59:0 60:0 61:0 62:0 63:0 64:0 65:1 66:0 67:0 68:0.15779967 69:0.56605013 70:0 71:0.50612291 72:0 73:0.55777347 74:0.52334564 75:0.5 76:0.5 77:0.61724539 78:0.6777376 79:0.70838597 80:0.56925174 81:0.5 82:1 83:0.5 84:0.59736886 85:0.5 86:0.58115262 87:0.5 88:1 89:0.71105503 90:0.57986763 91:0.68468357 92:0.70858486 
-89.46290929373717 1:1 2:0.81044293 3:0.33333333 4:1 5:0 6:0 7:1 8:0 9:0 10:0 11:0 12:0 13:1 14:1 15:0 16:-1 17:-1 18:-1 19:-1 20:-1 21:1 22:0 23:0 24:0.00011111111 25:0 26:1 27:0 28:0 29:0 30:0 31:0 32:0 33:0 34:0 35:0 36:0 37:0 38:0 39:0 40:0 41:0 42:0 43:0 44:0 45:0 46:0 47:0 48:0 49:0 50:0 51:0 52:1 53:0 54:0 55:0 56:0 57:0 58:0 59:0 60:0 61:0 62:0 63:0 64:0 65:0 66:0 67:0 68:0 69:1 70:0.71751428 71:0.68243421 72:0.65300276 73:0.71018227 74:0.51923787 75:0.5 76:0.50461094 77:1 78:1 79:0.72736996 80:0.6094247 81:0.53696239 82:1 83:0.69771711 84:1 85:0.65300276 86:0.74612297 87:0.71149531 88:1 89:1 90:0.73958815 91:0.7067622 92:0.72754381 
-38.13329854704686 1:1 2:0.32826966 3:0.076923077 4:0 5:1 6:0 7:0 8:0 9:1 10:0 11:0 12:0 13:1 14:0 15:0 16:-1 17:-1 18:-1 19:-1 20:-1 21:-1 22:-1 23:-1 24:0.00011111111 25:0 26:1 27:0 28:0 29:1 30:0 31:0 32:0 33:0 34:0 35:0 36:0 37:0 38:0 39:0 40:0 41:0 42:0 43:0 44:0 45:0 46:0 47:0 48:0 49:0 50:0 51:0 52:0 53:0 54:0 55:0 56:0 57:0 58:0 59:0 60:0 61:0 62:0 63:0 64:0 65:0 66:0 67:0 68:1 69:1 70:1 71:1 72:1 73:1 74:1 75:1 76:1 77:1 78:1 79:1 80:1 81:1 82:1 83:1 84:1 85:1 86:1 87:1 88:1 89:1 90:1 91:1 92:1 
-100 1:1 2:0.48388734 3:0.076923077 4:0 5:0 6:1 7:1 8:0 9:0 10:0 11:0 12:0 13:1 14:0 15:0 16:1 17:-1 18:-1 19:-1 20:0 21:-1 22:-1 23:0 24:0.00011111111 25:0 26:1 27:0 28:0 29:0 30:0 31:0 32:0 33:0 34:0 35:0 36:0 37:0 38:0 39:0 40:0 41:0 42:0 43:0 44:0 45:0 46:0 47:0 48:0 49:0 50:0 51:0 52:0 53:0 54:0 55:0 56:0 57:0 58:0 59:0 60:0 61:0 62:0 63:0 64:0 65:0 66:0 67:0 68:0 69:0.70435108 70:1 71:0.76657414 72:0.59736886 73:0.67628317 74:0.69006109 75:0.52404624 76:0.62427459 77:1 78:0.59025458 79:1 80:0.68397625 81:0.59628465 82:0.66645747 83:0.52118108 84:0 85:0.60178421 86:0.59025458 87:0.69108982 88:0.70872819 89:0.76735766 90:0.68567938 91:0.73718668 92:1 
-1.384994382774696 1:1 2:0.34373912 3:0.076923077 4:0 5:0 6:1 7:1 8:0 9:0 10:0 11:0 12:0 13:1 14:0 15:0 16:1 17:-1 18:-1 19:-1 20:0 21:-1 22:0 23:0 24:0.00010001 25:0 26:1 27:0 28:0 29:0 30:0 31:0 32:0 33:0 34:0 35:0 36:0 37:0 38:0 39:0 40:0 41:0 42:0 43:0 44:0 45:0 46:0 47:0 48:0 49:0 50:0 51:0 52:0 53:0 54:0 55:0 56:0 57:0 58:0 59:0 60:0 61:0 62:0 63:0 64:0 65:0 66:0 67:0 68:0.094200209 69:0.70435108 70:1 71:0.76657414 72:0.59736886 73:0.67628317 74:0.69006109 75:0.52404624 76:0.62427459 77:1 78:0.59025458 79:1 80:0.68397625 81:0.59628465 82:0.66645747 83:0.52118108 84:0.5 85:0.60178421 86:0.59025458 87:0.69108982 88:0.70872819 89:0.76735766 90:0.68567938 91:0.73718668 92:1 
-0.6501111420085807 1:1 2:0.018892836 3:0.090909091 4:1 5:0 6:0 7:1 8:0 9:0 10:0 11:0 12:1 13:0 14:0 15:1 16:-1 17:-1 18:-1 19:-1 20:-1 21:1 22:-1 23:0 24:0.00011109877 25:1 26:0 27:0 28:0 29:0 30:0 31:0 32:0 33:0 34:0 35:0 36:0 37:0 38:0 39:0 40:0 41:0 42:0 43:0 44:0 45:0 46:0 47:0 48:0 49:0 50:0 51:0 52:0 53:0 54:0 55:0 56:0 57:0 58:0 59:0 60:0 61:0 62:0 63:0 64:0 65:0 66:0 67:0 68:0.094200209 69:0.70435108 70:1 71:0.76657414 72:0.59736886 73:0.67628317 74:0.69006109 75:0.52404624 76:0.62427459 77:1 78:0.59025458 79:1 80:0.68397625 81:0.59628465 82:0.66645747 83:0.52118108 84:0 85:0.60178421 86:0.59025458 87:0.69108982 88:0.70872819 89:0.76735766 90:0.68567938 91:0.73718668 92:1 
