svm_type c_svc
kernel_type rbf
gamma 0.011236
nr_class 4
total_sv 1586
rho 2.19908 0.401753 -1.12957 1.30548 -0.491349 -2.19999
label 0 1 2 3
probA -1.76306 -3.31871 -3.74334 -2.93947 -3.27776 -2.18709
probB -0.0254753 -0.815296 1.05761 -0.348342 0.800873 -0.0629068
nr_sv 662 686 105 133
SV
10 0 0 1:0 2:1 3:0 4:1 5:0 6:0 7:0 8:0 9:0 10:0 11:0 12:0 13:-1 14:-1 15:-1 16:-1 17:1 18:1 19:-1 20:0 21:0.00011112346 22:1 23:0 24:0 25:0 26:0 27:0 28:0 29:0 30:0 31:0 32:0 33:0 34:0 35:0 36:1 37:0 38:0 39:0 40:0 41:0 42:0 43:0 44:0 45:0 46:0 47:0 48:0 49:0 50:0 51:0 52:0 53:0 54:0 55:0 56:0 57:0 58:0 59:0 60:0 61:0 62:0 63:0 64:0 65:1 66:1 67:1 68:1 69:0.58029681 70:1 71:0.50713584 72:1 73:1 74:1 75:1 76:1 77:1 78:1 79:1 80:0.58719245 81:1 82:1 83:1 84:1 85:1 86:1 87:1 88:1 89:1 
10 0 0 1:0 2:1 3:0 4:1 5:0 6:0 7:0 8:0 9:0 10:0 11:0 12:0 13:-1 14:-1 15:-1 16:-1 17:1 18:1 19:-1 20:0 21:0.00011112346 22:1 23:0 24:0 25:0 26:0 27:0 28:0 29:0 30:0 31:0 32:0 33:0 34:0 35:0 36:1 37:0 38:0 39:0 40:0 41:0 42:0 43:0 44:0 45:0 46:0 47:0 48:0 49:0 50:0 51:0 52:0 53:0 54:0 55:0 56:0 57:0 58:0 59:0 60:0 61:0 62:0 63:0 64:0 65:1 66:1 67:1 68:1 69:0.58029681 70:1 71:0.50713584 72:1 73:1 74:1 75:1 76:1 77:1 78:1 79:1 80:0.58719245 81:1 82:1 83:1 84:1 85:1 86:1 87:1 88:1 89:1 
10 0 0 1:0 2:0 3:1 4:0 5:0 6:1 7:0 8:0 9:0 10:0 11:0 12:0 13:-1 14:-1 15:-1 16:-1 17:0 18:1 19:-1 20:0 21:0.00011109877 22:1 23:0 24:0 25:0 26:0 27:0 28:0 29:0 30:0 31:0 32:0 33:0 34:0 35:0 36:1 37:0 38:0 39:0 40:1 41:0 42:0 43:0 44:0 45:0 46:0 47:0 48:0 49:0 50:0 51:0 52:0 53:0 54:1 55:0 56:1 57:0 58:0 59:0 60:0 61:0 62:0 63:0 64:0 65:0.14806629 66:0.61996878 67:0.70788227 68:0.71077074 69:0.68655755 70:0.72965544 71:1 72:0.68444471 73:0.54211689 74:0.58639301 75:0.56074343 76:0.74852165 77:0.64603501 78:0.58635278 79:1 80:0.6309756 81:0.72973222 82:0.68655755 83:0.58413544 84:0.58413544 85:0.73607481 86:1 87:0.614002 88:0.61305475 89:0.74866958 
10 0 0 1:0 2:0 3:1 4:0 5:0 6:1 7:0 8:0 9:0 10:0 11:0 12:0 13:-1 14:-1 15:-1 16:-1 17:0 18:1 19:-1 20:0 21:0.00011109877 22:1 23:0 24:0 25:0 26:0 27:0 28:0 29:0 30:0 31:0 32:0 33:0 34:0 35:0 36:1 37:0 38:0 39:0 40:1 41:0 42:0 43:0 44:0 45:0 46:0 47:0 48:0 49:0 50:0 51:0 52:0 53:0 54:1 55:0 56:1 57:0 58:0 59:0 60:0 61:0 62:0 63:0 64:0 65:0.14806629 66:0.61996878 67:0.70788227 68:0.71077074 69:0.68655755 70:0.72965544 71:1 72:0.68444471 73:0.54211689 74:0.58639301 75:0.56074343 76:0.74852165 77:0.64603501 78:0.58635278 79:1 80:0.6309756 81:0.72973222 82:0.68655755 83:0.58413544 84:0.58413544 85:0.73607481 86:1 87:0.614002 88:0.61305475 89:0.74866958 
10 0 10 1:0 2:1 3:0 4:0 5:1 6:0 7:0 8:0 9:0 10:0 11:0 12:0 13:-1 14:-1 15:-1 16:-1 17:-1 18:1 19:0 20:0 21:0.00011116052 22:1 23:0 24:0 25:0 26:0 27:0 28:0 29:0 30:0 31:0 32:0 33:0 34:0 35:1 36:0 37:0 38:0 39:0 40:0 41:0 42:0 43:0 44:0 45:0 46:0 47:0 48:0 49:0 50:0 51:0 52:0 53:0 54:0 55:0 56:0 57:0 58:0 59:0 60:0 61:0 62:0 63:0 64:0 65:1 66:1 67:1 68:1 69:1 70:1 71:1 72:1 73:1 74:1 75:1 76:1 77:1 78:1 79:1 80:1 81:1 82:1 83:1 84:1 85:1 86:1 87:1 88:1 89:1 
10 0 0 1:0 2:1 3:0 4:0 5:1 6:0 7:0 8:0 9:0 10:0 11:0 12:0 13:-1 14:-1 15:-1 16:-1 17:-1 18:1 19:0 20:0 21:0.00011116052 22:1 23:0 24:0 25:0 26:0 27:0 28:0 29:0 30:0 31:0 32:0 33:0 34:0 35:0 36:1 37:0 38:0 39:0 40:0 41:0 42:0 43:0 44:0 45:0 46:0 47:0 48:0 49:0 50:0 51:0 52:0 53:0 54:0 55:0 56:0 57:0 58:0 59:0 60:0 61:0 62:0 63:0 64:0 65:1 66:1 67:1 68:1 69:1 70:1 71:1 72:1 73:1 74:1 75:1 76:1 77:1 78:1 79:1 80:1 81:1 82:1 83:1 84:1 85:1 86:1 87:1 88:1 89:1 
10 0 10 1:0 2:1 3:0 4:0 5:1 6:0 7:0 8:0 9:0 10:0 11:0 12:0 13:-1 14:-1 15:-1 16:-1 17:-1 18:1 19:0 20:0 21:0.00011116052 22:1 23:0 24:0 25:0 26:0 27:0 28:0 29:0 30:0 31:0 32:0 33:0 34:0 35:1 36:0 37:0 38:0 39:0 40:0 41:0 42:0 43:0 44:0 45:0 46:0 47:0 48:0 49:0 50:0 51:0 52:0 53:0 54:0 55:0 56:0 57:0 58:0 59:0 60:0 61:0 62:0 63:0 64:0 65:1 66:1 67:1 68:1 69:1 70:1 71:1 72:1 73:1 74:1 75:1 76:1 77:1 78:1 79:1 80:1 81:1 82:1 83:1 84:1 85:1 86:1 87:1 88:1 89:1 
10 0 0 1:0 2:1 3:0 4:0 5:1 6:0 7:0 8:0 9:0 10:0 11:0 12:0 13:-1 14:-1 15:-1 16:-1 17:-1 18:1 19:0 20:0 21:0.00011116052 22:1 23:0 24:0 25:0 26:0 27:0 28:0 29:0 30:0 31:0 32:0 33:0 34:0 35:0 36:1 37:0 38:0 39:0 40:0 41:0 42:0 43:0 44:0 45:0 46:0 47:0 48:0 49:0 50:0 51:0 52:0 53:0 54:0 55:0 56:0 57:0 58:0 59:0 60:0 61:0 62:0 63:0 64:0 65:1 66:1 67:1 68:1 69:1 70:1 71:1 72:1 73:1 74:1 75:1 76:1 77:1 78:1 79:1 80:1 81:1 82:1 83:1 84:1 85:1 86:1 87:1 88:1 89:1 
10 0 0 1:1 2:0 3:0 4:0 5:0 6:1 7:0 8:0 9:0 10:0 11:0 12:0 13:-1 14:-1 15:-1 16:-1 17:-1 18:1 19:0 20:0 21:0.00011118523 22:1 23:0 24:0 25:0 26:0 27:1 28:0 29:0 30:0 31:0 32:0 33:0 34:0 35:0 36:1 37:0 38:0 39:0 40:0 41:0 42:0 43:0 44:0 45:0 46:0 47:0 48:0 49:0 50:0 51:0 52:0 53:0 54:0 55:0 56:0 57:0 58:0 59:0 60:0 61:0 62:0 63:0 64:0 65:0.17478162 66:1 67:0.61040152 68:0.59872941 69:0.59018662 70:0.67381687 71:0.68780098 72:0.57507191 73:0.61040152 74:0.605865 75:0.58750411 76:0.7516334 77:0.68147396 78:0.5936148 79:0.66366884 80:0.55505374 81:0.61775485 82:0.65473623 83:0.58750411 84:0.59681676 85:1 86:0.74303292 87:0.73495741 88:0.71752112 89:0.76836406 
10 0 0 1:1 2:0 3:0 4:0 5:0 6:1 7:0 8:0 9:0 10:0 11:0 12:0 13:-1 14:-1 15:-1 16:-1 17:-1 18:1 19:0 20:0 21:0.00011118523 22:1 23:0 24:0 25:0 26:0 27:1 28:0 29:0 30:0 31:0 32:0 33:0 34:0 35:0 36:1 37:0 38:0 39:0 40:0 41:0 42:0 43:0 44:0 45:0 46:0 47:0 48:0 49:0 50:0 51:0 52:0 53:0 54:0 55:0 56:0 57:0 58:0 59:0 60:0 61:0 62:0 63:0 64:0 65:0.17478162 66:1 67:0.61040152 68:0.59872941 69:0.59018662 70:0.67381687 71:0.68780098 72:0.57507191 73:0.61040152 74:0.605865 75:0.58750411 76:0.7516334 77:0.68147396 78:0.5936148 79:0.66366884 80:0.55505374 81:0.61775485 82:0.65473623 83:0.58750411 84:0.59681676 85:1 86:0.74303292 87:0.73495741 88:0.71752112 89:0.76836406 
0 0 3.795305887858754 1:1 2:0 3:0 4:0 5:1 6:0 7:0 8:0 9:0 10:0 11:0 12:0 13:-1 14:-1 15:-1 16:-1 17:-1 18:1 19:-1 20:-1 21:0.00011111111 22:1 23:0 24:0 25:0 26:0 27:0 28:0 29:0 30:0 31:0 32:0 33:0 34:0 35:1 36:0 37:0 38:0 39:0 40:0 41:0 42:0 43:0 44:0 45:0 46:0 47:0 48:0 49:0 50:0 51:0 52:0 53:0 54:0 55:0 56:0 57:0 58:0 59:0 60:0 61:0 62:0 63:0 64:0 65:1 66:1 67:1 68:1 69:1 70:1 71:1 72:1 73:1 74:1 75:1 76:1 77:1 78:1 79:1 80:1 81:1 82:1 83:1 84:1 85:1 86:1 87:1 88:1 89:1 
9.549591255247121 0 10 1:1 2:0 3:0 4:0 5:1 6:0 7:0 8:0 9:0 10:0 11:0 12:0 13:-1 14:-1 15:-1 16:-1 17:-1 18:1 19:-1 20:-1 21:0.00011111111 22:1 23:0 24:0 25:0 26:0 27:0 28:0 29:0 30:0 31:0 32:0 33:0 34:0 35:1 36:0 37:0 38:0 39:0 40:0 41:0 42:0 43:0 44:0 45:0 46:0 47:0 48:0 49:0 50:0 51:0 52:0 53:0 54:0 55:0 56:0 57:0 58:0 59:0 60:0 61:0 62:0 63:0 64:0 65:1 66:1 67:1 68:1 69:1 70:1 71:1 72:1 73:1 74:1 75:1 76:1 77:1 78:1 79:1 80:1 81:1 82:1 83:1 84:1 85:1 86:1 87:1 88:1 89:1 
10 0 10 1:0 2:1 3:0 4:1 5:0 6:0 7:0 8:0 9:0 10:0 11:0 12:0 13:-1 14:-1 15:-1 16:-1 17:-1 18:1 19:-1 20:-1 21:0.00011111111 22:1 23:0 24:0 25:0 26:0 27:0 28:0 29:0 30:0 31:0 32:0 33:0 34:0 35:0 36:1 37:0 38:0 39:0 40:0 41:0 42:0 43:0 44:0 45:0 46:0 47:0 48:0 49:0 50:0 51:0 52:0 53:0 54:0 55:0 56:0 57:0 58:0 59:0 60:0 61:0 62:0 63:0 64:0 65:1 66:0.67556192 67:0.56804372 68:0.55515622 69:0.60749052 70:0.62488497 71:0.57913788 72:0.54225473 73:0.55657714 74:0.66350504 75:0.6377354 76:0.71322157 77:0.53387358 78:0.56286947 79:1 80:0.58970226 81:0.7874287 82:0.7103189 83:0.6377354 84:0.60834892 85:1 86:0.70169338 87:0.55704367 88:0.50832486 89:0.5893858 
10 0 10 1:0 2:1 3:0 4:1 5:0 6:0 7:0 8:0 9:0 10:0 11:0 12:0 13:-1 14:-1 15:-1 16:-1 17:-1 18:1 19:-1 20:-1 21:0.00011111111 22:1 23:0 24:0 25:0 26:0 27:0 28:0 29:0 30:0 31:0 32:0 33:0 34:0 35:0 36:1 37:0 38:0 39:0 40:0 41:0 42:0 43:0 44:0 45:0 46:0 47:0 48:0 49:0 50:0 51:0 52:0 53:0 54:0 55:0 56:0 57:0 58:0 59:0 60:0 61:0 62:0 63:0 64:0 65:1 66:0.67556192 67:0.56804372 68:0.55515622 69:0.60749052 70:0.62488497 71:0.57913788 72:0.54225473 73:0.55657714 74:0.66350504 75:0.6377354 76:0.71322157 77:0.53387358 78:0.56286947 79:1 80:0.58970226 81:0.7874287 82:0.7103189 83:0.6377354 84:0.60834892 85:1 86:0.70169338 87:0.55704367 88:0.50832486 89:0.5893858 
8.573364978035114 0 0 1:0 2:0 3:1 4:0 5:1 6:0 7:0 8:0 9:0 10:0 11:0 12:0 13:-1 14:-1 15:-1 16:-1 17:0 18:1 19:-1 20:0 21:0.00010002 22:1 23:0 24:0 25:0 26:0 27:0 28:0 29:0 30:0 31:0 32:0 33:0 34:0 35:0 36:0 37:0 38:0 39:1 40:1 41:0 42:0 43:0 44:0 45:0 46:0 47:0 48:0 49:0 50:0 51:0 52:0 53:0 54:0 55:0 56:0 57:0 58:0 59:0 60:0 61:0 62:0 63:0 64:1 65:0.269213 66:0.61996878 67:0.70788227 68:0.71077074 69:0.59736886 70:0.67628317 71:0.69006109 72:0.52404624 73:0.54211689 74:0.58639301 75:0.56074343 76:0.74852165 77:0.64603501 78:0.58635278 79:0.66645747 80:0.52118108 81:0 82:0.60178421 83:0.58413544 84:0.58413544 85:0.70872819 86:0.76735766 87:0.614002 88:0.61305475 89:0.74866958 
9.555722709044133 0 0 1:0 2:1 3:0 4:0 5:0 6:1 7:0 8:0 9:0 10:0 11:0 12:0 13:-1 14:-1 15:-1 16:-1 17:0 18:1 19:-1 20:0 21:0.00010002 22:1 23:0 24:0 25:0 26:0 27:0 28:0 29:0 30:0 31:0 32:0 33:0 34:0 35:0 36:0 37:0 38:0 39:1 40:1 41:0 42:0 43:0 44:0 45:0 46:0 47:0 48:0 49:0 50:0 51:0 52:0 53:0 54:0 55:0 56:0 57:0 58:0 59:0 60:0 61:0 62:0 63:0 64:1 65:0.269213 66:0.66817818 67:0.68117233 68:0.5 69:0.69087432 70:0.52979449 71:0.71560725 72:0.5 73:0.6486577 74:0.69136347 75:0.61008511 76:0.76041155 77:0.67386078 78:0.63035044 79:1 80:0.62528261 81:0.77252335 82:0.70481594 83:0.73931884 84:0.51350112 85:1 86:0.74552889 87:0.5909178 88:0.74464071 89:0.63194963 
10 0 0 1:0 2:0 3:1 4:0 5:1 6:0 7:0 8:0 9:0 10:0 11:0 12:0 13:-1 14:-1 15:-1 16:-1 17:0 18:1 19:-1 20:0 21:0.00010002 22:1 23:0 24:0 25:0 26:0 27:0 28:0 29:0 30:0 31:0 32:0 33:0 34:0 35:0 36:0 37:0 38:0 39:1 40:1 41:0 42:0 43:0 44:0 45:0 46:0 47:0 48:0 49:0 50:0 51:0 52:0 53:0 54:0 55:0 56:0 57:0 58:0 59:0 60:0 61:0 62:0 63:0 64:1 65:0.269213 66:0.61996878 67:0.70788227 68:0.71077074 69:0.59736886 70:0.67628317 71:0.69006109 72:0.52404624 73:0.54211689 74:0.58639301 75:0.56074343 76:0.74852165 77:0.64603501 78:0.58635278 79:0.66645747 80:0.52118108 81:0 82:0.60178421 83:0.58413544 84:0.58413544 85:0.70872819 86:0.76735766 87:0.614002 88:0.61305475 89:0.74866958 
9.961694399963472 0 0 1:0 2:0 3:1 4:0 5:1 6:0 7:0 8:0 9:0 10:0 11:0 12:0 13:-1 14:-1 15:-1 16:-1 17:0 18:1 19:-1 20:0 21:0.00010002 22:1 23:0 24:0 25:0 26:0 27:0 28:0 29:0 30:0 31:0 32:0 33:0 34:0 35:0 36:0 37:0 38:0 39:1 40:1 41:0 42:0 43:0 44:0 45:0 46:0 47:0 48:0 49:0 50:0 51:0 52:0 53:0 54:0 55:0 56:0 57:0 58:0 59:0 60:0 61:0 62:0 63:0 64:1 65:0.269213 66:0.61996878 67:0.70788227 68:0.71077074 69:0.59736886 70:0.67628317 71:0.69006109 72:0.52404624 73:0.54211689 74:0.58639301 75:0.56074343 76:0.74852165 77:0.64603501 78:0.58635278 79:0.66645747 80:0.52118108 81:0 82:0.60178421 83:0.58413544 84:0.58413544 85:0.70872819 86:0.76735766 87:0.614002 88:0.61305475 89:0.74866958 
7.393933818067823 0.3036863078071749 2.280566567263634 1:0 2:1 3:0 4:0 5:0 6:1 7:0 8:0 9:0 10:0 11:0 12:0 13:-1 14:-1 15:-1 16:-1 17:0 18:1 19:-1 20:0 21:0.00010002 22:1 23:0 24:0 25:0 26:0 27:0 28:0 29:0 30:0 31:0 32:0 33:0 34:0 35:0 36:0 37:0 38:0 39:1 40:1 41:0 42:0 43:0 44:0 45:0 46:0 47:0 48:0 49:0 50:0 51:0 52:0 53:0 54:0 55:0 56:0 57:0 58:0 59:0 60:0 61:0 62:0 63:0 64:1 65:0.269213 66:0.66817818 67:0.68117233 68:0.5 69:0.69087432 70:0.52979449 71:0.71560725 72:0.5 73:0.6486577 74:0.69136347 75:0.61008511 76:0.76041155 77:0.67386078 78:0.63035044 79:1 80:0.62528261 81:0.77252335 82:0.70481594 83:0.73931884 84:0.51350112 85:1 86:0.74552889 87:0.5909178 88:0.74464071 89:0.63194963 
10 0 0 1:1 2:0 3:0 4:0 5:1 6:0 7:0 8:0 9:1 10:0 11:0 12:1 13:-1 14:-1 15:-1 16:-1 17:0 18:1 19:-1 20:0 21:0.00011107409 22:1 23:0 24:0 25:0 26:0 27:0 28:0 29:0 30:0 31:0 32:0 33:0 34:0 35:0 36:0 37:0 38:0 39:0 40:0 41:0 42:0 43:0 44:0 45:0 46:0 47:0 48:0 49:0 50:0 51:0 52:0 53:0 54:0 55:0 56:0 57:0 58:0 59:0 60:0 61:0 62:0 63:0 64:0 65:1 66:0.67347757 67:0.5259198 68:0.51886702 69:0.64261872 70:0.69519314 71:0.76347643 72:0.63646934 73:0.63646934 74:1 75:0.75830763 76:1 77:0.58453144 78:1 79:1 80:0.74651946 81:0.77502644 82:0.71035352 83:0.70622564 84:0.65884354 85:1 86:0.74865722 87:0.55963713 88:1 89:1 
10 10 10 1:0 2:0 3:1 4:1 5:0 6:0 7:0 8:0 9:1 10:0 11:0 12:1 13:-1 14:-1 15:-1 16:-1 17:-1 18:-1 19:0 20:0 21:0.00011117287 22:0 23:1 24:0 25:0 26:0 27:1 28:0 29:0 30:0 31:0 32:0 33:0 34:0 35:0 36:0 37:0 38:0 39:0 40:0 41:0 42:0 43:0 44:0 45:0 46:0 47:0 48:0 49:0 50:0 51:0 52:0 53:0 54:0 55:0 56:0 57:0 58:0 59:0 60:0 61:0 62:0 63:0 64:0 65:1 66:1 67:1 68:1 69:0.59930189 70:1 71:1 72:0.57205517 73:0.5 74:1 75:1 76:1 77:1 78:1 79:1 80:0.59930189 81:0.62427459 82:0.60367517 83:1 84:1 85:1 86:1 87:1 88:1 89:1 
10 10 10 1:0 2:0 3:1 4:1 5:0 6:0 7:0 8:0 9:1 10:0 11:0 12:1 13:-1 14:-1 15:-1 16:-1 17:-1 18:-1 19:0 20:0 21:0.00011117287 22:0 23:1 24:0 25:0 26:0 27:1 28:0 29:0 30:0 31:0 32:0 33:0 34:0 35:0 36:0 37:0 38:0 39:0 40:0 41:0 42:0 43:0 44:0 45:0 46:0 47:0 48:0 49:0 50:0 51:0 52:0 53:0 54:0 55:0 56:0 57:0 58:0 59:0 60:0 61:0 62:0 63:0 64:0 65:1 66:1 67:1 68:1 69:0.59930189 70:1 71:1 72:0.57205517 73:0.5 74:1 75:1 76:1 77:1 78:1 79:1 80:0.59930189 81:0.62427459 82:0.60367517 83:1 84:1 85:1 86:1 87:1 88:1 89:1 
10 0 0 1:0 2:1 3:0 4:1 5:0 6:0 7:0 8:0 9:1 10:0 11:0 12:1 13:-1 14:-1 15:-1 16:-1 17:-1 18:1 19:-1 20:0 21:0.00011107409 22:0 23:1 24:0 25:0 26:0 27:0 28:0 29:0 30:0 31:0 32:0 33:0 34:0 35:0 36:0 37:0 38:0 39:0 40:0 41:0 42:0 43:0 44:0 45:0 46:0 47:0 48:0 49:0 50:0 51:0 52:0 53:0 54:0 55:0 56:0 57:0 58:0 59:0 60:0 61:0 62:0 63:0 64:0 65:1 66:1 67:1 68:1 69:0.59930189 70:1 71:1 72:0.57205517 73:0.5 74:1 75:1 76:1 77:1 78:1 79:1 80:0.59930189 81:0.62427459 82:0.60367517 83:1 84:1 85:1 86:1 87:1 88:1 89:1 
10 0 0.4876192777200977 1:0 2:1 3:0 4:1 5:0 6:0 7:0 8:0 9:0 10:1 11:1 12:0 13:-1 14:-1 15:-1 16:-1 17:0 18:1 19:-1 20:0 21:0.00011107409 22:1 23:0 24:0 25:0 26:0 27:0 28:0 29:0 30:0 31:0 32:0 33:0 34:0 35:0 36:0 37:0 38:0 39:0 40:0 41:0 42:0 43:0 44:0 45:0 46:0 47:0 48:0 49:0 50:0 51:0 52:0 53:0 54:0 55:0 56:0 57:0 58:0 59:0 60:0 61:0 62:0 63:0 64:0 65:1 66:1 67:1 68:1 69:0.59930189 70:1 71:1 72:0.57205517 73:0.5 74:1 75:1 76:1 77:1 78:1 79:1 80:0.59930189 81:0.62427459 82:0.60367517 83:1 84:1 85:1 86:1 87:1 88:1 89:1 
10 0 0 1:1 2:0 3:0 4:0 5:1 6:0 7:0 8:0 9:1 10:0 11:0 12:1 13:-1 14:-1 15:-1 16:-1 17:0 18:1 19:-1 20:0 21:0.00011107409 22:1 23:0 24:0 25:0 26:0 27:0 28:0 29:0 30:0 31:0 32:0 33:0 34:0 35:0 36:0 37:0 38:0 39:0 40:0 41:0 42:0 43:0 44:0 45:0 46:0 47:0 48:0 49:0 50:0 51:0 52:0 53:0 54:0 55:0 56:0 57:0 58:0 59:0 60:0 61:0 62:0 63:0 64:0 65:1 66:0.67347757 67:0.5259198 68:0.51886702 69:0.64261872 70:0.69519314 71:0.76347643 72:0.63646934 73:0.63646934 74:1 75:0.75830763 76:1 77:0.58453144 78:1 79:1 80:0.74651946 81:0.77502644 82:0.71035352 83:0.70622564 84:0.65884354 85:1 86:0.74865722 87:0.55963713 88:1 89:1 
10 0 0 1:1 2:0 3:0 4:0 5:1 6:0 7:0 8:0 9:0 10:1 11:1 12:0 13:-1 14:-1 15:-1 16:-1 17:-1 18:1 19:-1 20:0 21:0.00011107409 22:0 23:1 24:0 25:0 26:0 27:0 28:0 29:0 30:0 31:0 32:0 33:0 34:0 35:0 36:0 37:0 38:0 39:0 40:0 41:0 42:0 43:0 44:0 45:0 46:0 47:0 48:0 49:0 50:0 51:0 52:0 53:0 54:0 55:0 56:0 57:0 58:0 59:0 60:0 61:0 62:0 63:0 64:0 65:1 66:0.67347757 67:0.5259198 68:0.51886702 69:0.64261872 70:0.69519314 71:0.76347643 72:0.63646934 73:0.63646934 74:1 75:0.75830763 76:1 77:0.58453144 78:1 79:1 80:0.74651946 81:0.77502644 82:0.71035352 83:0.70622564 84:0.65884354 85:1 86:0.74865722 87:0.55963713 88:1 89:1 
10 10 10 1:1 2:0 3:0 4:0 5:0 6:1 7:0 8:0 9:0 10:1 11:1 12:0 13:-1 14:-1 15:-1 16:-1 17:-1 18:-1 19:0 20:0 21:0.00011117287 22:0 23:1 24:0 25:0 26:0 27:1 28:0 29:0 30:0 31:0 32:0 33:0 34:0 35:0 36:0 37:0 38:0 39:0 40:0 41:0 42:0 43:0 44:0 45:0 46:0 47:0 48:0 49:0 50:0 51:0 52:0 53:0 54:0 55:0 56:0 57:0 58:0 59:0 60:0 61:0 62:0 63:0 64:0 65:1 66:1 67:1 68:1 69:1 70:1 71:1 72:1 73:1 74:1 75:1 76:1 77:1 78:1 79:1 80:1 81:1 82:1 83:1 84:1 85:1 86:1 87:1 88:1 89:1 
10 0 0 1:0 2:1 3:0 4:1 5:0 6:0 7:0 8:0 9:1 10:0 11:0 12:1 13:-1 14:-1 15:-1 16:-1 17:-1 18:1 19:-1 20:0 21:0.00011107409 22:0 23:1 24:0 25:0 26:0 27:0 28:0 29:0 30:0 31:0 32:0 33:0 34:0 35:0 36:0 37:0 38:0 39:0 40:0 41:0 42:0 43:0 44:0 45:0 46:0 47:0 48:0 49:0 50:0 51:0 52:0 53:0 54:0 55:0 56:0 57:0 58:0 59:0 60:0 61:0 62:0 63:0 64:0 65:1 66:1 67:1 68:1 69:0.59930189 70:1 71:1 72:0.57205517 73:0.5 74:1 75:1 76:1 77:1 78:1 79:1 80:0.59930189 81:0.62427459 82:0.60367517 83:1 84:1 85:1 86:1 87:1 88:1 89:1 
10 0 0 1:0 2:0 3:1 4:0 5:0 6:1 7:0 8:0 9:0 10:1 11:1 12:0 13:-1 14:-1 15:-1 16:-1 17:0 18:1 19:0 20:0 21:0.00010003001 22:0 23:1 24:0 25:0 26:0 27:0 28:0 29:0 30:0 31:0 32:0 33:0 34:0 35:0 36:0 37:0 38:0 39:0 40:0 41:0 42:0 43:0 44:0 45:0 46:0 47:0 48:0 49:0 50:0 51:0 52:0 53:0 54:0 55:0 56:0 57:0 58:0 59:0 60:0 61:0 62:0 63:0 64:0 65:1 66:1 67:1 68:1 69:1 70:1 71:1 72:1 73:1 74:1 75:1 76:1 77:1 78:1 79:1 80:1 81:1 82:1 83:1 84:1 85:1 86:1 87:1 88:1 89:1 
10 0 0 1:0 2:0 3:1 4:0 5:0 6:1 7:0 8:0 9:1 10:0 11:0 12:1 13:-1 14:-1 15:-1 16:-1 17:0 18:1 19:0 20:0 21:0.00010003001 22:0 23:1 24:0 25:0 26:0 27:0 28:0 29:0 30:0 31:0 32:0 33:0 34:0 35:0 36:0 37:0 38:0 39:0 40:0 41:0 42:0 43:0 44:0 45:0 46:0 47:0 48:0 49:0 50:0 51:0 52:0 53:0 54:0 55:0 56:0 57:0 58:0 59:0 60:0 61:0 62:0 63:0 64:0 65:1 66:1 67:1 68:1 69:0.61706313 70:0.66325346 71:0.67813733 72:0.59225312 73:0.64148091 74:0.60868751 75:0.66079775 76:0.747932 77:0.67073958 78:0.60814576 79:0.65167826 80:0.5 81:0.63993421 82:0.62105924 83:0.66079775 84:0.67924659 85:1 86:0.73906869 87:0.73073805 88:0.56178412 89:0.62735138 
10 0 0 1:0 2:0 3:1 4:0 5:0 6:1 7:0 8:0 9:0 10:1 11:1 12:0 13:-1 14:-1 15:-1 16:-1 17:0 18:1 19:0 20:0 21:0.00010003001 22:0 23:1 24:0 25:0 26:0 27:0 28:0 29:0 30:0 31:0 32:0 33:0 34:0 35:0 36:0 37:0 38:0 39:0 40:0 41:0 42:0 43:0 44:0 45:0 46:0 47:0 48:0 49:0 50:0 51:0 52:0 53:0 54:0 55:0 56:0 57:0 58:0 59:0 60:0 61:0 62:0 63:0 64:0 65:1 66:1 67:1 68:1 69:1 70:1 71:1 72:1 73:1 74:1 75:1 76:1 77:1 78:1 79:1 80:1 81:1 82:1 83:1 84:1 85:1 86:1 87:1 88:1 89:1 
10 0 0 1:0 2:0 3:1 4:0 5:0 6:1 7:0 8:0 9:1 10:0 11:0 12:1 13:-1 14:-1 15:-1 16:-1 17:0 18:1 19:0 20:0 21:0.00010003001 22:0 23:1 24:0 25:0 26:0 27:0 28:0 29:0 30:0 31:0 32:0 33:0 34:0 35:0 36:0 37:0 38:0 39:0 40:0 41:0 42:0 43:0 44:0 45:0 46:0 47:0 48:0 49:0 50:0 51:0 52:0 53:0 54:0 55:0 56:0 57:0 58:0 59:0 60:0 61:0 62:0 63:0 64:0 65:1 66:1 67:1 68:1 69:0.61706313 70:0.66325346 71:0.67813733 72:0.59225312 73:0.64148091 74:0.60868751 75:0.66079775 76:0.747932 77:0.67073958 78:0.60814576 79:0.65167826 80:0.5 81:0.63993421 82:0.62105924 83:0.66079775 84:0.67924659 85:1 86:0.73906869 87:0.73073805 88:0.56178412 89:0.62735138 
10 0 0 1:0 2:0 3:1 4:0 5:0 6:1 7:0 8:0 9:0 10:1 11:1 12:0 13:-1 14:-1 15:-1 16:-1 17:0 18:1 19:0 20:0 21:0.00010003001 22:0 23:1 24:0 25:0 26:0 27:0 28:0 29:0 30:0 31:0 32:0 33:0 34:0 35:0 36:0 37:0 38:0 39:0 40:0 41:0 42:0 43:0 44:0 45:0 46:0 47:0 48:0 49:0 50:0 51:0 52:0 53:0 54:0 55:0 56:0 57:0 58:0 59:0 60:0 61:0 62:0 63:0 64:0 65:1 66:1 67:1 68:1 69:1 70:1 71:1 72:1 73:1 74:1 75:1 76:1 77:1 78:1 79:1 80:1 81:1 82:1 83:1 84:1 85:1 86:1 87:1 88:1 89:1 
10 0 0 1:0 2:0 3:1 4:0 5:0 6:1 7:0 8:0 9:1 10:0 11:0 12:1 13:-1 14:-1 15:-1 16:-1 17:0 18:1 19:0 20:0 21:0.00010003001 22:0 23:1 24:0 25:0 26:0 27:0 28:0 29:0 30:0 31:0 32:0 33:0 34:0 35:0 36:0 37:0 38:0 39:0 40:0 41:0 42:0 43:0 44:0 45:0 46:0 47:0 48:0 49:0 50:0 51:0 52:0 53:0 54:0 55:0 56:0 57:0 58:0 59:0 60:0 61:0 62:0 63:0 64:0 65:1 66:1 67:1 68:1 69:0.61706313 70:0.66325346 71:0.67813733 72:0.59225312 73:0.64148091 74:0.60868751 75:0.66079775 76:0.747932 77:0.67073958 78:0.60814576 79:0.65167826 80:0.5 81:0.63993421 82:0.62105924 83:0.66079775 84:0.67924659 85:1 86:0.73906869 87:0.73073805 88:0.56178412 89:0.62735138 
10 0 0 1:0 2:0 3:1 4:0 5:0 6:1 7:0 8:0 9:1 10:0 11:0 12:1 13:-1 14:-1 15:-1 16:-1 17:0 18:1 19:0 20:0 21:0.00010003001 22:0 23:1 24:0 25:0 26:0 27:0 28:0 29:0 30:0 31:0 32:0 33:0 34:0 35:0 36:0 37:0 38:0 39:0 40:0 41:0 42:0 43:0 44:0 45:0 46:0 47:0 48:0 49:0 50:0 51:0 52:0 53:0 54:0 55:0 56:0 57:0 58:0 59:0 60:0 61:0 62:0 63:0 64:0 65:1 66:1 67:1 68:1 69:0.61706313 70:0.66325346 71:0.67813733 72:0.59225312 73:0.64148091 74:0.60868751 75:0.66079775 76:0.747932 77:0.67073958 78:0.60814576 79:0.65167826 80:0.5 81:0.63993421 82:0.62105924 83:0.66079775 84:0.67924659 85:1 86:0.73906869 87:0.73073805 88:0.56178412 89:0.62735138 
10 0 0 1:0 2:0 3:1 4:0 5:0 6:1 7:0 8:0 9:0 10:1 11:1 12:0 13:-1 14:-1 15:-1 16:-1 17:0 18:1 19:0 20:0 21:0.00010003001 22:0 23:1 24:0 25:0 26:0 27:0 28:0 29:0 30:0 31:0 32:0 33:0 34:0 35:0 36:0 37:0 38:0 39:0 40:0 41:0 42:0 43:0 44:0 45:0 46:0 47:0 48:0 49:0 50:0 51:0 52:0 53:0 54:0 55:0 56:0 57:0 58:0 59:0 60:0 61:0 62:0 63:0 64:0 65:1 66:1 67:1 68:1 69:1 70:1 71:1 72:1 73:1 74:1 75:1 76:1 77:1 78:1 79:1 80:1 81:1 82:1 83:1 84:1 85:1 86:1 87:1 88:1 89:1 
10 0 0 1:0 2:1 3:0 4:0 5:1 6:0 7:0 8:0 9:1 10:0 11:0 12:1 13:-1 14:-1 15:-1 16:-1 17:0 18:1 19:-1 20:0 21:0.00011106175 22:0 23:1 24:0 25:0 26:0 27:0 28:0 29:0 30:0 31:0 32:0 33:0 34:0 35:0 36:0 37:0 38:0 39:0 40:0 41:0 42:0 43:0 44:0 45:0 46:0 47:0 48:0 49:0 50:0 51:0 52:0 53:0 54:0 55:0 56:0 57:0 58:0 59:0 60:0 61:0 62:0 63:0 64:0 65:1 66:0.624867 67:0.58254451 68:0.5 69:0.59871241 70:0.64989147 71:0.66595178 72:0.59974857 73:0.58006539 74:1 75:0.64723625 76:0.64261711 77:0.6191039 78:0.56747457 79:0.63640188 80:0.5 81:0.67847009 82:0.62871442 83:0.64723625 84:0.58857051 85:1 86:1 87:0.71687812 88:0.74068519 89:0.75707105 
10 0 0 1:0 2:1 3:0 4:0 5:1 6:0 7:0 8:0 9:0 10:1 11:1 12:0 13:-1 14:-1 15:-1 16:-1 17:0 18:1 19:-1 20:0 21:0.00011106175 22:0 23:1 24:0 25:0 26:0 27:0 28:0 29:0 30:0 31:0 32:0 33:0 34:0 35:0 36:0 37:0 38:0 39:0 40:0 41:0 42:0 43:0 44:0 45:0 46:0 47:0 48:0 49:0 50:0 51:0 52:0 53:0 54:0 55:0 56:0 57:0 58:0 59:0 60:0 61:0 62:0 63:0 64:0 65:1 66:1 67:1 68:1 69:1 70:1 71:1 72:1 73:1 74:1 75:1 76:1 77:1 78:1 79:1 80:1 81:1 82:1 83:1 84:1 85:1 86:1 87:1 88:1 89:1 
10 0 0 1:0 2:1 3:0 4:0 5:1 6:0 7:0 8:0 9:0 10:1 11:1 12:0 13:-1 14:-1 15:-1 16:-1 17:0 18:1 19:-1 20:0 21:0.00011106175 22:0 23:1 24:0 25:0 26:0 27:0 28:0 29:0 30:0 31:0 32:0 33:0 34:0 35:0 36:0 37:0 38:0 39:0 40:0 41:0 42:0 43:0 44:0 45:0 46:0 47:0 48:0 49:0 50:0 51:0 52:0 53:0 54:0 55:0 56:0 57:0 58:0 59:0 60:0 61:0 62:0 63:0 64:0 65:1 66:1 67:1 68:1 69:1 70:1 71:1 72:1 73:1 74:1 75:1 76:1 77:1 78:1 79:1 80:1 81:1 82:1 83:1 84:1 85:1 86:1 87:1 88:1 89:1 
10 0 0 1:0 2:1 3:0 4:0 5:1 6:0 7:0 8:0 9:1 10:0 11:0 12:1 13:-1 14:-1 15:-1 16:-1 17:0 18:1 19:-1 20:0 21:0.00011106175 22:0 23:1 24:0 25:0 26:0 27:0 28:0 29:0 30:0 31:0 32:0 33:0 34:0 35:0 36:0 37:0 38:0 39:0 40:0 41:0 42:0 43:0 44:0 45:0 46:0 47:0 48:0 49:0 50:0 51:0 52:0 53:0 54:0 55:0 56:0 57:0 58:0 59:0 60:0 61:0 62:0 63:0 64:0 65:1 66:0.624867 67:0.58254451 68:0.5 69:0.59871241 70:0.64989147 71:0.66595178 72:0.59974857 73:0.58006539 74:1 75:0.64723625 76:0.64261711 77:0.6191039 78:0.56747457 79:0.63640188 80:0.5 81:0.67847009 82:0.62871442 83:0.64723625 84:0.58857051 85:1 86:1 87:0.71687812 88:0.74068519 89:0.75707105 
10 0 0 1:0 2:1 3:0 4:0 5:1 6:0 7:0 8:0 9:0 10:1 11:1 12:0 13:-1 14:-1 15:-1 16:-1 17:0 18:1 19:-1 20:0 21:0.00011106175 22:0 23:1 24:0 25:0 26:0 27:0 28:0 29:0 30:0 31:0 32:0 33:0 34:0 35:0 36:0 37:0 38:0 39:0 40:0 41:0 42:0 43:0 44:0 45:0 46:0 47:0 48:0 49:0 50:0 51:0 52:0 53:0 54:0 55:0 56:0 57:0 58:0 59:0 60:0 61:0 62:0 63:0 64:0 65:1 66:1 67:1 68:1 69:1 70:1 71:1 72:1 73:1 74:1 75:1 76:1 77:1 78:1 79:1 80:1 81:1 82:1 83:1 84:1 85:1 86:1 87:1 88:1 89:1 
10 0 0 1:0 2:1 3:0 4:0 5:1 6:0 7:0 8:0 9:0 10:1 11:1 12:0 13:-1 14:-1 15:-1 16:-1 17:0 18:1 19:-1 20:0 21:0.00011106175 22:0 23:1 24:0 25:0 26:0 27:0 28:0 29:0 30:0 31:0 32:0 33:0 34:0 35:0 36:0 37:0 38:0 39:0 40:0 41:0 42:0 43:0 44:0 45:0 46:0 47:0 48:0 49:0 50:0 51:0 52:0 53:0 54:0 55:0 56:0 57:0 58:0 59:0 60:0 61:0 62:0 63:0 64:0 65:1 66:1 67:1 68:1 69:1 70:1 71:1 72:1 73:1 74:1 75:1 76:1 77:1 78:1 79:1 80:1 81:1 82:1 83:1 84:1 85:1 86:1 87:1 88:1 89:1 
10 0 0 1:0 2:1 3:0 4:0 5:1 6:0 7:0 8:0 9:1 10:0 11:0 12:1 13:-1 14:-1 15:-1 16:-1 17:0 18:1 19:-1 20:0 21:0.00011106175 22:0 23:1 24:0 25:0 26:0 27:0 28:0 29:0 30:0 31:0 32:0 33:0 34:0 35:0 36:0 37:0 38:0 39:0 40:0 41:0 42:0 43:0 44:0 45:0 46:0 47:0 48:0 49:0 50:0 51:0 52:0 53:0 54:0 55:0 56:0 57:0 58:0 59:0 60:0 61:0 62:0 63:0 64:0 65:1 66:0.624867 67:0.58254451 68:0.5 69:0.59871241 70:0.64989147 71:0.66595178 72:0.59974857 73:0.58006539 74:1 75:0.64723625 76:0.64261711 77:0.6191039 78:0.56747457 79:0.63640188 80:0.5 81:0.67847009 82:0.62871442 83:0.64723625 84:0.58857051 85:1 86:1 87:0.71687812 88:0.74068519 89:0.75707105 
10 0 0 1:0 2:1 3:0 4:0 5:1 6:0 7:0 8:0 9:1 10:0 11:0 12:1 13:-1 14:-1 15:-1 16:-1 17:0 18:1 19:-1 20:0 21:0.00011106175 22:0 23:1 24:0 25:0 26:0 27:0 28:0 29:0 30:0 31:0 32:0 33:0 34:0 35:0 36:0 37:0 38:0 39:0 40:0 41:0 42:0 43:0 44:0 45:0 46:0 47:0 48:0 49:0 50:0 51:0 52:0 53:0 54:0 55:0 56:0 57:0 58:0 59:0 60:0 61:0 62:0 63:0 64:0 65:1 66:0.624867 67:0.58254451 68:0.5 69:0.59871241 70:0.64989147 71:0.66595178 72:0.59974857 73:0.58006539 74:1 75:0.64723625 76:0.64261711 77:0.6191039 78:0.56747457 79:0.63640188 80:0.5 81:0.67847009 82:0.62871442 83:0.64723625 84:0.58857051 85:1 86:1 87:0.71687812 88:0.74068519 89:0.75707105 
0 10 0 1:0 2:0 3:1 4:0 5:0 6:1 7:0 8:0 9:0 10:1 11:1 12:0 13:-1 14:-1 15:-1 16:-1 17:0 18:-1 19:-1 20:0 21:0.00010008006 22:0 23:1 24:0 25:0 26:0 27:1 28:0 29:0 30:0 31:0 32:0 33:0 34:0 35:1 36:1 37:0 38:0 39:0 40:0 41:0 42:0 43:0 44:0 45:0 46:0 47:0 48:0 49:0 50:0 51:0 52:0 53:0 54:0 55:0 56:0 57:0 58:0 59:0 60:0 61:0 62:0 63:0 64:0 65:1 66:1 67:1 68:1 69:1 70:1 71:1 72:1 73:1 74:1 75:1 76:1 77:1 78:1 79:1 80:1 81:1 82:1 83:1 84:1 85:1 86:1 87:1 88:1 89:1 
0 10 0 1:0 2:0 3:1 4:0 5:0 6:1 7:0 8:0 9:0 10:1 11:1 12:0 13:-1 14:-1 15:-1 16:-1 17:0 18:-1 19:-1 20:0 21:0.00010008006 22:0 23:1 24:0 25:0 26:0 27:1 28:0 29:0 30:0 31:0 32:0 33:0 34:0 35:1 36:1 37:0 38:0 39:0 40:0 41:0 42:0 43:0 44:0 45:0 46:0 47:0 48:0 49:0 50:0 51:0 52:0 53:0 54:0 55:0 56:0 57:0 58:0 59:0 60:0 61:0 62:0 63:0 64:0 65:1 66:1 67:1 68:1 69:1 70:1 71:1 72:1 73:1 74:1 75:1 76:1 77:1 78:1 79:1 80:1 81:1 82:1 83:1 84:1 85:1 86:1 87:1 88:1 89:1 
0 9.605342964143333 0 1:0 2:0 3:1 4:0 5:0 6:1 7:0 8:0 9:1 10:0 11:0 12:1 13:-1 14:-1 15:-1 16:-1 17:0 18:-1 19:-1 20:0 21:0.00010008006 22:0 23:1 24:0 25:0 26:0 27:1 28:0 29:0 30:0 31:0 32:0 33:0 34:0 35:1 36:1 37:0 38:0 39:0 40:0 41:0 42:0 43:0 44:0 45:0 46:0 47:0 48:0 49:0 50:0 51:0 52:0 53:0 54:0 55:0 56:0 57:0 58:0 59:0 60:0 61:0 62:0 63:0 64:0 65:1 66:0.67993465 67:1 68:0.74004515 69:0.59736886 70:0.57977731 71:0.68069645 72:0.52404624 73:0.55690008 74:0.67275644 75:0.59025458 76:1 77:0.51216738 78:0.57012377 79:0.63773265 80:0.52118108 81:0 82:0.60178421 83:0.59025458 84:0.68185809 85:0.70872819 86:0.75250071 87:0.68567938 88:0.73718668 89:1 
0 9.234477037229981 0 1:0 2:0 3:1 4:0 5:0 6:1 7:0 8:0 9:1 10:0 11:0 12:1 13:-1 14:-1 15:-1 16:-1 17:0 18:-1 19:-1 20:0 21:0.00010008006 22:0 23:1 24:0 25:0 26:0 27:1 28:0 29:0 30:0 31:0 32:0 33:0 34:0 35:1 36:1 37:0 38:0 39:0 40:0 41:0 42:0 43:0 44:0 45:0 46:0 47:0 48:0 49:0 50:0 51:0 52:0 53:0 54:0 55:0 56:0 57:0 58:0 59:0 60:0 61:0 62:0 63:0 64:0 65:1 66:0.67993465 67:1 68:0.74004515 69:0.59736886 70:0.57977731 71:0.68069645 72:0.52404624 73:0.55690008 74:0.67275644 75:0.59025458 76:1 77:0.51216738 78:0.57012377 79:0.63773265 80:0.52118108 81:0 82:0.60178421 83:0.59025458 84:0.68185809 85:0.70872819 86:0.75250071 87:0.68567938 88:0.73718668 89:1 
4.417706632733352 0 0 1:0 2:0 3:1 4:1 5:0 6:0 7:0 8:0 9:0 10:0 11:0 12:0 13:-1 14:-1 15:-1 16:-1 17:-1 18:1 19:0 20:0 21:0.00011112346 22:0 23:1 24:0 25:0 26:0 27:0 28:0 29:0 30:0 31:0 32:0 33:0 34:0 35:0 36:0 37:0 38:0 39:0 40:0 41:0 42:0 43:0 44:0 45:0 46:0 47:0 48:0 49:0 50:0 51:0 52:0 53:0 54:0 55:0 56:0 57:0 58:0 59:0 60:0 61:0 62:0 63:0 64:1 65:0.16552921 66:0.60704383 67:0.62672172 68:0.65637742 69:0.5 70:0.55777347 71:0.52334564 72:0.5 73:0.5 74:0.61724539 75:0.68764651 76:0.70838597 77:0.56925174 78:0.5 79:1 80:0.5 81:0.59736886 82:0.5 83:0.58115262 84:0.61113797 85:1 86:0.71105503 87:0.69599497 88:0.68468357 89:0.70858486 
6.220457725767899 0 0 1:0 2:1 3:0 4:1 5:0 6:0 7:0 8:0 9:0 10:0 11:0 12:0 13:-1 14:-1 15:-1 16:-1 17:-1 18:1 19:0 20:0 21:0.00010005003 22:0 23:1 24:0 25:0 26:0 27:1 28:0 29:0 30:0 31:0 32:0 33:0 34:0 35:0 36:0 37:0 38:0 39:0 40:0 41:0 42:0 43:0 44:0 45:0 46:0 47:0 48:0 49:0 50:0 51:0 52:1 53:0 54:0 55:0 56:0 57:0 58:0 59:0 60:0 61:0 62:0 63:0 64:0 65:0.091766242 66:1 67:0.61040152 68:0.59872941 69:0.59018662 70:0.67381687 71:0.68780098 72:0.57507191 73:0.61040152 74:0.605865 75:0.58750411 76:0.7516334 77:0.68147396 78:0.5936148 79:0.66366884 80:0.55505374 81:0.61775485 82:0.65473623 83:0.58750411 84:0.59681676 85:1 86:0.74303292 87:0.73495741 88:0.71752112 89:0.76836406 
0 0 6.234964754339636 1:1 2:0 3:0 4:1 5:0 6:0 7:0 8:0 9:0 10:0 11:0 12:0 13:-1 14:-1 15:-1 16:-1 17:-1 18:1 19:0 20:0 21:0.00010005003 22:0 23:1 24:0 25:0 26:1 27:0 28:0 29:0 30:0 31:0 32:0 33:0 34:0 35:0 36:0 37:0 38:0 39:0 40:0 41:0 42:0 43:0 44:0 45:0 46:0 47:0 48:0 49:0 50:0 51:0 52:0 53:1 54:0 55:0 56:0 57:0 58:0 59:0 60:0 61:0 62:0 63:0 64:0 65:0 66:1 67:0.56027865 68:0.69398685 69:0.57829527 70:0.70396338 71:0.70533023 72:0.5 73:0.53789987 74:1 75:0.53044878 76:0.73592856 77:0.626755 78:0.57218486 79:1 80:0.52006124 81:0.6341558 82:0.5 83:0.68259465 84:0.68259465 85:0.68640776 86:1 87:0.55196788 88:0.71051732 89:0.73609167 
10 0 0 1:0 2:0 3:1 4:1 5:0 6:0 7:0 8:0 9:0 10:0 11:0 12:0 13:-1 14:-1 15:-1 16:-1 17:-1 18:1 19:0 20:0 21:0.00011107409 22:0 23:1 24:0 25:0 26:0 27:0 28:0 29:0 30:0 31:0 32:0 33:0 34:0 35:0 36:0 37:0 38:0 39:0 40:0 41:0 42:0 43:0 44:0 45:0 46:0 47:0 48:0 49:0 50:0 51:0 52:0 53:0 54:0 55:0 56:0 57:0 58:0 59:0 60:0 61:0 62:0 63:0 64:1 65:0.16552921 66:0.60704383 67:0.62672172 68:0.65637742 69:0.5 70:0.55777347 71:0.52334564 72:0.5 73:0.5 74:0.61724539 75:0.68764651 76:0.70838597 77:0.56925174 78:0.5 79:1 80:0.5 81:0.59736886 82:0.5 83:0.58115262 84:0.61113797 85:1 86:0.71105503 87:0.69599497 88:0.68468357 89:0.70858486 
10 0 0 1:1 2:0 3:0 4:0 5:0 6:1 7:0 8:0 9:1 10:0 11:0 12:1 13:-1 14:-1 15:-1 16:-1 17:0 18:1 19:0 20:0 21:0.00011107409 22:0 23:1 24:0 25:0 26:0 27:0 28:0 29:0 30:0 31:0 32:0 33:0 34:0 35:0 36:0 37:0 38:0 39:0 40:0 41:0 42:0 43:0 44:0 45:0 46:0 47:0 48:0 49:0 50:0 51:0 52:0 53:0 54:0 55:0 56:0 57:0 58:0 59:0 60:0 61:0 62:0 63:0 64:1 65:0.16552921 66:0.51038642 67:0.57637855 68:0.57110031 69:0.5 70:0.5 71:0.59395173 72:0.57297177 73:0.5 74:0.5050425 75:0.55158194 76:0.72809075 77:0.59178069 78:0 79:0.5 80:0.58760282 81:0.59628465 82:0.60614792 83:0.55158194 84:0.55158194 85:0.62249648 86:0.71774857 87:0.5726707 88:0.59804257 89:0.61966649 
10 0 0 1:0 2:0 3:1 4:0 5:0 6:1 7:0 8:0 9:0 10:0 11:0 12:0 13:-1 14:-1 15:-1 16:-1 17:0 18:1 19:0 20:0 21:0.00010004002 22:0 23:1 24:0 25:0 26:0 27:1 28:0 29:0 30:0 31:0 32:0 33:0 34:0 35:0 36:0 37:0 38:0 39:0 40:0 41:0 42:0 43:0 44:0 45:0 46:0 47:0 48:0 49:0 50:0 51:0 52:0 53:0 54:0 55:0 56:0 57:0 58:0 59:0 60:0 61:0 62:0 63:0 64:1 65:0 66:0.51038642 67:0.57637855 68:0.57110031 69:0.5 70:0.5 71:0.59395173 72:0.57297177 73:0.5 74:0.5050425 75:0.55158194 76:0.72809075 77:0.59178069 78:0 79:0.5 80:0.58760282 81:0.59628465 82:0.60614792 83:0.55158194 84:0.55158194 85:0.62249648 86:0.71774857 87:0.5726707 88:0.59804257 89:0.61966649 
10 0 0 1:0 2:0 3:1 4:1 5:0 6:0 7:0 8:0 9:0 10:0 11:0 12:0 13:-1 14:-1 15:-1 16:-1 17:-1 18:1 19:0 20:0 21:0.00011107409 22:0 23:1 24:0 25:0 26:0 27:0 28:0 29:0 30:0 31:0 32:0 33:0 34:0 35:0 36:0 37:0 38:0 39:0 40:0 41:0 42:0 43:0 44:0 45:0 46:0 47:0 48:0 49:0 50:0 51:0 52:0 53:0 54:0 55:0 56:0 57:0 58:0 59:0 60:0 61:0 62:0 63:0 64:1 65:0.16552921 66:0.60704383 67:0.62672172 68:0.65637742 69:0.5 70:0.55777347 71:0.52334564 72:0.5 73:0.5 74:0.61724539 75:0.68764651 76:0.70838597 77:0.56925174 78:0.5 79:1 80:0.5 81:0.59736886 82:0.5 83:0.58115262 84:0.61113797 85:1 86:0.71105503 87:0.69599497 88:0.68468357 89:0.70858486 
10 0 0 1:1 2:0 3:0 4:0 5:0 6:1 7:0 8:0 9:1 10:0 11:0 12:1 13:-1 14:-1 15:-1 16:-1 17:0 18:1 19:0 20:0 21:0.00011107409 22:0 23:1 24:0 25:0 26:0 27:0 28:0 29:0 30:0 31:0 32:0 33:0 34:0 35:0 36:0 37:0 38:0 39:0 40:0 41:0 42:0 43:0 44:0 45:0 46:0 47:0 48:0 49:0 50:0 51:0 52:0 53:0 54:0 55:0 56:0 57:0 58:0 59:0 60:0 61:0 62:0 63:0 64:1 65:0.16552921 66:0.51038642 67:0.57637855 68:0.57110031 69:0.5 70:0.5 71:0.59395173 72:0.57297177 73:0.5 74:0.5050425 75:0.55158194 76:0.72809075 77:0.59178069 78:0 79:0.5 80:0.58760282 81:0.59628465 82:0.60614792 83:0.55158194 84:0.55158194 85:0.62249648 86:0.71774857 87:0.5726707 88:0.59804257 89:0.61966649 
10 0 0 1:0 2:0 3:1 4:1 5:0 6:0 7:0 8:0 9:0 10:0 11:0 12:0 13:-1 14:-1 15:-1 16:-1 17:-1 18:1 19:0 20:0 21:0.00011107409 22:0 23:1 24:0 25:0 26:0 27:0 28:0 29:0 30:0 31:0 32:0 33:0 34:0 35:0 36:0 37:0 38:0 39:0 40:0 41:0 42:0 43:0 44:0 45:0 46:0 47:0 48:0 49:0 50:0 51:0 52:0 53:0 54:0 55:0 56:0 57:0 58:0 59:0 60:0 61:0 62:0 63:0 64:1 65:0.16552921 66:0.60704383 67:0.62672172 68:0.65637742 69:0.5 70:0.55777347 71:0.52334564 72:0.5 73:0.5 74:0.61724539 75:0.68764651 76:0.70838597 77:0.56925174 78:0.5 79:1 80:0.5 81:0.59736886 82:0.5 83:0.58115262 84:0.61113797 85:1 86:0.71105503 87:0.69599497 88:0.68468357 89:0.70858486 
2.320857001689408 0 0 1:0 2:0 3:1 4:0 5:0 6:1 7:0 8:0 9:0 10:0 11:0 12:0 13:-1 14:-1 15:-1 16:-1 17:0 18:1 19:0 20:0 21:0.00010004002 22:0 23:1 24:0 25:0 26:0 27:1 28:0 29:0 30:0 31:0 32:0 33:0 34:0 35:0 36:0 37:0 38:0 39:0 40:0 41:0 42:0 43:0 44:0 45:0 46:0 47:0 48:0 49:0 50:0 51:0 52:0 53:0 54:0 55:0 56:0 57:0 58:0 59:0 60:0 61:0 62:0 63:0 64:1 65:0 66:0.51038642 67:0.57637855 68:0.57110031 69:0.5 70:0.5 71:0.59395173 72:0.57297177 73:0.5 74:0.5050425 75:0.55158194 76:0.72809075 77:0.59178069 78:0 79:0.5 80:0.58760282 81:0.59628465 82:0.60614792 83:0.55158194 84:0.55158194 85:0.62249648 86:0.71774857 87:0.5726707 88:0.59804257 89:0.61966649 
10 0 0 1:0 2:0 3:1 4:1 5:0 6:0 7:0 8:0 9:1 10:0 11:0 12:1 13:-1 14:-1 15:-1 16:-1 17:-1 18:1 19:0 20:0 21:0.00011107409 22:0 23:1 24:0 25:0 26:0 27:0 28:0 29:0 30:0 31:0 32:0 33:0 34:0 35:0 36:0 37:0 38:0 39:0 40:0 41:0 42:0 43:0 44:0 45:0 46:0 47:0 48:0 49:0 50:0 51:0 52:0 53:0 54:0 55:0 56:0 57:0 58:0 59:0 60:0 61:0 62:0 63:0 64:1 65:0.16552921 66:0.60704383 67:0.62672172 68:0.65637742 69:0.5 70:0.55777347 71:0.52334564 72:0.5 73:0.5 74:0.61724539 75:0.68764651 76:0.70838597 77:0.56925174 78:0.5 79:1 80:0.5 81:0.59736886 82:0.5 83:0.58115262 84:0.61113797 85:1 86:0.71105503 87:0.69599497 88:0.68468357 89:0.70858486 
10 0 0 1:0 2:0 3:1 4:1 5:0 6:0 7:0 8:0 9:1 10:0 11:0 12:1 13:-1 14:-1 15:-1 16:-1 17:-1 18:1 19:0 20:0 21:0.00011107409 22:0 23:1 24:0 25:0 26:0 27:0 28:0 29:0 30:0 31:0 32:0 33:0 34:0 35:0 36:0 37:0 38:0 39:0 40:0 41:0 42:0 43:0 44:0 45:0 46:0 47:0 48:0 49:0 50:0 51:0 52:0 53:0 54:0 55:0 56:0 57:0 58:0 59:0 60:0 61:0 62:0 63:0 64:1 65:0.16552921 66:0.60704383 67:0.62672172 68:0.65637742 69:0.5 70:0.55777347 71:0.52334564 72:0.5 73:0.5 74:0.61724539 75:0.68764651 76:0.70838597 77:0.56925174 78:0.5 79:1 80:0.5 81:0.59736886 82:0.5 83:0.58115262 84:0.61113797 85:1 86:0.71105503 87:0.69599497 88:0.68468357 89:0.70858486 
10 0 0 1:1 2:0 3:0 4:0 5:0 6:1 7:0 8:0 9:1 10:0 11:0 12:1 13:-1 14:-1 15:-1 16:-1 17:0 18:1 19:0 20:0 21:0.00011104942 22:0 23:1 24:0 25:0 26:0 27:0 28:0 29:0 30:0 31:0 32:0 33:0 34:0 35:0 36:0 37:0 38:0 39:0 40:0 41:0 42:0 43:0 44:0 45:0 46:0 47:0 48:0 49:0 50:0 51:0 52:1 53:0 54:0 55:0 56:0 57:0 58:0 59:0 60:0 61:0 62:0 63:0 64:0 65:0.10004297 66:0.56605013 67:0.5 68:0.53574303 69:0.56543439 70:0.65733875 71:0.6727381 72:0.52346654 73:0.5777905 74:0.69132379 75:0.65479569 76:0.73367711 77:0.66471719 78:0.57572185 79:0.64493125 80:0.55667697 81:0.6847621 82:1 83:0.65479569 84:0.64788284 85:1 86:0.72376327 87:0.71440915 88:0.69406067 89:0.75282115 
10 0 0 1:0 2:0 3:1 4:1 5:0 6:0 7:0 8:0 9:1 10:0 11:0 12:1 13:-1 14:-1 15:-1 16:-1 17:-1 18:1 19:0 20:0 21:0.00011104942 22:0 23:1 24:0 25:0 26:0 27:0 28:0 29:0 30:0 31:0 32:0 33:0 34:0 35:0 36:0 37:0 38:0 39:0 40:0 41:0 42:0 43:0 44:0 45:0 46:0 47:0 48:0 49:0 50:0 51:0 52:1 53:0 54:0 55:0 56:0 57:0 58:0 59:0 60:0 61:0 62:0 63:0 64:0 65:0.10004297 66:0.56605013 67:0.5 68:0.53574303 69:0.56543439 70:0.65733875 71:0.6727381 72:0.52346654 73:0.5777905 74:0.69132379 75:0.65479569 76:0.73367711 77:0.66471719 78:0.57572185 79:0.64493125 80:0.55667697 81:0.6847621 82:1 83:0.65479569 84:0.64788284 85:1 86:0.72376327 87:0.71440915 88:0.69406067 89:0.75282115 
10 0 0 1:0 2:0 3:1 4:1 5:0 6:0 7:0 8:0 9:1 10:0 11:0 12:1 13:-1 14:-1 15:-1 16:-1 17:-1 18:1 19:0 20:0 21:0.00011104942 22:0 23:1 24:0 25:0 26:0 27:0 28:0 29:0 30:0 31:0 32:0 33:0 34:0 35:0 36:0 37:0 38:0 39:0 40:0 41:0 42:0 43:0 44:0 45:0 46:0 47:0 48:0 49:0 50:0 51:0 52:1 53:0 54:0 55:0 56:0 57:0 58:0 59:0 60:0 61:0 62:0 63:0 64:0 65:0.10004297 66:0.56605013 67:0.5 68:0.53574303 69:0.56543439 70:0.65733875 71:0.6727381 72:0.52346654 73:0.5777905 74:0.69132379 75:0.65479569 76:0.73367711 77:0.66471719 78:0.57572185 79:0.64493125 80:0.55667697 81:0.6847621 82:1 83:0.65479569 84:0.64788284 85:1 86:0.72376327 87:0.71440915 88:0.69406067 89:0.75282115 
10 0 0 1:1 2:0 3:0 4:0 5:0 6:1 7:0 8:0 9:1 10:0 11:0 12:1 13:-1 14:-1 15:-1 16:-1 17:0 18:1 19:0 20:0 21:0.00011104942 22:0 23:1 24:0 25:0 26:0 27:0 28:0 29:0 30:0 31:0 32:0 33:0 34:0 35:0 36:0 37:0 38:0 39:0 40:0 41:0 42:0 43:0 44:0 45:0 46:0 47:0 48:0 49:0 50:0 51:0 52:1 53:0 54:0 55:0 56:0 57:0 58:0 59:0 60:0 61:0 62:0 63:0 64:0 65:0.10004297 66:0.56605013 67:0.5 68:0.53574303 69:0.56543439 70:0.65733875 71:0.6727381 72:0.52346654 73:0.5777905 74:0.69132379 75:0.65479569 76:0.73367711 77:0.66471719 78:0.57572185 79:0.64493125 80:0.55667697 81:0.6847621 82:1 83:0.65479569 84:0.64788284 85:1 86:0.72376327 87:0.71440915 88:0.69406067 89:0.75282115 
10 0 0 1:0 2:1 3:0 4:0 5:0 6:1 7:0 8:0 9:0 10:0 11:0 12:0 13:-1 14:-1 15:-1 16:-1 17:-1 18:1 19:-1 20:0 21:0.00011113581 22:0 23:1 24:0 25:0 26:0 27:0 28:0 29:0 30:0 31:0 32:0 33:0 34:0 35:0 36:1 37:0 38:0 39:0 40:0 41:0 42:0 43:0 44:0 45:0 46:0 47:0 48:0 49:0 50:0 51:0 52:0 53:0 54:0 55:0 56:0 57:0 58:0 59:0 60:0 61:0 62:0 63:0 64:0 65:1 66:1 67:0.56027865 68:1 69:0.59994289 70:0.61980464 71:0.63469664 72:0.61185345 73:0.56027865 74:0.62388926 75:0.57366212 76:0.64851983 77:0.68384031 78:0.60826839 79:0.66630603 80:0.59994289 81:0.70075241 82:1 83:0.57366212 84:0.5 85:1 86:0.65714504 87:0.64742908 88:0.68725487 89:0.74839751 
10 0 0 1:0 2:1 3:0 4:0 5:0 6:1 7:0 8:0 9:0 10:0 11:0 12:0 13:-1 14:-1 15:-1 16:-1 17:-1 18:1 19:-1 20:0 21:0.00011113581 22:0 23:1 24:0 25:0 26:0 27:0 28:0 29:0 30:0 31:0 32:0 33:0 34:0 35:0 36:1 37:0 38:0 39:0 40:0 41:0 42:0 43:0 44:0 45:0 46:0 47:0 48:0 49:0 50:0 51:0 52:0 53:0 54:0 55:0 56:0 57:0 58:0 59:0 60:0 61:0 62:0 63:0 64:0 65:1 66:1 67:0.56027865 68:1 69:0.59994289 70:0.61980464 71:0.63469664 72:0.61185345 73:0.56027865 74:0.62388926 75:0.57366212 76:0.64851983 77:0.68384031 78:0.60826839 79:0.66630603 80:0.59994289 81:0.70075241 82:1 83:0.57366212 84:0.5 85:1 86:0.65714504 87:0.64742908 88:0.68725487 89:0.74839751 
9.585749504495 0 0 1:0 2:1 3:0 4:0 5:0 6:1 7:0 8:0 9:0 10:1 11:1 12:0 13:-1 14:-1 15:-1 16:-1 17:-1 18:1 19:-1 20:0 21:0.00011120996 22:0 23:1 24:0 25:0 26:0 27:1 28:0 29:0 30:0 31:0 32:0 33:0 34:0 35:0 36:1 37:0 38:0 39:0 40:0 41:0 42:0 43:0 44:0 45:0 46:0 47:0 48:0 49:0 50:0 51:0 52:0 53:0 54:0 55:0 56:0 57:0 58:0 59:0 60:0 61:0 62:0 63:0 64:0 65:1 66:1 67:0.56027865 68:1 69:0.59994289 70:0.61980464 71:0.63469664 72:0.61185345 73:0.56027865 74:0.62388926 75:0.57366212 76:0.64851983 77:0.68384031 78:0.60826839 79:0.66630603 80:0.59994289 81:0.70075241 82:1 83:0.57366212 84:0.5 85:1 86:0.65714504 87:0.64742908 88:0.68725487 89:0.74839751 
10 0 0 1:0 2:1 3:0 4:0 5:0 6:1 7:0 8:0 9:0 10:0 11:0 12:0 13:-1 14:-1 15:-1 16:-1 17:-1 18:1 19:-1 20:0 21:0.00011113581 22:0 23:1 24:0 25:0 26:0 27:0 28:0 29:0 30:0 31:0 32:0 33:0 34:0 35:0 36:1 37:0 38:0 39:0 40:0 41:0 42:0 43:0 44:0 45:0 46:0 47:0 48:0 49:0 50:0 51:0 52:0 53:0 54:0 55:0 56:0 57:0 58:0 59:0 60:0 61:0 62:0 63:0 64:0 65:1 66:1 67:0.56027865 68:1 69:0.59994289 70:0.61980464 71:0.63469664 72:0.61185345 73:0.56027865 74:0.62388926 75:0.57366212 76:0.64851983 77:0.68384031 78:0.60826839 79:0.66630603 80:0.59994289 81:0.70075241 82:1 83:0.57366212 84:0.5 85:1 86:0.65714504 87:0.64742908 88:0.68725487 89:0.74839751 
7.905397526911464 0 0 1:1 2:0 3:0 4:1 5:0 6:0 7:0 8:0 9:1 10:0 11:0 12:1 13:-1 14:-1 15:-1 16:-1 17:-1 18:1 19:0 20:0 21:0.00010006004 22:0 23:1 24:0 25:0 26:1 27:1 28:0 29:0 30:0 31:0 32:0 33:0 34:0 35:0 36:0 37:0 38:0 39:0 40:0 41:0 42:0 43:0 44:0 45:0 46:0 47:0 48:0 49:1 50:0 51:0 52:0 53:0 54:0 55:0 56:0 57:0 58:0 59:0 60:0 61:0 62:0 63:0 64:0 65:0 66:1 67:0.71751428 68:0.68243421 69:0.65300276 70:0.71018227 71:0.51923787 72:0.5 73:0.50461094 74:1 75:1 76:0.72736996 77:0.6094247 78:0.53696239 79:1 80:0.69771711 81:1 82:0.65300276 83:0.74612297 84:0.71149531 85:1 86:1 87:0.73958815 88:0.7067622 89:0.72754381 
10 0 0 1:1 2:0 3:0 4:1 5:0 6:0 7:0 8:0 9:1 10:0 11:0 12:1 13:-1 14:-1 15:-1 16:-1 17:-1 18:1 19:0 20:0 21:0.00010006004 22:0 23:1 24:0 25:0 26:1 27:1 28:0 29:0 30:0 31:0 32:0 33:0 34:0 35:0 36:0 37:0 38:0 39:0 40:0 41:0 42:0 43:0 44:0 45:0 46:0 47:0 48:0 49:1 50:0 51:0 52:0 53:0 54:0 55:0 56:0 57:0 58:0 59:0 60:0 61:0 62:0 63:0 64:0 65:0 66:1 67:0.71751428 68:0.68243421 69:0.65300276 70:0.71018227 71:0.51923787 72:0.5 73:0.50461094 74:1 75:1 76:0.72736996 77:0.6094247 78:0.53696239 79:1 80:0.69771711 81:1 82:0.65300276 83:0.74612297 84:0.71149531 85:1 86:1 87:0.73958815 88:0.7067622 89:0.72754381 
10 0 0 1:1 2:0 3:0 4:1 5:0 6:0 7:0 8:0 9:1 10:0 11:0 12:1 13:-1 14:-1 15:-1 16:-1 17:-1 18:1 19:0 20:0 21:0.00010006004 22:0 23:1 24:0 25:0 26:1 27:1 28:0 29:0 30:0 31:0 32:0 33:0 34:0 35:0 36:0 37:0 38:0 39:0 40:0 41:0 42:0 43:0 44:0 45:0 46:0 47:0 48:0 49:1 50:0 51:0 52:0 53:0 54:0 55:0 56:0 57:0 58:0 59:0 60:0 61:0 62:0 63:0 64:0 65:0 66:1 67:0.71751428 68:0.68243421 69:0.65300276 70:0.71018227 71:0.51923787 72:0.5 73:0.50461094 74:1 75:1 76:0.72736996 77:0.6094247 78:0.53696239 79:1 80:0.69771711 81:1 82:0.65300276 83:0.74612297 84:0.71149531 85:1 86:1 87:0.73958815 88:0.7067622 89:0.72754381 
4.009110315402967 0 0 1:0 2:1 3:0 4:1 5:0 6:0 7:0 8:0 9:0 10:0 11:0 12:0 13:-1 14:-1 15:-1 16:-1 17:-1 18:1 19:0 20:0 21:0.00010005003 22:0 23:1 24:0 25:0 26:0 27:1 28:0 29:0 30:0 31:0 32:0 33:0 34:0 35:0 36:0 37:0 38:0 39:0 40:0 41:0 42:0 43:0 44:0 45:0 46:0 47:0 48:0 49:0 50:0 51:0 52:0 53:1 54:0 55:0 56:0 57:0 58:0 59:0 60:0 61:0 62:0 63:0 64:0 65:0.1135888 66:1 67:0.56027865 68:0.69398685 69:0.57829527 70:0.70396338 71:0.70533023 72:0.5 73:0.53789987 74:1 75:0.53044878 76:0.73592856 77:0.626755 78:0.57218486 79:1 80:0.52006124 81:0.6341558 82:0.5 83:0.68259465 84:0.68259465 85:0.68640776 86:1 87:0.55196788 88:0.71051732 89:0.73609167 
10 0 0 1:0 2:1 3:0 4:1 5:0 6:0 7:0 8:0 9:0 10:0 11:0 12:0 13:-1 14:-1 15:-1 16:-1 17:-1 18:1 19:0 20:0 21:0.00010005003 22:0 23:1 24:0 25:0 26:0 27:1 28:0 29:0 30:0 31:0 32:0 33:0 34:0 35:0 36:0 37:0 38:0 39:0 40:0 41:0 42:0 43:0 44:0 45:0 46:0 47:0 48:0 49:0 50:0 51:0 52:0 53:1 54:0 55:0 56:0 57:0 58:0 59:0 60:0 61:0 62:0 63:0 64:0 65:0.1135888 66:1 67:0.56027865 68:0.69398685 69:0.57829527 70:0.70396338 71:0.70533023 72:0.5 73:0.53789987 74:1 75:0.53044878 76:0.73592856 77:0.626755 78:0.57218486 79:1 80:0.52006124 81:0.6341558 82:0.5 83:0.68259465 84:0.68259465 85:0.68640776 86:1 87:0.55196788 88:0.71051732 89:0.73609167 
10 0 0 1:0 2:1 3:0 4:1 5:0 6:0 7:0 8:0 9:0 10:0 11:0 12:0 13:-1 14:-1 15:-1 16:-1 17:-1 18:1 19:0 20:0 21:0.00010005003 22:0 23:1 24:0 25:0 26:0 27:1 28:0 29:0 30:0 31:0 32:0 33:0 34:0 35:0 36:0 37:0 38:0 39:0 40:0 41:0 42:0 43:0 44:0 45:0 46:0 47:0 48:0 49:0 50:0 51:0 52:1 53:0 54:0 55:0 56:0 57:0 58:0 59:0 60:0 61:0 62:0 63:0 64:0 65:0.091766242 66:1 67:0.61040152 68:0.59872941 69:0.59018662 70:0.67381687 71:0.68780098 72:0.57507191 73:0.61040152 74:0.605865 75:0.58750411 76:0.7516334 77:0.68147396 78:0.5936148 79:0.66366884 80:0.55505374 81:0.61775485 82:0.65473623 83:0.58750411 84:0.59681676 85:1 86:0.74303292 87:0.73495741 88:0.71752112 89:0.76836406 
10 0 0 1:0 2:1 3:0 4:1 5:0 6:0 7:0 8:0 9:0 10:0 11:0 12:0 13:-1 14:-1 15:-1 16:-1 17:-1 18:1 19:0 20:0 21:0.00010005003 22:0 23:1 24:0 25:0 26:0 27:1 28:0 29:0 30:0 31:0 32:0 33:0 34:0 35:0 36:0 37:0 38:0 39:0 40:0 41:0 42:0 43:0 44:0 45:0 46:0 47:0 48:0 49:0 50:0 51:0 52:1 53:0 54:0 55:0 56:0 57:0 58:0 59:0 60:0 61:0 62:0 63:0 64:0 65:0.091766242 66:1 67:0.61040152 68:0.59872941 69:0.59018662 70:0.67381687 71:0.68780098 72:0.57507191 73:0.61040152 74:0.605865 75:0.58750411 76:0.7516334 77:0.68147396 78:0.5936148 79:0.66366884 80:0.55505374 81:0.61775485 82:0.65473623 83:0.58750411 84:0.59681676 85:1 86:0.74303292 87:0.73495741 88:0.71752112 89:0.76836406 
10 0 0 1:1 2:0 3:0 4:1 5:0 6:0 7:0 8:0 9:0 10:0 11:0 12:0 13:-1 14:-1 15:-1 16:-1 17:-1 18:1 19:-1 20:-1 21:0.00011113581 22:0 23:1 24:0 25:0 26:0 27:0 28:0 29:0 30:0 31:0 32:0 33:0 34:0 35:0 36:1 37:0 38:0 39:0 40:0 41:0 42:0 43:0 44:0 45:0 46:0 47:0 48:0 49:0 50:0 51:0 52:0 53:0 54:0 55:0 56:0 57:0 58:0 59:0 60:0 61:0 62:1 63:0 64:0 65:0.16552921 66:0.51038642 67:0.57637855 68:0.57110031 69:0.5 70:0.5 71:0.59395173 72:0.57297177 73:0.5 74:0.5050425 75:0.55158194 76:0.72809075 77:0.59178069 78:0.5 79:0.5 80:0.58760282 81:0.59628465 82:0.60614792 83:0.55158194 84:0.55158194 85:0.62249648 86:0.71774857 87:0.5726707 88:0.59804257 89:0.61966649 
10 0 0 1:1 2:0 3:0 4:1 5:0 6:0 7:0 8:0 9:0 10:0 11:0 12:0 13:-1 14:-1 15:-1 16:-1 17:-1 18:1 19:-1 20:-1 21:0.00011113581 22:0 23:1 24:0 25:0 26:0 27:0 28:0 29:0 30:0 31:0 32:0 33:0 34:0 35:0 36:1 37:0 38:0 39:0 40:0 41:0 42:0 43:0 44:0 45:0 46:0 47:0 48:0 49:0 50:0 51:0 52:0 53:0 54:0 55:0 56:0 57:0 58:0 59:0 60:0 61:0 62:1 63:0 64:0 65:0.16552921 66:0.51038642 67:0.57637855 68:0.57110031 69:0.5 70:0.5 71:0.59395173 72:0.57297177 73:0.5 74:0.5050425 75:0.55158194 76:0.72809075 77:0.59178069 78:0.5 79:0.5 80:0.58760282 81:0.59628465 82:0.60614792 83:0.55158194 84:0.55158194 85:0.62249648 86:0.71774857 87:0.5726707 88:0.59804257 89:0.61966649 
10 0 0 1:1 2:0 3:0 4:0 5:0 6:1 7:0 8:0 9:0 10:0 11:0 12:0 13:-1 14:-1 15:-1 16:-1 17:-1 18:1 19:0 20:-1 21:0.00011113581 22:0 23:1 24:0 25:0 26:0 27:0 28:0 29:0 30:0 31:0 32:0 33:0 34:0 35:0 36:1 37:0 38:0 39:0 40:0 41:0 42:0 43:0 44:0 45:0 46:0 47:0 48:0 49:0 50:0 51:0 52:0 53:0 54:0 55:0 56:0 57:0 58:0 59:0 60:0 61:0 62:1 63:0 64:0 65:0.16552921 66:0.51038642 67:0.57637855 68:0.57110031 69:0.5 70:0.5 71:0.59395173 72:0.57297177 73:0.5 74:0.5050425 75:0.55158194 76:0.72809075 77:0.59178069 78:0 79:0.5 80:0.58760282 81:0.59628465 82:0.60614792 83:0.55158194 84:0.55158194 85:0.62249648 86:0.71774857 87:0.5726707 88:0.59804257 89:0.61966649 
10 0 0 1:1 2:0 3:0 4:0 5:0 6:1 7:0 8:0 9:0 10:0 11:0 12:0 13:-1 14:-1 15:-1 16:-1 17:-1 18:1 19:0 20:-1 21:0.00011113581 22:0 23:1 24:0 25:0 26:0 27:0 28:0 29:0 30:0 31:0 32:0 33:0 34:0 35:0 36:1 37:0 38:0 39:0 40:0 41:0 42:0 43:0 44:0 45:0 46:0 47:0 48:0 49:0 50:0 51:0 52:0 53:0 54:0 55:0 56:0 57:0 58:0 59:0 60:0 61:0 62:1 63:0 64:0 65:0.16552921 66:0.51038642 67:0.57637855 68:0.57110031 69:0.5 70:0.5 71:0.59395173 72:0.57297177 73:0.5 74:0.5050425 75:0.55158194 76:0.72809075 77:0.59178069 78:0 79:0.5 80:0.58760282 81:0.59628465 82:0.60614792 83:0.55158194 84:0.55158194 85:0.62249648 86:0.71774857 87:0.5726707 88:0.59804257 89:0.61966649 
4.98678717287637 0 0 1:1 2:0 3:0 4:1 5:0 6:0 7:0 8:0 9:0 10:0 11:0 12:0 13:-1 14:-1 15:-1 16:-1 17:-1 18:1 19:0 20:0 21:0.00011111111 22:0 23:1 24:0 25:0 26:0 27:0 28:0 29:0 30:0 31:0 32:0 33:0 34:0 35:0 36:0 37:0 38:0 39:0 40:0 41:0 42:0 43:0 44:0 45:0 46:0 47:0 48:0 49:0 50:0 51:0 52:0 53:1 54:0 55:0 56:0 57:0 58:0 59:0 60:0 61:0 62:0 63:0 64:0 65:0 66:0.60704383 67:0.62672172 68:0.65637742 69:0.5 70:0.55777347 71:0.52334564 72:0.5 73:0.5 74:0.61724539 75:0.68764651 76:0.70838597 77:0.56925174 78:0.5 79:1 80:0.5 81:0.59736886 82:0.5 83:0.58115262 84:0.61113797 85:1 86:0.71105503 87:0.69599497 88:0.68468357 89:0.70858486 
10 0 0 1:1 2:0 3:0 4:1 5:0 6:0 7:0 8:0 9:0 10:0 11:0 12:0 13:-1 14:-1 15:-1 16:-1 17:-1 18:1 19:0 20:0 21:0.00011111111 22:0 23:1 24:0 25:0 26:0 27:0 28:0 29:0 30:0 31:0 32:0 33:0 34:0 35:0 36:0 37:0 38:0 39:0 40:0 41:0 42:0 43:0 44:0 45:0 46:0 47:0 48:0 49:0 50:0 51:0 52:0 53:1 54:0 55:0 56:0 57:0 58:0 59:0 60:0 61:0 62:0 63:0 64:0 65:0 66:0.60704383 67:0.62672172 68:0.65637742 69:0.5 70:0.55777347 71:0.52334564 72:0.5 73:0.5 74:0.61724539 75:0.68764651 76:0.70838597 77:0.56925174 78:0.5 79:1 80:0.5 81:0.59736886 82:0.5 83:0.58115262 84:0.61113797 85:1 86:0.71105503 87:0.69599497 88:0.68468357 89:0.70858486 
6.574091379174614 0 0 1:0 2:1 3:0 4:1 5:0 6:0 7:0 8:0 9:0 10:0 11:0 12:0 13:-1 14:-1 15:-1 16:-1 17:-1 18:1 19:0 20:0 21:0.00010005003 22:0 23:1 24:0 25:0 26:0 27:1 28:0 29:0 30:0 31:0 32:0 33:0 34:0 35:0 36:0 37:0 38:0 39:0 40:0 41:0 42:0 43:0 44:0 45:0 46:0 47:0 48:0 49:0 50:0 51:0 52:0 53:1 54:0 55:0 56:0 57:0 58:0 59:0 60:0 61:0 62:0 63:0 64:0 65:0.1135888 66:1 67:0.56027865 68:0.69398685 69:0.57829527 70:0.70396338 71:0.70533023 72:0.5 73:0.53789987 74:1 75:0.53044878 76:0.73592856 77:0.626755 78:0.57218486 79:1 80:0.52006124 81:0.6341558 82:0.5 83:0.68259465 84:0.68259465 85:0.68640776 86:1 87:0.55196788 88:0.71051732 89:0.73609167 
0 0 9.640740230888099 1:0 2:1 3:0 4:1 5:0 6:0 7:0 8:0 9:0 10:0 11:0 12:0 13:-1 14:-1 15:-1 16:-1 17:-1 18:1 19:0 20:0 21:0.00010005003 22:0 23:1 24:0 25:0 26:0 27:1 28:0 29:0 30:0 31:0 32:0 33:0 34:0 35:0 36:0 37:0 38:0 39:0 40:0 41:0 42:0 43:0 44:0 45:0 46:0 47:0 48:0 49:0 50:0 51:0 52:0 53:1 54:0 55:0 56:0 57:0 58:0 59:0 60:0 61:0 62:0 63:0 64:0 65:0.1135888 66:1 67:0.56027865 68:0.69398685 69:0.57829527 70:0.70396338 71:0.70533023 72:0.5 73:0.53789987 74:1 75:0.53044878 76:0.73592856 77:0.626755 78:0.57218486 79:1 80:0.52006124 81:0.6341558 82:0.5 83:0.68259465 84:0.68259465 85:0.68640776 86:1 87:0.55196788 88:0.71051732 89:0.73609167 
10 0 0 1:0 2:1 3:0 4:0 5:0 6:1 7:0 8:0 9:0 10:1 11:1 12:0 13:-1 14:-1 15:-1 16:-1 17:-1 18:1 19:-1 20:0 21:0.00011120996 22:0 23:1 24:0 25:0 26:0 27:1 28:0 29:0 30:0 31:0 32:0 33:0 34:0 35:0 36:1 37:0 38:0 39:0 40:0 41:0 42:0 43:0 44:0 45:0 46:0 47:0 48:0 49:0 50:0 51:0 52:0 53:0 54:0 55:0 56:0 57:0 58:0 59:0 60:0 61:0 62:0 63:0 64:0 65:1 66:1 67:0.56027865 68:1 69:0.59994289 70:0.61980464 71:0.63469664 72:0.61185345 73:0.56027865 74:0.62388926 75:0.57366212 76:0.64851983 77:0.68384031 78:0.60826839 79:0.66630603 80:0.59994289 81:0.70075241 82:1 83:0.57366212 84:0.5 85:1 86:0.65714504 87:0.64742908 88:0.68725487 89:0.74839751 
10 0 0 1:0 2:1 3:0 4:0 5:0 6:1 7:0 8:0 9:0 10:0 11:0 12:0 13:-1 14:-1 15:-1 16:-1 17:-1 18:1 19:-1 20:0 21:0.00011113581 22:0 23:1 24:0 25:0 26:0 27:0 28:0 29:0 30:0 31:0 32:0 33:0 34:0 35:0 36:1 37:0 38:0 39:0 40:0 41:0 42:0 43:0 44:0 45:0 46:0 47:0 48:0 49:0 50:0 51:0 52:0 53:0 54:0 55:0 56:0 57:0 58:0 59:0 60:0 61:0 62:0 63:0 64:0 65:1 66:1 67:0.56027865 68:1 69:0.59994289 70:0.61980464 71:0.63469664 72:0.61185345 73:0.56027865 74:0.62388926 75:0.57366212 76:0.64851983 77:0.68384031 78:0.60826839 79:0.66630603 80:0.59994289 81:0.70075241 82:1 83:0.57366212 84:0.5 85:1 86:0.65714504 87:0.64742908 88:0.68725487 89:0.74839751 
10 0 0 1:0 2:1 3:0 4:0 5:0 6:1 7:0 8:0 9:0 10:0 11:0 12:0 13:-1 14:-1 15:-1 16:-1 17:-1 18:1 19:-1 20:0 21:0.00011113581 22:0 23:1 24:0 25:0 26:0 27:0 28:0 29:0 30:0 31:0 32:0 33:0 34:0 35:0 36:1 37:0 38:0 39:0 40:0 41:0 42:0 43:0 44:0 45:0 46:0 47:0 48:0 49:0 50:0 51:0 52:0 53:0 54:0 55:0 56:0 57:0 58:0 59:0 60:0 61:0 62:0 63:0 64:0 65:1 66:1 67:0.56027865 68:1 69:0.59994289 70:0.61980464 71:0.63469664 72:0.61185345 73:0.56027865 74:0.62388926 75:0.57366212 76:0.64851983 77:0.68384031 78:0.60826839 79:0.66630603 80:0.59994289 81:0.70075241 82:1 83:0.57366212 84:0.5 85:1 86:0.65714504 87:0.64742908 88:0.68725487 89:0.74839751 
5.034394247388019 0 0 1:0 2:1 3:0 4:0 5:0 6:1 7:0 8:0 9:0 10:1 11:1 12:0 13:-1 14:-1 15:-1 16:-1 17:-1 18:1 19:-1 20:0 21:0.00011120996 22:0 23:1 24:0 25:0 26:0 27:1 28:0 29:0 30:0 31:0 32:0 33:0 34:0 35:0 36:1 37:0 38:0 39:0 40:0 41:0 42:0 43:0 44:0 45:0 46:0 47:0 48:0 49:0 50:0 51:0 52:0 53:0 54:0 55:0 56:0 57:0 58:0 59:0 60:0 61:0 62:0 63:0 64:0 65:1 66:1 67:0.56027865 68:1 69:0.59994289 70:0.61980464 71:0.63469664 72:0.61185345 73:0.56027865 74:0.62388926 75:0.57366212 76:0.64851983 77:0.68384031 78:0.60826839 79:0.66630603 80:0.59994289 81:0.70075241 82:1 83:0.57366212 84:0.5 85:1 86:0.65714504 87:0.64742908 88:0.68725487 89:0.74839751 
10 1.710734879902932 0 1:0 2:1 3:0 4:0 5:0 6:1 7:0 8:0 9:0 10:0 11:0 12:0 13:-1 14:-1 15:-1 16:-1 17:-1 18:1 19:-1 20:0 21:0.00011113581 22:0 23:1 24:0 25:0 26:0 27:0 28:0 29:0 30:0 31:0 32:0 33:0 34:0 35:0 36:1 37:0 38:0 39:0 40:0 41:0 42:0 43:0 44:0 45:0 46:0 47:0 48:0 49:0 50:0 51:0 52:0 53:0 54:0 55:0 56:0 57:0 58:0 59:0 60:0 61:0 62:0 63:0 64:0 65:1 66:1 67:0.56027865 68:1 69:0.59994289 70:0.61980464 71:0.63469664 72:0.61185345 73:0.56027865 74:0.62388926 75:0.57366212 76:0.64851983 77:0.68384031 78:0.60826839 79:0.66630603 80:0.59994289 81:0.70075241 82:1 83:0.57366212 84:0.5 85:1 86:0.65714504 87:0.64742908 88:0.68725487 89:0.74839751 
10 0 0 1:1 2:0 3:0 4:0 5:1 6:0 7:0 8:0 9:0 10:0 11:0 12:0 13:-1 14:-1 15:-1 16:-1 17:-1 18:1 19:0 20:-1 21:0.00011113581 22:0 23:1 24:0 25:0 26:0 27:0 28:0 29:0 30:0 31:0 32:0 33:0 34:0 35:0 36:0 37:0 38:0 39:0 40:0 41:0 42:0 43:0 44:0 45:0 46:0 47:0 48:0 49:0 50:0 51:0 52:0 53:0 54:0 55:0 56:0 57:0 58:0 59:0 60:0 61:0 62:1 63:0 64:0 65:0.16552921 66:0.51038642 67:0.57637855 68:0.57110031 69:0.5 70:0.5 71:0.59395173 72:0.57297177 73:0.5 74:0.5050425 75:0.55158194 76:0.72809075 77:0.59178069 78:0 79:0.5 80:0.58760282 81:0.59628465 82:0.60614792 83:0.55158194 84:0.55158194 85:0.62249648 86:0.71774857 87:0.5726707 88:0.59804257 89:0.61966649 
10 0 0 1:0 2:1 3:0 4:1 5:0 6:0 7:0 8:0 9:1 10:0 11:0 12:1 13:-1 14:-1 15:-1 16:1 17:-1 18:1 19:0 20:0 21:0.00010007005 22:0 23:1 24:0 25:0 26:0 27:1 28:0 29:0 30:0 31:0 32:0 33:0 34:0 35:0 36:0 37:0 38:0 39:0 40:0 41:0 42:0 43:0 44:0 45:0 46:0 47:0 48:0 49:0 50:0 51:0 52:0 53:0 54:0 55:0 56:0 57:0 58:0 59:0 60:0 61:0 62:1 63:0 64:0 65:0.11563229 66:0.51038642 67:0.57637855 68:0.57110031 69:0.5 70:0.5 71:0.59395173 72:0.57297177 73:0.5 74:0.5050425 75:0.55158194 76:0.72809075 77:0.59178069 78:0.5 79:0.5 80:0.58760282 81:0.59628465 82:0.60614792 83:0.55158194 84:0.55158194 85:0.62249648 86:0.71774857 87:0.5726707 88:0.59804257 89:0.61966649 
10 0 0 1:0 2:1 3:0 4:1 5:0 6:0 7:0 8:0 9:0 10:1 11:1 12:0 13:-1 14:-1 15:-1 16:-1 17:0 18:1 19:0 20:0 21:0.00010007005 22:0 23:1 24:0 25:0 26:0 27:1 28:0 29:0 30:0 31:0 32:0 33:0 34:0 35:0 36:0 37:0 38:0 39:0 40:0 41:0 42:0 43:0 44:0 45:0 46:0 47:0 48:0 49:0 50:0 51:0 52:0 53:0 54:0 55:0 56:0 57:0 58:0 59:0 60:0 61:0 62:1 63:0 64:0 65:0.11563229 66:0.51038642 67:0.57637855 68:0.57110031 69:0.5 70:0.5 71:0.59395173 72:0.57297177 73:0.5 74:0.5050425 75:0.55158194 76:0.72809075 77:0.59178069 78:0.5 79:0.5 80:0.58760282 81:0.59628465 82:0.60614792 83:0.55158194 84:0.55158194 85:0.62249648 86:0.71774857 87:0.5726707 88:0.59804257 89:0.61966649 
10 0 0 1:1 2:0 3:0 4:0 5:1 6:0 7:0 8:0 9:1 10:0 11:0 12:1 13:-1 14:-1 15:-1 16:-1 17:0 18:1 19:0 20:0 21:0.00010007005 22:0 23:1 24:0 25:0 26:0 27:1 28:0 29:0 30:0 31:0 32:0 33:0 34:0 35:0 36:0 37:0 38:0 39:0 40:0 41:0 42:0 43:0 44:0 45:0 46:0 47:0 48:0 49:0 50:0 51:0 52:0 53:0 54:0 55:0 56:0 57:0 58:0 59:0 60:0 61:0 62:1 63:0 64:0 65:0.11563229 66:0.51038642 67:0.57637855 68:0.57110031 69:0.5 70:0.5 71:0.59395173 72:0.57297177 73:0.5 74:0.5050425 75:0.55158194 76:0.72809075 77:0.59178069 78:0 79:0.5 80:0.58760282 81:0.59628465 82:0.60614792 83:0.55158194 84:0.55158194 85:0.62249648 86:0.71774857 87:0.5726707 88:0.59804257 89:0.61966649 
10 0 0 1:0 2:1 3:0 4:1 5:0 6:0 7:0 8:0 9:0 10:1 11:1 12:0 13:-1 14:-1 15:-1 16:-1 17:0 18:1 19:0 20:0 21:0.00010007005 22:0 23:1 24:0 25:0 26:0 27:1 28:0 29:0 30:0 31:0 32:0 33:0 34:0 35:0 36:0 37:0 38:0 39:0 40:0 41:0 42:0 43:0 44:0 45:0 46:0 47:0 48:0 49:0 50:0 51:0 52:0 53:0 54:0 55:0 56:0 57:0 58:0 59:0 60:0 61:0 62:1 63:0 64:0 65:0.11563229 66:0.51038642 67:0.57637855 68:0.57110031 69:0.5 70:0.5 71:0.59395173 72:0.57297177 73:0.5 74:0.5050425 75:0.55158194 76:0.72809075 77:0.59178069 78:0.5 79:0.5 80:0.58760282 81:0.59628465 82:0.60614792 83:0.55158194 84:0.55158194 85:0.62249648 86:0.71774857 87:0.5726707 88:0.59804257 89:0.61966649 
10 0 0 1:1 2:0 3:0 4:0 5:1 6:0 7:0 8:0 9:0 10:0 11:0 12:0 13:-1 14:-1 15:-1 16:-1 17:-1 18:1 19:0 20:-1 21:0.00011113581 22:0 23:1 24:0 25:0 26:0 27:0 28:0 29:0 30:0 31:0 32:0 33:0 34:0 35:0 36:0 37:0 38:0 39:0 40:0 41:0 42:0 43:0 44:0 45:0 46:0 47:0 48:0 49:0 50:0 51:0 52:0 53:0 54:0 55:0 56:0 57:0 58:0 59:0 60:0 61:0 62:1 63:0 64:0 65:0.16552921 66:0.51038642 67:0.57637855 68:0.57110031 69:0.5 70:0.5 71:0.59395173 72:0.57297177 73:0.5 74:0.5050425 75:0.55158194 76:0.72809075 77:0.59178069 78:0 79:0.5 80:0.58760282 81:0.59628465 82:0.60614792 83:0.55158194 84:0.55158194 85:0.62249648 86:0.71774857 87:0.5726707 88:0.59804257 89:0.61966649 
10 0 0 1:1 2:0 3:0 4:0 5:1 6:0 7:0 8:0 9:1 10:0 11:0 12:1 13:-1 14:-1 15:-1 16:-1 17:0 18:1 19:0 20:0 21:0.00010007005 22:0 23:1 24:0 25:0 26:0 27:1 28:0 29:0 30:0 31:0 32:0 33:0 34:0 35:0 36:0 37:0 38:0 39:0 40:0 41:0 42:0 43:0 44:0 45:0 46:0 47:0 48:0 49:0 50:0 51:0 52:0 53:0 54:0 55:0 56:0 57:0 58:0 59:0 60:0 61:0 62:1 63:0 64:0 65:0.11563229 66:0.51038642 67:0.57637855 68:0.57110031 69:0.5 70:0.5 71:0.59395173 72:0.57297177 73:0.5 74:0.5050425 75:0.55158194 76:0.72809075 77:0.59178069 78:0 79:0.5 80:0.58760282 81:0.59628465 82:0.60614792 83:0.55158194 84:0.55158194 85:0.62249648 86:0.71774857 87:0.5726707 88:0.59804257 89:0.61966649 
10 0 0 1:1 2:0 3:0 4:0 5:1 6:0 7:0 8:0 9:0 10:0 11:0 12:0 13:-1 14:-1 15:-1 16:-1 17:-1 18:1 19:0 20:-1 21:0.00011113581 22:0 23:1 24:0 25:0 26:0 27:0 28:0 29:0 30:0 31:0 32:0 33:0 34:0 35:0 36:0 37:0 38:0 39:0 40:0 41:0 42:0 43:0 44:0 45:0 46:0 47:0 48:0 49:0 50:0 51:0 52:0 53:0 54:0 55:0 56:0 57:0 58:0 59:0 60:0 61:0 62:1 63:0 64:0 65:0.16552921 66:0.51038642 67:0.57637855 68:0.57110031 69:0.5 70:0.5 71:0.59395173 72:0.57297177 73:0.5 74:0.5050425 75:0.55158194 76:0.72809075 77:0.59178069 78:0 79:0.5 80:0.58760282 81:0.59628465 82:0.60614792 83:0.55158194 84:0.55158194 85:0.62249648 86:0.71774857 87:0.5726707 88:0.59804257 89:0.61966649 
4.340855224527004 0 0 1:0 2:1 3:0 4:1 5:0 6:0 7:0 8:0 9:1 10:0 11:0 12:1 13:-1 14:-1 15:-1 16:1 17:-1 18:1 19:0 20:0 21:0.00010007005 22:0 23:1 24:0 25:0 26:0 27:1 28:0 29:0 30:0 31:0 32:0 33:0 34:0 35:0 36:0 37:0 38:0 39:0 40:0 41:0 42:0 43:0 44:0 45:0 46:0 47:0 48:0 49:0 50:0 51:0 52:0 53:0 54:0 55:0 56:0 57:0 58:0 59:0 60:0 61:0 62:1 63:0 64:0 65:0.11563229 66:0.51038642 67:0.57637855 68:0.57110031 69:0.5 70:0.5 71:0.59395173 72:0.57297177 73:0.5 74:0.5050425 75:0.55158194 76:0.72809075 77:0.59178069 78:0.5 79:0.5 80:0.58760282 81:0.59628465 82:0.60614792 83:0.55158194 84:0.55158194 85:0.62249648 86:0.71774857 87:0.5726707 88:0.59804257 89:0.61966649 
10 0 0 1:1 2:0 3:0 4:1 5:0 6:0 7:0 8:0 9:0 10:0 11:0 12:0 13:-1 14:-1 15:-1 16:-1 17:-1 18:1 19:-1 20:0 21:0.00011112346 22:0 23:1 24:0 25:0 26:0 27:0 28:0 29:0 30:0 31:0 32:0 33:0 34:0 35:0 36:0 37:0 38:0 39:0 40:0 41:0 42:0 43:0 44:0 45:0 46:0 47:0 48:0 49:0 50:0 51:0 52:0 53:0 54:0 55:0 56:0 57:0 58:0 59:0 60:0 61:0 62:1 63:0 64:0 65:0.16552921 66:0.51038642 67:0.57637855 68:0.57110031 69:0.5 70:0.5 71:0.59395173 72:0.57297177 73:0.5 74:0.5050425 75:0.55158194 76:0.72809075 77:0.59178069 78:0.5 79:0.5 80:0.58760282 81:0.59628465 82:0.60614792 83:0.55158194 84:0.55158194 85:0.62249648 86:0.71774857 87:0.5726707 88:0.59804257 89:0.61966649 
10 0 0 1:1 2:0 3:0 4:1 5:0 6:0 7:0 8:0 9:1 10:0 11:0 12:1 13:-1 14:-1 15:-1 16:-1 17:-1 18:1 19:-1 20:0 21:0.00011109877 22:0 23:1 24:0 25:0 26:0 27:0 28:0 29:0 30:0 31:0 32:0 33:0 34:0 35:0 36:0 37:0 38:0 39:0 40:0 41:0 42:0 43:0 44:0 45:0 46:0 47:0 48:0 49:0 50:0 51:0 52:0 53:0 54:0 55:0 56:0 57:0 58:0 59:0 60:0 61:0 62:1 63:0 64:0 65:0.1473395 66:0.70435108 67:1 68:0.76657414 69:0.59736886 70:0.67628317 71:0.69006109 72:0.52404624 73:0.62427459 74:1 75:0.59025458 76:1 77:0.68397625 78:0.59628465 79:0.66645747 80:0.52118108 81:0.5 82:0.60178421 83:0.59025458 84:0.69108982 85:0.70872819 86:0.76735766 87:0.68567938 88:0.73718668 89:1 
10 0 5.219502041016128 1:1 2:0 3:0 4:1 5:0 6:0 7:0 8:0 9:0 10:0 11:0 12:0 13:-1 14:-1 15:-1 16:-1 17:-1 18:1 19:-1 20:0 21:0.00011109877 22:0 23:1 24:0 25:0 26:0 27:0 28:0 29:0 30:0 31:0 32:0 33:0 34:0 35:0 36:0 37:0 38:0 39:0 40:0 41:0 42:0 43:0 44:0 45:0 46:0 47:0 48:0 49:0 50:0 51:0 52:0 53:0 54:0 55:0 56:0 57:0 58:0 59:0 60:0 61:0 62:1 63:0 64:0 65:0.1473395 66:0.70435108 67:1 68:0.76657414 69:0.59736886 70:0.67628317 71:0.69006109 72:0.52404624 73:0.62427459 74:1 75:0.59025458 76:1 77:0.68397625 78:0.59628465 79:0.66645747 80:0.52118108 81:0.5 82:0.60178421 83:0.59025458 84:0.69108982 85:0.70872819 86:0.76735766 87:0.68567938 88:0.73718668 89:1 
10 0 0 1:1 2:0 3:0 4:1 5:0 6:0 7:0 8:0 9:0 10:1 11:1 12:0 13:-1 14:-1 15:-1 16:-1 17:-1 18:1 19:0 20:0 21:0.000125 22:0 23:1 24:0 25:0 26:0 27:0 28:0 29:0 30:0 31:0 32:0 33:0 34:0 35:0 36:0 37:0 38:0 39:0 40:0 41:0 42:0 43:0 44:0 45:0 46:0 47:0 48:0 49:0 50:0 51:0 52:0 53:0 54:0 55:0 56:0 57:0 58:0 59:0 60:0 61:0 62:1 63:0 64:0 65:0.20634081 66:0.70435108 67:1 68:0.76657414 69:0.59736886 70:0.67628317 71:0.69006109 72:0.52404624 73:0.62427459 74:1 75:0.59025458 76:1 77:0.68397625 78:0.59628465 79:0.66645747 80:0.52118108 81:0.5 82:0.60178421 83:0.59025458 84:0.69108982 85:0.70872819 86:0.76735766 87:0.68567938 88:0.73718668 89:1 
10 0 0 1:1 2:0 3:0 4:1 5:0 6:0 7:0 8:0 9:1 10:0 11:0 12:1 13:-1 14:-1 15:-1 16:-1 17:-1 18:1 19:-1 20:0 21:0.00011109877 22:0 23:1 24:0 25:0 26:0 27:0 28:0 29:0 30:0 31:0 32:0 33:0 34:0 35:0 36:0 37:0 38:0 39:0 40:0 41:0 42:0 43:0 44:0 45:0 46:0 47:0 48:0 49:0 50:0 51:0 52:0 53:0 54:0 55:0 56:0 57:0 58:0 59:0 60:0 61:0 62:1 63:0 64:0 65:0.1473395 66:0.51038642 67:0.57637855 68:0.57110031 69:0.5 70:0.5 71:0.59395173 72:0.57297177 73:0.5 74:0.5050425 75:0.55158194 76:0.72809075 77:0.59178069 78:0.5 79:0.5 80:0.58760282 81:0.59628465 82:0.60614792 83:0.55158194 84:0.55158194 85:0.62249648 86:0.71774857 87:0.5726707 88:0.59804257 89:0.61966649 
10 0 10 1:1 2:0 3:0 4:1 5:0 6:0 7:0 8:0 9:0 10:0 11:0 12:0 13:-1 14:-1 15:-1 16:-1 17:-1 18:1 19:-1 20:0 21:0.00011109877 22:0 23:1 24:0 25:0 26:0 27:0 28:0 29:0 30:0 31:0 32:0 33:0 34:0 35:0 36:0 37:0 38:0 39:0 40:0 41:0 42:0 43:0 44:0 45:0 46:0 47:0 48:0 49:0 50:0 51:0 52:0 53:0 54:0 55:0 56:0 57:0 58:0 59:0 60:0 61:0 62:1 63:0 64:0 65:0.1473395 66:0.70435108 67:1 68:0.76657414 69:0.59736886 70:0.67628317 71:0.69006109 72:0.52404624 73:0.62427459 74:1 75:0.59025458 76:1 77:0.68397625 78:0.59628465 79:0.66645747 80:0.52118108 81:0.5 82:0.60178421 83:0.59025458 84:0.69108982 85:0.70872819 86:0.76735766 87:0.68567938 88:0.73718668 89:1 
10 0 0 1:1 2:0 3:0 4:1 5:0 6:0 7:0 8:0 9:0 10:1 11:1 12:0 13:-1 14:-1 15:-1 16:-1 17:-1 18:1 19:0 20:0 21:0.000125 22:0 23:1 24:0 25:0 26:0 27:0 28:0 29:0 30:0 31:0 32:0 33:0 34:0 35:0 36:0 37:0 38:0 39:0 40:0 41:0 42:0 43:0 44:0 45:0 46:0 47:0 48:0 49:0 50:0 51:0 52:0 53:0 54:0 55:0 56:0 57:0 58:0 59:0 60:0 61:0 62:1 63:0 64:0 65:0.20634081 66:0.70435108 67:1 68:0.76657414 69:0.59736886 70:0.67628317 71:0.69006109 72:0.52404624 73:0.62427459 74:1 75:0.59025458 76:1 77:0.68397625 78:0.59628465 79:0.66645747 80:0.52118108 81:0.5 82:0.60178421 83:0.59025458 84:0.69108982 85:0.70872819 86:0.76735766 87:0.68567938 88:0.73718668 89:1 
10 0 0 1:1 2:0 3:0 4:1 5:0 6:0 7:0 8:0 9:0 10:1 11:1 12:0 13:-1 14:-1 15:-1 16:-1 17:-1 18:1 19:-1 20:0 21:0.00011109877 22:0 23:1 24:0 25:0 26:0 27:0 28:0 29:0 30:0 31:0 32:0 33:0 34:0 35:0 36:0 37:0 38:0 39:0 40:0 41:0 42:0 43:0 44:0 45:0 46:0 47:0 48:0 49:0 50:0 51:0 52:0 53:0 54:0 55:0 56:0 57:0 58:0 59:0 60:0 61:0 62:1 63:0 64:0 65:0.1473395 66:0.70435108 67:1 68:0.76657414 69:0.59736886 70:0.67628317 71:0.69006109 72:0.52404624 73:0.62427459 74:1 75:0.59025458 76:1 77:0.68397625 78:0.59628465 79:0.66645747 80:0.52118108 81:0.5 82:0.60178421 83:0.59025458 84:0.69108982 85:0.70872819 86:0.76735766 87:0.68567938 88:0.73718668 89:1 
10 0 0 1:1 2:0 3:0 4:1 5:0 6:0 7:0 8:0 9:0 10:0 11:0 12:0 13:-1 14:-1 15:-1 16:-1 17:-1 18:1 19:-1 20:0 21:0.00011112346 22:0 23:1 24:0 25:0 26:0 27:0 28:0 29:0 30:0 31:0 32:0 33:0 34:0 35:0 36:0 37:0 38:0 39:0 40:0 41:0 42:0 43:0 44:0 45:0 46:0 47:0 48:0 49:0 50:0 51:0 52:0 53:0 54:0 55:0 56:0 57:0 58:0 59:0 60:0 61:0 62:1 63:0 64:0 65:0.16552921 66:0.51038642 67:0.57637855 68:0.57110031 69:0.5 70:0.5 71:0.59395173 72:0.57297177 73:0.5 74:0.5050425 75:0.55158194 76:0.72809075 77:0.59178069 78:0.5 79:0.5 80:0.58760282 81:0.59628465 82:0.60614792 83:0.55158194 84:0.55158194 85:0.62249648 86:0.71774857 87:0.5726707 88:0.59804257 89:0.61966649 
10 0 0 1:1 2:0 3:0 4:1 5:0 6:0 7:0 8:0 9:0 10:0 11:0 12:0 13:-1 14:-1 15:-1 16:-1 17:-1 18:1 19:-1 20:0 21:0.00011112346 22:0 23:1 24:0 25:0 26:0 27:0 28:0 29:0 30:0 31:0 32:0 33:0 34:0 35:0 36:0 37:0 38:0 39:0 40:0 41:0 42:0 43:0 44:0 45:0 46:0 47:0 48:0 49:0 50:0 51:0 52:0 53:0 54:0 55:0 56:0 57:0 58:0 59:0 60:0 61:0 62:1 63:0 64:0 65:0.16552921 66:0.51038642 67:0.57637855 68:0.57110031 69:0.5 70:0.5 71:0.59395173 72:0.57297177 73:0.5 74:0.5050425 75:0.55158194 76:0.72809075 77:0.59178069 78:0.5 79:0.5 80:0.58760282 81:0.59628465 82:0.60614792 83:0.55158194 84:0.55158194 85:0.62249648 86:0.71774857 87:0.5726707 88:0.59804257 89:0.61966649 
10 0 0 1:1 2:0 3:0 4:1 5:0 6:0 7:0 8:0 9:1 10:0 11:0 12:1 13:-1 14:-1 15:-1 16:-1 17:-1 18:1 19:-1 20:0 21:0.00011109877 22:0 23:1 24:0 25:0 26:0 27:0 28:0 29:0 30:0 31:0 32:0 33:0 34:0 35:0 36:0 37:0 38:0 39:0 40:0 41:0 42:0 43:0 44:0 45:0 46:0 47:0 48:0 49:0 50:0 51:0 52:0 53:0 54:0 55:0 56:0 57:0 58:0 59:0 60:0 61:0 62:1 63:0 64:0 65:0.1473395 66:0.70435108 67:1 68:0.76657414 69:0.59736886 70:0.67628317 71:0.69006109 72:0.52404624 73:0.62427459 74:1 75:0.59025458 76:1 77:0.68397625 78:0.59628465 79:0.66645747 80:0.52118108 81:0.5 82:0.60178421 83:0.59025458 84:0.69108982 85:0.70872819 86:0.76735766 87:0.68567938 88:0.73718668 89:1 
10 0 0 1:1 2:0 3:0 4:1 5:0 6:0 7:0 8:0 9:0 10:1 11:1 12:0 13:-1 14:-1 15:-1 16:-1 17:-1 18:1 19:-1 20:0 21:0.00011109877 22:0 23:1 24:0 25:0 26:0 27:0 28:0 29:0 30:0 31:0 32:0 33:0 34:0 35:0 36:0 37:0 38:0 39:0 40:0 41:0 42:0 43:0 44:0 45:0 46:0 47:0 48:0 49:0 50:0 51:0 52:0 53:0 54:0 55:0 56:0 57:0 58:0 59:0 60:0 61:0 62:1 63:0 64:0 65:0.1473395 66:0.70435108 67:1 68:0.76657414 69:0.59736886 70:0.67628317 71:0.69006109 72:0.52404624 73:0.62427459 74:1 75:0.59025458 76:1 77:0.68397625 78:0.59628465 79:0.66645747 80:0.52118108 81:0.5 82:0.60178421 83:0.59025458 84:0.69108982 85:0.70872819 86:0.76735766 87:0.68567938 88:0.73718668 89:1 
10 0 10 1:1 2:0 3:0 4:1 5:0 6:0 7:0 8:0 9:0 10:0 11:0 12:0 13:-1 14:-1 15:-1 16:-1 17:-1 18:1 19:-1 20:0 21:0.00011109877 22:0 23:1 24:0 25:0 26:0 27:0 28:0 29:0 30:0 31:0 32:0 33:0 34:0 35:0 36:0 37:0 38:0 39:0 40:0 41:0 42:0 43:0 44:0 45:0 46:0 47:0 48:0 49:0 50:0 51:0 52:0 53:0 54:0 55:0 56:0 57:0 58:0 59:0 60:0 61:0 62:1 63:0 64:0 65:0.1473395 66:0.70435108 67:1 68:0.76657414 69:0.59736886 70:0.67628317 71:0.69006109 72:0.52404624 73:0.62427459 74:1 75:0.59025458 76:1 77:0.68397625 78:0.59628465 79:0.66645747 80:0.52118108 81:0.5 82:0.60178421 83:0.59025458 84:0.69108982 85:0.70872819 86:0.76735766 87:0.68567938 88:0.73718668 89:1 
10 0 0 1:1 2:0 3:0 4:1 5:0 6:0 7:0 8:0 9:1 10:0 11:0 12:1 13:-1 14:-1 15:-1 16:-1 17:-1 18:1 19:-1 20:0 21:0.00011109877 22:0 23:1 24:0 25:0 26:0 27:0 28:0 29:0 30:0 31:0 32:0 33:0 34:0 35:0 36:0 37:0 38:0 39:0 40:0 41:0 42:0 43:0 44:0 45:0 46:0 47:0 48:0 49:0 50:0 51:0 52:0 53:0 54:0 55:0 56:0 57:0 58:0 59:0 60:0 61:0 62:1 63:0 64:0 65:0.1473395 66:0.51038642 67:0.57637855 68:0.57110031 69:0.5 70:0.5 71:0.59395173 72:0.57297177 73:0.5 74:0.5050425 75:0.55158194 76:0.72809075 77:0.59178069 78:0.5 79:0.5 80:0.58760282 81:0.59628465 82:0.60614792 83:0.55158194 84:0.55158194 85:0.62249648 86:0.71774857 87:0.5726707 88:0.59804257 89:0.61966649 
0.4961074364875783 0 0 1:0 2:0 3:1 4:1 5:0 6:0 7:0 8:0 9:0 10:1 11:1 12:0 13:-1 14:-1 15:-1 16:-1 17:-1 18:1 19:-1 20:-1 21:0.00011103709 22:0 23:1 24:0 25:0 26:0 27:0 28:0 29:0 30:0 31:0 32:0 33:0 34:0 35:0 36:1 37:0 38:0 39:0 40:0 41:0 42:0 43:0 44:0 45:0 46:0 47:0 48:0 49:0 50:0 51:0 52:1 53:0 54:0 55:0 56:0 57:0 58:0 59:0 60:0 61:0 62:1 63:0 64:0 65:1 66:0.67314117 67:0.6777376 68:0.74407036 69:0.68764651 70:0.64460208 71:0.63839973 72:0.64465256 73:0.54069923 74:0.5044434 75:0.5 76:0.59992851 77:0.60822232 78:0.55158194 79:0.63032069 80:0.52521678 81:0.59025458 82:0.66463374 83:0.5 84:0.5 85:0.68030414 86:0.63663093 87:0.53506607 88:0.59459895 89:0.71197416 
10 0 0 1:0 2:1 3:0 4:0 5:0 6:1 7:0 8:0 9:0 10:0 11:0 12:0 13:-1 14:-1 15:-1 16:-1 17:-1 18:1 19:0 20:-1 21:0.00010006004 22:0 23:1 24:0 25:0 26:0 27:1 28:0 29:0 30:0 31:0 32:0 33:0 34:0 35:0 36:0 37:0 38:0 39:0 40:0 41:0 42:0 43:0 44:0 45:0 46:0 47:0 48:0 49:0 50:0 51:0 52:1 53:0 54:0 55:0 56:0 57:0 58:0 59:0 60:0 61:0 62:1 63:0 64:0 65:1 66:1 67:1 68:1 69:1 70:1 71:1 72:1 73:1 74:1 75:1 76:1 77:1 78:1 79:1 80:1 81:1 82:1 83:1 84:1 85:1 86:1 87:1 88:1 89:1 
10 0 0 1:0 2:0 3:1 4:1 5:0 6:0 7:0 8:0 9:1 10:0 11:0 12:1 13:-1 14:-1 15:-1 16:-1 17:-1 18:1 19:-1 20:-1 21:0.00011103709 22:0 23:1 24:0 25:0 26:0 27:0 28:0 29:0 30:0 31:0 32:0 33:0 34:0 35:0 36:1 37:0 38:0 39:0 40:0 41:0 42:0 43:0 44:0 45:0 46:0 47:0 48:0 49:0 50:0 51:0 52:1 53:0 54:0 55:0 56:0 57:0 58:0 59:0 60:0 61:0 62:1 63:0 64:0 65:1 66:0.67314117 67:0.6777376 68:0.74407036 69:0.68764651 70:0.64460208 71:0.63839973 72:0.64465256 73:0.54069923 74:0.5044434 75:0.5 76:0.59992851 77:0.60822232 78:0.55158194 79:0.63032069 80:0.52521678 81:0.59025458 82:0.66463374 83:0.5 84:0.5 85:0.68030414 86:0.63663093 87:0.53506607 88:0.59459895 89:0.71197416 
0.6295873660873773 0 0 1:0 2:0 3:1 4:1 5:0 6:0 7:0 8:0 9:0 10:1 11:1 12:0 13:-1 14:-1 15:-1 16:-1 17:-1 18:1 19:-1 20:-1 21:0.00011103709 22:0 23:1 24:0 25:0 26:0 27:0 28:0 29:0 30:0 31:0 32:0 33:0 34:0 35:0 36:1 37:0 38:0 39:0 40:0 41:0 42:0 43:0 44:0 45:0 46:0 47:0 48:0 49:0 50:0 51:0 52:1 53:0 54:0 55:0 56:0 57:0 58:0 59:0 60:0 61:0 62:1 63:0 64:0 65:1 66:0.67314117 67:0.6777376 68:0.74407036 69:0.68764651 70:0.64460208 71:0.63839973 72:0.64465256 73:0.54069923 74:0.5044434 75:0.5 76:0.59992851 77:0.60822232 78:0.55158194 79:0.63032069 80:0.52521678 81:0.59025458 82:0.66463374 83:0.5 84:0.5 85:0.68030414 86:0.63663093 87:0.53506607 88:0.59459895 89:0.71197416 
10 0 0 1:0 2:1 3:0 4:0 5:0 6:1 7:0 8:0 9:0 10:0 11:0 12:0 13:-1 14:-1 15:-1 16:-1 17:-1 18:1 19:0 20:-1 21:0.00010006004 22:0 23:1 24:0 25:0 26:0 27:1 28:0 29:0 30:0 31:0 32:0 33:0 34:0 35:0 36:0 37:0 38:0 39:0 40:0 41:0 42:0 43:0 44:0 45:0 46:0 47:0 48:0 49:0 50:0 51:0 52:1 53:0 54:0 55:0 56:0 57:0 58:0 59:0 60:0 61:0 62:1 63:0 64:0 65:1 66:1 67:1 68:1 69:1 70:1 71:1 72:1 73:1 74:1 75:1 76:1 77:1 78:1 79:1 80:1 81:1 82:1 83:1 84:1 85:1 86:1 87:1 88:1 89:1 
10 0 0 1:0 2:0 3:1 4:1 5:0 6:0 7:0 8:0 9:1 10:0 11:0 12:1 13:-1 14:-1 15:-1 16:-1 17:-1 18:1 19:-1 20:-1 21:0.00011103709 22:0 23:1 24:0 25:0 26:0 27:0 28:0 29:0 30:0 31:0 32:0 33:0 34:0 35:0 36:1 37:0 38:0 39:0 40:0 41:0 42:0 43:0 44:0 45:0 46:0 47:0 48:0 49:0 50:0 51:0 52:1 53:0 54:0 55:0 56:0 57:0 58:0 59:0 60:0 61:0 62:1 63:0 64:0 65:1 66:0.67314117 67:0.6777376 68:0.74407036 69:0.68764651 70:0.64460208 71:0.63839973 72:0.64465256 73:0.54069923 74:0.5044434 75:0.5 76:0.59992851 77:0.60822232 78:0.55158194 79:0.63032069 80:0.52521678 81:0.59025458 82:0.66463374 83:0.5 84:0.5 85:0.68030414 86:0.63663093 87:0.53506607 88:0.59459895 89:0.71197416 
5.02831409637272 0 0 1:0 2:1 3:0 4:1 5:0 6:0 7:0 8:0 9:0 10:1 11:1 12:0 13:-1 14:-1 15:-1 16:-1 17:-1 18:1 19:-1 20:-1 21:0.00011111111 22:0 23:1 24:0 25:0 26:0 27:1 28:0 29:0 30:0 31:0 32:0 33:0 34:0 35:0 36:1 37:0 38:0 39:0 40:0 41:0 42:0 43:0 44:0 45:0 46:0 47:0 48:0 49:0 50:0 51:0 52:1 53:0 54:0 55:0 56:0 57:0 58:0 59:0 60:0 61:0 62:1 63:0 64:0 65:1 66:0.67314117 67:0.6777376 68:0.74407036 69:0.68764651 70:0.64460208 71:0.63839973 72:0.64465256 73:0.54069923 74:0.5044434 75:0.5 76:0.59992851 77:0.60822232 78:0.55158194 79:0.63032069 80:0.52521678 81:0.59025458 82:0.66463374 83:0.5 84:0.5 85:0.68030414 86:0.63663093 87:0.53506607 88:0.59459895 89:0.71197416 
10 0 0 1:0 2:1 3:0 4:0 5:0 6:1 7:0 8:0 9:0 10:0 11:0 12:0 13:-1 14:-1 15:-1 16:-1 17:-1 18:1 19:0 20:-1 21:0.00010006004 22:0 23:1 24:0 25:0 26:0 27:1 28:0 29:0 30:0 31:0 32:0 33:0 34:0 35:0 36:0 37:0 38:0 39:0 40:0 41:0 42:0 43:0 44:0 45:0 46:0 47:0 48:0 49:0 50:0 51:0 52:1 53:0 54:0 55:0 56:0 57:0 58:0 59:0 60:0 61:0 62:1 63:0 64:0 65:1 66:1 67:1 68:1 69:1 70:1 71:1 72:1 73:1 74:1 75:1 76:1 77:1 78:1 79:1 80:1 81:1 82:1 83:1 84:1 85:1 86:1 87:1 88:1 89:1 
10 0 0 1:0 2:0 3:1 4:0 5:0 6:1 7:0 8:0 9:0 10:0 11:0 12:0 13:-1 14:-1 15:-1 16:-1 17:0 18:1 19:-1 20:0 21:0.00011109877 22:1 23:0 24:0 25:0 26:0 27:0 28:0 29:0 30:0 31:0 32:0 33:0 34:0 35:0 36:1 37:0 38:0 39:0 40:1 41:0 42:0 43:0 44:0 45:0 46:0 47:0 48:0 49:0 50:0 51:0 52:0 53:0 54:1 55:0 56:1 57:0 58:0 59:0 60:0 61:0 62:0 63:0 64:0 65:0.14806629 66:0.61996878 67:0.70788227 68:0.71077074 69:0.68655755 70:0.72965544 71:1 72:0.68444471 73:0.54211689 74:0.58639301 75:0.56074343 76:0.74852165 77:0.64603501 78:0.58635278 79:1 80:0.6309756 81:0.72973222 82:0.68655755 83:0.58413544 84:0.58413544 85:0.73607481 86:1 87:0.614002 88:0.61305475 89:0.74866958 
10 0 0 1:0 2:0 3:1 4:0 5:0 6:1 7:0 8:0 9:0 10:0 11:0 12:0 13:-1 14:-1 15:-1 16:-1 17:0 18:1 19:-1 20:0 21:0.00011109877 22:1 23:0 24:0 25:0 26:0 27:0 28:0 29:0 30:0 31:0 32:0 33:0 34:0 35:0 36:1 37:0 38:0 39:0 40:1 41:0 42:0 43:0 44:0 45:0 46:0 47:0 48:0 49:0 50:0 51:0 52:0 53:0 54:1 55:0 56:1 57:0 58:0 59:0 60:0 61:0 62:0 63:0 64:0 65:0.14806629 66:0.61996878 67:0.70788227 68:0.71077074 69:0.68655755 70:0.72965544 71:1 72:0.68444471 73:0.54211689 74:0.58639301 75:0.56074343 76:0.74852165 77:0.64603501 78:0.58635278 79:1 80:0.6309756 81:0.72973222 82:0.68655755 83:0.58413544 84:0.58413544 85:0.73607481 86:1 87:0.614002 88:0.61305475 89:0.74866958 
10 0 0 1:0 2:1 3:0 4:0 5:1 6:0 7:0 8:0 9:0 10:0 11:0 12:0 13:-1 14:-1 15:-1 16:-1 17:-1 18:1 19:-1 20:0 21:0.00011116052 22:1 23:0 24:0 25:0 26:0 27:0 28:0 29:0 30:0 31:0 32:0 33:0 34:0 35:0 36:1 37:0 38:0 39:0 40:0 41:0 42:0 43:0 44:0 45:0 46:0 47:0 48:0 49:0 50:0 51:0 52:0 53:0 54:0 55:0 56:0 57:0 58:0 59:0 60:0 61:0 62:0 63:0 64:0 65:1 66:1 67:1 68:1 69:1 70:1 71:1 72:1 73:1 74:1 75:1 76:1 77:1 78:1 79:1 80:1 81:1 82:1 83:1 84:1 85:1 86:1 87:1 88:1 89:1 
10 0 2.484708327961435 1:0 2:1 3:0 4:0 5:1 6:0 7:0 8:0 9:0 10:0 11:0 12:0 13:-1 14:-1 15:-1 16:-1 17:-1 18:1 19:-1 20:0 21:0.00011116052 22:1 23:0 24:0 25:0 26:0 27:0 28:0 29:0 30:0 31:0 32:0 33:0 34:0 35:0 36:1 37:0 38:0 39:0 40:0 41:0 42:0 43:0 44:0 45:0 46:0 47:0 48:0 49:0 50:0 51:0 52:0 53:0 54:0 55:0 56:0 57:0 58:0 59:0 60:0 61:0 62:0 63:0 64:0 65:1 66:1 67:1 68:1 69:1 70:1 71:1 72:1 73:1 74:1 75:1 76:1 77:1 78:1 79:1 80:1 81:1 82:1 83:1 84:1 85:1 86:1 87:1 88:1 89:1 
9.717563160235892 0 10 1:0 2:1 3:0 4:0 5:1 6:0 7:0 8:0 9:0 10:0 11:0 12:0 13:-1 14:-1 15:-1 16:-1 17:-1 18:1 19:-1 20:0 21:0.00011116052 22:1 23:0 24:0 25:0 26:0 27:0 28:0 29:0 30:0 31:0 32:0 33:0 34:0 35:1 36:0 37:0 38:0 39:0 40:0 41:0 42:0 43:0 44:0 45:0 46:0 47:0 48:0 49:0 50:0 51:0 52:0 53:0 54:0 55:0 56:0 57:0 58:0 59:0 60:0 61:0 62:0 63:0 64:0 65:1 66:1 67:1 68:1 69:1 70:1 71:1 72:1 73:1 74:1 75:1 76:1 77:1 78:1 79:1 80:1 81:1 82:1 83:1 84:1 85:1 86:1 87:1 88:1 89:1 
9.967829513370017 0 10 1:0 2:1 3:0 4:0 5:1 6:0 7:0 8:0 9:0 10:0 11:0 12:0 13:-1 14:-1 15:-1 16:-1 17:-1 18:1 19:-1 20:0 21:0.00011116052 22:1 23:0 24:0 25:0 26:0 27:0 28:0 29:0 30:0 31:0 32:0 33:0 34:0 35:1 36:0 37:0 38:0 39:0 40:0 41:0 42:0 43:0 44:0 45:0 46:0 47:0 48:0 49:0 50:0 51:0 52:0 53:0 54:0 55:0 56:0 57:0 58:0 59:0 60:0 61:0 62:0 63:0 64:0 65:1 66:1 67:1 68:1 69:1 70:1 71:1 72:1 73:1 74:1 75:1 76:1 77:1 78:1 79:1 80:1 81:1 82:1 83:1 84:1 85:1 86:1 87:1 88:1 89:1 
10 0 10 1:1 2:0 3:0 4:0 5:0 6:1 7:0 8:0 9:0 10:0 11:0 12:0 13:-1 14:-1 15:-1 16:-1 17:-1 18:1 19:-1 20:0 21:0.00011096316 22:1 23:0 24:0 25:0 26:0 27:0 28:0 29:0 30:0 31:0 32:0 33:0 34:0 35:0 36:0 37:0 38:0 39:0 40:0 41:0 42:0 43:0 44:0 45:0 46:0 47:0 48:0 49:0 50:0 51:0 52:0 53:0 54:0 55:0 56:0 57:0 58:0 59:0 60:0 61:0 62:0 63:0 64:0 65:0.16552921 66:0.51038642 67:0.57637855 68:0.57110031 69:0.5 70:0.5 71:0.59395173 72:0.57297177 73:0.5 74:0.5050425 75:0.55158194 76:0.72809075 77:0.59178069 78:0 79:0.5 80:0.58760282 81:0.59628465 82:0.60614792 83:0.55158194 84:0.55158194 85:0.62249648 86:0.71774857 87:0.5726707 88:0.59804257 89:0.61966649 
10 0 10 1:0 2:0 3:1 4:1 5:0 6:0 7:0 8:0 9:0 10:0 11:0 12:0 13:-1 14:-1 15:-1 16:-1 17:-1 18:1 19:-1 20:0 21:0.00011096316 22:1 23:0 24:0 25:0 26:0 27:0 28:0 29:0 30:0 31:0 32:0 33:0 34:0 35:0 36:0 37:0 38:0 39:0 40:0 41:0 42:0 43:0 44:0 45:0 46:0 47:0 48:0 49:0 50:0 51:0 52:0 53:0 54:0 55:0 56:0 57:0 58:0 59:0 60:0 61:0 62:0 63:0 64:0 65:0.16552921 66:0.60704383 67:0.62672172 68:0.65637742 69:0.5 70:0.55777347 71:0.52334564 72:0.5 73:0.5 74:0.61724539 75:0.68764651 76:0.70838597 77:0.56925174 78:0.5 79:1 80:0.5 81:0.59736886 82:0.5 83:0.58115262 84:0.61113797 85:1 86:0.71105503 87:0.69599497 88:0.68468357 89:0.70858486 
10 0 10 1:1 2:0 3:0 4:0 5:0 6:1 7:0 8:0 9:0 10:0 11:0 12:0 13:-1 14:-1 15:-1 16:-1 17:-1 18:1 19:-1 20:0 21:0.00011096316 22:1 23:0 24:0 25:0 26:0 27:0 28:0 29:0 30:0 31:0 32:0 33:0 34:0 35:0 36:0 37:0 38:0 39:0 40:0 41:0 42:0 43:0 44:0 45:0 46:0 47:0 48:0 49:0 50:0 51:0 52:0 53:0 54:0 55:0 56:0 57:0 58:0 59:0 60:0 61:0 62:0 63:0 64:0 65:0.16552921 66:0.51038642 67:0.57637855 68:0.57110031 69:0.5 70:0.5 71:0.59395173 72:0.57297177 73:0.5 74:0.5050425 75:0.55158194 76:0.72809075 77:0.59178069 78:0 79:0.5 80:0.58760282 81:0.59628465 82:0.60614792 83:0.55158194 84:0.55158194 85:0.62249648 86:0.71774857 87:0.5726707 88:0.59804257 89:0.61966649 
10 0 10 1:0 2:0 3:1 4:1 5:0 6:0 7:0 8:0 9:0 10:0 11:0 12:0 13:-1 14:-1 15:-1 16:-1 17:-1 18:1 19:-1 20:0 21:0.00011096316 22:1 23:0 24:0 25:0 26:0 27:0 28:0 29:0 30:0 31:0 32:0 33:0 34:0 35:0 36:0 37:0 38:0 39:0 40:0 41:0 42:0 43:0 44:0 45:0 46:0 47:0 48:0 49:0 50:0 51:0 52:0 53:0 54:0 55:0 56:0 57:0 58:0 59:0 60:0 61:0 62:0 63:0 64:0 65:0.16552921 66:0.60704383 67:0.62672172 68:0.65637742 69:0.5 70:0.55777347 71:0.52334564 72:0.5 73:0.5 74:0.61724539 75:0.68764651 76:0.70838597 77:0.56925174 78:0.5 79:1 80:0.5 81:0.59736886 82:0.5 83:0.58115262 84:0.61113797 85:1 86:0.71105503 87:0.69599497 88:0.68468357 89:0.70858486 
9.747832253451611 0 10 1:1 2:0 3:0 4:0 5:1 6:0 7:0 8:0 9:0 10:0 11:0 12:0 13:-1 14:-1 15:-1 16:-1 17:-1 18:1 19:-1 20:-1 21:0.00011111111 22:1 23:0 24:0 25:0 26:0 27:0 28:0 29:0 30:0 31:0 32:0 33:0 34:0 35:1 36:0 37:0 38:0 39:0 40:0 41:0 42:0 43:0 44:0 45:0 46:0 47:0 48:0 49:0 50:0 51:0 52:0 53:0 54:0 55:0 56:0 57:0 58:0 59:0 60:0 61:0 62:0 63:0 64:0 65:1 66:1 67:1 68:1 69:1 70:1 71:1 72:1 73:1 74:1 75:1 76:1 77:1 78:1 79:1 80:1 81:1 82:1 83:1 84:1 85:1 86:1 87:1 88:1 89:1 
10 0 10 1:0 2:1 3:0 4:1 5:0 6:0 7:0 8:0 9:0 10:0 11:0 12:0 13:-1 14:-1 15:-1 16:-1 17:-1 18:1 19:-1 20:-1 21:0.00011111111 22:1 23:0 24:0 25:0 26:0 27:0 28:0 29:0 30:0 31:0 32:0 33:0 34:0 35:0 36:1 37:0 38:0 39:0 40:0 41:0 42:0 43:0 44:0 45:0 46:0 47:0 48:0 49:0 50:0 51:0 52:0 53:0 54:0 55:0 56:0 57:0 58:0 59:0 60:0 61:0 62:0 63:0 64:0 65:1 66:0.67556192 67:0.56804372 68:0.55515622 69:0.60749052 70:0.62488497 71:0.57913788 72:0.54225473 73:0.55657714 74:0.66350504 75:0.6377354 76:0.71322157 77:0.53387358 78:0.56286947 79:1 80:0.58970226 81:0.7874287 82:0.7103189 83:0.6377354 84:0.60834892 85:1 86:0.70169338 87:0.55704367 88:0.50832486 89:0.5893858 
10 0 10 1:0 2:1 3:0 4:1 5:0 6:0 7:0 8:0 9:0 10:0 11:0 12:0 13:-1 14:-1 15:-1 16:-1 17:-1 18:1 19:-1 20:-1 21:0.00011111111 22:1 23:0 24:0 25:0 26:0 27:0 28:0 29:0 30:0 31:0 32:0 33:0 34:0 35:0 36:1 37:0 38:0 39:0 40:0 41:0 42:0 43:0 44:0 45:0 46:0 47:0 48:0 49:0 50:0 51:0 52:0 53:0 54:0 55:0 56:0 57:0 58:0 59:0 60:0 61:0 62:0 63:0 64:0 65:1 66:0.67556192 67:0.56804372 68:0.55515622 69:0.60749052 70:0.62488497 71:0.57913788 72:0.54225473 73:0.55657714 74:0.66350504 75:0.6377354 76:0.71322157 77:0.53387358 78:0.56286947 79:1 80:0.58970226 81:0.7874287 82:0.7103189 83:0.6377354 84:0.60834892 85:1 86:0.70169338 87:0.55704367 88:0.50832486 89:0.5893858 
10 0 4.637900879558027 1:1 2:0 3:0 4:0 5:1 6:0 7:0 8:0 9:0 10:0 11:0 12:0 13:-1 14:-1 15:-1 16:-1 17:-1 18:1 19:-1 20:-1 21:0.00011111111 22:1 23:0 24:0 25:0 26:0 27:0 28:0 29:0 30:0 31:0 32:0 33:0 34:0 35:1 36:0 37:0 38:0 39:0 40:0 41:0 42:0 43:0 44:0 45:0 46:0 47:0 48:0 49:0 50:0 51:0 52:0 53:0 54:0 55:0 56:0 57:0 58:0 59:0 60:0 61:0 62:0 63:0 64:0 65:1 66:1 67:1 68:1 69:1 70:1 71:1 72:1 73:1 74:1 75:1 76:1 77:1 78:1 79:1 80:1 81:1 82:1 83:1 84:1 85:1 86:1 87:1 88:1 89:1 
10 0 0 1:0 2:1 3:0 4:1 5:0 6:0 7:0 8:0 9:0 10:0 11:0 12:0 13:-1 14:-1 15:-1 16:-1 17:1 18:1 19:-1 20:0 21:0.00011112346 22:1 23:0 24:0 25:0 26:0 27:0 28:0 29:0 30:0 31:0 32:0 33:0 34:0 35:0 36:1 37:0 38:0 39:0 40:0 41:0 42:0 43:0 44:0 45:0 46:0 47:0 48:0 49:0 50:0 51:0 52:0 53:0 54:0 55:0 56:0 57:0 58:0 59:0 60:0 61:0 62:0 63:0 64:0 65:1 66:1 67:1 68:1 69:0.58029681 70:1 71:0.50713584 72:1 73:1 74:1 75:1 76:1 77:1 78:1 79:1 80:0.58719245 81:1 82:1 83:1 84:1 85:1 86:1 87:1 88:1 89:1 
10 9.009885427668163 0 1:0 2:1 3:0 4:1 5:0 6:0 7:0 8:0 9:0 10:0 11:0 12:0 13:-1 14:-1 15:-1 16:-1 17:1 18:1 19:-1 20:0 21:0.00011112346 22:1 23:0 24:0 25:0 26:0 27:0 28:0 29:0 30:0 31:0 32:0 33:0 34:0 35:0 36:1 37:0 38:0 39:0 40:0 41:0 42:0 43:0 44:0 45:0 46:0 47:0 48:0 49:0 50:0 51:0 52:0 53:0 54:0 55:0 56:0 57:0 58:0 59:0 60:0 61:0 62:0 63:0 64:0 65:1 66:1 67:1 68:1 69:0.58029681 70:1 71:0.50713584 72:1 73:1 74:1 75:1 76:1 77:1 78:1 79:1 80:0.58719245 81:1 82:1 83:1 84:1 85:1 86:1 87:1 88:1 89:1 
0.02711500186990728 0 0 1:1 2:0 3:0 4:1 5:0 6:0 7:0 8:0 9:0 10:0 11:0 12:0 13:-1 14:-1 15:-1 16:-1 17:-1 18:1 19:0 20:0 21:0.00011111111 22:0 23:1 24:0 25:0 26:0 27:0 28:0 29:0 30:0 31:0 32:0 33:0 34:0 35:0 36:0 37:0 38:0 39:0 40:0 41:0 42:0 43:0 44:0 45:0 46:0 47:0 48:0 49:0 50:0 51:0 52:1 53:0 54:0 55:0 56:0 57:0 58:0 59:0 60:0 61:0 62:0 63:0 64:0 65:0 66:1 67:0.71751428 68:0.68243421 69:0.65300276 70:0.71018227 71:0.51923787 72:0.5 73:0.50461094 74:1 75:1 76:0.72736996 77:0.6094247 78:0.53696239 79:1 80:0.69771711 81:1 82:0.65300276 83:0.74612297 84:0.71149531 85:1 86:1 87:0.73958815 88:0.7067622 89:0.72754381 
1.89954358671605 0 0 1:1 2:0 3:0 4:1 5:0 6:0 7:0 8:0 9:0 10:0 11:0 12:0 13:-1 14:-1 15:-1 16:-1 17:-1 18:1 19:0 20:0 21:0.00011111111 22:0 23:1 24:0 25:0 26:0 27:0 28:0 29:0 30:0 31:0 32:0 33:0 34:0 35:0 36:0 37:0 38:0 39:0 40:0 41:0 42:0 43:0 44:0 45:0 46:0 47:0 48:0 49:0 50:0 51:0 52:1 53:0 54:0 55:0 56:0 57:0 58:0 59:0 60:0 61:0 62:0 63:0 64:0 65:0 66:1 67:0.71751428 68:0.68243421 69:0.65300276 70:0.71018227 71:0.51923787 72:0.5 73:0.50461094 74:1 75:1 76:0.72736996 77:0.6094247 78:0.53696239 79:1 80:0.69771711 81:1 82:0.65300276 83:0.74612297 84:0.71149531 85:1 86:1 87:0.73958815 88:0.7067622 89:0.72754381 
10 0 0 1:0 2:0 3:1 4:0 5:0 6:1 7:0 8:0 9:0 10:0 11:0 12:0 13:-1 14:-1 15:1 16:-1 17:-1 18:1 19:-1 20:0 21:0.00010002 22:1 23:0 24:0 25:0 26:0 27:0 28:0 29:0 30:0 31:0 32:0 33:0 34:0 35:0 36:0 37:0 38:0 39:0 40:0 41:0 42:0 43:0 44:0 45:0 46:0 47:0 48:0 49:1 50:0 51:0 52:0 53:0 54:0 55:0 56:0 57:0 58:0 59:0 60:0 61:0 62:0 63:0 64:0 65:1 66:0.5762336 67:0.50612291 68:0 69:0.65637742 70:0.50807294 71:0.73329636 72:0.5 73:0.58006539 74:0.67082516 75:0.74407036 76:0.60889656 77:0.61369498 78:0.57110031 79:1 80:0.53099127 81:0.76657414 82:0.62871442 83:0.74707052 84:0.55917891 85:1 86:0.73806073 87:0.74077742 88:0.70917584 89:0.61608192 
0.2023493540995565 0 0 1:0 2:0 3:1 4:0 5:0 6:1 7:0 8:0 9:0 10:0 11:0 12:0 13:-1 14:-1 15:-1 16:1 17:-1 18:1 19:-1 20:0 21:0.00010002 22:1 23:0 24:0 25:0 26:0 27:0 28:0 29:0 30:0 31:0 32:0 33:0 34:0 35:0 36:0 37:0 38:0 39:0 40:0 41:0 42:0 43:0 44:0 45:0 46:0 47:0 48:0 49:1 50:0 51:0 52:0 53:0 54:0 55:0 56:0 57:0 58:0 59:0 60:0 61:0 62:0 63:0 64:0 65:1 66:1 67:1 68:1 69:1 70:1 71:1 72:1 73:1 74:1 75:1 76:1 77:1 78:1 79:1 80:1 81:1 82:1 83:1 84:1 85:1 86:1 87:1 88:1 89:1 
8.970339027558426 0 0 1:0 2:0 3:1 4:0 5:0 6:1 7:0 8:0 9:0 10:0 11:0 12:0 13:-1 14:-1 15:-1 16:1 17:-1 18:1 19:-1 20:0 21:0.00010002 22:1 23:0 24:0 25:0 26:0 27:0 28:0 29:0 30:0 31:0 32:0 33:0 34:0 35:0 36:0 37:0 38:0 39:0 40:0 41:0 42:0 43:0 44:0 45:0 46:0 47:0 48:0 49:1 50:0 51:0 52:0 53:0 54:0 55:0 56:0 57:0 58:0 59:0 60:0 61:0 62:0 63:0 64:0 65:1 66:1 67:1 68:1 69:1 70:1 71:1 72:1 73:1 74:1 75:1 76:1 77:1 78:1 79:1 80:1 81:1 82:1 83:1 84:1 85:1 86:1 87:1 88:1 89:1 
10 0 0 1:0 2:0 3:1 4:0 5:0 6:1 7:0 8:0 9:0 10:0 11:0 12:0 13:-1 14:-1 15:1 16:-1 17:-1 18:1 19:-1 20:0 21:0.00010002 22:1 23:0 24:0 25:0 26:0 27:0 28:0 29:0 30:0 31:0 32:0 33:0 34:0 35:0 36:0 37:0 38:0 39:0 40:0 41:0 42:0 43:0 44:0 45:0 46:0 47:0 48:0 49:1 50:0 51:0 52:0 53:0 54:0 55:0 56:0 57:0 58:0 59:0 60:0 61:0 62:0 63:0 64:0 65:1 66:0.5762336 67:0.50612291 68:0 69:0.65637742 70:0.50807294 71:0.73329636 72:0.5 73:0.58006539 74:0.67082516 75:0.74407036 76:0.60889656 77:0.61369498 78:0.57110031 79:1 80:0.53099127 81:0.76657414 82:0.62871442 83:0.74707052 84:0.55917891 85:1 86:0.73806073 87:0.74077742 88:0.70917584 89:0.61608192 
10 0 0 1:0 2:0 3:1 4:0 5:0 6:1 7:0 8:0 9:0 10:0 11:0 12:0 13:-1 14:-1 15:-1 16:-1 17:0 18:1 19:0 20:0 21:0.00011108643 22:1 23:0 24:0 25:0 26:0 27:0 28:0 29:0 30:0 31:0 32:0 33:0 34:0 35:0 36:0 37:0 38:0 39:0 40:0 41:0 42:0 43:0 44:0 45:0 46:0 47:0 48:0 49:0 50:0 51:0 52:0 53:0 54:0 55:0 56:0 57:0 58:0 59:0 60:0 61:0 62:0 63:0 64:0 65:0 66:1 67:0.67741851 68:0.69398685 69:0.57829527 70:0.71132442 71:0.71262429 72:0.5 73:0.53789987 74:1 75:0.53044878 76:0.73592856 77:0.626755 78:0.57218486 79:1 80:0.52006124 81:0.6341558 82:0.5 83:0.68259465 84:0.68259465 85:0.68640776 86:1 87:0.55196788 88:0.71051732 89:0.73609167 
10 0 0 1:0 2:0 3:1 4:0 5:0 6:1 7:0 8:0 9:0 10:0 11:0 12:0 13:-1 14:-1 15:-1 16:-1 17:0 18:1 19:0 20:0 21:0.00011108643 22:1 23:0 24:0 25:0 26:0 27:0 28:0 29:0 30:0 31:0 32:0 33:0 34:0 35:0 36:0 37:0 38:0 39:0 40:0 41:0 42:0 43:0 44:0 45:0 46:0 47:0 48:0 49:0 50:0 51:0 52:0 53:0 54:0 55:0 56:0 57:0 58:0 59:0 60:0 61:0 62:0 63:0 64:0 65:0 66:0.5937748 67:0.55445385 68:0.5 69:0.57829527 70:0.55782477 71:0.57475288 72:0.5 73:0.53789987 74:0.56376656 75:0.53044878 76:0.65731249 77:0.52139745 78:0.5 79:1 80:0.52006124 81:0.6341558 82:0.5 83:0.66991696 84:0.57709769 85:0.68640776 86:0.73727151 87:0.52536617 88:0.51057391 89:0.5 
10 0 0 1:0 2:0 3:1 4:0 5:0 6:1 7:0 8:0 9:0 10:0 11:0 12:0 13:-1 14:-1 15:-1 16:-1 17:0 18:1 19:0 20:0 21:0.00011108643 22:1 23:0 24:0 25:0 26:0 27:0 28:0 29:0 30:0 31:0 32:0 33:0 34:0 35:0 36:0 37:0 38:0 39:0 40:0 41:0 42:0 43:0 44:0 45:0 46:0 47:0 48:0 49:0 50:0 51:0 52:0 53:0 54:0 55:0 56:0 57:0 58:0 59:0 60:0 61:0 62:0 63:0 64:0 65:0 66:0.5937748 67:0.55445385 68:0.5 69:0.57829527 70:0.55782477 71:0.57475288 72:0.5 73:0.53789987 74:0.56376656 75:0.53044878 76:0.65731249 77:0.52139745 78:0.5 79:1 80:0.52006124 81:0.6341558 82:0.5 83:0.66991696 84:0.57709769 85:0.68640776 86:0.73727151 87:0.52536617 88:0.51057391 89:0.5 
10 0 0 1:0 2:0 3:1 4:0 5:0 6:1 7:0 8:0 9:0 10:0 11:0 12:0 13:-1 14:-1 15:-1 16:-1 17:0 18:1 19:0 20:0 21:0.00011108643 22:1 23:0 24:0 25:0 26:0 27:0 28:0 29:0 30:0 31:0 32:0 33:0 34:0 35:0 36:0 37:0 38:0 39:0 40:0 41:0 42:0 43:0 44:0 45:0 46:0 47:0 48:0 49:0 50:0 51:0 52:0 53:0 54:0 55:0 56:0 57:0 58:0 59:0 60:0 61:0 62:0 63:0 64:0 65:0 66:1 67:0.67741851 68:0.69398685 69:0.57829527 70:0.71132442 71:0.71262429 72:0.5 73:0.53789987 74:1 75:0.53044878 76:0.73592856 77:0.626755 78:0.57218486 79:1 80:0.52006124 81:0.6341558 82:0.5 83:0.68259465 84:0.68259465 85:0.68640776 86:1 87:0.55196788 88:0.71051732 89:0.73609167 
10 0 0 1:0 2:1 3:0 4:1 5:0 6:0 7:0 8:0 9:0 10:0 11:0 12:0 13:-1 14:-1 15:-1 16:-1 17:-1 18:1 19:0 20:0 21:0.00010005003 22:0 23:1 24:0 25:0 26:0 27:1 28:0 29:0 30:0 31:0 32:0 33:0 34:0 35:0 36:0 37:0 38:0 39:0 40:0 41:0 42:0 43:0 44:0 45:0 46:0 47:0 48:0 49:0 50:0 51:0 52:1 53:0 54:0 55:0 56:0 57:0 58:0 59:0 60:0 61:0 62:0 63:0 64:0 65:0.091766242 66:1 67:0.61040152 68:0.59872941 69:0.59018662 70:0.67381687 71:0.68780098 72:0.57507191 73:0.61040152 74:0.605865 75:0.58750411 76:0.7516334 77:0.68147396 78:0.5936148 79:0.66366884 80:0.55505374 81:0.61775485 82:0.65473623 83:0.58750411 84:0.59681676 85:1 86:0.74303292 87:0.73495741 88:0.71752112 89:0.76836406 
10 0 0 1:0 2:1 3:0 4:1 5:0 6:0 7:0 8:0 9:0 10:0 11:0 12:0 13:-1 14:-1 15:-1 16:-1 17:-1 18:1 19:0 20:0 21:0.00010005003 22:0 23:1 24:0 25:0 26:0 27:1 28:0 29:0 30:0 31:0 32:0 33:0 34:0 35:0 36:0 37:0 38:0 39:0 40:0 41:0 42:0 43:0 44:0 45:0 46:0 47:0 48:0 49:0 50:0 51:0 52:1 53:0 54:0 55:0 56:0 57:0 58:0 59:0 60:0 61:0 62:0 63:0 64:0 65:0.091766242 66:1 67:0.61040152 68:0.59872941 69:0.59018662 70:0.67381687 71:0.68780098 72:0.57507191 73:0.61040152 74:0.605865 75:0.58750411 76:0.7516334 77:0.68147396 78:0.5936148 79:0.66366884 80:0.55505374 81:0.61775485 82:0.65473623 83:0.58750411 84:0.59681676 85:1 86:0.74303292 87:0.73495741 88:0.71752112 89:0.76836406 
0.5225258464802032 0 0 1:0 2:0 3:1 4:0 5:0 6:1 7:0 8:0 9:0 10:0 11:0 12:0 13:-1 14:-1 15:-1 16:-1 17:0 18:1 19:-1 20:0 21:0.00011106175 22:1 23:0 24:0 25:0 26:0 27:0 28:0 29:0 30:0 31:0 32:0 33:0 34:0 35:0 36:0 37:0 38:0 39:0 40:0 41:0 42:0 43:0 44:0 45:0 46:0 47:0 48:0 49:0 50:0 51:0 52:0 53:0 54:0 55:0 56:0 57:0 58:0 59:0 60:0 61:0 62:1 63:0 64:0 65:0.269213 66:1 67:1 68:0.60889656 69:0.70838597 70:0.50420289 71:0.73636117 72:0.55143031 73:0.63881403 74:0.70523188 75:0.59992851 76:0 77:0.6782133 78:0.72809075 79:1 80:0.55143031 81:1 82:0.70838597 83:0.59992851 84:0.59992851 85:1 86:0.73495469 87:0.72635496 88:0.70772868 89:0.76182027 
10 0 0 1:0 2:0 3:1 4:0 5:0 6:1 7:0 8:0 9:0 10:0 11:0 12:0 13:-1 14:-1 15:-1 16:-1 17:0 18:1 19:-1 20:0 21:0.00011106175 22:1 23:0 24:0 25:0 26:0 27:0 28:0 29:0 30:0 31:0 32:0 33:0 34:0 35:0 36:0 37:0 38:0 39:0 40:0 41:0 42:0 43:0 44:0 45:0 46:0 47:0 48:0 49:0 50:0 51:0 52:0 53:0 54:0 55:0 56:0 57:0 58:0 59:0 60:0 61:0 62:1 63:0 64:0 65:0.269213 66:0.56605013 67:0 68:0.50612291 69:0 70:0.55777347 71:0.52334564 72:0.5 73:0.5 74:0.61724539 75:0.6777376 76:0.70838597 77:0.56925174 78:0.5 79:1 80:0.5 81:0.59736886 82:0.5 83:0.58115262 84:0.5 85:1 86:0.71105503 87:0.57986763 88:0.68468357 89:0.70858486 
10 0 0 1:0 2:0 3:1 4:0 5:0 6:1 7:0 8:0 9:0 10:0 11:0 12:0 13:-1 14:-1 15:-1 16:-1 17:0 18:1 19:-1 20:0 21:0.00011106175 22:1 23:0 24:0 25:0 26:0 27:0 28:0 29:0 30:0 31:0 32:0 33:0 34:0 35:0 36:0 37:0 38:0 39:0 40:0 41:0 42:0 43:0 44:0 45:0 46:0 47:0 48:0 49:0 50:0 51:0 52:0 53:0 54:0 55:0 56:0 57:0 58:0 59:0 60:0 61:0 62:1 63:0 64:0 65:0.269213 66:0.56605013 67:0 68:0.50612291 69:0 70:0.55777347 71:0.52334564 72:0.5 73:0.5 74:0.61724539 75:0.6777376 76:0.70838597 77:0.56925174 78:0.5 79:1 80:0.5 81:0.59736886 82:0.5 83:0.58115262 84:0.5 85:1 86:0.71105503 87:0.57986763 88:0.68468357 89:0.70858486 
10 0 0 1:0 2:0 3:1 4:0 5:0 6:1 7:0 8:0 9:0 10:0 11:0 12:0 13:-1 14:-1 15:-1 16:-1 17:0 18:1 19:-1 20:0 21:0.00011109877 22:1 23:0 24:0 25:0 26:0 27:0 28:0 29:0 30:0 31:0 32:0 33:0 34:0 35:0 36:0 37:0 38:0 39:0 40:0 41:0 42:0 43:0 44:0 45:0 46:0 47:0 48:0 49:0 50:0 51:0 52:0 53:0 54:0 55:0 56:0 57:0 58:0 59:0 60:0 61:0 62:1 63:0 64:0 65:0.16478049 66:0.56605013 67:0 68:0.50612291 69:0 70:0.55777347 71:0.52334564 72:0.5 73:0.5 74:0.61724539 75:0.6777376 76:0.70838597 77:0.56925174 78:0.5 79:1 80:0.5 81:0.59736886 82:0.5 83:0.58115262 84:0.5 85:1 86:0.71105503 87:0.57986763 88:0.68468357 89:0.70858486 
10 0 0 1:0 2:0 3:1 4:0 5:0 6:1 7:0 8:0 9:0 10:0 11:0 12:0 13:-1 14:-1 15:-1 16:-1 17:0 18:1 19:-1 20:0 21:0.00011109877 22:1 23:0 24:0 25:0 26:0 27:0 28:0 29:0 30:0 31:0 32:0 33:0 34:0 35:0 36:0 37:0 38:0 39:0 40:0 41:0 42:0 43:0 44:0 45:0 46:0 47:0 48:0 49:0 50:0 51:0 52:0 53:0 54:0 55:0 56:0 57:0 58:0 59:0 60:0 61:0 62:1 63:0 64:0 65:0.16478049 66:0.56605013 67:0 68:0.50612291 69:0 70:0.55777347 71:0.52334564 72:0.5 73:0.5 74:0.61724539 75:0.6777376 76:0.70838597 77:0.56925174 78:0.5 79:1 80:0.5 81:0.59736886 82:0.5 83:0.58115262 84:0.5 85:1 86:0.71105503 87:0.57986763 88:0.68468357 89:0.70858486 
10 0 0 1:0 2:0 3:1 4:0 5:0 6:1 7:0 8:0 9:0 10:0 11:0 12:0 13:-1 14:-1 15:-1 16:-1 17:0 18:1 19:-1 20:0 21:0.00011111111 22:1 23:0 24:0 25:0 26:0 27:0 28:0 29:0 30:0 31:0 32:0 33:0 34:0 35:0 36:0 37:0 38:0 39:0 40:0 41:0 42:0 43:0 44:0 45:0 46:0 47:0 48:0 49:0 50:0 51:0 52:0 53:0 54:0 55:0 56:0 57:0 58:0 59:0 60:0 61:0 62:1 63:0 64:0 65:0.16318861 66:0.51038642 67:0.57637855 68:0.57110031 69:0.5 70:0.5 71:0.59395173 72:0.57297177 73:0.5 74:0.5050425 75:0.55158194 76:0.72809075 77:0.59178069 78:0 79:0.5 80:0.58760282 81:0.59628465 82:0.60614792 83:0.55158194 84:0.55158194 85:0.62249648 86:0.71774857 87:0.5726707 88:0.59804257 89:0.61966649 
10 0 0 1:0 2:0 3:1 4:0 5:0 6:1 7:0 8:0 9:0 10:0 11:0 12:0 13:-1 14:-1 15:-1 16:-1 17:0 18:1 19:-1 20:0 21:0.00011111111 22:1 23:0 24:0 25:0 26:0 27:0 28:0 29:0 30:0 31:0 32:0 33:0 34:0 35:0 36:0 37:0 38:0 39:0 40:0 41:0 42:0 43:0 44:0 45:0 46:0 47:0 48:0 49:0 50:0 51:0 52:0 53:0 54:0 55:0 56:0 57:0 58:0 59:0 60:0 61:0 62:1 63:0 64:0 65:0.16318861 66:0.56605013 67:0 68:0.50612291 69:0 70:0.55777347 71:0.52334564 72:0.5 73:0.5 74:0.61724539 75:0.6777376 76:0.70838597 77:0.56925174 78:0.5 79:1 80:0.5 81:0.59736886 82:0.5 83:0.58115262 84:0.5 85:1 86:0.71105503 87:0.57986763 88:0.68468357 89:0.70858486 
10 0 0 1:0 2:0 3:1 4:0 5:0 6:1 7:0 8:0 9:0 10:0 11:0 12:0 13:-1 14:-1 15:-1 16:-1 17:0 18:1 19:-1 20:0 21:0.00011111111 22:1 23:0 24:0 25:0 26:0 27:0 28:0 29:0 30:0 31:0 32:0 33:0 34:0 35:0 36:0 37:0 38:0 39:0 40:0 41:0 42:0 43:0 44:0 45:0 46:0 47:0 48:0 49:0 50:0 51:0 52:0 53:0 54:0 55:0 56:0 57:0 58:0 59:0 60:0 61:0 62:1 63:0 64:0 65:0.16318861 66:0.56605013 67:0 68:0.50612291 69:0 70:0.55777347 71:0.52334564 72:0.5 73:0.5 74:0.61724539 75:0.6777376 76:0.70838597 77:0.56925174 78:0.5 79:1 80:0.5 81:0.59736886 82:0.5 83:0.58115262 84:0.5 85:1 86:0.71105503 87:0.57986763 88:0.68468357 89:0.70858486 
10 0 0 1:0 2:0 3:1 4:0 5:0 6:1 7:0 8:0 9:0 10:0 11:0 12:0 13:-1 14:-1 15:-1 16:-1 17:0 18:1 19:-1 20:0 21:0.00011111111 22:1 23:0 24:0 25:0 26:0 27:0 28:0 29:0 30:0 31:0 32:0 33:0 34:0 35:0 36:0 37:0 38:0 39:0 40:0 41:0 42:0 43:0 44:0 45:0 46:0 47:0 48:0 49:0 50:0 51:0 52:0 53:0 54:0 55:0 56:0 57:0 58:0 59:0 60:0 61:0 62:1 63:0 64:0 65:0.16318861 66:0.51038642 67:0.57637855 68:0.57110031 69:0.5 70:0.5 71:0.59395173 72:0.57297177 73:0.5 74:0.5050425 75:0.55158194 76:0.72809075 77:0.59178069 78:0 79:0.5 80:0.58760282 81:0.59628465 82:0.60614792 83:0.55158194 84:0.55158194 85:0.62249648 86:0.71774857 87:0.5726707 88:0.59804257 89:0.61966649 
10 0 9.36066477452005 1:1 2:0 3:0 4:1 5:0 6:0 7:0 8:0 9:0 10:0 11:0 12:0 13:-1 14:-1 15:-1 16:-1 17:-1 18:1 19:-1 20:0 21:0.00011112346 22:1 23:0 24:0 25:0 26:0 27:0 28:0 29:0 30:0 31:0 32:0 33:0 34:0 35:0 36:0 37:0 38:0 39:0 40:0 41:0 42:0 43:0 44:0 45:0 46:0 47:0 48:0 49:0 50:0 51:0 52:0 53:0 54:0 55:0 56:0 57:0 58:0 59:0 60:0 61:0 62:0 63:0 64:0 65:1 66:1 67:1 68:1 69:1 70:1 71:1 72:1 73:1 74:1 75:1 76:0.5 77:1 78:1 79:1 80:1 81:1 82:1 83:1 84:1 85:0.57706466 86:0.50957114 87:1 88:1 89:1 
10 0 0 1:1 2:0 3:0 4:1 5:0 6:0 7:0 8:0 9:0 10:0 11:0 12:0 13:-1 14:-1 15:-1 16:-1 17:-1 18:1 19:-1 20:0 21:0.00011112346 22:1 23:0 24:0 25:0 26:0 27:0 28:0 29:0 30:0 31:0 32:0 33:0 34:0 35:0 36:0 37:0 38:0 39:0 40:0 41:0 42:0 43:0 44:0 45:0 46:0 47:0 48:0 49:0 50:0 51:0 52:0 53:0 54:0 55:0 56:0 57:0 58:0 59:0 60:0 61:0 62:0 63:0 64:0 65:1 66:0.61895682 67:1 68:0.66489791 69:1 70:1 71:1 72:0.62014991 73:1 74:1 75:1 76:1 77:1 78:1 79:1 80:1 81:1 82:0.62715015 83:1 84:1 85:1 86:1 87:1 88:1 89:1 
10 0 10 1:1 2:0 3:0 4:1 5:0 6:0 7:0 8:0 9:0 10:0 11:0 12:0 13:-1 14:-1 15:-1 16:-1 17:-1 18:1 19:-1 20:0 21:0.00011112346 22:1 23:0 24:0 25:0 26:0 27:0 28:0 29:0 30:0 31:0 32:0 33:0 34:0 35:0 36:0 37:0 38:0 39:0 40:0 41:0 42:0 43:0 44:0 45:0 46:0 47:0 48:0 49:0 50:0 51:0 52:0 53:0 54:0 55:0 56:0 57:0 58:0 59:0 60:0 61:0 62:0 63:0 64:0 65:1 66:1 67:1 68:1 69:1 70:1 71:1 72:1 73:1 74:1 75:1 76:0.5 77:1 78:1 79:1 80:1 81:1 82:1 83:1 84:1 85:0.57706466 86:0.50957114 87:1 88:1 89:1 
10 0 0 1:1 2:0 3:0 4:1 5:0 6:0 7:0 8:0 9:0 10:0 11:0 12:0 13:-1 14:-1 15:-1 16:-1 17:-1 18:1 19:-1 20:0 21:0.00011112346 22:1 23:0 24:0 25:0 26:0 27:0 28:0 29:0 30:0 31:0 32:0 33:0 34:0 35:0 36:0 37:0 38:0 39:0 40:0 41:0 42:0 43:0 44:0 45:0 46:0 47:0 48:0 49:0 50:0 51:0 52:0 53:0 54:0 55:0 56:0 57:0 58:0 59:0 60:0 61:0 62:0 63:0 64:0 65:1 66:0.61895682 67:1 68:0.66489791 69:1 70:1 71:1 72:0.62014991 73:1 74:1 75:1 76:1 77:1 78:1 79:1 80:1 81:1 82:0.62715015 83:1 84:1 85:1 86:1 87:1 88:1 89:1 
10 0 0 1:0 2:0 3:1 4:0 5:0 6:1 7:0 8:0 9:0 10:0 11:0 12:0 13:-1 14:-1 15:-1 16:1 17:-1 18:1 19:0 20:0 21:0.00010002 22:1 23:0 24:0 25:0 26:0 27:0 28:0 29:0 30:0 31:0 32:0 33:0 34:0 35:0 36:0 37:0 38:0 39:0 40:0 41:0 42:0 43:0 44:0 45:0 46:0 47:0 48:0 49:0 50:0 51:0 52:0 53:0 54:0 55:0 56:0 57:0 58:0 59:0 60:0 61:0 62:1 63:0 64:0 65:1 66:1 67:1 68:1 69:1 70:1 71:1 72:1 73:1 74:1 75:1 76:1 77:1 78:1 79:1 80:1 81:1 82:1 83:1 84:1 85:1 86:1 87:1 88:1 89:1 
10 0 0 1:0 2:0 3:1 4:0 5:0 6:1 7:0 8:0 9:0 10:0 11:0 12:0 13:-1 14:-1 15:-1 16:1 17:-1 18:1 19:0 20:0 21:0.00010002 22:1 23:0 24:0 25:0 26:0 27:0 28:0 29:0 30:0 31:0 32:0 33:0 34:0 35:0 36:0 37:0 38:0 39:0 40:0 41:0 42:0 43:0 44:0 45:0 46:0 47:0 48:0 49:0 50:0 51:0 52:0 53:0 54:0 55:0 56:0 57:0 58:0 59:0 60:0 61:0 62:1 63:0 64:0 65:1 66:1 67:1 68:1 69:1 70:1 71:1 72:1 73:1 74:1 75:1 76:1 77:1 78:1 79:1 80:1 81:1 82:1 83:1 84:1 85:1 86:1 87:1 88:1 89:1 
0.7000716035494997 0 0 1:0 2:0 3:1 4:0 5:0 6:1 7:0 8:0 9:0 10:0 11:0 12:0 13:-1 14:-1 15:-1 16:-1 17:0 18:1 19:-1 20:0 21:0.00011112346 22:1 23:0 24:0 25:0 26:0 27:0 28:0 29:0 30:0 31:0 32:0 33:0 34:0 35:0 36:0 37:0 38:0 39:0 40:0 41:0 42:0 43:0 44:0 45:0 46:0 47:0 48:0 49:0 50:0 51:0 52:0 53:0 54:0 55:0 56:0 57:0 58:0 59:0 60:0 61:0 62:1 63:0 64:0 65:0.20634081 66:0.70435108 67:1 68:0.76657414 69:0.59736886 70:0.67628317 71:0.69006109 72:0.52404624 73:0.62427459 74:1 75:0.59025458 76:1 77:0.68397625 78:0.59628465 79:0.66645747 80:0.52118108 81:0 82:0.60178421 83:0.59025458 84:0.69108982 85:0.70872819 86:0.76735766 87:0.68567938 88:0.73718668 89:1 
10 0 0 1:0 2:0 3:1 4:0 5:0 6:1 7:0 8:0 9:0 10:0 11:0 12:0 13:-1 14:-1 15:-1 16:-1 17:0 18:1 19:-1 20:0 21:0.00011112346 22:1 23:0 24:0 25:0 26:0 27:0 28:0 29:0 30:0 31:0 32:0 33:0 34:0 35:0 36:0 37:0 38:0 39:0 40:0 41:0 42:0 43:0 44:0 45:0 46:0 47:0 48:0 49:0 50:0 51:0 52:0 53:0 54:0 55:0 56:0 57:0 58:0 59:0 60:0 61:0 62:1 63:0 64:0 65:0.20634081 66:0.56605013 67:0 68:0.50612291 69:0 70:0.55777347 71:0.52334564 72:0.5 73:0.5 74:0.61724539 75:0.6777376 76:0.70838597 77:0.56925174 78:0.5 79:1 80:0.5 81:0.59736886 82:0.5 83:0.58115262 84:0.5 85:1 86:0.71105503 87:0.57986763 88:0.68468357 89:0.70858486 
10 0 0 1:0 2:0 3:1 4:0 5:0 6:1 7:0 8:0 9:0 10:0 11:0 12:0 13:-1 14:-1 15:-1 16:-1 17:0 18:1 19:-1 20:0 21:0.00011112346 22:1 23:0 24:0 25:0 26:0 27:0 28:0 29:0 30:0 31:0 32:0 33:0 34:0 35:0 36:0 37:0 38:0 39:0 40:0 41:0 42:0 43:0 44:0 45:0 46:0 47:0 48:0 49:0 50:0 51:0 52:0 53:0 54:0 55:0 56:0 57:0 58:0 59:0 60:0 61:0 62:1 63:0 64:0 65:0.20634081 66:0.56605013 67:0 68:0.50612291 69:0 70:0.55777347 71:0.52334564 72:0.5 73:0.5 74:0.61724539 75:0.6777376 76:0.70838597 77:0.56925174 78:0.5 79:1 80:0.5 81:0.59736886 82:0.5 83:0.58115262 84:0.5 85:1 86:0.71105503 87:0.57986763 88:0.68468357 89:0.70858486 
6.610180571293017 0 0 1:1 2:0 3:0 4:1 5:0 6:0 7:0 8:0 9:0 10:0 11:0 12:0 13:-1 14:-1 15:-1 16:-1 17:-1 18:1 19:0 20:0 21:0.00011111111 22:0 23:1 24:0 25:0 26:0 27:0 28:0 29:0 30:0 31:0 32:0 33:0 34:0 35:0 36:0 37:0 38:0 39:0 40:0 41:0 42:0 43:0 44:0 45:0 46:0 47:0 48:0 49:0 50:0 51:0 52:1 53:0 54:0 55:0 56:0 57:0 58:0 59:0 60:0 61:0 62:0 63:0 64:0 65:0 66:1 67:0.71751428 68:0.68243421 69:0.65300276 70:0.71018227 71:0.51923787 72:0.5 73:0.50461094 74:1 75:1 76:0.72736996 77:0.6094247 78:0.53696239 79:1 80:0.69771711 81:1 82:0.65300276 83:0.74612297 84:0.71149531 85:1 86:1 87:0.73958815 88:0.7067622 89:0.72754381 
