svm_type c_svc
kernel_type rbf
gamma 0.011236
nr_class 2
total_sv 667
rho 3.70576
label 0 1
probA -1.78542
probB 0.0440221
nr_sv 333 334
SV
100 1:0 2:0 3:1 4:0 5:0 6:1 7:0 8:0 9:0 10:0 11:0 12:0 13:-1 14:-1 15:-1 16:-1 17:0 18:1 19:0 20:0 21:0.00011112346 22:1 23:0 24:0 25:0 26:0 27:0 28:0 29:0 30:0 31:0 32:0 33:0 34:0 35:0 36:0 37:0 38:0 39:0 40:0 41:0 42:0 43:0 44:0 45:0 46:0 47:0 48:0 49:0 50:0 51:0 52:0 53:0 54:0 55:0 56:0 57:0 58:0 59:0 60:0 61:0 62:1 63:0 64:0 65:0.20634081 66:0.70435108 67:1 68:0.76657414 69:0.59736886 70:0.67628317 71:0.69006109 72:0.52404624 73:0.62427459 74:1 75:0.59025458 76:1 77:0.68397625 78:0.59628465 79:0.66645747 80:0.52118108 81:0 82:0.60178421 83:0.59025458 84:0.69108982 85:0.70872819 86:0.76735766 87:0.68567938 88:0.73718668 89:1 
100 1:1 2:0 3:0 4:0 5:0 6:1 7:0 8:0 9:0 10:0 11:0 12:0 13:-1 14:-1 15:-1 16:-1 17:-1 18:1 19:0 20:0 21:0.00011109877 22:1 23:0 24:0 25:0 26:0 27:0 28:0 29:0 30:0 31:0 32:0 33:0 34:0 35:0 36:0 37:0 38:0 39:0 40:0 41:0 42:0 43:0 44:0 45:0 46:0 47:0 48:0 49:0 50:0 51:0 52:0 53:0 54:0 55:0 56:0 57:0 58:0 59:0 60:0 61:0 62:1 63:0 64:0 65:0.16478049 66:0.56605013 67:0 68:0.50612291 69:0 70:0.55777347 71:0.52334564 72:0.5 73:0.5 74:0.61724539 75:0.6777376 76:0.70838597 77:0.56925174 78:0.5 79:1 80:0.5 81:0.59736886 82:0.5 83:0.58115262 84:0.5 85:1 86:0.71105503 87:0.57986763 88:0.68468357 89:0.70858486 
100 1:0 2:0 3:1 4:1 5:0 6:0 7:0 8:0 9:0 10:0 11:0 12:0 13:-1 14:-1 15:-1 16:-1 17:-1 18:1 19:0 20:0 21:0.00011109877 22:1 23:0 24:0 25:0 26:0 27:0 28:0 29:0 30:0 31:0 32:0 33:0 34:0 35:0 36:0 37:0 38:0 39:0 40:0 41:0 42:0 43:0 44:0 45:0 46:0 47:0 48:0 49:0 50:0 51:0 52:0 53:0 54:0 55:0 56:0 57:0 58:0 59:0 60:0 61:0 62:1 63:0 64:0 65:0.16478049 66:1 67:1 68:1 69:0.5925257 70:1 71:1 72:0.63733408 73:0.67680512 74:1 75:1 76:1 77:1 78:1 79:1 80:0.5925257 81:0.67554872 82:0.66030204 83:1 84:1 85:1 86:1 87:1 88:1 89:1 
100 1:0 2:0 3:1 4:0 5:0 6:1 7:0 8:0 9:0 10:0 11:0 12:0 13:-1 14:-1 15:-1 16:-1 17:0 18:1 19:0 20:0 21:0.00011112346 22:1 23:0 24:0 25:0 26:0 27:0 28:0 29:0 30:0 31:0 32:0 33:0 34:0 35:0 36:0 37:0 38:0 39:0 40:0 41:0 42:0 43:0 44:0 45:0 46:0 47:0 48:0 49:0 50:0 51:0 52:0 53:0 54:0 55:0 56:0 57:0 58:0 59:0 60:0 61:0 62:1 63:0 64:0 65:0.20634081 66:0.70435108 67:1 68:0.76657414 69:0.59736886 70:0.67628317 71:0.69006109 72:0.52404624 73:0.62427459 74:1 75:0.59025458 76:1 77:0.68397625 78:0.59628465 79:0.66645747 80:0.52118108 81:0 82:0.60178421 83:0.59025458 84:0.69108982 85:0.70872819 86:0.76735766 87:0.68567938 88:0.73718668 89:1 
100 1:0 2:0 3:1 4:0 5:0 6:1 7:0 8:0 9:0 10:0 11:0 12:0 13:-1 14:-1 15:-1 16:-1 17:0 18:1 19:0 20:0 21:0.00011111111 22:1 23:0 24:0 25:0 26:0 27:0 28:0 29:0 30:0 31:0 32:0 33:0 34:0 35:0 36:0 37:0 38:0 39:0 40:0 41:0 42:0 43:0 44:0 45:0 46:0 47:0 48:0 49:0 50:0 51:0 52:0 53:0 54:0 55:0 56:0 57:0 58:0 59:0 60:0 61:0 62:1 63:0 64:0 65:0.20634081 66:0.70435108 67:1 68:0.76657414 69:0.59736886 70:0.67628317 71:0.69006109 72:0.52404624 73:0.62427459 74:1 75:0.59025458 76:1 77:0.68397625 78:0.59628465 79:0.66645747 80:0.52118108 81:0 82:0.60178421 83:0.59025458 84:0.69108982 85:0.70872819 86:0.76735766 87:0.68567938 88:0.73718668 89:1 
72.41413677288871 1:1 2:0 3:0 4:1 5:0 6:0 7:0 8:0 9:0 10:0 11:0 12:0 13:-1 14:-1 15:-1 16:-1 17:1 18:1 19:0 20:0 21:0.00011097547 22:1 23:0 24:0 25:0 26:0 27:0 28:0 29:0 30:0 31:0 32:0 33:0 34:0 35:0 36:0 37:0 38:0 39:0 40:0 41:0 42:0 43:0 44:0 45:0 46:0 47:0 48:0 49:0 50:0 51:0 52:0 53:0 54:0 55:0 56:0 57:0 58:0 59:0 60:0 61:0 62:0 63:0 64:0 65:1 66:1 67:1 68:1 69:1 70:1 71:1 72:1 73:1 74:1 75:1 76:0.5 77:1 78:1 79:1 80:1 81:1 82:1 83:1 84:1 85:0.57706466 86:0.50957114 87:1 88:1 89:1 
100 1:0 2:0 3:1 4:0 5:0 6:1 7:0 8:0 9:0 10:0 11:0 12:0 13:-1 14:-1 15:-1 16:-1 17:0 18:1 19:0 20:0 21:0.00011112346 22:1 23:0 24:0 25:0 26:0 27:0 28:0 29:0 30:0 31:0 32:0 33:0 34:0 35:0 36:0 37:0 38:0 39:0 40:0 41:0 42:0 43:0 44:0 45:0 46:0 47:0 48:0 49:0 50:0 51:0 52:0 53:0 54:0 55:0 56:0 57:0 58:0 59:0 60:0 61:0 62:0 63:0 64:0 65:0.20288333 66:0.56605013 67:0.5 68:0.53574303 69:0.56543439 70:0.65733875 71:0.6727381 72:0.52346654 73:0.5777905 74:0.69132379 75:0.65479569 76:0.73367711 77:0.66471719 78:0.57572185 79:0.64493125 80:0.55667697 81:0.6847621 82:1 83:0.65479569 84:0.64788284 85:1 86:0.72376327 87:0.71440915 88:0.69406067 89:0.75282115 
100 1:1 2:0 3:0 4:0 5:0 6:1 7:0 8:0 9:0 10:0 11:0 12:0 13:-1 14:-1 15:-1 16:-1 17:-1 18:1 19:0 20:0 21:0.00011111111 22:1 23:0 24:0 25:0 26:0 27:0 28:0 29:0 30:0 31:0 32:0 33:0 34:0 35:0 36:0 37:0 38:0 39:0 40:0 41:0 42:0 43:0 44:0 45:0 46:0 47:0 48:0 49:0 50:0 51:0 52:0 53:0 54:0 55:0 56:0 57:0 58:0 59:0 60:0 61:0 62:1 63:0 64:0 65:0.16318861 66:0.56605013 67:0 68:0.50612291 69:0 70:0.55777347 71:0.52334564 72:0.5 73:0.5 74:0.61724539 75:0.6777376 76:0.70838597 77:0.56925174 78:0.5 79:1 80:0.5 81:0.59736886 82:0.5 83:0.58115262 84:0.5 85:1 86:0.71105503 87:0.57986763 88:0.68468357 89:0.70858486 
100 1:0 2:0 3:1 4:1 5:0 6:0 7:0 8:0 9:0 10:0 11:0 12:0 13:-1 14:-1 15:-1 16:-1 17:-1 18:1 19:0 20:0 21:0.00011111111 22:1 23:0 24:0 25:0 26:0 27:0 28:0 29:0 30:0 31:0 32:0 33:0 34:0 35:0 36:0 37:0 38:0 39:0 40:0 41:0 42:0 43:0 44:0 45:0 46:0 47:0 48:0 49:0 50:0 51:0 52:0 53:0 54:0 55:0 56:0 57:0 58:0 59:0 60:0 61:0 62:1 63:0 64:0 65:0.16318861 66:0.51038642 67:0.57637855 68:0.57110031 69:0.5 70:0.5 71:0.59395173 72:0.57297177 73:0.5 74:0.5050425 75:0.55158194 76:0.72809075 77:0.59178069 78:0.5 79:0.5 80:0.58760282 81:0.59628465 82:0.60614792 83:0.55158194 84:0.55158194 85:0.62249648 86:0.71774857 87:0.5726707 88:0.59804257 89:0.61966649 
73.54876258340155 1:0 2:0 3:1 4:0 5:0 6:1 7:0 8:0 9:0 10:0 11:0 12:0 13:-1 14:-1 15:1 16:-1 17:-1 18:1 19:0 20:0 21:0.00010002 22:1 23:0 24:0 25:0 26:0 27:0 28:0 29:0 30:0 31:0 32:0 33:0 34:0 35:0 36:0 37:0 38:0 39:0 40:0 41:0 42:0 43:0 44:0 45:0 46:0 47:0 48:0 49:0 50:0 51:0 52:1 53:0 54:0 55:0 56:0 57:0 58:0 59:0 60:0 61:0 62:0 63:0 64:0 65:1 66:0.5762336 67:0.50612291 68:0 69:0.65637742 70:0.50807294 71:0.73329636 72:0.5 73:0.58006539 74:0.67082516 75:0.74407036 76:0.60889656 77:0.61369498 78:0.57110031 79:1 80:0.53099127 81:0.76657414 82:0.62871442 83:0.74707052 84:0.55917891 85:1 86:0.73806073 87:0.74077742 88:0.70917584 89:0.61608192 
100 1:0 2:0 3:1 4:0 5:1 6:0 7:0 8:0 9:0 10:0 11:0 12:0 13:-1 14:-1 15:-1 16:-1 17:-1 18:1 19:0 20:0 21:0.00011111111 22:1 23:0 24:0 25:0 26:0 27:0 28:0 29:0 30:0 31:0 32:0 33:0 34:0 35:0 36:0 37:0 38:0 39:0 40:0 41:0 42:0 43:0 44:0 45:0 46:0 47:0 48:0 49:0 50:0 51:0 52:0 53:0 54:0 55:0 56:0 57:0 58:0 59:0 60:0 61:0 62:1 63:0 64:0 65:1 66:0 67:0.56605013 68:0.5762336 69:0.60704383 70:0.51038642 71:0.60524874 72:0.58451828 73:0.57027391 74:0.51562859 75:0.67314117 76:1 77:1 78:0.51038642 79:1 80:0.50115272 81:0.70435108 82:1 83:0.61748695 84:1 85:1 86:0.65707077 87:0.64833298 88:1 89:1 
100 1:0 2:1 3:0 4:0 5:0 6:1 7:0 8:0 9:0 10:0 11:0 12:0 13:-1 14:-1 15:-1 16:-1 17:-1 18:1 19:0 20:0 21:0.00011111111 22:1 23:0 24:0 25:0 26:0 27:0 28:0 29:0 30:0 31:0 32:0 33:0 34:0 35:0 36:0 37:0 38:0 39:0 40:0 41:0 42:0 43:0 44:0 45:0 46:0 47:0 48:0 49:0 50:0 51:0 52:0 53:0 54:0 55:0 56:0 57:0 58:0 59:0 60:0 61:0 62:1 63:0 64:0 65:1 66:1 67:1 68:1 69:1 70:1 71:1 72:1 73:1 74:1 75:1 76:1 77:1 78:1 79:1 80:1 81:1 82:1 83:1 84:1 85:1 86:1 87:1 88:1 89:1 
100 1:1 2:0 3:0 4:0 5:0 6:1 7:0 8:0 9:0 10:0 11:0 12:0 13:-1 14:-1 15:-1 16:1 17:-1 18:1 19:0 20:0 21:0.00010002 22:1 23:0 24:0 25:0 26:0 27:0 28:0 29:0 30:0 31:0 32:0 33:0 34:0 35:0 36:0 37:0 38:0 39:0 40:0 41:0 42:0 43:0 44:0 45:0 46:0 47:0 48:0 49:0 50:0 51:0 52:0 53:0 54:0 55:0 56:0 57:0 58:0 59:0 60:0 61:0 62:1 63:0 64:0 65:1 66:1 67:1 68:1 69:1 70:1 71:1 72:1 73:1 74:1 75:1 76:1 77:1 78:1 79:1 80:1 81:1 82:1 83:1 84:1 85:1 86:1 87:1 88:1 89:1 
100 1:0 2:0 3:1 4:1 5:0 6:0 7:0 8:0 9:0 10:0 11:0 12:0 13:-1 14:-1 15:-1 16:-1 17:-1 18:1 19:0 20:0 21:0.00011109877 22:1 23:0 24:0 25:0 26:0 27:0 28:0 29:0 30:0 31:0 32:0 33:0 34:0 35:0 36:0 37:0 38:0 39:0 40:0 41:0 42:0 43:0 44:0 45:0 46:0 47:0 48:0 49:0 50:0 51:0 52:0 53:0 54:0 55:0 56:0 57:0 58:0 59:0 60:0 61:0 62:1 63:0 64:0 65:0.16478049 66:1 67:1 68:1 69:0.5925257 70:1 71:1 72:0.63733408 73:0.67680512 74:1 75:1 76:1 77:1 78:1 79:1 80:0.5925257 81:0.67554872 82:0.66030204 83:1 84:1 85:1 86:1 87:1 88:1 89:1 
100 1:1 2:0 3:0 4:0 5:0 6:1 7:0 8:0 9:0 10:0 11:0 12:0 13:-1 14:-1 15:-1 16:-1 17:-1 18:1 19:0 20:0 21:0.00011109877 22:1 23:0 24:0 25:0 26:0 27:0 28:0 29:0 30:0 31:0 32:0 33:0 34:0 35:0 36:0 37:0 38:0 39:0 40:0 41:0 42:0 43:0 44:0 45:0 46:0 47:0 48:0 49:0 50:0 51:0 52:0 53:0 54:0 55:0 56:0 57:0 58:0 59:0 60:0 61:0 62:1 63:0 64:0 65:0.16478049 66:0.56605013 67:0 68:0.50612291 69:0 70:0.55777347 71:0.52334564 72:0.5 73:0.5 74:0.61724539 75:0.6777376 76:0.70838597 77:0.56925174 78:0.5 79:1 80:0.5 81:0.59736886 82:0.5 83:0.58115262 84:0.5 85:1 86:0.71105503 87:0.57986763 88:0.68468357 89:0.70858486 
100 1:0 2:0 3:1 4:0 5:0 6:1 7:0 8:0 9:0 10:0 11:0 12:0 13:-1 14:-1 15:-1 16:-1 17:0 18:1 19:0 20:0 21:0.00011112346 22:1 23:0 24:0 25:0 26:0 27:0 28:0 29:0 30:0 31:0 32:0 33:0 34:0 35:0 36:0 37:0 38:0 39:0 40:0 41:0 42:0 43:0 44:0 45:0 46:0 47:0 48:0 49:0 50:0 51:0 52:0 53:0 54:0 55:0 56:0 57:0 58:0 59:0 60:0 61:0 62:1 63:0 64:0 65:0.20634081 66:0.70435108 67:1 68:0.76657414 69:0.59736886 70:0.67628317 71:0.69006109 72:0.52404624 73:0.62427459 74:1 75:0.59025458 76:1 77:0.68397625 78:0.59628465 79:0.66645747 80:0.52118108 81:0 82:0.60178421 83:0.59025458 84:0.69108982 85:0.70872819 86:0.76735766 87:0.68567938 88:0.73718668 89:1 
100 1:0 2:0 3:1 4:1 5:0 6:0 7:0 8:0 9:0 10:0 11:0 12:0 13:-1 14:-1 15:-1 16:-1 17:-1 18:1 19:0 20:0 21:0.00011098779 22:1 23:0 24:0 25:0 26:0 27:0 28:0 29:0 30:0 31:0 32:0 33:0 34:0 35:0 36:0 37:0 38:0 39:0 40:0 41:0 42:0 43:0 44:0 45:0 46:0 47:0 48:0 49:0 50:0 51:0 52:0 53:0 54:0 55:0 56:0 57:0 58:0 59:0 60:0 61:0 62:0 63:0 64:0 65:0.17478162 66:1 67:0.73564584 68:1 69:0.56452032 70:0.65902405 71:0.67427567 72:0.58263839 73:0.71659695 74:1 75:0.54009612 76:1 77:0.66643405 78:0.57771226 79:0.64685614 80:0.56452032 81:0.60371811 82:0.6366965 83:0.54009612 84:0.67541167 85:1 86:1 87:0.75507444 88:1 89:1 
100 1:1 2:0 3:0 4:0 5:0 6:1 7:0 8:0 9:0 10:0 11:0 12:0 13:-1 14:-1 15:-1 16:-1 17:-1 18:1 19:0 20:0 21:0.00011098779 22:1 23:0 24:0 25:0 26:0 27:0 28:0 29:0 30:0 31:0 32:0 33:0 34:0 35:0 36:0 37:0 38:0 39:0 40:0 41:0 42:0 43:0 44:0 45:0 46:0 47:0 48:0 49:0 50:0 51:0 52:0 53:0 54:0 55:0 56:0 57:0 58:0 59:0 60:0 61:0 62:0 63:0 64:0 65:0.17478162 66:0.56605013 67:0 68:0.50612291 69:0 70:0.55777347 71:0.52334564 72:0.5 73:0.5 74:0.61724539 75:0.6777376 76:0.70838597 77:0.56925174 78:0.5 79:1 80:0.5 81:0.59736886 82:0.5 83:0.58115262 84:0.5 85:1 86:0.71105503 87:0.57986763 88:0.68468357 89:0.70858486 
100 1:0 2:0 3:1 4:1 5:0 6:0 7:0 8:0 9:0 10:0 11:0 12:0 13:-1 14:-1 15:-1 16:-1 17:-1 18:1 19:0 20:0 21:0.00011109877 22:1 23:0 24:0 25:0 26:0 27:0 28:0 29:0 30:0 31:0 32:0 33:0 34:0 35:0 36:0 37:0 38:0 39:0 40:0 41:0 42:0 43:0 44:0 45:0 46:0 47:0 48:0 49:0 50:0 51:0 52:0 53:0 54:0 55:0 56:0 57:0 58:0 59:0 60:0 61:0 62:0 63:0 64:0 65:1 66:0.67556192 67:0.56804372 68:0.55515622 69:0.60749052 70:0.62488497 71:0.57913788 72:0.54225473 73:0.55657714 74:0.66350504 75:0.6377354 76:0.71322157 77:0.53387358 78:0.56286947 79:1 80:0.58970226 81:0.7874287 82:0.7103189 83:0.6377354 84:0.60834892 85:1 86:0.70169338 87:0.55704367 88:0.50832486 89:0.5893858 
100 1:1 2:0 3:0 4:0 5:0 6:1 7:0 8:0 9:0 10:0 11:0 12:0 13:-1 14:-1 15:-1 16:-1 17:-1 18:1 19:0 20:0 21:0.00011109877 22:1 23:0 24:0 25:0 26:0 27:0 28:0 29:0 30:0 31:0 32:0 33:0 34:0 35:0 36:0 37:0 38:0 39:0 40:0 41:0 42:0 43:0 44:0 45:0 46:0 47:0 48:0 49:0 50:0 51:0 52:0 53:0 54:0 55:0 56:0 57:0 58:0 59:0 60:0 61:0 62:0 63:0 64:0 65:1 66:1 67:1 68:1 69:1 70:1 71:1 72:1 73:1 74:1 75:1 76:1 77:1 78:1 79:1 80:1 81:1 82:1 83:1 84:1 85:1 86:1 87:1 88:1 89:1 
100 1:0 2:0 3:1 4:1 5:0 6:0 7:0 8:0 9:0 10:0 11:0 12:0 13:-1 14:-1 15:-1 16:-1 17:-1 18:1 19:0 20:0 21:0.00011109877 22:1 23:0 24:0 25:0 26:0 27:0 28:0 29:0 30:0 31:0 32:0 33:0 34:0 35:0 36:0 37:0 38:0 39:0 40:0 41:0 42:0 43:0 44:0 45:0 46:0 47:0 48:0 49:0 50:0 51:0 52:0 53:0 54:0 55:0 56:0 57:0 58:0 59:0 60:0 61:0 62:1 63:0 64:0 65:0.16478049 66:1 67:1 68:1 69:0.5925257 70:1 71:1 72:0.63733408 73:0.67680512 74:1 75:1 76:1 77:1 78:1 79:1 80:0.5925257 81:0.67554872 82:0.66030204 83:1 84:1 85:1 86:1 87:1 88:1 89:1 
100 1:1 2:0 3:0 4:0 5:0 6:1 7:0 8:0 9:0 10:0 11:0 12:0 13:-1 14:-1 15:-1 16:-1 17:-1 18:1 19:0 20:0 21:0.00011109877 22:1 23:0 24:0 25:0 26:0 27:0 28:0 29:0 30:0 31:0 32:0 33:0 34:0 35:0 36:0 37:0 38:0 39:0 40:0 41:0 42:0 43:0 44:0 45:0 46:0 47:0 48:0 49:0 50:0 51:0 52:0 53:0 54:0 55:0 56:0 57:0 58:0 59:0 60:0 61:0 62:1 63:0 64:0 65:0.16478049 66:0.56605013 67:0 68:0.50612291 69:0 70:0.55777347 71:0.52334564 72:0.5 73:0.5 74:0.61724539 75:0.6777376 76:0.70838597 77:0.56925174 78:0.5 79:1 80:0.5 81:0.59736886 82:0.5 83:0.58115262 84:0.5 85:1 86:0.71105503 87:0.57986763 88:0.68468357 89:0.70858486 
100 1:1 2:0 3:0 4:0 5:0 6:1 7:0 8:0 9:0 10:0 11:0 12:0 13:-1 14:-1 15:-1 16:-1 17:-1 18:1 19:0 20:0 21:0.00010013017 22:0 23:1 24:0 25:0 26:1 27:1 28:0 29:0 30:0 31:1 32:1 33:0 34:0 35:0 36:0 37:0 38:0 39:0 40:0 41:0 42:0 43:0 44:0 45:0 46:0 47:0 48:0 49:0 50:0 51:0 52:0 53:0 54:0 55:0 56:0 57:0 58:0 59:0 60:0 61:0 62:0 63:0 64:0 65:0.10081176 66:0.6553489 67:0.56162125 68:0.73135765 69:0.62703866 70:0.62053339 71:0.63932779 72:0.60354408 73:0.52626943 74:0.64559897 75:0.52926603 76:1 77:0.62704767 78:0.5 79:0.60240261 80:0.62703866 81:0.56825792 82:0.63083031 83:0.52926603 84:0.64072011 85:0.72081384 86:0.75973967 87:0.68568323 88:0.71197769 89:1 
100 1:1 2:0 3:0 4:1 5:0 6:0 7:0 8:0 9:0 10:0 11:0 12:0 13:-1 14:-1 15:-1 16:-1 17:-1 18:1 19:0 20:0 21:0.00010012014 22:0 23:1 24:0 25:0 26:1 27:1 28:0 29:0 30:0 31:0 32:0 33:0 34:0 35:0 36:0 37:0 38:0 39:0 40:0 41:0 42:0 43:0 44:0 45:0 46:0 47:0 48:0 49:0 50:0 51:0 52:1 53:0 54:0 55:0 56:0 57:0 58:0 59:0 60:0 61:0 62:0 63:0 64:0 65:1 66:0.5 67:1 68:0.68928783 69:0.65054522 70:1 71:0.71281856 72:0.69101689 73:0.68626598 74:1 75:0.70516275 76:1 77:1 78:1 79:1 80:0.55007491 81:0.72966964 82:1 83:1 84:1 85:1 86:0.69067456 87:1 88:1 89:1 
11.77657142171635 1:0 2:0 3:1 4:0 5:0 6:1 7:0 8:0 9:0 10:0 11:0 12:0 13:-1 14:-1 15:-1 16:-1 17:-1 18:1 19:0 20:0 21:0.00010012014 22:0 23:1 24:0 25:0 26:1 27:1 28:0 29:0 30:0 31:0 32:0 33:0 34:0 35:0 36:0 37:0 38:0 39:0 40:0 41:0 42:0 43:0 44:0 45:0 46:0 47:0 48:0 49:0 50:0 51:0 52:0 53:0 54:0 55:0 56:0 57:0 58:0 59:0 60:0 61:0 62:0 63:0 64:0 65:1 66:1 67:1 68:1 69:0.59736886 70:1 71:1 72:0.52404624 73:0.62427459 74:1 75:1 76:1 77:1 78:1 79:1 80:0.52118108 81:0.5 82:0.60178421 83:1 84:1 85:1 86:1 87:1 88:1 89:1 
100 1:0 2:0 3:1 4:0 5:0 6:1 7:0 8:0 9:0 10:0 11:0 12:0 13:-1 14:-1 15:-1 16:-1 17:-1 18:1 19:0 20:0 21:0.00010007005 22:0 23:1 24:0 25:0 26:1 27:0 28:0 29:0 30:0 31:0 32:0 33:0 34:0 35:0 36:0 37:0 38:0 39:0 40:0 41:0 42:0 43:0 44:0 45:0 46:0 47:0 48:0 49:0 50:0 51:0 52:0 53:0 54:0 55:0 56:0 57:0 58:0 59:0 60:0 61:0 62:0 63:0 64:0 65:1 66:1 67:1 68:1 69:1 70:1 71:1 72:1 73:1 74:1 75:1 76:1 77:1 78:1 79:1 80:1 81:1 82:1 83:1 84:1 85:1 86:1 87:1 88:1 89:1 
100 1:0 2:0 3:1 4:0 5:0 6:1 7:0 8:0 9:1 10:0 11:0 12:1 13:-1 14:-1 15:-1 16:-1 17:-1 18:1 19:0 20:0 21:0.00010009008 22:0 23:1 24:0 25:0 26:1 27:1 28:0 29:0 30:0 31:0 32:0 33:0 34:0 35:0 36:0 37:0 38:0 39:0 40:0 41:0 42:0 43:0 44:0 45:0 46:0 47:0 48:0 49:0 50:0 51:0 52:0 53:0 54:0 55:0 56:0 57:0 58:0 59:0 60:0 61:0 62:0 63:0 64:0 65:1 66:1 67:1 68:1 69:1 70:1 71:1 72:1 73:1 74:1 75:1 76:1 77:1 78:1 79:1 80:1 81:1 82:1 83:1 84:1 85:1 86:1 87:1 88:1 89:1 
100 1:0 2:0 3:1 4:0 5:0 6:1 7:0 8:0 9:0 10:0 11:0 12:0 13:-1 14:-1 15:-1 16:-1 17:-1 18:1 19:0 20:0 21:0.00010007005 22:0 23:1 24:0 25:0 26:1 27:0 28:0 29:0 30:0 31:0 32:0 33:0 34:0 35:0 36:0 37:0 38:0 39:0 40:0 41:0 42:0 43:0 44:0 45:0 46:0 47:0 48:0 49:0 50:0 51:0 52:0 53:0 54:0 55:0 56:0 57:0 58:0 59:0 60:0 61:0 62:0 63:0 64:0 65:1 66:1 67:1 68:1 69:1 70:1 71:1 72:1 73:1 74:1 75:1 76:1 77:1 78:1 79:1 80:1 81:1 82:1 83:1 84:1 85:1 86:1 87:1 88:1 89:1 
100 1:0 2:0 3:1 4:0 5:0 6:1 7:0 8:0 9:1 10:0 11:0 12:1 13:-1 14:-1 15:-1 16:-1 17:0 18:1 19:0 20:0 21:0.00010009008 22:0 23:1 24:0 25:0 26:1 27:1 28:0 29:0 30:0 31:0 32:0 33:0 34:0 35:0 36:0 37:0 38:0 39:0 40:0 41:0 42:0 43:0 44:0 45:0 46:0 47:0 48:0 49:0 50:0 51:0 52:0 53:0 54:0 55:0 56:0 57:0 58:0 59:0 60:0 61:0 62:0 63:0 64:0 65:1 66:0.70435108 67:1 68:0.76657414 69:0.59736886 70:0.67628317 71:0.69006109 72:0.52404624 73:0.62427459 74:1 75:0.59025458 76:1 77:0.68397625 78:0.59628465 79:0.66645747 80:0.52118108 81:0 82:0.60178421 83:0.59025458 84:0.69108982 85:0.70872819 86:0.76735766 87:0.68567938 88:0.73718668 89:1 
100 1:0 2:0 3:1 4:0 5:0 6:1 7:0 8:0 9:1 10:0 11:0 12:1 13:-1 14:-1 15:-1 16:-1 17:-1 18:1 19:0 20:0 21:0.00010019036 22:0 23:1 24:0 25:0 26:1 27:1 28:0 29:0 30:0 31:0 32:0 33:0 34:0 35:0 36:0 37:0 38:0 39:0 40:0 41:0 42:0 43:0 44:0 45:0 46:0 47:0 48:0 49:0 50:0 51:0 52:0 53:0 54:0 55:0 56:0 57:0 58:0 59:0 60:0 61:0 62:0 63:0 64:0 65:1 66:1 67:1 68:1 69:1 70:1 71:1 72:1 73:1 74:1 75:1 76:1 77:1 78:1 79:1 80:1 81:1 82:1 83:1 84:1 85:1 86:1 87:1 88:1 89:1 
58.45226313965161 1:0 2:0 3:1 4:0 5:0 6:1 7:0 8:0 9:0 10:0 11:0 12:0 13:-1 14:-1 15:-1 16:-1 17:1 18:1 19:0 20:0 21:0.0001 22:0 23:1 24:0 25:0 26:0 27:0 28:0 29:0 30:0 31:0 32:0 33:0 34:0 35:0 36:0 37:0 38:0 39:0 40:0 41:0 42:0 43:0 44:0 45:0 46:0 47:0 48:0 49:0 50:0 51:0 52:0 53:0 54:0 55:0 56:0 57:0 58:0 59:0 60:0 61:0 62:0 63:0 64:0 65:1 66:1 67:1 68:1 69:1 70:1 71:1 72:1 73:1 74:1 75:1 76:1 77:1 78:1 79:1 80:1 81:1 82:1 83:1 84:1 85:1 86:1 87:1 88:1 89:1 
100 1:0 2:0 3:1 4:0 5:0 6:1 7:0 8:0 9:1 10:0 11:0 12:1 13:-1 14:-1 15:-1 16:-1 17:0 18:1 19:0 20:0 21:0.00010019036 22:0 23:1 24:0 25:0 26:1 27:1 28:0 29:0 30:0 31:0 32:0 33:0 34:0 35:0 36:0 37:0 38:0 39:0 40:0 41:0 42:0 43:0 44:0 45:0 46:0 47:0 48:0 49:0 50:0 51:0 52:0 53:0 54:0 55:0 56:0 57:0 58:0 59:0 60:0 61:0 62:0 63:0 64:0 65:1 66:0.70435108 67:1 68:0.76657414 69:0.59736886 70:0.67628317 71:0.69006109 72:0.52404624 73:0.62427459 74:1 75:0.59025458 76:1 77:0.68397625 78:0.59628465 79:0.66645747 80:0.52118108 81:0 82:0.60178421 83:0.59025458 84:0.69108982 85:0.70872819 86:0.76735766 87:0.68567938 88:0.73718668 89:1 
78.03681279986738 1:0 2:0 3:1 4:0 5:0 6:1 7:0 8:0 9:0 10:0 11:0 12:0 13:-1 14:-1 15:-1 16:-1 17:1 18:1 19:0 20:0 21:0.0001 22:0 23:1 24:0 25:0 26:0 27:0 28:0 29:0 30:0 31:0 32:0 33:0 34:0 35:0 36:0 37:0 38:0 39:0 40:0 41:0 42:0 43:0 44:0 45:0 46:0 47:0 48:0 49:0 50:0 51:0 52:0 53:0 54:0 55:0 56:0 57:0 58:0 59:0 60:0 61:0 62:0 63:0 64:0 65:1 66:1 67:1 68:1 69:1 70:1 71:1 72:1 73:1 74:1 75:1 76:1 77:1 78:1 79:1 80:1 81:1 82:1 83:1 84:1 85:1 86:1 87:1 88:1 89:1 
100 1:1 2:0 3:0 4:0 5:1 6:0 7:0 8:0 9:0 10:0 11:0 12:0 13:-1 14:-1 15:-1 16:-1 17:-1 18:1 19:0 20:0 21:0.00011111111 22:1 23:0 24:0 25:0 26:0 27:1 28:0 29:0 30:0 31:0 32:0 33:0 34:0 35:0 36:0 37:0 38:0 39:0 40:0 41:0 42:0 43:0 44:0 45:0 46:0 47:0 48:0 49:0 50:0 51:0 52:0 53:0 54:0 55:0 56:0 57:0 58:0 59:0 60:0 61:0 62:0 63:0 64:0 65:0.2477346 66:0 67:0.56605013 68:0.5762336 69:0.60704383 70:0.51038642 71:0.60524874 72:0.58451828 73:0.57027391 74:0.51562859 75:0.67314117 76:1 77:1 78:0.51038642 79:1 80:0.50115272 81:0.70435108 82:1 83:0.61748695 84:1 85:1 86:0.65707077 87:0.64833298 88:1 89:1 
100 1:0 2:1 3:0 4:1 5:0 6:0 7:0 8:0 9:0 10:0 11:0 12:0 13:-1 14:-1 15:-1 16:-1 17:-1 18:1 19:0 20:0 21:0.00011111111 22:1 23:0 24:0 25:0 26:0 27:1 28:0 29:0 30:0 31:0 32:0 33:0 34:0 35:0 36:0 37:0 38:0 39:0 40:0 41:0 42:0 43:0 44:0 45:0 46:0 47:0 48:0 49:0 50:0 51:0 52:0 53:0 54:0 55:0 56:0 57:0 58:0 59:0 60:0 61:0 62:0 63:0 64:0 65:0.2477346 66:1 67:1 68:1 69:0.58029681 70:1 71:0.50713584 72:1 73:1 74:1 75:1 76:1 77:1 78:1 79:1 80:0.58719245 81:1 82:1 83:1 84:1 85:1 86:1 87:1 88:1 89:1 
100 1:0 2:0 3:1 4:0 5:0 6:1 7:0 8:0 9:0 10:0 11:0 12:0 13:-1 14:-1 15:-1 16:-1 17:0 18:1 19:0 20:0 21:0.00011108643 22:1 23:0 24:0 25:0 26:0 27:0 28:0 29:0 30:0 31:0 32:0 33:0 34:0 35:0 36:0 37:0 38:0 39:0 40:1 41:0 42:0 43:0 44:0 45:0 46:0 47:0 48:0 49:0 50:0 51:0 52:0 53:0 54:0 55:0 56:1 57:0 58:0 59:0 60:0 61:0 62:0 63:0 64:0 65:0.14806629 66:0.61996878 67:0.70788227 68:0.71077074 69:0.68655755 70:0.72965544 71:1 72:0.68444471 73:0.54211689 74:0.58639301 75:0.56074343 76:0.74852165 77:0.64603501 78:0.58635278 79:1 80:0.6309756 81:0.72973222 82:0.68655755 83:0.58413544 84:0.58413544 85:0.73607481 86:1 87:0.614002 88:0.61305475 89:0.74866958 
87.25082118947303 1:0 2:0 3:1 4:0 5:0 6:1 7:0 8:0 9:0 10:0 11:0 12:0 13:-1 14:-1 15:-1 16:-1 17:0 18:1 19:0 20:0 21:0.00011108643 22:1 23:0 24:0 25:0 26:0 27:0 28:0 29:0 30:0 31:0 32:0 33:0 34:0 35:0 36:0 37:0 38:0 39:1 40:0 41:0 42:0 43:0 44:0 45:0 46:0 47:0 48:0 49:0 50:0 51:0 52:0 53:0 54:0 55:0 56:1 57:0 58:0 59:0 60:0 61:0 62:0 63:0 64:0 65:0.14806629 66:0.61748695 67:0.69513498 68:0.74707052 69:0.58115262 70:0.61360789 71:0.66113986 72:0.64465256 73:0.54069923 74:0.62011613 75:0.5 76:0.59992851 77:0.65171939 78:0.55158194 79:0.63032069 80:0.53609222 81:0.59025458 82:0.70716718 83:0 84:0.5 85:0.72144907 86:0.67173728 87:0.59319842 88:0.59459895 89:0.71197416 
100 1:0 2:1 3:0 4:0 5:1 6:0 7:0 8:0 9:0 10:0 11:0 12:0 13:-1 14:-1 15:-1 16:-1 17:-1 18:1 19:1 20:0 21:0.00011114816 22:1 23:0 24:0 25:0 26:0 27:1 28:0 29:0 30:0 31:0 32:0 33:0 34:0 35:0 36:0 37:0 38:0 39:0 40:0 41:0 42:0 43:0 44:0 45:0 46:0 47:0 48:0 49:0 50:0 51:0 52:0 53:0 54:0 55:0 56:0 57:0 58:0 59:0 60:0 61:0 62:0 63:0 64:0 65:1 66:0 67:0.56605013 68:0.5762336 69:0.60704383 70:0.51038642 71:0.60524874 72:0.58451828 73:0.57027391 74:0.51562859 75:0.67314117 76:1 77:1 78:0.51038642 79:1 80:0.50115272 81:0.70435108 82:1 83:0.61748695 84:1 85:1 86:0.65707077 87:0.64833298 88:1 89:1 
100 1:0 2:1 3:0 4:0 5:1 6:0 7:0 8:0 9:0 10:0 11:0 12:0 13:-1 14:-1 15:-1 16:-1 17:-1 18:1 19:1 20:0 21:0.00011114816 22:1 23:0 24:0 25:0 26:0 27:1 28:0 29:0 30:0 31:0 32:0 33:0 34:0 35:0 36:0 37:0 38:0 39:0 40:0 41:0 42:0 43:0 44:0 45:0 46:0 47:0 48:0 49:0 50:0 51:0 52:0 53:0 54:0 55:0 56:0 57:0 58:0 59:0 60:0 61:0 62:0 63:0 64:0 65:1 66:1 67:1 68:1 69:1 70:1 71:1 72:1 73:1 74:1 75:1 76:1 77:1 78:1 79:1 80:1 81:1 82:1 83:1 84:1 85:1 86:1 87:1 88:1 89:1 
100 1:0 2:0 3:1 4:0 5:1 6:0 7:0 8:0 9:0 10:0 11:0 12:0 13:-1 14:-1 15:-1 16:-1 17:0 18:1 19:-1 20:0 21:0.00011111111 22:1 23:0 24:0 25:0 26:0 27:1 28:0 29:0 30:0 31:0 32:0 33:0 34:0 35:0 36:0 37:0 38:0 39:0 40:0 41:0 42:0 43:0 44:0 45:0 46:0 47:0 48:0 49:0 50:0 51:0 52:0 53:0 54:0 55:0 56:0 57:0 58:0 59:0 60:0 61:0 62:0 63:0 64:0 65:0.23058977 66:0 67:0.56605013 68:0.5762336 69:0.60704383 70:0.51038642 71:0.60524874 72:0.58451828 73:0.57027391 74:0.51562859 75:0.67314117 76:1 77:1 78:0.51038642 79:1 80:0.50115272 81:0.70435108 82:1 83:0.61748695 84:1 85:1 86:0.65707077 87:0.64833298 88:1 89:1 
100 1:0 2:1 3:0 4:0 5:0 6:1 7:0 8:0 9:0 10:0 11:0 12:0 13:-1 14:-1 15:-1 16:-1 17:0 18:1 19:-1 20:0 21:0.00011111111 22:1 23:0 24:0 25:0 26:0 27:1 28:0 29:0 30:0 31:0 32:0 33:0 34:0 35:0 36:0 37:0 38:0 39:0 40:0 41:0 42:0 43:0 44:0 45:0 46:0 47:0 48:0 49:0 50:0 51:0 52:0 53:0 54:0 55:0 56:0 57:0 58:0 59:0 60:0 61:0 62:0 63:0 64:0 65:0.23058977 66:0.67556192 67:0.56804372 68:0.55515622 69:0.60749052 70:0.62488497 71:0.57913788 72:0.54225473 73:0.55657714 74:0.66350504 75:0.6377354 76:0.71322157 77:0.53387358 78:0.56286947 79:1 80:0.58970226 81:0.7874287 82:0.7103189 83:0.6377354 84:0.60834892 85:1 86:0.70169338 87:0.55704367 88:0.50832486 89:0.5893858 
100 1:0 2:0 3:1 4:1 5:0 6:0 7:0 8:0 9:0 10:0 11:0 12:0 13:-1 14:-1 15:-1 16:-1 17:-1 18:1 19:0 20:0 21:0.00011106175 22:1 23:0 24:0 25:0 26:0 27:0 28:0 29:0 30:0 31:0 32:0 33:0 34:0 35:0 36:0 37:0 38:0 39:0 40:0 41:0 42:0 43:0 44:0 45:0 46:0 47:0 48:0 49:0 50:0 51:0 52:0 53:0 54:0 55:0 56:0 57:0 58:0 59:0 60:0 61:0 62:0 63:0 64:0 65:0.16552921 66:0.60704383 67:0.62672172 68:0.65637742 69:0.5 70:0.55777347 71:0.52334564 72:0.5 73:0.5 74:0.61724539 75:0.68764651 76:0.70838597 77:0.56925174 78:0.5 79:1 80:0.5 81:0.59736886 82:0.5 83:0.58115262 84:0.61113797 85:1 86:0.71105503 87:0.69599497 88:0.68468357 89:0.70858486 
100 1:1 2:0 3:0 4:0 5:0 6:1 7:0 8:0 9:0 10:0 11:0 12:0 13:-1 14:-1 15:-1 16:-1 17:-1 18:1 19:0 20:0 21:0.00011106175 22:1 23:0 24:0 25:0 26:0 27:0 28:0 29:0 30:0 31:0 32:0 33:0 34:0 35:0 36:0 37:0 38:0 39:0 40:0 41:0 42:0 43:0 44:0 45:0 46:0 47:0 48:0 49:0 50:0 51:0 52:0 53:0 54:0 55:0 56:0 57:0 58:0 59:0 60:0 61:0 62:0 63:0 64:0 65:0.16552921 66:0.51038642 67:0.57637855 68:0.57110031 69:0.5 70:0.5 71:0.59395173 72:0.57297177 73:0.5 74:0.5050425 75:0.55158194 76:0.72809075 77:0.59178069 78:0 79:0.5 80:0.58760282 81:0.59628465 82:0.60614792 83:0.55158194 84:0.55158194 85:0.62249648 86:0.71774857 87:0.5726707 88:0.59804257 89:0.61966649 
100 1:0 2:0 3:1 4:0 5:0 6:1 7:0 8:0 9:0 10:0 11:0 12:0 13:-1 14:-1 15:-1 16:-1 17:0 18:1 19:0 20:0 21:0.00011111111 22:0 23:1 24:0 25:0 26:1 27:0 28:1 29:0 30:0 31:0 32:0 33:0 34:0 35:0 36:0 37:0 38:0 39:0 40:0 41:0 42:0 43:0 44:0 45:0 46:0 47:0 48:0 49:1 50:0 51:0 52:0 53:0 54:0 55:0 56:0 57:0 58:0 59:0 60:0 61:0 62:0 63:0 64:0 65:0 66:0.5762336 67:0.50612291 68:0 69:0.65637742 70:0.50807294 71:0.73329636 72:0.5 73:0.58006539 74:0.67082516 75:0.74407036 76:0.60889656 77:0.61369498 78:0.57110031 79:1 80:0.53099127 81:0.76657414 82:0.62871442 83:0.74707052 84:0.55917891 85:1 86:0.73806073 87:0.74077742 88:0.70917584 89:0.61608192 
17.05228227641586 1:0 2:0 3:1 4:1 5:0 6:0 7:0 8:0 9:0 10:1 11:1 12:0 13:-1 14:-1 15:-1 16:-1 17:0 18:1 19:0 20:0 21:0.00011112346 22:0 23:1 24:0 25:0 26:0 27:1 28:0 29:0 30:0 31:0 32:0 33:0 34:0 35:0 36:0 37:0 38:0 39:0 40:0 41:0 42:0 43:0 44:0 45:0 46:0 47:0 48:0 49:0 50:0 51:0 52:0 53:0 54:0 55:0 56:0 57:0 58:0 59:0 60:0 61:0 62:0 63:0 64:1 65:0.16552921 66:0.60704383 67:0.62672172 68:0.65637742 69:0.5 70:0.55777347 71:0.52334564 72:0.5 73:0.5 74:0.61724539 75:0.68764651 76:0.70838597 77:0.56925174 78:0.5 79:1 80:0.5 81:0.59736886 82:0.5 83:0.58115262 84:0.61113797 85:1 86:0.71105503 87:0.69599497 88:0.68468357 89:0.70858486 
100 1:0 2:0 3:1 4:1 5:0 6:0 7:0 8:0 9:1 10:0 11:0 12:1 13:-1 14:-1 15:-1 16:-1 17:-1 18:1 19:0 20:0 21:0.00011107409 22:0 23:1 24:0 25:0 26:0 27:0 28:0 29:0 30:0 31:0 32:0 33:0 34:0 35:0 36:0 37:0 38:0 39:0 40:0 41:0 42:0 43:0 44:0 45:0 46:0 47:0 48:0 49:0 50:0 51:0 52:0 53:0 54:0 55:0 56:0 57:0 58:0 59:0 60:0 61:0 62:0 63:0 64:1 65:0.16552921 66:0.60704383 67:0.62672172 68:0.65637742 69:0.5 70:0.55777347 71:0.52334564 72:0.5 73:0.5 74:0.61724539 75:0.68764651 76:0.70838597 77:0.56925174 78:0.5 79:1 80:0.5 81:0.59736886 82:0.5 83:0.58115262 84:0.61113797 85:1 86:0.71105503 87:0.69599497 88:0.68468357 89:0.70858486 
100 1:1 2:0 3:0 4:0 5:0 6:1 7:0 8:0 9:1 10:0 11:0 12:1 13:-1 14:-1 15:-1 16:-1 17:0 18:1 19:0 20:0 21:0.00011107409 22:0 23:1 24:0 25:0 26:0 27:0 28:0 29:0 30:0 31:0 32:0 33:0 34:0 35:0 36:0 37:0 38:0 39:0 40:0 41:0 42:0 43:0 44:0 45:0 46:0 47:0 48:0 49:0 50:0 51:0 52:0 53:0 54:0 55:0 56:0 57:0 58:0 59:0 60:0 61:0 62:0 63:0 64:1 65:0.16552921 66:0.51038642 67:0.57637855 68:0.57110031 69:0.5 70:0.5 71:0.59395173 72:0.57297177 73:0.5 74:0.5050425 75:0.55158194 76:0.72809075 77:0.59178069 78:0 79:0.5 80:0.58760282 81:0.59628465 82:0.60614792 83:0.55158194 84:0.55158194 85:0.62249648 86:0.71774857 87:0.5726707 88:0.59804257 89:0.61966649 
100 1:1 2:0 3:0 4:0 5:1 6:0 7:0 8:0 9:1 10:0 11:0 12:1 13:-1 14:-1 15:-1 16:-1 17:0 18:1 19:0 20:0 21:0.00010007005 22:0 23:1 24:0 25:0 26:0 27:1 28:0 29:0 30:0 31:0 32:0 33:0 34:0 35:0 36:0 37:0 38:0 39:0 40:0 41:0 42:0 43:0 44:0 45:0 46:0 47:0 48:0 49:0 50:0 51:0 52:0 53:0 54:0 55:0 56:0 57:0 58:0 59:0 60:0 61:0 62:1 63:0 64:0 65:0.11563229 66:0.51038642 67:0.57637855 68:0.57110031 69:0.5 70:0.5 71:0.59395173 72:0.57297177 73:0.5 74:0.5050425 75:0.55158194 76:0.72809075 77:0.59178069 78:0 79:0.5 80:0.58760282 81:0.59628465 82:0.60614792 83:0.55158194 84:0.55158194 85:0.62249648 86:0.71774857 87:0.5726707 88:0.59804257 89:0.61966649 
44.55811364367383 1:0 2:1 3:0 4:1 5:0 6:0 7:0 8:0 9:1 10:0 11:0 12:1 13:-1 14:-1 15:-1 16:1 17:-1 18:1 19:0 20:0 21:0.00010007005 22:0 23:1 24:0 25:0 26:0 27:1 28:0 29:0 30:0 31:0 32:0 33:0 34:0 35:0 36:0 37:0 38:0 39:0 40:0 41:0 42:0 43:0 44:0 45:0 46:0 47:0 48:0 49:0 50:0 51:0 52:0 53:0 54:0 55:0 56:0 57:0 58:0 59:0 60:0 61:0 62:1 63:0 64:0 65:0.11563229 66:0.51038642 67:0.57637855 68:0.57110031 69:0.5 70:0.5 71:0.59395173 72:0.57297177 73:0.5 74:0.5050425 75:0.55158194 76:0.72809075 77:0.59178069 78:0.5 79:0.5 80:0.58760282 81:0.59628465 82:0.60614792 83:0.55158194 84:0.55158194 85:0.62249648 86:0.71774857 87:0.5726707 88:0.59804257 89:0.61966649 
42.39917986485099 1:0 2:0 3:1 4:1 5:0 6:0 7:0 8:0 9:0 10:1 11:1 12:0 13:-1 14:-1 15:-1 16:-1 17:0 18:1 19:0 20:0 21:0.00011118523 22:0 23:1 24:0 25:0 26:0 27:1 28:0 29:0 30:0 31:0 32:0 33:0 34:0 35:0 36:0 37:0 38:0 39:0 40:0 41:0 42:0 43:0 44:0 45:0 46:0 47:0 48:0 49:0 50:0 51:0 52:0 53:0 54:0 55:0 56:0 57:0 58:0 59:0 60:0 61:0 62:1 63:0 64:0 65:0.16552921 66:0.51038642 67:0.57637855 68:0.57110031 69:0.5 70:0.5 71:0.59395173 72:0.57297177 73:0.5 74:0.5050425 75:0.55158194 76:0.72809075 77:0.59178069 78:0.5 79:0.5 80:0.58760282 81:0.59628465 82:0.60614792 83:0.55158194 84:0.55158194 85:0.62249648 86:0.71774857 87:0.5726707 88:0.59804257 89:0.61966649 
100 1:0 2:0 3:1 4:0 5:0 6:1 7:0 8:0 9:1 10:0 11:0 12:1 13:-1 14:-1 15:-1 16:-1 17:0 18:1 19:0 20:0 21:0.0001001001 22:0 23:1 24:0 25:0 26:1 27:1 28:0 29:0 30:0 31:0 32:0 33:0 34:0 35:0 36:0 37:0 38:0 39:0 40:0 41:0 42:0 43:0 44:0 45:0 46:0 47:0 48:0 49:1 50:0 51:0 52:0 53:0 54:0 55:0 56:0 57:0 58:0 59:0 60:0 61:0 62:0 63:0 64:0 65:0 66:0.5762336 67:0.50612291 68:0 69:0.65637742 70:0.50807294 71:0.71266202 72:0.5 73:0.58006539 74:0.67082516 75:0.65912789 76:0.60889656 77:0.61369498 78:0.57110031 79:1 80:0.53099127 81:0.69690729 82:0.62871442 83:0.66380453 84:0.55917891 85:0.70486142 86:0.73806073 87:0.66531714 88:0.69496876 89:0.61608192 
100 1:0 2:0 3:1 4:0 5:0 6:1 7:0 8:0 9:1 10:0 11:0 12:1 13:-1 14:-1 15:-1 16:-1 17:0 18:1 19:0 20:0 21:0.0001001001 22:0 23:1 24:0 25:0 26:1 27:1 28:0 29:0 30:0 31:0 32:0 33:0 34:0 35:0 36:0 37:0 38:0 39:0 40:0 41:0 42:0 43:0 44:0 45:0 46:0 47:0 48:0 49:1 50:0 51:0 52:0 53:0 54:0 55:0 56:0 57:0 58:0 59:0 60:0 61:0 62:0 63:0 64:0 65:0 66:0.5762336 67:0.50612291 68:0 69:0.65637742 70:0.50807294 71:0.71266202 72:0.5 73:0.58006539 74:0.67082516 75:0.65912789 76:0.60889656 77:0.61369498 78:0.57110031 79:1 80:0.53099127 81:0.69690729 82:0.62871442 83:0.66380453 84:0.55917891 85:0.70486142 86:0.73806073 87:0.66531714 88:0.69496876 89:0.61608192 
20.04979216550275 1:1 2:0 3:0 4:1 5:0 6:0 7:0 8:0 9:1 10:0 11:0 12:1 13:-1 14:-1 15:-1 16:-1 17:-1 18:1 19:1 20:0 21:0.00010007005 22:0 23:1 24:0 25:0 26:1 27:1 28:0 29:0 30:0 31:0 32:0 33:0 34:0 35:0 36:0 37:0 38:0 39:0 40:0 41:0 42:0 43:0 44:0 45:0 46:0 47:0 48:0 49:0 50:0 51:0 52:1 53:0 54:0 55:0 56:0 57:0 58:0 59:0 60:0 61:0 62:0 63:0 64:0 65:0 66:0.60704383 67:0.62672172 68:0.65637742 69:0.5 70:0.55777347 71:0.52334564 72:0.5 73:0.5 74:0.61724539 75:0.68764651 76:0.70838597 77:0.56925174 78:0.5 79:1 80:0.5 81:0.59736886 82:0.5 83:0.58115262 84:0.61113797 85:1 86:0.71105503 87:0.69599497 88:0.68468357 89:0.70858486 
100 1:0 2:0 3:1 4:1 5:0 6:0 7:0 8:0 9:0 10:0 11:0 12:0 13:-1 14:-1 15:-1 16:-1 17:-1 18:1 19:0 20:0 21:0.00011118523 22:0 23:1 24:0 25:0 26:0 27:1 28:0 29:0 30:0 31:0 32:0 33:0 34:0 35:0 36:0 37:0 38:0 39:0 40:0 41:0 42:0 43:0 44:0 45:0 46:0 47:0 48:0 49:0 50:0 51:0 52:0 53:0 54:0 55:0 56:0 57:0 58:0 59:0 60:0 61:0 62:1 63:0 64:0 65:0.16552921 66:0.51038642 67:0.57637855 68:0.57110031 69:0.5 70:0.5 71:0.59395173 72:0.57297177 73:0.5 74:0.5050425 75:0.55158194 76:0.72809075 77:0.59178069 78:0.5 79:0.5 80:0.58760282 81:0.59628465 82:0.60614792 83:0.55158194 84:0.55158194 85:0.62249648 86:0.71774857 87:0.5726707 88:0.59804257 89:0.61966649 
32.73788719468547 1:0 2:1 3:0 4:1 5:0 6:0 7:0 8:0 9:0 10:1 11:1 12:0 13:-1 14:-1 15:-1 16:-1 17:0 18:1 19:0 20:0 21:0.00010007005 22:0 23:1 24:0 25:0 26:0 27:1 28:0 29:0 30:0 31:0 32:0 33:0 34:0 35:0 36:0 37:0 38:0 39:0 40:0 41:0 42:0 43:0 44:0 45:0 46:0 47:0 48:0 49:0 50:0 51:0 52:0 53:0 54:0 55:0 56:0 57:0 58:0 59:0 60:0 61:0 62:1 63:0 64:0 65:0.11563229 66:0.51038642 67:0.57637855 68:0.57110031 69:0.5 70:0.5 71:0.59395173 72:0.57297177 73:0.5 74:0.5050425 75:0.55158194 76:0.72809075 77:0.59178069 78:0.5 79:0.5 80:0.58760282 81:0.59628465 82:0.60614792 83:0.55158194 84:0.55158194 85:0.62249648 86:0.71774857 87:0.5726707 88:0.59804257 89:0.61966649 
11.79766615601596 1:0 2:0 3:1 4:1 5:0 6:0 7:0 8:0 9:0 10:1 11:1 12:0 13:-1 14:-1 15:-1 16:-1 17:0 18:1 19:0 20:0 21:0.00011118523 22:0 23:1 24:0 25:0 26:0 27:1 28:0 29:0 30:0 31:0 32:0 33:0 34:0 35:0 36:0 37:0 38:0 39:0 40:0 41:0 42:0 43:0 44:0 45:0 46:0 47:0 48:0 49:0 50:0 51:0 52:0 53:0 54:0 55:0 56:0 57:0 58:0 59:0 60:0 61:0 62:1 63:0 64:0 65:0.16552921 66:0.51038642 67:0.57637855 68:0.57110031 69:0.5 70:0.5 71:0.59395173 72:0.57297177 73:0.5 74:0.5050425 75:0.55158194 76:0.72809075 77:0.59178069 78:0.5 79:0.5 80:0.58760282 81:0.59628465 82:0.60614792 83:0.55158194 84:0.55158194 85:0.62249648 86:0.71774857 87:0.5726707 88:0.59804257 89:0.61966649 
100 1:0 2:0 3:1 4:1 5:0 6:0 7:0 8:0 9:0 10:0 11:0 12:0 13:-1 14:-1 15:-1 16:-1 17:-1 18:1 19:0 20:0 21:0.00011118523 22:0 23:1 24:0 25:0 26:0 27:1 28:0 29:0 30:0 31:0 32:0 33:0 34:0 35:0 36:0 37:0 38:0 39:0 40:0 41:0 42:0 43:0 44:0 45:0 46:0 47:0 48:0 49:0 50:0 51:0 52:0 53:0 54:0 55:0 56:0 57:0 58:0 59:0 60:0 61:0 62:1 63:0 64:0 65:0.16552921 66:0.51038642 67:0.57637855 68:0.57110031 69:0.5 70:0.5 71:0.59395173 72:0.57297177 73:0.5 74:0.5050425 75:0.55158194 76:0.72809075 77:0.59178069 78:0.5 79:0.5 80:0.58760282 81:0.59628465 82:0.60614792 83:0.55158194 84:0.55158194 85:0.62249648 86:0.71774857 87:0.5726707 88:0.59804257 89:0.61966649 
100 1:1 2:0 3:0 4:0 5:1 6:0 7:0 8:0 9:1 10:0 11:0 12:1 13:-1 14:-1 15:-1 16:-1 17:0 18:1 19:0 20:0 21:0.00010007005 22:0 23:1 24:0 25:0 26:0 27:1 28:0 29:0 30:0 31:0 32:0 33:0 34:0 35:0 36:0 37:0 38:0 39:0 40:0 41:0 42:0 43:0 44:0 45:0 46:0 47:0 48:0 49:0 50:0 51:0 52:0 53:0 54:0 55:0 56:0 57:0 58:0 59:0 60:0 61:0 62:1 63:0 64:0 65:0.11563229 66:0.51038642 67:0.57637855 68:0.57110031 69:0.5 70:0.5 71:0.59395173 72:0.57297177 73:0.5 74:0.5050425 75:0.55158194 76:0.72809075 77:0.59178069 78:0 79:0.5 80:0.58760282 81:0.59628465 82:0.60614792 83:0.55158194 84:0.55158194 85:0.62249648 86:0.71774857 87:0.5726707 88:0.59804257 89:0.61966649 
100 1:0 2:0 3:1 4:1 5:0 6:0 7:0 8:0 9:0 10:0 11:0 12:0 13:-1 14:-1 15:-1 16:-1 17:-1 18:1 19:0 20:0 21:0.00011118523 22:0 23:1 24:0 25:0 26:0 27:1 28:0 29:0 30:0 31:0 32:0 33:0 34:0 35:0 36:0 37:0 38:0 39:0 40:0 41:0 42:0 43:0 44:0 45:0 46:0 47:0 48:0 49:0 50:0 51:0 52:0 53:0 54:0 55:0 56:0 57:0 58:0 59:0 60:0 61:0 62:1 63:0 64:0 65:0.16552921 66:0.51038642 67:0.57637855 68:0.57110031 69:0.5 70:0.5 71:0.59395173 72:0.57297177 73:0.5 74:0.5050425 75:0.55158194 76:0.72809075 77:0.59178069 78:0.5 79:0.5 80:0.58760282 81:0.59628465 82:0.60614792 83:0.55158194 84:0.55158194 85:0.62249648 86:0.71774857 87:0.5726707 88:0.59804257 89:0.61966649 
82.81869211870139 1:0 2:0 3:1 4:0 5:1 6:0 7:0 8:0 9:0 10:0 11:0 12:0 13:-1 14:-1 15:-1 16:-1 17:0 18:1 19:0 20:0 21:0.00011109877 22:0 23:1 24:0 25:0 26:0 27:0 28:0 29:0 30:0 31:0 32:0 33:0 34:0 35:0 36:0 37:0 38:0 39:0 40:0 41:0 42:0 43:0 44:0 45:0 46:0 47:0 48:0 49:0 50:0 51:0 52:0 53:0 54:0 55:0 56:0 57:0 58:0 59:0 60:0 61:0 62:1 63:0 64:0 65:0.16552921 66:0.51038642 67:0.57637855 68:0.57110031 69:0.5 70:0.5 71:0.59395173 72:0.57297177 73:0.5 74:0.5050425 75:0.55158194 76:0.72809075 77:0.59178069 78:0 79:0.5 80:0.58760282 81:0.59628465 82:0.60614792 83:0.55158194 84:0.55158194 85:0.62249648 86:0.71774857 87:0.5726707 88:0.59804257 89:0.61966649 
100 1:0 2:1 3:0 4:1 5:0 6:0 7:0 8:0 9:1 10:0 11:0 12:1 13:-1 14:-1 15:-1 16:-1 17:-1 18:1 19:0 20:0 21:0.00010007005 22:0 23:1 24:0 25:0 26:0 27:1 28:0 29:0 30:0 31:0 32:0 33:0 34:0 35:0 36:0 37:0 38:0 39:0 40:0 41:0 42:0 43:0 44:0 45:0 46:0 47:0 48:0 49:0 50:0 51:0 52:0 53:0 54:0 55:0 56:0 57:0 58:0 59:0 60:0 61:0 62:1 63:0 64:0 65:0.11563229 66:0.51038642 67:0.57637855 68:0.57110031 69:0.5 70:0.5 71:0.59395173 72:0.57297177 73:0.5 74:0.5050425 75:0.55158194 76:0.72809075 77:0.59178069 78:0.5 79:0.5 80:0.58760282 81:0.59628465 82:0.60614792 83:0.55158194 84:0.55158194 85:0.62249648 86:0.71774857 87:0.5726707 88:0.59804257 89:0.61966649 
99.99007714678363 1:0 2:0 3:1 4:0 5:1 6:0 7:0 8:0 9:0 10:0 11:0 12:0 13:-1 14:-1 15:-1 16:-1 17:0 18:1 19:0 20:0 21:0.00011109877 22:0 23:1 24:0 25:0 26:0 27:0 28:0 29:0 30:0 31:0 32:0 33:0 34:0 35:0 36:0 37:0 38:0 39:0 40:0 41:0 42:0 43:0 44:0 45:0 46:0 47:0 48:0 49:0 50:0 51:0 52:0 53:0 54:0 55:0 56:0 57:0 58:0 59:0 60:0 61:0 62:1 63:0 64:0 65:0.16552921 66:0.51038642 67:0.57637855 68:0.57110031 69:0.5 70:0.5 71:0.59395173 72:0.57297177 73:0.5 74:0.5050425 75:0.55158194 76:0.72809075 77:0.59178069 78:0 79:0.5 80:0.58760282 81:0.59628465 82:0.60614792 83:0.55158194 84:0.55158194 85:0.62249648 86:0.71774857 87:0.5726707 88:0.59804257 89:0.61966649 
100 1:1 2:0 3:0 4:1 5:0 6:0 7:0 8:0 9:1 10:0 11:0 12:1 13:-1 14:-1 15:-1 16:-1 17:-1 18:1 19:0 20:0 21:0.00010006004 22:0 23:1 24:0 25:0 26:1 27:1 28:0 29:0 30:0 31:0 32:0 33:0 34:0 35:0 36:0 37:0 38:0 39:0 40:0 41:0 42:0 43:0 44:0 45:0 46:0 47:0 48:0 49:1 50:0 51:0 52:0 53:0 54:0 55:0 56:0 57:0 58:0 59:0 60:0 61:0 62:0 63:0 64:0 65:0 66:1 67:0.71751428 68:0.68243421 69:0.65300276 70:0.71018227 71:0.51923787 72:0.5 73:0.50461094 74:1 75:1 76:0.72736996 77:0.6094247 78:0.53696239 79:1 80:0.69771711 81:1 82:0.65300276 83:0.74612297 84:0.71149531 85:1 86:1 87:0.73958815 88:0.7067622 89:0.72754381 
100 1:1 2:0 3:0 4:1 5:0 6:0 7:0 8:0 9:1 10:0 11:0 12:1 13:-1 14:-1 15:-1 16:-1 17:-1 18:1 19:0 20:0 21:0.00010006004 22:0 23:1 24:0 25:0 26:1 27:1 28:0 29:0 30:0 31:0 32:0 33:0 34:0 35:0 36:0 37:0 38:0 39:0 40:0 41:0 42:0 43:0 44:0 45:0 46:0 47:0 48:0 49:1 50:0 51:0 52:0 53:0 54:0 55:0 56:0 57:0 58:0 59:0 60:0 61:0 62:0 63:0 64:0 65:0 66:1 67:0.71751428 68:0.68243421 69:0.65300276 70:0.71018227 71:0.51923787 72:0.5 73:0.50461094 74:1 75:1 76:0.72736996 77:0.6094247 78:0.53696239 79:1 80:0.69771711 81:1 82:0.65300276 83:0.74612297 84:0.71149531 85:1 86:1 87:0.73958815 88:0.7067622 89:0.72754381 
14.4469594305146 1:0 2:0 3:1 4:0 5:0 6:1 7:0 8:0 9:0 10:0 11:0 12:0 13:-1 14:-1 15:-1 16:-1 17:0 18:1 19:0 20:0 21:0.00011111111 22:0 23:1 24:0 25:0 26:1 27:0 28:1 29:0 30:0 31:0 32:0 33:0 34:0 35:0 36:0 37:0 38:0 39:0 40:0 41:0 42:0 43:0 44:0 45:0 46:0 47:0 48:0 49:1 50:0 51:0 52:0 53:0 54:0 55:0 56:0 57:0 58:0 59:0 60:0 61:0 62:0 63:0 64:0 65:0 66:0.5762336 67:0.50612291 68:0 69:0.65637742 70:0.50807294 71:0.71266202 72:0.5 73:0.58006539 74:0.67082516 75:0.65912789 76:0.60889656 77:0.61369498 78:0.57110031 79:1 80:0.53099127 81:0.69690729 82:0.62871442 83:0.66380453 84:0.55917891 85:0.70486142 86:0.73806073 87:0.66531714 88:0.69496876 89:0.61608192 
100 1:0 2:0 3:1 4:0 5:0 6:1 7:0 8:0 9:1 10:0 11:0 12:1 13:-1 14:-1 15:-1 16:-1 17:0 18:1 19:0 20:0 21:0.00010009008 22:0 23:1 24:0 25:0 26:0 27:1 28:0 29:0 30:0 31:0 32:0 33:0 34:0 35:0 36:0 37:0 38:0 39:0 40:0 41:0 42:0 43:0 44:0 45:0 46:0 47:0 48:0 49:1 50:0 51:0 52:0 53:0 54:0 55:0 56:0 57:0 58:0 59:0 60:0 61:0 62:0 63:0 64:0 65:0 66:0.5762336 67:0.50612291 68:0 69:0.65637742 70:0.50807294 71:0.71266202 72:0.5 73:0.58006539 74:0.67082516 75:0.65912789 76:0.60889656 77:0.61369498 78:0.57110031 79:1 80:0.53099127 81:0.69690729 82:0.62871442 83:0.66380453 84:0.55917891 85:0.70486142 86:0.73806073 87:0.66531714 88:0.69496876 89:0.61608192 
55.08123321395458 1:0 2:0 3:1 4:0 5:0 6:1 7:0 8:0 9:0 10:0 11:0 12:0 13:-1 14:-1 15:-1 16:-1 17:0 18:1 19:0 20:0 21:0.00011122233 22:0 23:1 24:0 25:0 26:1 27:1 28:1 29:0 30:0 31:0 32:0 33:0 34:0 35:0 36:0 37:0 38:0 39:0 40:0 41:0 42:0 43:0 44:0 45:0 46:0 47:0 48:0 49:1 50:0 51:0 52:0 53:0 54:0 55:0 56:0 57:0 58:0 59:0 60:0 61:0 62:0 63:0 64:0 65:0 66:0.5762336 67:0.50612291 68:0 69:0.65637742 70:0.50807294 71:0.71266202 72:0.5 73:0.58006539 74:0.67082516 75:0.65912789 76:0.60889656 77:0.61369498 78:0.57110031 79:1 80:0.53099127 81:0.69690729 82:0.62871442 83:0.66380453 84:0.55917891 85:0.70486142 86:0.73806073 87:0.66531714 88:0.69496876 89:0.61608192 
100 1:0 2:0 3:1 4:0 5:0 6:1 7:0 8:0 9:1 10:0 11:0 12:1 13:-1 14:-1 15:-1 16:-1 17:0 18:1 19:0 20:0 21:0.00010009008 22:0 23:1 24:0 25:0 26:0 27:1 28:0 29:0 30:0 31:0 32:0 33:0 34:0 35:0 36:0 37:0 38:0 39:0 40:0 41:0 42:0 43:0 44:0 45:0 46:0 47:0 48:0 49:1 50:0 51:0 52:0 53:0 54:0 55:0 56:0 57:0 58:0 59:0 60:0 61:0 62:0 63:0 64:0 65:0 66:0.5762336 67:0.50612291 68:0 69:0.65637742 70:0.50807294 71:0.71266202 72:0.5 73:0.58006539 74:0.67082516 75:0.65912789 76:0.60889656 77:0.61369498 78:0.57110031 79:1 80:0.53099127 81:0.69690729 82:0.62871442 83:0.66380453 84:0.55917891 85:0.70486142 86:0.73806073 87:0.66531714 88:0.69496876 89:0.61608192 
100 1:0 2:0 3:1 4:0 5:0 6:1 7:0 8:0 9:0 10:0 11:0 12:0 13:-1 14:-1 15:-1 16:-1 17:0 18:1 19:0 20:0 21:0.00011111111 22:0 23:1 24:0 25:0 26:1 27:0 28:1 29:0 30:0 31:0 32:0 33:0 34:0 35:0 36:0 37:0 38:0 39:0 40:0 41:0 42:0 43:0 44:0 45:0 46:0 47:0 48:0 49:1 50:0 51:0 52:0 53:0 54:0 55:0 56:0 57:0 58:0 59:0 60:0 61:0 62:0 63:0 64:0 65:0 66:0.5762336 67:0.50612291 68:0 69:0.65637742 70:0.50807294 71:0.71266202 72:0.5 73:0.58006539 74:0.67082516 75:0.65912789 76:0.60889656 77:0.61369498 78:0.57110031 79:1 80:0.53099127 81:0.69690729 82:0.62871442 83:0.66380453 84:0.55917891 85:0.70486142 86:0.73806073 87:0.66531714 88:0.69496876 89:0.61608192 
16.13850705967363 1:0 2:0 3:1 4:0 5:0 6:1 7:0 8:0 9:0 10:0 11:0 12:0 13:-1 14:-1 15:-1 16:-1 17:0 18:1 19:0 20:0 21:0.00011122233 22:0 23:1 24:0 25:0 26:1 27:1 28:1 29:0 30:0 31:0 32:0 33:0 34:0 35:0 36:0 37:0 38:0 39:0 40:0 41:0 42:0 43:0 44:0 45:0 46:0 47:0 48:0 49:1 50:0 51:0 52:0 53:0 54:0 55:0 56:0 57:0 58:0 59:0 60:0 61:0 62:0 63:0 64:0 65:0 66:0.5762336 67:0.50612291 68:0 69:0.65637742 70:0.50807294 71:0.71266202 72:0.5 73:0.58006539 74:0.67082516 75:0.65912789 76:0.60889656 77:0.61369498 78:0.57110031 79:1 80:0.53099127 81:0.69690729 82:0.62871442 83:0.66380453 84:0.55917891 85:0.70486142 86:0.73806073 87:0.66531714 88:0.69496876 89:0.61608192 
90.22482069147873 1:1 2:0 3:0 4:0 5:0 6:1 7:0 8:0 9:1 10:0 11:0 12:1 13:-1 14:-1 15:-1 16:-1 17:-1 18:1 19:0 20:-1 21:0.00011103709 22:0 23:1 24:0 25:0 26:0 27:0 28:0 29:0 30:0 31:0 32:0 33:0 34:0 35:0 36:0 37:0 38:0 39:0 40:0 41:0 42:0 43:0 44:0 45:0 46:0 47:0 48:0 49:0 50:0 51:0 52:1 53:0 54:0 55:0 56:0 57:0 58:0 59:0 60:0 61:0 62:1 63:0 64:0 65:1 66:1 67:1 68:1 69:1 70:1 71:1 72:1 73:1 74:1 75:1 76:1 77:1 78:1 79:1 80:1 81:1 82:1 83:1 84:1 85:1 86:1 87:1 88:1 89:1 
100 1:0 2:0 3:1 4:1 5:0 6:0 7:0 8:0 9:1 10:0 11:0 12:1 13:-1 14:-1 15:-1 16:-1 17:-1 18:1 19:0 20:-1 21:0.00011103709 22:0 23:1 24:0 25:0 26:0 27:0 28:0 29:0 30:0 31:0 32:0 33:0 34:0 35:0 36:0 37:0 38:0 39:0 40:0 41:0 42:0 43:0 44:0 45:0 46:0 47:0 48:0 49:0 50:0 51:0 52:1 53:0 54:0 55:0 56:0 57:0 58:0 59:0 60:0 61:0 62:1 63:0 64:0 65:1 66:0.67314117 67:0.6777376 68:0.74407036 69:0.68764651 70:0.64460208 71:0.63839973 72:0.64465256 73:0.54069923 74:0.5044434 75:0.5 76:0.59992851 77:0.60822232 78:0.55158194 79:0.63032069 80:0.52521678 81:0.59025458 82:0.66463374 83:0.5 84:0.5 85:0.68030414 86:0.63663093 87:0.53506607 88:0.59459895 89:0.71197416 
100 1:1 2:0 3:0 4:1 5:0 6:0 7:0 8:0 9:1 10:0 11:0 12:1 13:-1 14:-1 15:-1 16:-1 17:-1 18:1 19:1 20:0 21:0.00010007005 22:0 23:1 24:0 25:0 26:1 27:1 28:0 29:0 30:0 31:0 32:0 33:0 34:0 35:0 36:0 37:0 38:0 39:0 40:0 41:0 42:0 43:0 44:0 45:0 46:0 47:0 48:0 49:1 50:0 51:0 52:0 53:0 54:0 55:0 56:0 57:0 58:0 59:0 60:0 61:0 62:0 63:0 64:0 65:0 66:0.60704383 67:0.62672172 68:0.65637742 69:0.5 70:0.55777347 71:0.52334564 72:0.5 73:0.5 74:0.61724539 75:0.68764651 76:0.70838597 77:0.56925174 78:0.5 79:1 80:0.5 81:0.59736886 82:0.5 83:0.58115262 84:0.61113797 85:1 86:0.71105503 87:0.69599497 88:0.68468357 89:0.70858486 
100 1:1 2:0 3:0 4:1 5:0 6:0 7:0 8:0 9:1 10:0 11:0 12:1 13:-1 14:-1 15:-1 16:-1 17:-1 18:1 19:1 20:0 21:0.00010007005 22:0 23:1 24:0 25:0 26:1 27:1 28:0 29:0 30:0 31:0 32:0 33:0 34:0 35:0 36:0 37:0 38:0 39:0 40:0 41:0 42:0 43:0 44:0 45:0 46:0 47:0 48:0 49:1 50:0 51:0 52:0 53:0 54:0 55:0 56:0 57:0 58:0 59:0 60:0 61:0 62:0 63:0 64:0 65:0 66:0.60704383 67:0.62672172 68:0.65637742 69:0.5 70:0.55777347 71:0.52334564 72:0.5 73:0.5 74:0.61724539 75:0.68764651 76:0.70838597 77:0.56925174 78:0.5 79:1 80:0.5 81:0.59736886 82:0.5 83:0.58115262 84:0.61113797 85:1 86:0.71105503 87:0.69599497 88:0.68468357 89:0.70858486 
100 1:0 2:0 3:1 4:1 5:0 6:0 7:0 8:0 9:0 10:0 11:0 12:0 13:-1 14:-1 15:-1 16:-1 17:-1 18:1 19:0 20:0 21:0.00010005003 22:1 23:0 24:0 25:0 26:1 27:0 28:0 29:0 30:0 31:0 32:0 33:0 34:0 35:0 36:0 37:0 38:0 39:0 40:0 41:0 42:0 43:0 44:0 45:0 46:0 47:0 48:0 49:0 50:0 51:0 52:0 53:0 54:0 55:0 56:0 57:0 58:0 59:0 60:0 61:0 62:0 63:0 64:0 65:1 66:0.60704383 67:0.62672172 68:0.65637742 69:0.5 70:0.55777347 71:0.52334564 72:0.5 73:0.5 74:0.61724539 75:0.68764651 76:0.70838597 77:0.56925174 78:0.5 79:1 80:0.5 81:0.59736886 82:0.5 83:0.58115262 84:0.61113797 85:1 86:0.71105503 87:0.69599497 88:0.68468357 89:0.70858486 
100 1:1 2:0 3:0 4:0 5:0 6:1 7:0 8:0 9:0 10:0 11:0 12:0 13:-1 14:-1 15:-1 16:-1 17:-1 18:1 19:0 20:0 21:0.00010005003 22:1 23:0 24:0 25:0 26:1 27:0 28:0 29:0 30:0 31:0 32:0 33:0 34:0 35:0 36:0 37:0 38:0 39:0 40:0 41:0 42:0 43:0 44:0 45:0 46:0 47:0 48:0 49:0 50:0 51:0 52:0 53:0 54:0 55:0 56:0 57:0 58:0 59:0 60:0 61:0 62:0 63:0 64:0 65:1 66:1 67:1 68:1 69:1 70:1 71:1 72:1 73:1 74:1 75:1 76:1 77:1 78:1 79:1 80:1 81:1 82:1 83:1 84:1 85:1 86:1 87:1 88:1 89:1 
100 1:0 2:1 3:0 4:0 5:1 6:0 7:0 8:0 9:0 10:0 11:0 12:0 13:-1 14:-1 15:-1 16:-1 17:-1 18:1 19:1 20:0 21:0.00011114816 22:1 23:0 24:0 25:0 26:0 27:1 28:0 29:0 30:0 31:0 32:0 33:0 34:0 35:0 36:0 37:0 38:0 39:0 40:0 41:0 42:0 43:0 44:0 45:0 46:0 47:0 48:0 49:0 50:0 51:0 52:0 53:0 54:0 55:0 56:0 57:0 58:0 59:0 60:0 61:0 62:0 63:0 64:0 65:1 66:0 67:0.56605013 68:0.5762336 69:0.60704383 70:0.51038642 71:0.60524874 72:0.58451828 73:0.57027391 74:0.51562859 75:0.67314117 76:1 77:1 78:0.51038642 79:1 80:0.50115272 81:0.70435108 82:1 83:0.61748695 84:1 85:1 86:0.65707077 87:0.64833298 88:1 89:1 
100 1:0 2:1 3:0 4:0 5:1 6:0 7:0 8:0 9:0 10:0 11:0 12:0 13:-1 14:-1 15:-1 16:-1 17:-1 18:1 19:1 20:0 21:0.00011114816 22:1 23:0 24:0 25:0 26:0 27:1 28:0 29:0 30:0 31:0 32:0 33:0 34:0 35:0 36:0 37:0 38:0 39:0 40:0 41:0 42:0 43:0 44:0 45:0 46:0 47:0 48:0 49:0 50:0 51:0 52:0 53:0 54:0 55:0 56:0 57:0 58:0 59:0 60:0 61:0 62:0 63:0 64:0 65:1 66:1 67:1 68:1 69:1 70:1 71:1 72:1 73:1 74:1 75:1 76:1 77:1 78:1 79:1 80:1 81:1 82:1 83:1 84:1 85:1 86:1 87:1 88:1 89:1 
100 1:1 2:0 3:0 4:1 5:0 6:0 7:0 8:0 9:0 10:0 11:0 12:0 13:-1 14:-1 15:-1 16:-1 17:-1 18:1 19:0 20:0 21:0.00011112346 22:1 23:0 24:0 25:0 26:0 27:1 28:0 29:0 30:0 31:0 32:0 33:0 34:0 35:0 36:0 37:0 38:0 39:0 40:0 41:0 42:0 43:0 44:0 45:0 46:0 47:0 48:0 49:0 50:0 51:0 52:0 53:0 54:0 55:0 56:0 57:0 58:0 59:0 60:0 61:0 62:0 63:0 64:0 65:0.20634081 66:0.70435108 67:1 68:0.76657414 69:0.59736886 70:0.67628317 71:0.69006109 72:0.52404624 73:0.62427459 74:1 75:0.59025458 76:1 77:0.68397625 78:0.59628465 79:0.66645747 80:0.52118108 81:0 82:0.60178421 83:0.59025458 84:0.69108982 85:0.70872819 86:0.76735766 87:0.68567938 88:0.73718668 89:1 
100 1:1 2:0 3:0 4:1 5:0 6:0 7:0 8:0 9:0 10:0 11:0 12:0 13:-1 14:-1 15:-1 16:-1 17:-1 18:1 19:0 20:0 21:0.00011112346 22:1 23:0 24:0 25:0 26:0 27:1 28:0 29:0 30:0 31:0 32:0 33:0 34:0 35:0 36:0 37:0 38:0 39:0 40:0 41:0 42:0 43:0 44:0 45:0 46:0 47:0 48:0 49:0 50:0 51:0 52:0 53:0 54:0 55:0 56:0 57:0 58:0 59:0 60:0 61:0 62:0 63:0 64:0 65:0.20634081 66:0.60704383 67:0.62672172 68:0.65637742 69:0.5 70:0.55777347 71:0.52334564 72:0.5 73:0.5 74:0.61724539 75:0.68764651 76:0.70838597 77:0.56925174 78:0.5 79:1 80:0.5 81:0.59736886 82:0.5 83:0.58115262 84:0.61113797 85:1 86:0.71105503 87:0.69599497 88:0.68468357 89:0.70858486 
100 1:0 2:1 3:0 4:0 5:0 6:1 7:0 8:0 9:0 10:0 11:0 12:0 13:-1 14:-1 15:-1 16:-1 17:0 18:1 19:-1 20:0 21:0.00011111111 22:1 23:0 24:0 25:0 26:0 27:1 28:0 29:0 30:0 31:0 32:0 33:0 34:0 35:0 36:0 37:0 38:0 39:0 40:0 41:0 42:0 43:0 44:0 45:0 46:0 47:0 48:0 49:0 50:0 51:0 52:0 53:0 54:0 55:0 56:0 57:0 58:0 59:0 60:0 61:0 62:0 63:0 64:0 65:0.23058977 66:0.67556192 67:0.56804372 68:0.55515622 69:0.60749052 70:0.62488497 71:0.57913788 72:0.54225473 73:0.55657714 74:0.66350504 75:0.6377354 76:0.71322157 77:0.53387358 78:0.56286947 79:1 80:0.58970226 81:0.7874287 82:0.7103189 83:0.6377354 84:0.60834892 85:1 86:0.70169338 87:0.55704367 88:0.50832486 89:0.5893858 
100 1:0 2:0 3:1 4:0 5:1 6:0 7:0 8:0 9:0 10:0 11:0 12:0 13:-1 14:-1 15:-1 16:-1 17:0 18:1 19:-1 20:0 21:0.00011111111 22:1 23:0 24:0 25:0 26:0 27:1 28:0 29:0 30:0 31:0 32:0 33:0 34:0 35:0 36:0 37:0 38:0 39:0 40:0 41:0 42:0 43:0 44:0 45:0 46:0 47:0 48:0 49:0 50:0 51:0 52:0 53:0 54:0 55:0 56:0 57:0 58:0 59:0 60:0 61:0 62:0 63:0 64:0 65:0.23058977 66:0 67:0.56605013 68:0.5762336 69:0.60704383 70:0.51038642 71:0.60524874 72:0.58451828 73:0.57027391 74:0.51562859 75:0.67314117 76:1 77:1 78:0.51038642 79:1 80:0.50115272 81:0.70435108 82:1 83:0.61748695 84:1 85:1 86:0.65707077 87:0.64833298 88:1 89:1 
100 1:1 2:0 3:0 4:0 5:0 6:1 7:0 8:0 9:0 10:0 11:0 12:0 13:-1 14:-1 15:-1 16:-1 17:-1 18:1 19:0 20:0 21:0.00011106175 22:1 23:0 24:0 25:0 26:0 27:0 28:0 29:0 30:0 31:0 32:0 33:0 34:0 35:0 36:0 37:0 38:0 39:0 40:0 41:0 42:0 43:0 44:0 45:0 46:0 47:0 48:0 49:0 50:0 51:0 52:0 53:0 54:0 55:0 56:0 57:0 58:0 59:0 60:0 61:0 62:0 63:0 64:0 65:0.16552921 66:0.51038642 67:0.57637855 68:0.57110031 69:0.5 70:0.5 71:0.59395173 72:0.57297177 73:0.5 74:0.5050425 75:0.55158194 76:0.72809075 77:0.59178069 78:0 79:0.5 80:0.58760282 81:0.59628465 82:0.60614792 83:0.55158194 84:0.55158194 85:0.62249648 86:0.71774857 87:0.5726707 88:0.59804257 89:0.61966649 
100 1:0 2:0 3:1 4:1 5:0 6:0 7:0 8:0 9:0 10:0 11:0 12:0 13:-1 14:-1 15:-1 16:-1 17:-1 18:1 19:0 20:0 21:0.00011106175 22:1 23:0 24:0 25:0 26:0 27:0 28:0 29:0 30:0 31:0 32:0 33:0 34:0 35:0 36:0 37:0 38:0 39:0 40:0 41:0 42:0 43:0 44:0 45:0 46:0 47:0 48:0 49:0 50:0 51:0 52:0 53:0 54:0 55:0 56:0 57:0 58:0 59:0 60:0 61:0 62:0 63:0 64:0 65:0.16552921 66:0.60704383 67:0.62672172 68:0.65637742 69:0.5 70:0.55777347 71:0.52334564 72:0.5 73:0.5 74:0.61724539 75:0.68764651 76:0.70838597 77:0.56925174 78:0.5 79:1 80:0.5 81:0.59736886 82:0.5 83:0.58115262 84:0.61113797 85:1 86:0.71105503 87:0.69599497 88:0.68468357 89:0.70858486 
100 1:1 2:0 3:0 4:0 5:1 6:0 7:0 8:0 9:0 10:0 11:0 12:0 13:-1 14:-1 15:-1 16:-1 17:-1 18:1 19:0 20:0 21:0.00011111111 22:1 23:0 24:0 25:0 26:0 27:1 28:0 29:0 30:0 31:0 32:0 33:0 34:0 35:0 36:0 37:0 38:0 39:0 40:0 41:0 42:0 43:0 44:0 45:0 46:0 47:0 48:0 49:0 50:0 51:0 52:0 53:0 54:0 55:0 56:0 57:0 58:0 59:0 60:0 61:0 62:0 63:0 64:0 65:0.2477346 66:0 67:0.56605013 68:0.5762336 69:0.60704383 70:0.51038642 71:0.60524874 72:0.58451828 73:0.57027391 74:0.51562859 75:0.67314117 76:1 77:1 78:0.51038642 79:1 80:0.50115272 81:0.70435108 82:1 83:0.61748695 84:1 85:1 86:0.65707077 87:0.64833298 88:1 89:1 
100 1:0 2:1 3:0 4:1 5:0 6:0 7:0 8:0 9:0 10:0 11:0 12:0 13:-1 14:-1 15:-1 16:-1 17:-1 18:1 19:0 20:0 21:0.00011111111 22:1 23:0 24:0 25:0 26:0 27:1 28:0 29:0 30:0 31:0 32:0 33:0 34:0 35:0 36:0 37:0 38:0 39:0 40:0 41:0 42:0 43:0 44:0 45:0 46:0 47:0 48:0 49:0 50:0 51:0 52:0 53:0 54:0 55:0 56:0 57:0 58:0 59:0 60:0 61:0 62:0 63:0 64:0 65:0.2477346 66:1 67:1 68:1 69:0.58029681 70:1 71:0.50713584 72:1 73:1 74:1 75:1 76:1 77:1 78:1 79:1 80:0.58719245 81:1 82:1 83:1 84:1 85:1 86:1 87:1 88:1 89:1 
7.988994368984352 1:0 2:0 3:1 4:0 5:0 6:1 7:0 8:0 9:0 10:0 11:0 12:0 13:-1 14:-1 15:-1 16:1 17:-1 18:1 19:1 20:0 21:0.00010002 22:1 23:0 24:0 25:0 26:0 27:0 28:0 29:0 30:0 31:0 32:0 33:0 34:0 35:0 36:0 37:0 38:0 39:0 40:0 41:0 42:0 43:0 44:0 45:0 46:0 47:0 48:0 49:0 50:0 51:0 52:0 53:0 54:0 55:0 56:0 57:0 58:0 59:0 60:0 61:0 62:1 63:0 64:0 65:1 66:1 67:1 68:1 69:1 70:1 71:1 72:1 73:1 74:1 75:1 76:1 77:1 78:1 79:1 80:1 81:1 82:1 83:1 84:1 85:1 86:1 87:1 88:1 89:1 
19.44364187907016 1:0 2:0 3:1 4:0 5:0 6:1 7:0 8:0 9:0 10:0 11:0 12:0 13:-1 14:-1 15:1 16:-1 17:-1 18:1 19:1 20:0 21:0.00010002 22:1 23:0 24:0 25:0 26:0 27:0 28:0 29:0 30:0 31:0 32:0 33:0 34:0 35:0 36:0 37:0 38:0 39:0 40:0 41:0 42:0 43:0 44:0 45:0 46:0 47:0 48:0 49:0 50:0 51:0 52:0 53:0 54:0 55:0 56:0 57:0 58:0 59:0 60:0 61:0 62:1 63:0 64:0 65:1 66:0.56605013 67:0 68:0.50612291 69:0 70:0.55777347 71:0.52334564 72:0.5 73:0.5 74:0.61724539 75:0.6777376 76:0.70838597 77:0.56925174 78:0.5 79:1 80:0.5 81:0.59736886 82:0.5 83:0.58115262 84:0.5 85:1 86:0.71105503 87:0.57986763 88:0.68468357 89:0.70858486 
100 1:0 2:0 3:1 4:0 5:0 6:1 7:0 8:0 9:0 10:0 11:0 12:0 13:-1 14:-1 15:-1 16:-1 17:0 18:1 19:0 20:0 21:0.00011111111 22:1 23:0 24:0 25:0 26:0 27:0 28:0 29:0 30:0 31:0 32:0 33:0 34:0 35:0 36:0 37:0 38:0 39:0 40:0 41:0 42:0 43:0 44:0 45:0 46:0 47:0 48:0 49:0 50:0 51:0 52:0 53:0 54:0 55:0 56:0 57:0 58:0 59:0 60:0 61:0 62:1 63:0 64:0 65:0.16318861 66:0.51038642 67:0.57637855 68:0.57110031 69:0.5 70:0.5 71:0.59395173 72:0.57297177 73:0.5 74:0.5050425 75:0.55158194 76:0.72809075 77:0.59178069 78:0 79:0.5 80:0.58760282 81:0.59628465 82:0.60614792 83:0.55158194 84:0.55158194 85:0.62249648 86:0.71774857 87:0.5726707 88:0.59804257 89:0.61966649 
100 1:0 2:0 3:1 4:0 5:0 6:1 7:0 8:0 9:0 10:0 11:0 12:0 13:-1 14:-1 15:-1 16:-1 17:0 18:1 19:0 20:0 21:0.00011111111 22:1 23:0 24:0 25:0 26:0 27:0 28:0 29:0 30:0 31:0 32:0 33:0 34:0 35:0 36:0 37:0 38:0 39:0 40:0 41:0 42:0 43:0 44:0 45:0 46:0 47:0 48:0 49:0 50:0 51:0 52:0 53:0 54:0 55:0 56:0 57:0 58:0 59:0 60:0 61:0 62:1 63:0 64:0 65:0.16318861 66:0.56605013 67:0 68:0.50612291 69:0 70:0.55777347 71:0.52334564 72:0.5 73:0.5 74:0.61724539 75:0.6777376 76:0.70838597 77:0.56925174 78:0.5 79:1 80:0.5 81:0.59736886 82:0.5 83:0.58115262 84:0.5 85:1 86:0.71105503 87:0.57986763 88:0.68468357 89:0.70858486 
81.06689471410382 1:1 2:0 3:0 4:0 5:0 6:1 7:0 8:0 9:0 10:0 11:0 12:0 13:-1 14:-1 15:-1 16:-1 17:-1 18:1 19:-1 20:0 21:0.00010006004 22:0 23:1 24:0 25:0 26:0 27:1 28:0 29:0 30:0 31:0 32:0 33:0 34:0 35:0 36:0 37:0 38:0 39:0 40:0 41:0 42:0 43:0 44:0 45:0 46:0 47:0 48:0 49:0 50:0 51:0 52:0 53:0 54:0 55:0 56:0 57:0 58:0 59:0 60:0 61:0 62:0 63:0 64:0 65:0.10004297 66:0.56605013 67:0.5 68:0.53574303 69:0.56543439 70:0.65733875 71:0.6727381 72:0.52346654 73:0.5777905 74:0.69132379 75:0.65479569 76:0.73367711 77:0.66471719 78:0.57572185 79:0.64493125 80:0.55667697 81:0.6847621 82:1 83:0.65479569 84:0.64788284 85:1 86:0.72376327 87:0.71440915 88:0.69406067 89:0.75282115 
100 1:1 2:0 3:0 4:0 5:0 6:1 7:0 8:0 9:0 10:0 11:0 12:0 13:-1 14:-1 15:-1 16:-1 17:-1 18:1 19:0 20:0 21:0.00011106175 22:1 23:0 24:0 25:0 26:0 27:0 28:0 29:0 30:0 31:0 32:0 33:0 34:0 35:0 36:0 37:0 38:0 39:0 40:0 41:0 42:0 43:0 44:0 45:0 46:0 47:0 48:0 49:0 50:0 51:0 52:0 53:0 54:0 55:0 56:0 57:0 58:0 59:0 60:0 61:0 62:0 63:0 64:0 65:0.16552921 66:0.51038642 67:0.57637855 68:0.57110031 69:0.5 70:0.5 71:0.59395173 72:0.57297177 73:0.5 74:0.5050425 75:0.55158194 76:0.72809075 77:0.59178069 78:0 79:0.5 80:0.58760282 81:0.59628465 82:0.60614792 83:0.55158194 84:0.55158194 85:0.62249648 86:0.71774857 87:0.5726707 88:0.59804257 89:0.61966649 
100 1:0 2:0 3:1 4:1 5:0 6:0 7:0 8:0 9:0 10:0 11:0 12:0 13:-1 14:-1 15:-1 16:-1 17:-1 18:1 19:0 20:0 21:0.00011106175 22:1 23:0 24:0 25:0 26:0 27:0 28:0 29:0 30:0 31:0 32:0 33:0 34:0 35:0 36:0 37:0 38:0 39:0 40:0 41:0 42:0 43:0 44:0 45:0 46:0 47:0 48:0 49:0 50:0 51:0 52:0 53:0 54:0 55:0 56:0 57:0 58:0 59:0 60:0 61:0 62:0 63:0 64:0 65:0.16552921 66:0.60704383 67:0.62672172 68:0.65637742 69:0.5 70:0.55777347 71:0.52334564 72:0.5 73:0.5 74:0.61724539 75:0.68764651 76:0.70838597 77:0.56925174 78:0.5 79:1 80:0.5 81:0.59736886 82:0.5 83:0.58115262 84:0.61113797 85:1 86:0.71105503 87:0.69599497 88:0.68468357 89:0.70858486 
100 1:0 2:1 3:0 4:1 5:0 6:0 7:0 8:0 9:0 10:0 11:0 12:0 13:-1 14:-1 15:-1 16:-1 17:1 18:1 19:0 20:0 21:0.00011111111 22:1 23:0 24:0 25:0 26:0 27:0 28:0 29:0 30:0 31:0 32:0 33:0 34:0 35:0 36:0 37:0 38:0 39:0 40:0 41:0 42:0 43:0 44:0 45:0 46:0 47:0 48:0 49:0 50:0 51:0 52:0 53:0 54:0 55:0 56:0 57:0 58:0 59:0 60:0 61:0 62:0 63:0 64:0 65:1 66:1 67:1 68:1 69:0.58029681 70:1 71:0.50713584 72:1 73:1 74:1 75:1 76:1 77:1 78:1 79:1 80:0.58719245 81:1 82:1 83:1 84:1 85:1 86:1 87:1 88:1 89:1 
11.38926460074871 1:1 2:0 3:0 4:0 5:1 6:0 7:0 8:0 9:0 10:0 11:0 12:0 13:-1 14:-1 15:-1 16:-1 17:1 18:1 19:0 20:0 21:0.00011111111 22:1 23:0 24:0 25:0 26:0 27:0 28:0 29:0 30:0 31:0 32:0 33:0 34:0 35:0 36:0 37:0 38:0 39:0 40:0 41:0 42:0 43:0 44:0 45:0 46:0 47:0 48:0 49:0 50:0 51:0 52:0 53:0 54:0 55:0 56:0 57:0 58:0 59:0 60:0 61:0 62:0 63:0 64:0 65:1 66:1 67:1 68:1 69:1 70:1 71:1 72:1 73:1 74:1 75:1 76:1 77:1 78:1 79:1 80:1 81:1 82:1 83:1 84:1 85:1 86:1 87:1 88:1 89:1 
100 1:0 2:0 3:1 4:1 5:0 6:0 7:0 8:0 9:0 10:0 11:0 12:0 13:-1 14:-1 15:-1 16:-1 17:-1 18:1 19:0 20:0 21:0.00011108643 22:1 23:0 24:0 25:0 26:0 27:0 28:0 29:0 30:0 31:0 32:0 33:0 34:0 35:0 36:0 37:0 38:0 39:0 40:0 41:0 42:0 43:0 44:0 45:0 46:0 47:0 48:0 49:0 50:0 51:0 52:0 53:0 54:0 55:0 56:0 57:0 58:0 59:0 60:0 61:0 62:0 63:0 64:0 65:0.13639912 66:1 67:1 68:1 69:0.50232237 70:1 71:1 72:0.50232237 73:0.50232237 74:1 75:1 76:1 77:1 78:1 79:1 80:0.50828473 81:0.66208832 82:0.64551802 83:1 84:1 85:1 86:1 87:1 88:1 89:1 
100 1:1 2:0 3:0 4:0 5:0 6:1 7:0 8:0 9:0 10:0 11:0 12:0 13:-1 14:-1 15:-1 16:-1 17:-1 18:1 19:0 20:0 21:0.00011108643 22:1 23:0 24:0 25:0 26:0 27:0 28:0 29:0 30:0 31:0 32:0 33:0 34:0 35:0 36:0 37:0 38:0 39:0 40:0 41:0 42:0 43:0 44:0 45:0 46:0 47:0 48:0 49:0 50:0 51:0 52:0 53:0 54:0 55:0 56:0 57:0 58:0 59:0 60:0 61:0 62:0 63:0 64:0 65:0.13639912 66:1 67:1 68:1 69:1 70:1 71:1 72:1 73:0.66641073 74:1 75:0.66811823 76:1 77:1 78:0.67500983 79:1 80:0.70319769 81:0.698647 82:0.69196978 83:0.71034822 84:0.71034822 85:0.70524022 86:1 87:0.6816137 88:0.73378158 89:1 
100 1:0 2:1 3:0 4:0 5:1 6:0 7:0 8:0 9:0 10:0 11:0 12:0 13:-1 14:-1 15:-1 16:-1 17:-1 18:1 19:0 20:0 21:0.00011114816 22:1 23:0 24:0 25:0 26:0 27:0 28:0 29:0 30:0 31:0 32:0 33:0 34:0 35:0 36:0 37:0 38:0 39:0 40:0 41:0 42:0 43:0 44:0 45:0 46:0 47:0 48:0 49:0 50:0 51:0 52:0 53:0 54:0 55:0 56:0 57:0 58:0 59:0 60:0 61:0 62:0 63:0 64:0 65:1 66:1 67:1 68:1 69:1 70:1 71:1 72:1 73:1 74:1 75:1 76:1 77:1 78:1 79:1 80:1 81:1 82:1 83:1 84:1 85:1 86:1 87:1 88:1 89:1 
100 1:0 2:1 3:0 4:0 5:1 6:0 7:0 8:0 9:0 10:0 11:0 12:0 13:-1 14:-1 15:-1 16:-1 17:-1 18:1 19:0 20:0 21:0.00011114816 22:1 23:0 24:0 25:0 26:0 27:0 28:0 29:0 30:0 31:0 32:0 33:0 34:0 35:0 36:0 37:0 38:0 39:0 40:0 41:0 42:0 43:0 44:0 45:0 46:0 47:0 48:0 49:0 50:0 51:0 52:0 53:0 54:0 55:0 56:0 57:0 58:0 59:0 60:0 61:0 62:0 63:0 64:0 65:1 66:1 67:1 68:1 69:1 70:1 71:1 72:1 73:1 74:1 75:1 76:1 77:1 78:1 79:1 80:1 81:1 82:1 83:1 84:1 85:1 86:1 87:1 88:1 89:1 
100 1:1 2:0 3:0 4:0 5:1 6:0 7:0 8:0 9:0 10:0 11:0 12:0 13:-1 14:-1 15:-1 16:-1 17:-1 18:1 19:0 20:-1 21:0.00011111111 22:1 23:0 24:0 25:0 26:0 27:0 28:0 29:0 30:0 31:0 32:0 33:0 34:0 35:0 36:0 37:0 38:0 39:0 40:0 41:0 42:0 43:0 44:0 45:0 46:0 47:0 48:0 49:0 50:0 51:0 52:0 53:0 54:0 55:0 56:0 57:0 58:0 59:0 60:0 61:0 62:0 63:0 64:0 65:1 66:1 67:1 68:1 69:1 70:1 71:1 72:1 73:1 74:1 75:1 76:1 77:1 78:1 79:1 80:1 81:1 82:1 83:1 84:1 85:1 86:1 87:1 88:1 89:1 
100 1:0 2:1 3:0 4:1 5:0 6:0 7:0 8:0 9:0 10:0 11:0 12:0 13:-1 14:-1 15:-1 16:-1 17:-1 18:1 19:0 20:-1 21:0.00011111111 22:1 23:0 24:0 25:0 26:0 27:0 28:0 29:0 30:0 31:0 32:0 33:0 34:0 35:0 36:0 37:0 38:0 39:0 40:0 41:0 42:0 43:0 44:0 45:0 46:0 47:0 48:0 49:0 50:0 51:0 52:0 53:0 54:0 55:0 56:0 57:0 58:0 59:0 60:0 61:0 62:0 63:0 64:0 65:1 66:0.67556192 67:0.56804372 68:0.55515622 69:0.60749052 70:0.62488497 71:0.57913788 72:0.54225473 73:0.55657714 74:0.66350504 75:0.6377354 76:0.71322157 77:0.53387358 78:0.56286947 79:1 80:0.58970226 81:0.7874287 82:0.7103189 83:0.6377354 84:0.60834892 85:1 86:0.70169338 87:0.55704367 88:0.50832486 89:0.5893858 
35.11544457735515 1:0 2:1 3:0 4:1 5:0 6:0 7:0 8:0 9:0 10:0 11:0 12:0 13:-1 14:-1 15:-1 16:-1 17:-1 18:1 19:0 20:0 21:0.00011113581 22:0 23:1 24:0 25:0 26:0 27:0 28:0 29:0 30:0 31:0 32:0 33:0 34:0 35:0 36:0 37:0 38:0 39:0 40:0 41:0 42:0 43:0 44:0 45:0 46:0 47:0 48:0 49:0 50:0 51:0 52:0 53:0 54:0 55:0 56:0 57:0 58:0 59:0 60:0 61:0 62:0 63:0 64:0 65:1 66:1 67:0.56027865 68:1 69:0.59994289 70:0.61980464 71:0.63469664 72:0.61185345 73:0.56027865 74:0.62388926 75:0.57366212 76:0.64851983 77:0.68384031 78:0.60826839 79:0.66630603 80:0.59994289 81:0.70075241 82:1 83:0.57366212 84:0.5 85:1 86:0.65714504 87:0.64742908 88:0.68725487 89:0.74839751 
0.3570695097241823 1:1 2:0 3:0 4:1 5:0 6:0 7:0 8:0 9:0 10:0 11:0 12:0 13:-1 14:-1 15:-1 16:-1 17:-1 18:1 19:0 20:-1 21:0.00011113581 22:0 23:1 24:0 25:0 26:0 27:0 28:0 29:0 30:0 31:0 32:0 33:0 34:0 35:0 36:0 37:0 38:0 39:0 40:0 41:0 42:0 43:0 44:0 45:0 46:0 47:0 48:0 49:0 50:0 51:0 52:0 53:0 54:0 55:0 56:0 57:0 58:0 59:0 60:0 61:0 62:1 63:0 64:0 65:0.16552921 66:0.51038642 67:0.57637855 68:0.57110031 69:0.5 70:0.5 71:0.59395173 72:0.57297177 73:0.5 74:0.5050425 75:0.55158194 76:0.72809075 77:0.59178069 78:0.5 79:0.5 80:0.58760282 81:0.59628465 82:0.60614792 83:0.55158194 84:0.55158194 85:0.62249648 86:0.71774857 87:0.5726707 88:0.59804257 89:0.61966649 
100 1:1 2:0 3:0 4:0 5:0 6:1 7:0 8:0 9:0 10:0 11:0 12:0 13:-1 14:-1 15:-1 16:-1 17:-1 18:1 19:0 20:0 21:0.00010005003 22:0 23:1 24:0 25:0 26:0 27:1 28:0 29:0 30:0 31:0 32:0 33:0 34:0 35:0 36:0 37:0 38:0 39:0 40:0 41:0 42:0 43:0 44:0 45:0 46:0 47:0 48:0 49:0 50:0 51:0 52:0 53:0 54:0 55:0 56:0 57:0 58:0 59:0 60:0 61:0 62:0 63:0 64:0 65:0.10004297 66:0.56605013 67:0.5 68:0.53574303 69:0.56543439 70:0.65733875 71:0.6727381 72:0.52346654 73:0.5777905 74:0.69132379 75:0.65479569 76:0.73367711 77:0.66471719 78:0.57572185 79:0.64493125 80:0.55667697 81:0.6847621 82:1 83:0.65479569 84:0.64788284 85:1 86:0.72376327 87:0.71440915 88:0.69406067 89:0.75282115 
30.37261541922457 1:0 2:0 3:1 4:0 5:0 6:1 7:0 8:0 9:0 10:0 11:0 12:0 13:-1 14:-1 15:-1 16:-1 17:0 18:1 19:0 20:0 21:0.00010004002 22:0 23:1 24:0 25:0 26:0 27:1 28:0 29:0 30:0 31:0 32:0 33:0 34:0 35:0 36:0 37:0 38:0 39:0 40:0 41:0 42:0 43:0 44:0 45:0 46:0 47:0 48:0 49:0 50:0 51:0 52:0 53:0 54:0 55:0 56:0 57:0 58:0 59:0 60:0 61:0 62:0 63:0 64:1 65:0 66:0.51038642 67:0.57637855 68:0.57110031 69:0.5 70:0.5 71:0.59395173 72:0.57297177 73:0.5 74:0.5050425 75:0.55158194 76:0.72809075 77:0.59178069 78:0 79:0.5 80:0.58760282 81:0.59628465 82:0.60614792 83:0.55158194 84:0.55158194 85:0.62249648 86:0.71774857 87:0.5726707 88:0.59804257 89:0.61966649 
59.32766538844463 1:0 2:0 3:1 4:1 5:0 6:0 7:0 8:0 9:0 10:0 11:0 12:0 13:-1 14:-1 15:-1 16:-1 17:-1 18:1 19:0 20:0 21:0.00011112346 22:0 23:1 24:0 25:0 26:0 27:1 28:0 29:0 30:0 31:0 32:0 33:0 34:0 35:0 36:0 37:0 38:0 39:0 40:0 41:0 42:0 43:0 44:0 45:0 46:0 47:0 48:0 49:0 50:0 51:0 52:0 53:0 54:0 55:0 56:0 57:0 58:0 59:0 60:0 61:0 62:0 63:0 64:1 65:0.16552921 66:0.60704383 67:0.62672172 68:0.65637742 69:0.5 70:0.55777347 71:0.52334564 72:0.5 73:0.5 74:0.61724539 75:0.68764651 76:0.70838597 77:0.56925174 78:0.5 79:1 80:0.5 81:0.59736886 82:0.5 83:0.58115262 84:0.61113797 85:1 86:0.71105503 87:0.69599497 88:0.68468357 89:0.70858486 
100 1:1 2:0 3:0 4:0 5:0 6:1 7:0 8:0 9:1 10:0 11:0 12:1 13:-1 14:-1 15:-1 16:-1 17:0 18:1 19:0 20:0 21:0.00011107409 22:0 23:1 24:0 25:0 26:0 27:0 28:0 29:0 30:0 31:0 32:0 33:0 34:0 35:0 36:0 37:0 38:0 39:0 40:0 41:0 42:0 43:0 44:0 45:0 46:0 47:0 48:0 49:0 50:0 51:0 52:0 53:0 54:0 55:0 56:0 57:0 58:0 59:0 60:0 61:0 62:0 63:0 64:1 65:0.16552921 66:0.51038642 67:0.57637855 68:0.57110031 69:0.5 70:0.5 71:0.59395173 72:0.57297177 73:0.5 74:0.5050425 75:0.55158194 76:0.72809075 77:0.59178069 78:0 79:0.5 80:0.58760282 81:0.59628465 82:0.60614792 83:0.55158194 84:0.55158194 85:0.62249648 86:0.71774857 87:0.5726707 88:0.59804257 89:0.61966649 
88.87838786967708 1:0 2:0 3:1 4:0 5:0 6:1 7:0 8:0 9:0 10:0 11:0 12:0 13:-1 14:-1 15:-1 16:-1 17:0 18:1 19:0 20:0 21:0.00010004002 22:0 23:1 24:0 25:0 26:0 27:1 28:0 29:0 30:0 31:0 32:0 33:0 34:0 35:0 36:0 37:0 38:0 39:0 40:0 41:0 42:0 43:0 44:0 45:0 46:0 47:0 48:0 49:0 50:0 51:0 52:0 53:0 54:0 55:0 56:0 57:0 58:0 59:0 60:0 61:0 62:0 63:0 64:1 65:0 66:0.51038642 67:0.57637855 68:0.57110031 69:0.5 70:0.5 71:0.59395173 72:0.57297177 73:0.5 74:0.5050425 75:0.55158194 76:0.72809075 77:0.59178069 78:0 79:0.5 80:0.58760282 81:0.59628465 82:0.60614792 83:0.55158194 84:0.55158194 85:0.62249648 86:0.71774857 87:0.5726707 88:0.59804257 89:0.61966649 
100 1:0 2:0 3:1 4:1 5:0 6:0 7:0 8:0 9:1 10:0 11:0 12:1 13:-1 14:-1 15:-1 16:-1 17:-1 18:1 19:0 20:0 21:0.00011107409 22:0 23:1 24:0 25:0 26:0 27:0 28:0 29:0 30:0 31:0 32:0 33:0 34:0 35:0 36:0 37:0 38:0 39:0 40:0 41:0 42:0 43:0 44:0 45:0 46:0 47:0 48:0 49:0 50:0 51:0 52:0 53:0 54:0 55:0 56:0 57:0 58:0 59:0 60:0 61:0 62:0 63:0 64:1 65:0.16552921 66:0.60704383 67:0.62672172 68:0.65637742 69:0.5 70:0.55777347 71:0.52334564 72:0.5 73:0.5 74:0.61724539 75:0.68764651 76:0.70838597 77:0.56925174 78:0.5 79:1 80:0.5 81:0.59736886 82:0.5 83:0.58115262 84:0.61113797 85:1 86:0.71105503 87:0.69599497 88:0.68468357 89:0.70858486 
90.22945230080539 1:0 2:0 3:1 4:1 5:0 6:0 7:0 8:0 9:0 10:0 11:0 12:0 13:-1 14:-1 15:-1 16:-1 17:-1 18:1 19:0 20:0 21:0.00011112346 22:0 23:1 24:0 25:0 26:0 27:1 28:0 29:0 30:0 31:0 32:0 33:0 34:0 35:0 36:0 37:0 38:0 39:0 40:0 41:0 42:0 43:0 44:0 45:0 46:0 47:0 48:0 49:0 50:0 51:0 52:0 53:0 54:0 55:0 56:0 57:0 58:0 59:0 60:0 61:0 62:0 63:0 64:1 65:0.16552921 66:0.60704383 67:0.62672172 68:0.65637742 69:0.5 70:0.55777347 71:0.52334564 72:0.5 73:0.5 74:0.61724539 75:0.68764651 76:0.70838597 77:0.56925174 78:0.5 79:1 80:0.5 81:0.59736886 82:0.5 83:0.58115262 84:0.61113797 85:1 86:0.71105503 87:0.69599497 88:0.68468357 89:0.70858486 
100 1:0 2:0 3:1 4:1 5:0 6:0 7:0 8:0 9:0 10:1 11:1 12:0 13:-1 14:-1 15:-1 16:-1 17:0 18:1 19:0 20:0 21:0.00011112346 22:0 23:1 24:0 25:0 26:0 27:1 28:0 29:0 30:0 31:0 32:0 33:0 34:0 35:0 36:0 37:0 38:0 39:0 40:0 41:0 42:0 43:0 44:0 45:0 46:0 47:0 48:0 49:0 50:0 51:0 52:0 53:0 54:0 55:0 56:0 57:0 58:0 59:0 60:0 61:0 62:0 63:0 64:1 65:0.16552921 66:0.60704383 67:0.62672172 68:0.65637742 69:0.5 70:0.55777347 71:0.52334564 72:0.5 73:0.5 74:0.61724539 75:0.68764651 76:0.70838597 77:0.56925174 78:0.5 79:1 80:0.5 81:0.59736886 82:0.5 83:0.58115262 84:0.61113797 85:1 86:0.71105503 87:0.69599497 88:0.68468357 89:0.70858486 
100 1:1 2:0 3:0 4:1 5:0 6:0 7:0 8:0 9:1 10:0 11:0 12:1 13:-1 14:-1 15:-1 16:-1 17:-1 18:1 19:1 20:0 21:0.00010007005 22:0 23:1 24:0 25:0 26:1 27:1 28:0 29:0 30:0 31:0 32:0 33:0 34:0 35:0 36:0 37:0 38:0 39:0 40:0 41:0 42:0 43:0 44:0 45:0 46:0 47:0 48:0 49:0 50:0 51:0 52:1 53:0 54:0 55:0 56:0 57:0 58:0 59:0 60:0 61:0 62:0 63:0 64:0 65:0 66:0.60704383 67:0.62672172 68:0.65637742 69:0.5 70:0.55777347 71:0.52334564 72:0.5 73:0.5 74:0.61724539 75:0.68764651 76:0.70838597 77:0.56925174 78:0.5 79:1 80:0.5 81:0.59736886 82:0.5 83:0.58115262 84:0.61113797 85:1 86:0.71105503 87:0.69599497 88:0.68468357 89:0.70858486 
100 1:1 2:0 3:0 4:1 5:0 6:0 7:0 8:0 9:1 10:0 11:0 12:1 13:-1 14:-1 15:-1 16:-1 17:-1 18:1 19:1 20:0 21:0.00010007005 22:0 23:1 24:0 25:0 26:1 27:1 28:0 29:0 30:0 31:0 32:0 33:0 34:0 35:0 36:0 37:0 38:0 39:0 40:0 41:0 42:0 43:0 44:0 45:0 46:0 47:0 48:0 49:0 50:0 51:0 52:1 53:0 54:0 55:0 56:0 57:0 58:0 59:0 60:0 61:0 62:0 63:0 64:0 65:0 66:0.60704383 67:0.62672172 68:0.65637742 69:0.5 70:0.55777347 71:0.52334564 72:0.5 73:0.5 74:0.61724539 75:0.68764651 76:0.70838597 77:0.56925174 78:0.5 79:1 80:0.5 81:0.59736886 82:0.5 83:0.58115262 84:0.61113797 85:1 86:0.71105503 87:0.69599497 88:0.68468357 89:0.70858486 
1.651352613972514 1:1 2:0 3:0 4:1 5:0 6:0 7:0 8:0 9:0 10:0 11:0 12:0 13:-1 14:-1 15:-1 16:-1 17:1 18:1 19:0 20:0 21:0.00011111111 22:0 23:1 24:0 25:0 26:0 27:1 28:0 29:0 30:0 31:0 32:0 33:0 34:0 35:0 36:0 37:0 38:0 39:0 40:0 41:0 42:0 43:0 44:0 45:0 46:0 47:0 48:0 49:0 50:0 51:0 52:1 53:0 54:0 55:0 56:0 57:0 58:0 59:0 60:0 61:0 62:0 63:0 64:0 65:0 66:0.56605013 67:0.5 68:0.53574303 69:0.56543439 70:0.65733875 71:0.6727381 72:0.52346654 73:0.5777905 74:0.69132379 75:0.65479569 76:0.73367711 77:0.66471719 78:0.57572185 79:0.64493125 80:0.55667697 81:0.6847621 82:1 83:0.65479569 84:0.64788284 85:1 86:0.72376327 87:0.71440915 88:0.69406067 89:0.75282115 
100 1:1 2:0 3:0 4:1 5:0 6:0 7:0 8:0 9:0 10:0 11:0 12:0 13:-1 14:-1 15:-1 16:-1 17:1 18:1 19:0 20:0 21:0.00011111111 22:0 23:1 24:0 25:0 26:0 27:1 28:0 29:0 30:0 31:0 32:0 33:0 34:0 35:0 36:0 37:0 38:0 39:0 40:0 41:0 42:0 43:0 44:0 45:0 46:0 47:0 48:0 49:0 50:0 51:0 52:1 53:0 54:0 55:0 56:0 57:0 58:0 59:0 60:0 61:0 62:0 63:0 64:0 65:0 66:0.56605013 67:0.5 68:0.53574303 69:0.56543439 70:0.65733875 71:0.6727381 72:0.52346654 73:0.5777905 74:0.69132379 75:0.65479569 76:0.73367711 77:0.66471719 78:0.57572185 79:0.64493125 80:0.55667697 81:0.6847621 82:1 83:0.65479569 84:0.64788284 85:1 86:0.72376327 87:0.71440915 88:0.69406067 89:0.75282115 
99.10624422016247 1:1 2:0 3:0 4:1 5:0 6:0 7:0 8:0 9:0 10:0 11:0 12:0 13:-1 14:-1 15:-1 16:-1 17:1 18:1 19:0 20:0 21:0.00011111111 22:0 23:1 24:0 25:0 26:0 27:1 28:0 29:0 30:0 31:0 32:0 33:0 34:0 35:0 36:0 37:0 38:0 39:0 40:0 41:0 42:0 43:0 44:0 45:0 46:0 47:0 48:0 49:0 50:0 51:0 52:1 53:0 54:0 55:0 56:0 57:0 58:0 59:0 60:0 61:0 62:0 63:0 64:0 65:0 66:0.56605013 67:0.5 68:0.53574303 69:0.56543439 70:0.65733875 71:0.6727381 72:0.52346654 73:0.5777905 74:0.69132379 75:0.65479569 76:0.73367711 77:0.66471719 78:0.57572185 79:0.64493125 80:0.55667697 81:0.6847621 82:1 83:0.65479569 84:0.64788284 85:1 86:0.72376327 87:0.71440915 88:0.69406067 89:0.75282115 
100 1:1 2:0 3:0 4:0 5:0 6:1 7:0 8:0 9:1 10:0 11:0 12:1 13:-1 14:-1 15:-1 16:-1 17:0 18:1 19:0 20:0 21:0.00011104942 22:0 23:1 24:0 25:0 26:0 27:0 28:0 29:0 30:0 31:0 32:0 33:0 34:0 35:0 36:0 37:0 38:0 39:0 40:0 41:0 42:0 43:0 44:0 45:0 46:0 47:0 48:0 49:0 50:0 51:0 52:1 53:0 54:0 55:0 56:0 57:0 58:0 59:0 60:0 61:0 62:0 63:0 64:0 65:0.10004297 66:0.56605013 67:0.5 68:0.53574303 69:0.56543439 70:0.65733875 71:0.6727381 72:0.52346654 73:0.5777905 74:0.69132379 75:0.65479569 76:0.73367711 77:0.66471719 78:0.57572185 79:0.64493125 80:0.55667697 81:0.6847621 82:1 83:0.65479569 84:0.64788284 85:1 86:0.72376327 87:0.71440915 88:0.69406067 89:0.75282115 
100 1:0 2:0 3:1 4:1 5:0 6:0 7:0 8:0 9:1 10:0 11:0 12:1 13:-1 14:-1 15:-1 16:-1 17:-1 18:1 19:0 20:0 21:0.00011104942 22:0 23:1 24:0 25:0 26:0 27:0 28:0 29:0 30:0 31:0 32:0 33:0 34:0 35:0 36:0 37:0 38:0 39:0 40:0 41:0 42:0 43:0 44:0 45:0 46:0 47:0 48:0 49:0 50:0 51:0 52:1 53:0 54:0 55:0 56:0 57:0 58:0 59:0 60:0 61:0 62:0 63:0 64:0 65:0.10004297 66:0.56605013 67:0.5 68:0.53574303 69:0.56543439 70:0.65733875 71:0.6727381 72:0.52346654 73:0.5777905 74:0.69132379 75:0.65479569 76:0.73367711 77:0.66471719 78:0.57572185 79:0.64493125 80:0.55667697 81:0.6847621 82:1 83:0.65479569 84:0.64788284 85:1 86:0.72376327 87:0.71440915 88:0.69406067 89:0.75282115 
25.93648713859132 1:1 2:0 3:0 4:1 5:0 6:0 7:0 8:0 9:1 10:0 11:0 12:1 13:-1 14:-1 15:-1 16:-1 17:-1 18:1 19:0 20:0 21:0.00010006004 22:0 23:1 24:0 25:0 26:1 27:1 28:0 29:0 30:0 31:0 32:0 33:0 34:0 35:0 36:0 37:0 38:0 39:0 40:0 41:0 42:0 43:0 44:0 45:0 46:0 47:0 48:0 49:0 50:0 51:0 52:1 53:0 54:0 55:0 56:0 57:0 58:0 59:0 60:0 61:0 62:0 63:0 64:0 65:0 66:1 67:0.61040152 68:0.59872941 69:0.59018662 70:0.67381687 71:0.68780098 72:0.57507191 73:0.61040152 74:0.605865 75:0.58750411 76:0.7516334 77:0.68147396 78:0.5936148 79:0.66366884 80:0.55505374 81:0.61775485 82:0.65473623 83:0.58750411 84:0.59681676 85:1 86:0.74303292 87:0.73495741 88:0.71752112 89:0.76836406 
100 1:1 2:0 3:0 4:1 5:0 6:0 7:0 8:0 9:1 10:0 11:0 12:1 13:-1 14:-1 15:-1 16:-1 17:-1 18:1 19:0 20:0 21:0.00010006004 22:0 23:1 24:0 25:0 26:1 27:1 28:0 29:0 30:0 31:0 32:0 33:0 34:0 35:0 36:0 37:0 38:0 39:0 40:0 41:0 42:0 43:0 44:0 45:0 46:0 47:0 48:0 49:1 50:0 51:0 52:0 53:0 54:0 55:0 56:0 57:0 58:0 59:0 60:0 61:0 62:0 63:0 64:0 65:0 66:1 67:0.71751428 68:0.68243421 69:0.65300276 70:0.71018227 71:0.51923787 72:0.5 73:0.50461094 74:1 75:1 76:0.72736996 77:0.6094247 78:0.53696239 79:1 80:0.69771711 81:1 82:0.65300276 83:0.74612297 84:0.71149531 85:1 86:1 87:0.73958815 88:0.7067622 89:0.72754381 
100 1:1 2:0 3:0 4:1 5:0 6:0 7:0 8:0 9:1 10:0 11:0 12:1 13:-1 14:-1 15:-1 16:-1 17:-1 18:1 19:0 20:0 21:0.00010006004 22:0 23:1 24:0 25:0 26:1 27:1 28:0 29:0 30:0 31:0 32:0 33:0 34:0 35:0 36:0 37:0 38:0 39:0 40:0 41:0 42:0 43:0 44:0 45:0 46:0 47:0 48:0 49:1 50:0 51:0 52:0 53:0 54:0 55:0 56:0 57:0 58:0 59:0 60:0 61:0 62:0 63:0 64:0 65:0 66:1 67:0.71751428 68:0.68243421 69:0.65300276 70:0.71018227 71:0.51923787 72:0.5 73:0.50461094 74:1 75:1 76:0.72736996 77:0.6094247 78:0.53696239 79:1 80:0.69771711 81:1 82:0.65300276 83:0.74612297 84:0.71149531 85:1 86:1 87:0.73958815 88:0.7067622 89:0.72754381 
80.13494498350728 1:1 2:0 3:0 4:1 5:0 6:0 7:0 8:0 9:0 10:0 11:0 12:0 13:-1 14:-1 15:-1 16:-1 17:-1 18:1 19:0 20:-1 21:0.00011113581 22:0 23:1 24:0 25:0 26:0 27:0 28:0 29:0 30:0 31:0 32:0 33:0 34:0 35:0 36:0 37:0 38:0 39:0 40:0 41:0 42:0 43:0 44:0 45:0 46:0 47:0 48:0 49:0 50:0 51:0 52:0 53:0 54:0 55:0 56:0 57:0 58:0 59:0 60:0 61:0 62:1 63:0 64:0 65:0.16552921 66:0.51038642 67:0.57637855 68:0.57110031 69:0.5 70:0.5 71:0.59395173 72:0.57297177 73:0.5 74:0.5050425 75:0.55158194 76:0.72809075 77:0.59178069 78:0.5 79:0.5 80:0.58760282 81:0.59628465 82:0.60614792 83:0.55158194 84:0.55158194 85:0.62249648 86:0.71774857 87:0.5726707 88:0.59804257 89:0.61966649 
100 1:0 2:1 3:0 4:1 5:0 6:0 7:0 8:0 9:0 10:0 11:0 12:0 13:-1 14:-1 15:-1 16:-1 17:-1 18:1 19:0 20:0 21:0.00011113581 22:0 23:1 24:0 25:0 26:0 27:0 28:0 29:0 30:0 31:0 32:0 33:0 34:0 35:0 36:0 37:0 38:0 39:0 40:0 41:0 42:0 43:0 44:0 45:0 46:0 47:0 48:0 49:0 50:0 51:0 52:0 53:0 54:0 55:0 56:0 57:0 58:0 59:0 60:0 61:0 62:0 63:0 64:0 65:1 66:1 67:0.56027865 68:1 69:0.59994289 70:0.61980464 71:0.63469664 72:0.61185345 73:0.56027865 74:0.62388926 75:0.57366212 76:0.64851983 77:0.68384031 78:0.60826839 79:0.66630603 80:0.59994289 81:0.70075241 82:1 83:0.57366212 84:0.5 85:1 86:0.65714504 87:0.64742908 88:0.68725487 89:0.74839751 
100 1:1 2:0 3:0 4:1 5:0 6:0 7:0 8:0 9:0 10:0 11:0 12:0 13:-1 14:-1 15:-1 16:-1 17:-1 18:1 19:0 20:-1 21:0.00011113581 22:0 23:1 24:0 25:0 26:0 27:0 28:0 29:0 30:0 31:0 32:0 33:0 34:0 35:0 36:0 37:0 38:0 39:0 40:0 41:0 42:0 43:0 44:0 45:0 46:0 47:0 48:0 49:0 50:0 51:0 52:0 53:0 54:0 55:0 56:0 57:0 58:0 59:0 60:0 61:0 62:1 63:0 64:0 65:0.16552921 66:0.51038642 67:0.57637855 68:0.57110031 69:0.5 70:0.5 71:0.59395173 72:0.57297177 73:0.5 74:0.5050425 75:0.55158194 76:0.72809075 77:0.59178069 78:0.5 79:0.5 80:0.58760282 81:0.59628465 82:0.60614792 83:0.55158194 84:0.55158194 85:0.62249648 86:0.71774857 87:0.5726707 88:0.59804257 89:0.61966649 
7.305829741558394 1:1 2:0 3:0 4:1 5:0 6:0 7:0 8:0 9:1 10:0 11:0 12:1 13:-1 14:-1 15:-1 16:-1 17:-1 18:1 19:0 20:0 21:0.00010006004 22:0 23:1 24:0 25:0 26:1 27:1 28:0 29:0 30:0 31:0 32:0 33:0 34:0 35:0 36:0 37:0 38:0 39:0 40:0 41:0 42:0 43:0 44:0 45:0 46:0 47:0 48:0 49:0 50:0 51:0 52:0 53:1 54:0 55:0 56:0 57:0 58:0 59:0 60:0 61:0 62:0 63:0 64:0 65:0 66:0.60704383 67:0.62672172 68:0.65637742 69:0.5 70:0.55777347 71:0.52334564 72:0.5 73:0.5 74:0.61724539 75:0.68764651 76:0.70838597 77:0.56925174 78:0.5 79:1 80:0.5 81:0.59736886 82:0.5 83:0.58115262 84:0.61113797 85:1 86:0.71105503 87:0.69599497 88:0.68468357 89:0.70858486 
99.28910419841284 1:1 2:0 3:0 4:1 5:0 6:0 7:0 8:0 9:1 10:0 11:0 12:1 13:-1 14:-1 15:-1 16:-1 17:-1 18:1 19:0 20:0 21:0.00010006004 22:0 23:1 24:0 25:0 26:1 27:1 28:0 29:0 30:0 31:0 32:0 33:0 34:0 35:0 36:0 37:0 38:0 39:0 40:0 41:0 42:0 43:0 44:0 45:0 46:0 47:0 48:0 49:0 50:0 51:0 52:0 53:1 54:0 55:0 56:0 57:0 58:0 59:0 60:0 61:0 62:0 63:0 64:0 65:0 66:0.60704383 67:0.62672172 68:0.65637742 69:0.5 70:0.55777347 71:0.52334564 72:0.5 73:0.5 74:0.61724539 75:0.68764651 76:0.70838597 77:0.56925174 78:0.5 79:1 80:0.5 81:0.59736886 82:0.5 83:0.58115262 84:0.61113797 85:1 86:0.71105503 87:0.69599497 88:0.68468357 89:0.70858486 
100 1:1 2:0 3:0 4:1 5:0 6:0 7:0 8:0 9:1 10:0 11:0 12:1 13:-1 14:-1 15:-1 16:-1 17:-1 18:1 19:0 20:0 21:0.00010006004 22:0 23:1 24:0 25:0 26:1 27:1 28:0 29:0 30:0 31:0 32:0 33:0 34:0 35:0 36:0 37:0 38:0 39:0 40:0 41:0 42:0 43:0 44:0 45:0 46:0 47:0 48:0 49:0 50:0 51:0 52:1 53:0 54:0 55:0 56:0 57:0 58:0 59:0 60:0 61:0 62:0 63:0 64:0 65:0 66:1 67:0.61040152 68:0.59872941 69:0.59018662 70:0.67381687 71:0.68780098 72:0.57507191 73:0.61040152 74:0.605865 75:0.58750411 76:0.7516334 77:0.68147396 78:0.5936148 79:0.66366884 80:0.55505374 81:0.61775485 82:0.65473623 83:0.58750411 84:0.59681676 85:1 86:0.74303292 87:0.73495741 88:0.71752112 89:0.76836406 
77.63008889333842 1:1 2:0 3:0 4:1 5:0 6:0 7:0 8:0 9:1 10:0 11:0 12:1 13:-1 14:-1 15:-1 16:-1 17:-1 18:1 19:0 20:0 21:0.00010006004 22:0 23:1 24:0 25:0 26:1 27:1 28:0 29:0 30:0 31:0 32:0 33:0 34:0 35:0 36:0 37:0 38:0 39:0 40:0 41:0 42:0 43:0 44:0 45:0 46:0 47:0 48:0 49:0 50:0 51:0 52:1 53:0 54:0 55:0 56:0 57:0 58:0 59:0 60:0 61:0 62:0 63:0 64:0 65:0 66:1 67:0.61040152 68:0.59872941 69:0.59018662 70:0.67381687 71:0.68780098 72:0.57507191 73:0.61040152 74:0.605865 75:0.58750411 76:0.7516334 77:0.68147396 78:0.5936148 79:0.66366884 80:0.55505374 81:0.61775485 82:0.65473623 83:0.58750411 84:0.59681676 85:1 86:0.74303292 87:0.73495741 88:0.71752112 89:0.76836406 
100 1:1 2:0 3:0 4:0 5:1 6:0 7:0 8:0 9:0 10:0 11:0 12:0 13:-1 14:-1 15:-1 16:-1 17:-1 18:1 19:0 20:-1 21:0.00011113581 22:0 23:1 24:0 25:0 26:0 27:0 28:0 29:0 30:0 31:0 32:0 33:0 34:0 35:0 36:0 37:0 38:0 39:0 40:0 41:0 42:0 43:0 44:0 45:0 46:0 47:0 48:0 49:0 50:0 51:0 52:0 53:0 54:0 55:0 56:0 57:0 58:0 59:0 60:0 61:0 62:1 63:0 64:0 65:0.16552921 66:0.51038642 67:0.57637855 68:0.57110031 69:0.5 70:0.5 71:0.59395173 72:0.57297177 73:0.5 74:0.5050425 75:0.55158194 76:0.72809075 77:0.59178069 78:0 79:0.5 80:0.58760282 81:0.59628465 82:0.60614792 83:0.55158194 84:0.55158194 85:0.62249648 86:0.71774857 87:0.5726707 88:0.59804257 89:0.61966649 
0.136406552959807 1:1 2:0 3:0 4:1 5:0 6:0 7:0 8:0 9:0 10:0 11:0 12:0 13:-1 14:-1 15:-1 16:1 17:-1 18:1 19:0 20:-1 21:0.00011122233 22:0 23:1 24:0 25:0 26:0 27:1 28:0 29:0 30:0 31:0 32:0 33:0 34:0 35:0 36:0 37:0 38:0 39:0 40:0 41:0 42:0 43:0 44:0 45:0 46:0 47:0 48:0 49:0 50:0 51:0 52:0 53:0 54:0 55:0 56:0 57:0 58:0 59:0 60:0 61:0 62:1 63:0 64:0 65:0.16552921 66:0.51038642 67:0.57637855 68:0.57110031 69:0.5 70:0.5 71:0.59395173 72:0.57297177 73:0.5 74:0.5050425 75:0.55158194 76:0.72809075 77:0.59178069 78:0.5 79:0.5 80:0.58760282 81:0.59628465 82:0.60614792 83:0.55158194 84:0.55158194 85:0.62249648 86:0.71774857 87:0.5726707 88:0.59804257 89:0.61966649 
100 1:0 2:1 3:0 4:1 5:0 6:0 7:0 8:0 9:0 10:1 11:1 12:0 13:-1 14:-1 15:-1 16:-1 17:0 18:1 19:0 20:0 21:0.00010007005 22:0 23:1 24:0 25:0 26:0 27:1 28:0 29:0 30:0 31:0 32:0 33:0 34:0 35:0 36:0 37:0 38:0 39:0 40:0 41:0 42:0 43:0 44:0 45:0 46:0 47:0 48:0 49:0 50:0 51:0 52:0 53:0 54:0 55:0 56:0 57:0 58:0 59:0 60:0 61:0 62:1 63:0 64:0 65:0.11563229 66:0.51038642 67:0.57637855 68:0.57110031 69:0.5 70:0.5 71:0.59395173 72:0.57297177 73:0.5 74:0.5050425 75:0.55158194 76:0.72809075 77:0.59178069 78:0.5 79:0.5 80:0.58760282 81:0.59628465 82:0.60614792 83:0.55158194 84:0.55158194 85:0.62249648 86:0.71774857 87:0.5726707 88:0.59804257 89:0.61966649 
100 1:1 2:0 3:0 4:0 5:1 6:0 7:0 8:0 9:0 10:0 11:0 12:0 13:-1 14:-1 15:-1 16:-1 17:-1 18:1 19:0 20:-1 21:0.00011113581 22:0 23:1 24:0 25:0 26:0 27:0 28:0 29:0 30:0 31:0 32:0 33:0 34:0 35:0 36:0 37:0 38:0 39:0 40:0 41:0 42:0 43:0 44:0 45:0 46:0 47:0 48:0 49:0 50:0 51:0 52:0 53:0 54:0 55:0 56:0 57:0 58:0 59:0 60:0 61:0 62:1 63:0 64:0 65:0.16552921 66:0.51038642 67:0.57637855 68:0.57110031 69:0.5 70:0.5 71:0.59395173 72:0.57297177 73:0.5 74:0.5050425 75:0.55158194 76:0.72809075 77:0.59178069 78:0 79:0.5 80:0.58760282 81:0.59628465 82:0.60614792 83:0.55158194 84:0.55158194 85:0.62249648 86:0.71774857 87:0.5726707 88:0.59804257 89:0.61966649 
99.04637309243749 1:0 2:1 3:0 4:1 5:0 6:0 7:0 8:0 9:1 10:0 11:0 12:1 13:-1 14:-1 15:-1 16:1 17:-1 18:1 19:0 20:0 21:0.00010007005 22:0 23:1 24:0 25:0 26:0 27:1 28:0 29:0 30:0 31:0 32:0 33:0 34:0 35:0 36:0 37:0 38:0 39:0 40:0 41:0 42:0 43:0 44:0 45:0 46:0 47:0 48:0 49:0 50:0 51:0 52:0 53:0 54:0 55:0 56:0 57:0 58:0 59:0 60:0 61:0 62:1 63:0 64:0 65:0.11563229 66:0.51038642 67:0.57637855 68:0.57110031 69:0.5 70:0.5 71:0.59395173 72:0.57297177 73:0.5 74:0.5050425 75:0.55158194 76:0.72809075 77:0.59178069 78:0.5 79:0.5 80:0.58760282 81:0.59628465 82:0.60614792 83:0.55158194 84:0.55158194 85:0.62249648 86:0.71774857 87:0.5726707 88:0.59804257 89:0.61966649 
1.538768567732831 1:1 2:0 3:0 4:1 5:0 6:0 7:0 8:0 9:0 10:0 11:0 12:0 13:-1 14:-1 15:-1 16:1 17:-1 18:1 19:0 20:-1 21:0.00011122233 22:0 23:1 24:0 25:0 26:0 27:1 28:0 29:0 30:0 31:0 32:0 33:0 34:0 35:0 36:0 37:0 38:0 39:0 40:0 41:0 42:0 43:0 44:0 45:0 46:0 47:0 48:0 49:0 50:0 51:0 52:0 53:0 54:0 55:0 56:0 57:0 58:0 59:0 60:0 61:0 62:1 63:0 64:0 65:0.16552921 66:0.51038642 67:0.57637855 68:0.57110031 69:0.5 70:0.5 71:0.59395173 72:0.57297177 73:0.5 74:0.5050425 75:0.55158194 76:0.72809075 77:0.59178069 78:0.5 79:0.5 80:0.58760282 81:0.59628465 82:0.60614792 83:0.55158194 84:0.55158194 85:0.62249648 86:0.71774857 87:0.5726707 88:0.59804257 89:0.61966649 
100 1:1 2:0 3:0 4:0 5:1 6:0 7:0 8:0 9:1 10:0 11:0 12:1 13:-1 14:-1 15:-1 16:-1 17:0 18:1 19:0 20:0 21:0.00010007005 22:0 23:1 24:0 25:0 26:0 27:1 28:0 29:0 30:0 31:0 32:0 33:0 34:0 35:0 36:0 37:0 38:0 39:0 40:0 41:0 42:0 43:0 44:0 45:0 46:0 47:0 48:0 49:0 50:0 51:0 52:0 53:0 54:0 55:0 56:0 57:0 58:0 59:0 60:0 61:0 62:1 63:0 64:0 65:0.11563229 66:0.51038642 67:0.57637855 68:0.57110031 69:0.5 70:0.5 71:0.59395173 72:0.57297177 73:0.5 74:0.5050425 75:0.55158194 76:0.72809075 77:0.59178069 78:0 79:0.5 80:0.58760282 81:0.59628465 82:0.60614792 83:0.55158194 84:0.55158194 85:0.62249648 86:0.71774857 87:0.5726707 88:0.59804257 89:0.61966649 
93.15314870508884 1:1 2:0 3:0 4:1 5:0 6:0 7:0 8:0 9:0 10:0 11:0 12:0 13:-1 14:-1 15:-1 16:1 17:-1 18:1 19:0 20:-1 21:0.00011122233 22:0 23:1 24:0 25:0 26:0 27:1 28:0 29:0 30:0 31:0 32:0 33:0 34:0 35:0 36:0 37:0 38:0 39:0 40:0 41:0 42:0 43:0 44:0 45:0 46:0 47:0 48:0 49:0 50:0 51:0 52:0 53:0 54:0 55:0 56:0 57:0 58:0 59:0 60:0 61:0 62:1 63:0 64:0 65:0.16552921 66:0.51038642 67:0.57637855 68:0.57110031 69:0.5 70:0.5 71:0.59395173 72:0.57297177 73:0.5 74:0.5050425 75:0.55158194 76:0.72809075 77:0.59178069 78:0.5 79:0.5 80:0.58760282 81:0.59628465 82:0.60614792 83:0.55158194 84:0.55158194 85:0.62249648 86:0.71774857 87:0.5726707 88:0.59804257 89:0.61966649 
48.12491834218994 1:1 2:0 3:0 4:1 5:0 6:0 7:0 8:0 9:0 10:1 11:1 12:0 13:-1 14:-1 15:-1 16:-1 17:-1 18:1 19:0 20:-1 21:0.00011122233 22:0 23:1 24:0 25:0 26:0 27:1 28:0 29:0 30:0 31:0 32:0 33:0 34:0 35:0 36:0 37:0 38:0 39:0 40:0 41:0 42:0 43:0 44:0 45:0 46:0 47:0 48:0 49:0 50:0 51:0 52:0 53:0 54:0 55:0 56:0 57:0 58:0 59:0 60:0 61:0 62:1 63:0 64:0 65:0.16552921 66:0.51038642 67:0.57637855 68:0.57110031 69:0.5 70:0.5 71:0.59395173 72:0.57297177 73:0.5 74:0.5050425 75:0.55158194 76:0.72809075 77:0.59178069 78:0.5 79:0.5 80:0.58760282 81:0.59628465 82:0.60614792 83:0.55158194 84:0.55158194 85:0.62249648 86:0.71774857 87:0.5726707 88:0.59804257 89:0.61966649 
100 1:1 2:0 3:0 4:1 5:0 6:0 7:0 8:0 9:1 10:0 11:0 12:1 13:-1 14:-1 15:-1 16:-1 17:-1 18:1 19:1 20:0 21:0.00010007005 22:0 23:1 24:0 25:0 26:1 27:1 28:0 29:0 30:0 31:0 32:0 33:0 34:0 35:0 36:0 37:0 38:0 39:0 40:0 41:0 42:0 43:0 44:0 45:0 46:0 47:0 48:0 49:1 50:0 51:0 52:0 53:0 54:0 55:0 56:0 57:0 58:0 59:0 60:0 61:0 62:0 63:0 64:0 65:0 66:0.60704383 67:0.62672172 68:0.65637742 69:0.5 70:0.55777347 71:0.52334564 72:0.5 73:0.5 74:0.61724539 75:0.68764651 76:0.70838597 77:0.56925174 78:0.5 79:1 80:0.5 81:0.59736886 82:0.5 83:0.58115262 84:0.61113797 85:1 86:0.71105503 87:0.69599497 88:0.68468357 89:0.70858486 
100 1:1 2:0 3:0 4:1 5:0 6:0 7:0 8:0 9:1 10:0 11:0 12:1 13:-1 14:-1 15:-1 16:-1 17:-1 18:1 19:1 20:0 21:0.00010007005 22:0 23:1 24:0 25:0 26:1 27:1 28:0 29:0 30:0 31:0 32:0 33:0 34:0 35:0 36:0 37:0 38:0 39:0 40:0 41:0 42:0 43:0 44:0 45:0 46:0 47:0 48:0 49:1 50:0 51:0 52:0 53:0 54:0 55:0 56:0 57:0 58:0 59:0 60:0 61:0 62:0 63:0 64:0 65:0 66:0.60704383 67:0.62672172 68:0.65637742 69:0.5 70:0.55777347 71:0.52334564 72:0.5 73:0.5 74:0.61724539 75:0.68764651 76:0.70838597 77:0.56925174 78:0.5 79:1 80:0.5 81:0.59736886 82:0.5 83:0.58115262 84:0.61113797 85:1 86:0.71105503 87:0.69599497 88:0.68468357 89:0.70858486 
100 1:0 2:0 3:1 4:0 5:0 6:1 7:0 8:0 9:1 10:0 11:0 12:1 13:-1 14:-1 15:-1 16:-1 17:0 18:1 19:0 20:0 21:0.0001001001 22:0 23:1 24:0 25:0 26:1 27:1 28:0 29:0 30:0 31:0 32:0 33:0 34:0 35:0 36:0 37:0 38:0 39:0 40:0 41:0 42:0 43:0 44:0 45:0 46:0 47:0 48:0 49:1 50:0 51:0 52:0 53:0 54:0 55:0 56:0 57:0 58:0 59:0 60:0 61:0 62:0 63:0 64:0 65:0 66:0.5762336 67:0.50612291 68:0 69:0.65637742 70:0.50807294 71:0.71266202 72:0.5 73:0.58006539 74:0.67082516 75:0.65912789 76:0.60889656 77:0.61369498 78:0.57110031 79:1 80:0.53099127 81:0.69690729 82:0.62871442 83:0.66380453 84:0.55917891 85:0.70486142 86:0.73806073 87:0.66531714 88:0.69496876 89:0.61608192 
100 1:0 2:0 3:1 4:0 5:0 6:1 7:0 8:0 9:1 10:0 11:0 12:1 13:-1 14:-1 15:-1 16:-1 17:0 18:1 19:0 20:0 21:0.0001001001 22:0 23:1 24:0 25:0 26:1 27:1 28:0 29:0 30:0 31:0 32:0 33:0 34:0 35:0 36:0 37:0 38:0 39:0 40:0 41:0 42:0 43:0 44:0 45:0 46:0 47:0 48:0 49:1 50:0 51:0 52:0 53:0 54:0 55:0 56:0 57:0 58:0 59:0 60:0 61:0 62:0 63:0 64:0 65:0 66:0.5762336 67:0.50612291 68:0 69:0.65637742 70:0.50807294 71:0.71266202 72:0.5 73:0.58006539 74:0.67082516 75:0.65912789 76:0.60889656 77:0.61369498 78:0.57110031 79:1 80:0.53099127 81:0.69690729 82:0.62871442 83:0.66380453 84:0.55917891 85:0.70486142 86:0.73806073 87:0.66531714 88:0.69496876 89:0.61608192 
60.00739700089084 1:0 2:1 3:0 4:0 5:0 6:1 7:0 8:0 9:0 10:0 11:0 12:0 13:-1 14:-1 15:-1 16:-1 17:-1 18:1 19:0 20:-1 21:0.00010006004 22:0 23:1 24:0 25:0 26:0 27:1 28:0 29:0 30:0 31:0 32:0 33:0 34:0 35:0 36:0 37:0 38:0 39:0 40:0 41:0 42:0 43:0 44:0 45:0 46:0 47:0 48:0 49:0 50:0 51:0 52:1 53:0 54:0 55:0 56:0 57:0 58:0 59:0 60:0 61:0 62:1 63:0 64:0 65:1 66:1 67:1 68:1 69:1 70:1 71:1 72:1 73:1 74:1 75:1 76:1 77:1 78:1 79:1 80:1 81:1 82:1 83:1 84:1 85:1 86:1 87:1 88:1 89:1 
99.486459010812 1:0 2:1 3:0 4:0 5:0 6:1 7:0 8:0 9:0 10:0 11:0 12:0 13:-1 14:-1 15:-1 16:-1 17:-1 18:1 19:0 20:-1 21:0.00010006004 22:0 23:1 24:0 25:0 26:0 27:1 28:0 29:0 30:0 31:0 32:0 33:0 34:0 35:0 36:0 37:0 38:0 39:0 40:0 41:0 42:0 43:0 44:0 45:0 46:0 47:0 48:0 49:0 50:0 51:0 52:1 53:0 54:0 55:0 56:0 57:0 58:0 59:0 60:0 61:0 62:1 63:0 64:0 65:1 66:1 67:1 68:1 69:1 70:1 71:1 72:1 73:1 74:1 75:1 76:1 77:1 78:1 79:1 80:1 81:1 82:1 83:1 84:1 85:1 86:1 87:1 88:1 89:1 
100 1:0 2:0 3:1 4:1 5:0 6:0 7:0 8:0 9:1 10:0 11:0 12:1 13:-1 14:-1 15:-1 16:-1 17:-1 18:1 19:0 20:-1 21:0.00011103709 22:0 23:1 24:0 25:0 26:0 27:0 28:0 29:0 30:0 31:0 32:0 33:0 34:0 35:0 36:0 37:0 38:0 39:0 40:0 41:0 42:0 43:0 44:0 45:0 46:0 47:0 48:0 49:0 50:0 51:0 52:1 53:0 54:0 55:0 56:0 57:0 58:0 59:0 60:0 61:0 62:1 63:0 64:0 65:1 66:0.67314117 67:0.6777376 68:0.74407036 69:0.68764651 70:0.64460208 71:0.63839973 72:0.64465256 73:0.54069923 74:0.5044434 75:0.5 76:0.59992851 77:0.60822232 78:0.55158194 79:0.63032069 80:0.52521678 81:0.59025458 82:0.66463374 83:0.5 84:0.5 85:0.68030414 86:0.63663093 87:0.53506607 88:0.59459895 89:0.71197416 
100 1:1 2:0 3:0 4:0 5:0 6:1 7:0 8:0 9:1 10:0 11:0 12:1 13:-1 14:-1 15:-1 16:-1 17:-1 18:1 19:0 20:-1 21:0.00011103709 22:0 23:1 24:0 25:0 26:0 27:0 28:0 29:0 30:0 31:0 32:0 33:0 34:0 35:0 36:0 37:0 38:0 39:0 40:0 41:0 42:0 43:0 44:0 45:0 46:0 47:0 48:0 49:0 50:0 51:0 52:1 53:0 54:0 55:0 56:0 57:0 58:0 59:0 60:0 61:0 62:1 63:0 64:0 65:1 66:1 67:1 68:1 69:1 70:1 71:1 72:1 73:1 74:1 75:1 76:1 77:1 78:1 79:1 80:1 81:1 82:1 83:1 84:1 85:1 86:1 87:1 88:1 89:1 
100 1:0 2:1 3:0 4:0 5:1 6:0 7:0 8:0 9:0 10:0 11:0 12:0 13:-1 14:-1 15:-1 16:-1 17:-1 18:1 19:1 20:0 21:0.00011114816 22:1 23:0 24:0 25:0 26:0 27:0 28:0 29:0 30:0 31:0 32:0 33:0 34:0 35:0 36:0 37:0 38:0 39:0 40:0 41:0 42:0 43:0 44:0 45:0 46:0 47:0 48:0 49:0 50:0 51:0 52:0 53:0 54:0 55:0 56:0 57:0 58:0 59:0 60:0 61:0 62:0 63:0 64:0 65:1 66:1 67:1 68:1 69:1 70:1 71:1 72:1 73:1 74:1 75:1 76:1 77:1 78:1 79:1 80:1 81:1 82:1 83:1 84:1 85:1 86:1 87:1 88:1 89:1 
100 1:0 2:1 3:0 4:0 5:1 6:0 7:0 8:0 9:0 10:0 11:0 12:0 13:-1 14:-1 15:-1 16:-1 17:-1 18:1 19:1 20:0 21:0.00011114816 22:1 23:0 24:0 25:0 26:0 27:0 28:0 29:0 30:0 31:0 32:0 33:0 34:0 35:0 36:0 37:0 38:0 39:0 40:0 41:0 42:0 43:0 44:0 45:0 46:0 47:0 48:0 49:0 50:0 51:0 52:0 53:0 54:0 55:0 56:0 57:0 58:0 59:0 60:0 61:0 62:0 63:0 64:0 65:1 66:1 67:1 68:1 69:1 70:1 71:1 72:1 73:1 74:1 75:1 76:1 77:1 78:1 79:1 80:1 81:1 82:1 83:1 84:1 85:1 86:1 87:1 88:1 89:1 
100 1:0 2:0 3:1 4:1 5:0 6:0 7:0 8:0 9:0 10:0 11:0 12:0 13:-1 14:-1 15:-1 16:-1 17:-1 18:1 19:0 20:0 21:0.00011096316 22:1 23:0 24:0 25:0 26:0 27:0 28:0 29:0 30:0 31:0 32:0 33:0 34:0 35:0 36:0 37:0 38:0 39:0 40:0 41:0 42:0 43:0 44:0 45:0 46:0 47:0 48:0 49:0 50:0 51:0 52:0 53:0 54:0 55:0 56:0 57:0 58:0 59:0 60:0 61:0 62:0 63:0 64:0 65:0.16552921 66:0.60704383 67:0.62672172 68:0.65637742 69:0.5 70:0.55777347 71:0.52334564 72:0.5 73:0.5 74:0.61724539 75:0.68764651 76:0.70838597 77:0.56925174 78:0.5 79:1 80:0.5 81:0.59736886 82:0.5 83:0.58115262 84:0.61113797 85:1 86:0.71105503 87:0.69599497 88:0.68468357 89:0.70858486 
100 1:1 2:0 3:0 4:0 5:0 6:1 7:0 8:0 9:0 10:0 11:0 12:0 13:-1 14:-1 15:-1 16:-1 17:-1 18:1 19:0 20:0 21:0.00011096316 22:1 23:0 24:0 25:0 26:0 27:0 28:0 29:0 30:0 31:0 32:0 33:0 34:0 35:0 36:0 37:0 38:0 39:0 40:0 41:0 42:0 43:0 44:0 45:0 46:0 47:0 48:0 49:0 50:0 51:0 52:0 53:0 54:0 55:0 56:0 57:0 58:0 59:0 60:0 61:0 62:0 63:0 64:0 65:0.16552921 66:0.51038642 67:0.57637855 68:0.57110031 69:0.5 70:0.5 71:0.59395173 72:0.57297177 73:0.5 74:0.5050425 75:0.55158194 76:0.72809075 77:0.59178069 78:0 79:0.5 80:0.58760282 81:0.59628465 82:0.60614792 83:0.55158194 84:0.55158194 85:0.62249648 86:0.71774857 87:0.5726707 88:0.59804257 89:0.61966649 
100 1:1 2:0 3:0 4:0 5:0 6:1 7:0 8:0 9:0 10:0 11:0 12:0 13:-1 14:-1 15:-1 16:-1 17:-1 18:1 19:0 20:0 21:0.00010005003 22:1 23:0 24:0 25:0 26:1 27:0 28:0 29:0 30:0 31:0 32:0 33:0 34:0 35:0 36:0 37:0 38:0 39:0 40:0 41:0 42:0 43:0 44:0 45:0 46:0 47:0 48:0 49:0 50:0 51:0 52:0 53:0 54:0 55:0 56:0 57:0 58:0 59:0 60:0 61:0 62:0 63:0 64:0 65:1 66:1 67:1 68:1 69:1 70:1 71:1 72:1 73:1 74:1 75:1 76:1 77:1 78:1 79:1 80:1 81:1 82:1 83:1 84:1 85:1 86:1 87:1 88:1 89:1 
100 1:0 2:0 3:1 4:1 5:0 6:0 7:0 8:0 9:0 10:0 11:0 12:0 13:-1 14:-1 15:-1 16:-1 17:-1 18:1 19:0 20:0 21:0.00010005003 22:1 23:0 24:0 25:0 26:1 27:0 28:0 29:0 30:0 31:0 32:0 33:0 34:0 35:0 36:0 37:0 38:0 39:0 40:0 41:0 42:0 43:0 44:0 45:0 46:0 47:0 48:0 49:0 50:0 51:0 52:0 53:0 54:0 55:0 56:0 57:0 58:0 59:0 60:0 61:0 62:0 63:0 64:0 65:1 66:0.60704383 67:0.62672172 68:0.65637742 69:0.5 70:0.55777347 71:0.52334564 72:0.5 73:0.5 74:0.61724539 75:0.68764651 76:0.70838597 77:0.56925174 78:0.5 79:1 80:0.5 81:0.59736886 82:0.5 83:0.58115262 84:0.61113797 85:1 86:0.71105503 87:0.69599497 88:0.68468357 89:0.70858486 
100 1:1 2:0 3:0 4:0 5:1 6:0 7:0 8:0 9:0 10:0 11:0 12:0 13:-1 14:-1 15:-1 16:-1 17:-1 18:1 19:0 20:-1 21:0.00011111111 22:1 23:0 24:0 25:0 26:0 27:0 28:0 29:0 30:0 31:0 32:0 33:0 34:0 35:0 36:0 37:0 38:0 39:0 40:0 41:0 42:0 43:0 44:0 45:0 46:0 47:0 48:0 49:0 50:0 51:0 52:0 53:0 54:0 55:0 56:0 57:0 58:0 59:0 60:0 61:0 62:0 63:0 64:0 65:1 66:1 67:1 68:1 69:1 70:1 71:1 72:1 73:1 74:1 75:1 76:1 77:1 78:1 79:1 80:1 81:1 82:1 83:1 84:1 85:1 86:1 87:1 88:1 89:1 
100 1:0 2:1 3:0 4:1 5:0 6:0 7:0 8:0 9:0 10:0 11:0 12:0 13:-1 14:-1 15:-1 16:-1 17:-1 18:1 19:0 20:-1 21:0.00011111111 22:1 23:0 24:0 25:0 26:0 27:0 28:0 29:0 30:0 31:0 32:0 33:0 34:0 35:0 36:0 37:0 38:0 39:0 40:0 41:0 42:0 43:0 44:0 45:0 46:0 47:0 48:0 49:0 50:0 51:0 52:0 53:0 54:0 55:0 56:0 57:0 58:0 59:0 60:0 61:0 62:0 63:0 64:0 65:1 66:0.67556192 67:0.56804372 68:0.55515622 69:0.60749052 70:0.62488497 71:0.57913788 72:0.54225473 73:0.55657714 74:0.66350504 75:0.6377354 76:0.71322157 77:0.53387358 78:0.56286947 79:1 80:0.58970226 81:0.7874287 82:0.7103189 83:0.6377354 84:0.60834892 85:1 86:0.70169338 87:0.55704367 88:0.50832486 89:0.5893858 
100 1:1 2:0 3:0 4:0 5:1 6:0 7:0 8:0 9:0 10:0 11:0 12:0 13:-1 14:-1 15:-1 16:-1 17:1 18:1 19:0 20:0 21:0.00011111111 22:1 23:0 24:0 25:0 26:0 27:0 28:0 29:0 30:0 31:0 32:0 33:0 34:0 35:0 36:0 37:0 38:0 39:0 40:0 41:0 42:0 43:0 44:0 45:0 46:0 47:0 48:0 49:0 50:0 51:0 52:0 53:0 54:0 55:0 56:0 57:0 58:0 59:0 60:0 61:0 62:0 63:0 64:0 65:1 66:1 67:1 68:1 69:1 70:1 71:1 72:1 73:1 74:1 75:1 76:1 77:1 78:1 79:1 80:1 81:1 82:1 83:1 84:1 85:1 86:1 87:1 88:1 89:1 
100 1:0 2:1 3:0 4:1 5:0 6:0 7:0 8:0 9:0 10:0 11:0 12:0 13:-1 14:-1 15:-1 16:-1 17:1 18:1 19:0 20:0 21:0.00011111111 22:1 23:0 24:0 25:0 26:0 27:0 28:0 29:0 30:0 31:0 32:0 33:0 34:0 35:0 36:0 37:0 38:0 39:0 40:0 41:0 42:0 43:0 44:0 45:0 46:0 47:0 48:0 49:0 50:0 51:0 52:0 53:0 54:0 55:0 56:0 57:0 58:0 59:0 60:0 61:0 62:0 63:0 64:0 65:1 66:1 67:1 68:1 69:0.58029681 70:1 71:0.50713584 72:1 73:1 74:1 75:1 76:1 77:1 78:1 79:1 80:0.58719245 81:1 82:1 83:1 84:1 85:1 86:1 87:1 88:1 89:1 
100 1:0 2:1 3:0 4:1 5:0 6:0 7:0 8:0 9:0 10:0 11:0 12:0 13:-1 14:-1 15:-1 16:-1 17:-1 18:1 19:0 20:0 21:0.00011113581 22:0 23:1 24:0 25:0 26:0 27:0 28:0 29:0 30:0 31:0 32:0 33:0 34:0 35:0 36:0 37:0 38:0 39:0 40:0 41:0 42:0 43:0 44:0 45:0 46:0 47:0 48:0 49:0 50:0 51:0 52:0 53:0 54:0 55:0 56:0 57:0 58:0 59:0 60:0 61:0 62:0 63:0 64:0 65:1 66:1 67:0.56027865 68:1 69:0.59994289 70:0.61980464 71:0.63469664 72:0.61185345 73:0.56027865 74:0.62388926 75:0.57366212 76:0.64851983 77:0.68384031 78:0.60826839 79:0.66630603 80:0.59994289 81:0.70075241 82:1 83:0.57366212 84:0.5 85:1 86:0.65714504 87:0.64742908 88:0.68725487 89:0.74839751 
100 1:1 2:0 3:0 4:0 5:0 6:1 7:0 8:0 9:0 10:0 11:0 12:0 13:-1 14:-1 15:-1 16:-1 17:-1 18:1 19:0 20:0 21:0.00010005003 22:0 23:1 24:0 25:0 26:0 27:1 28:0 29:0 30:0 31:0 32:0 33:0 34:0 35:0 36:0 37:0 38:0 39:0 40:0 41:0 42:0 43:0 44:0 45:0 46:0 47:0 48:0 49:0 50:0 51:0 52:0 53:0 54:0 55:0 56:0 57:0 58:0 59:0 60:0 61:0 62:0 63:0 64:0 65:0.10004297 66:0.56605013 67:0.5 68:0.53574303 69:0.56543439 70:0.65733875 71:0.6727381 72:0.52346654 73:0.5777905 74:0.69132379 75:0.65479569 76:0.73367711 77:0.66471719 78:0.57572185 79:0.64493125 80:0.55667697 81:0.6847621 82:1 83:0.65479569 84:0.64788284 85:1 86:0.72376327 87:0.71440915 88:0.69406067 89:0.75282115 
65.20826838395962 1:0 2:0 3:1 4:0 5:0 6:1 7:0 8:0 9:0 10:0 11:0 12:0 13:-1 14:-1 15:-1 16:-1 17:0 18:1 19:-1 20:0 21:0.00011106175 22:1 23:0 24:0 25:0 26:0 27:0 28:0 29:0 30:0 31:0 32:0 33:0 34:0 35:0 36:0 37:0 38:0 39:0 40:0 41:0 42:0 43:0 44:0 45:0 46:0 47:0 48:0 49:0 50:0 51:0 52:0 53:0 54:0 55:0 56:0 57:0 58:0 59:0 60:0 61:0 62:1 63:0 64:0 65:0.269213 66:1 67:1 68:0.60889656 69:0.70838597 70:0.50420289 71:0.73636117 72:0.55143031 73:0.63881403 74:0.70523188 75:0.59992851 76:0 77:0.6782133 78:0.72809075 79:1 80:0.55143031 81:1 82:0.70838597 83:0.59992851 84:0.59992851 85:1 86:0.73495469 87:0.72635496 88:0.70772868 89:0.76182027 
100 1:0 2:0 3:1 4:0 5:0 6:1 7:0 8:0 9:0 10:0 11:0 12:0 13:-1 14:-1 15:-1 16:-1 17:0 18:1 19:0 20:0 21:0.00011111111 22:1 23:0 24:0 25:0 26:0 27:0 28:0 29:0 30:0 31:0 32:0 33:0 34:0 35:0 36:0 37:0 38:0 39:0 40:0 41:0 42:0 43:0 44:0 45:0 46:0 47:0 48:0 49:0 50:0 51:0 52:0 53:0 54:0 55:0 56:0 57:0 58:0 59:0 60:0 61:0 62:1 63:0 64:0 65:0.16318861 66:0.56605013 67:0 68:0.50612291 69:0 70:0.55777347 71:0.52334564 72:0.5 73:0.5 74:0.61724539 75:0.6777376 76:0.70838597 77:0.56925174 78:0.5 79:1 80:0.5 81:0.59736886 82:0.5 83:0.58115262 84:0.5 85:1 86:0.71105503 87:0.57986763 88:0.68468357 89:0.70858486 
100 1:0 2:0 3:1 4:0 5:0 6:1 7:0 8:0 9:0 10:0 11:0 12:0 13:-1 14:-1 15:-1 16:-1 17:0 18:1 19:0 20:0 21:0.00011111111 22:1 23:0 24:0 25:0 26:0 27:0 28:0 29:0 30:0 31:0 32:0 33:0 34:0 35:0 36:0 37:0 38:0 39:0 40:0 41:0 42:0 43:0 44:0 45:0 46:0 47:0 48:0 49:0 50:0 51:0 52:0 53:0 54:0 55:0 56:0 57:0 58:0 59:0 60:0 61:0 62:1 63:0 64:0 65:0.16318861 66:0.51038642 67:0.57637855 68:0.57110031 69:0.5 70:0.5 71:0.59395173 72:0.57297177 73:0.5 74:0.5050425 75:0.55158194 76:0.72809075 77:0.59178069 78:0 79:0.5 80:0.58760282 81:0.59628465 82:0.60614792 83:0.55158194 84:0.55158194 85:0.62249648 86:0.71774857 87:0.5726707 88:0.59804257 89:0.61966649 
100 1:0 2:1 3:0 4:1 5:0 6:0 7:0 8:0 9:0 10:0 11:0 12:0 13:-1 14:-1 15:-1 16:-1 17:-1 18:1 19:0 20:0 21:0.00011113581 22:0 23:1 24:0 25:0 26:0 27:0 28:0 29:0 30:0 31:0 32:0 33:0 34:0 35:0 36:0 37:0 38:0 39:0 40:0 41:0 42:0 43:0 44:0 45:0 46:0 47:0 48:0 49:0 50:0 51:0 52:0 53:0 54:0 55:0 56:0 57:0 58:0 59:0 60:0 61:0 62:0 63:0 64:0 65:1 66:1 67:0.56027865 68:1 69:0.59994289 70:0.61980464 71:0.63469664 72:0.61185345 73:0.56027865 74:0.62388926 75:0.57366212 76:0.64851983 77:0.68384031 78:0.60826839 79:0.66630603 80:0.59994289 81:0.70075241 82:1 83:0.57366212 84:0.5 85:1 86:0.65714504 87:0.64742908 88:0.68725487 89:0.74839751 
100 1:0 2:1 3:0 4:1 5:0 6:0 7:0 8:0 9:0 10:0 11:0 12:0 13:-1 14:-1 15:-1 16:-1 17:-1 18:1 19:0 20:-1 21:0.00011111111 22:0 23:1 24:0 25:0 26:0 27:0 28:0 29:0 30:0 31:0 32:0 33:0 34:0 35:0 36:0 37:0 38:0 39:0 40:0 41:0 42:0 43:0 44:0 45:0 46:0 47:0 48:0 49:1 50:0 51:0 52:0 53:0 54:0 55:0 56:0 57:0 58:0 59:0 60:0 61:0 62:1 63:0 64:0 65:0.2509061 66:0.67314117 67:0.6777376 68:0.74407036 69:0.68764651 70:0.64460208 71:0.63839973 72:0.64465256 73:0.54069923 74:0.5044434 75:0.5 76:0.59992851 77:0.60822232 78:0.55158194 79:0.63032069 80:0.52521678 81:0.59025458 82:0.66463374 83:0.5 84:0.5 85:0.68030414 86:0.63663093 87:0.53506607 88:0.59459895 89:0.71197416 
100 1:0 2:0 3:1 4:0 5:0 6:1 7:0 8:0 9:0 10:0 11:0 12:0 13:-1 14:-1 15:-1 16:-1 17:0 18:1 19:0 20:0 21:0.00011111111 22:1 23:0 24:0 25:0 26:0 27:0 28:0 29:0 30:0 31:0 32:0 33:0 34:0 35:0 36:0 37:0 38:0 39:0 40:0 41:0 42:0 43:0 44:0 45:0 46:0 47:0 48:0 49:0 50:0 51:0 52:0 53:0 54:0 55:0 56:0 57:0 58:0 59:0 60:0 61:0 62:1 63:0 64:0 65:0.1377717 66:0.56605013 67:0 68:0.50612291 69:0 70:0.55777347 71:0.52334564 72:0.5 73:0.5 74:0.61724539 75:0.6777376 76:0.70838597 77:0.56925174 78:0.5 79:1 80:0.5 81:0.59736886 82:0.5 83:0.58115262 84:0.5 85:1 86:0.71105503 87:0.57986763 88:0.68468357 89:0.70858486 
100 1:0 2:0 3:1 4:0 5:0 6:1 7:0 8:0 9:0 10:0 11:0 12:0 13:-1 14:-1 15:-1 16:-1 17:0 18:1 19:0 20:0 21:0.00011111111 22:1 23:0 24:0 25:0 26:0 27:0 28:0 29:0 30:0 31:0 32:0 33:0 34:0 35:0 36:0 37:0 38:0 39:0 40:0 41:0 42:0 43:0 44:0 45:0 46:0 47:0 48:0 49:0 50:0 51:0 52:0 53:0 54:0 55:0 56:0 57:0 58:0 59:0 60:0 61:0 62:1 63:0 64:0 65:0.1377717 66:0.56605013 67:0 68:0.50612291 69:0 70:0.55777347 71:0.52334564 72:0.5 73:0.5 74:0.61724539 75:0.6777376 76:0.70838597 77:0.56925174 78:0.5 79:1 80:0.5 81:0.59736886 82:0.5 83:0.58115262 84:0.5 85:1 86:0.71105503 87:0.57986763 88:0.68468357 89:0.70858486 
17.26566816602379 1:0 2:0 3:1 4:0 5:0 6:1 7:0 8:0 9:0 10:0 11:0 12:0 13:-1 14:-1 15:-1 16:-1 17:0 18:1 19:0 20:0 21:0.00011111111 22:1 23:0 24:0 25:0 26:0 27:0 28:0 29:0 30:0 31:0 32:0 33:0 34:0 35:0 36:0 37:0 38:0 39:0 40:0 41:0 42:0 43:0 44:0 45:0 46:0 47:0 48:0 49:0 50:0 51:0 52:0 53:0 54:0 55:0 56:0 57:0 58:0 59:0 60:0 61:0 62:1 63:0 64:0 65:0.1377717 66:1 67:0.50491058 68:1 69:1 70:0.63388244 71:0.65140831 72:1 73:1 74:1 75:0.5123428 76:1 77:0.64074893 78:0.55111436 79:0.61793677 80:1 81:0.58038581 82:1 83:0.5123428 84:0.65270909 85:1 86:1 87:1 88:1 89:1 
100 1:0 2:0 3:1 4:0 5:0 6:1 7:0 8:0 9:0 10:0 11:0 12:0 13:-1 14:-1 15:-1 16:-1 17:0 18:1 19:0 20:0 21:0.00011111111 22:1 23:0 24:0 25:0 26:0 27:0 28:0 29:0 30:0 31:0 32:0 33:0 34:0 35:0 36:0 37:0 38:0 39:0 40:0 41:0 42:0 43:0 44:0 45:0 46:0 47:0 48:0 49:0 50:0 51:0 52:0 53:0 54:0 55:0 56:0 57:0 58:0 59:0 60:0 61:0 62:1 63:0 64:0 65:0.20634081 66:0.70435108 67:1 68:0.76657414 69:0.59736886 70:0.67628317 71:0.69006109 72:0.52404624 73:0.62427459 74:1 75:0.59025458 76:1 77:0.68397625 78:0.59628465 79:0.66645747 80:0.52118108 81:0 82:0.60178421 83:0.59025458 84:0.69108982 85:0.70872819 86:0.76735766 87:0.68567938 88:0.73718668 89:1 
